tree
version=v4
num_class=1
num_tree_per_iteration=1
label_index=0
max_feature_idx=52
objective=binary sigmoid:1
feature_names=evaporation precipitation pressure soil_moisture temperature wind_speed humidity month is_monsoon avg_elevation_m is_missing_precipitation precipitation_lag1 precipitation_lag2 precipitation_lag3 precipitation_lag5 precipitation_lag7 soil_moisture_lag1 soil_moisture_lag2 soil_moisture_lag3 water_area_km2_lag1 water_area_km2_lag2 water_area_km2_lag3 water_area_km2_lag5 water_area_km2_lag7 water_area_km2_lag14 humidity_lag1 humidity_lag2 pressure_lag1 precipitation_3day_sum precipitation_7day_sum precipitation_14day_sum precipitation_30day_sum soil_moisture_7day_avg temperature_7day_avg precip_change_1day soil_moisture_change_3day pressure_drop_1day precipitation_zscore soil_moisture_zscore temperature_zscore pressure_zscore water_area_km2_lag1_zscore water_area_km2_lag2_zscore water_area_km2_lag3_zscore water_area_km2_lag5_zscore water_area_km2_lag7_zscore water_area_km2_lag14_zscore days_since_heavy_rain days_since_dry_day days_in_monsoon precip_x_soil_moisture precip_7day_x_monsoon pressure_low_x_humidity_high
feature_infos=[-0.0032798359999999999:-7.1000000000000005e-05] [0:387.39999999999998] [84200:101050.69590000001] [0.079473167999999997:0.423587506] [12.043576079999999:58.299999999999997] [0.093459249999999994:6.7545570220000002] [11.61961123:89.938872959999998] [1:12] [0:1] [109:610] [0:1] [0:387.39999999999998] [0:387.39999999999998] [0:387.39999999999998] [0:5.3513113739999998] [0:5.3513113739999998] [0.079702202999999999:0.42548794699999998] [0.079456637999999996:0.42548794699999998] [0.079456637999999996:0.42548794699999998] [0:1763.041487] [0:1763.041487] [0:1968.2472829999999] [0:2284.285464] [0:2944.5316029999999] [0:2944.5316029999999] [11.61961123:90.310797190000002] [11.61961123:90.310797190000002] [84200:101050.69590000001] [0:387.40102823299998] [0:387.403304354] [0:387.51230195900001] [7.539999999999999e-05:387.51705365200002] [0.079939569142857103:0.41599203614285718] [12.600989795714286:37.904670475714283] [-2.9668073929999998:387.39987480500002] [-0.097754610999999894:0.306236383] [-15652.458700000005:16218.517200000002] [-0.1457467077890354:19.641041433593116] [-0.61189326300891633:7.5187927522708593] [-2.3222240920600803:4.8424499654422197] [-15.075479626716293:1.9440747673938656] [-1.3589549357025477:2.8113761098193075] [-1.3632276668904777:2.8110124093653184] [-1.3664701158685786:2.6683115454919992] [-1.3711808418272371:3.1778449966831355] [-1.3738303965819765:4.4724819898716444] [-1.3624396339736971:4.4603530421595794] [0:45] [0:4] [0:121] [0:33.791129644999998] [0:16.844043891999998] [0:6859.2760394200004]
tree_sizes=954 975 974 1077 977 870 878 875 881 873 1074 979 1080 978 1076 975 1200 976 1078 1084 979 981 980 981 981 1079 983 987 977 875 985 981 973 980 985 877 871 979 980 1081 985 872 878 873 874 1190 877 1295 776 1081 1085 974 1080 1078

Tree=0
num_leaves=8
num_cat=0
split_feature=24 41 41 14 41 16 24
split_gain=1273.75 284.993 78.9145 40.2257 27.1308 16.4507 9.95435
threshold=584.29926295000007 -0.71734353929994332 0.31797532538477363 0.10347738100000002 0.45149197711875355 0.38355881750000004 795.73534120000011
decision_type=8 10 10 8 8 8 10
left_child=5 3 6 -2 -4 -1 -3
right_child=1 2 4 -5 -6 -7 -8
leaf_value=-1.9085522931480945 -1.90813968936884 -1.8381823816031466 -1.8404887088582746 -1.8633326356277045 -1.8743497108592737 -1.8829369741206097 -1.8227399441633085
leaf_weight=42.533081956207752 5.7844991460442516 12.098298996686934 4.6880908608436567 2.7599244490265855 5.671077623963356 2.4574669674038878 38.601135320961475
leaf_count=375 51 33 13 13 33 16 57
internal_value=-1.86564 -1.83891 -1.83136 -1.89314 -1.85807 -1.90708 -1.82612
internal_weight=114.594 69.603 61.0586 8.54442 10.3592 44.9905 50.6994
internal_count=591 200 136 64 46 391 90
is_linear=0
shrinkage=1


Tree=1
num_leaves=8
num_cat=0
split_feature=46 19 19 19 23 11 46
split_gain=1119.2 259.38 128.073 111.285 40.0723 16.3236 11.6321
threshold=-0.17323305642389655 305.02712690000004 732.70478540000011 762.86461080000015 804.05744865000008 0.56351122600000014 0.31619483978901691
decision_type=8 10 10 8 8 10 10
left_child=5 4 6 -4 -2 -1 -3
right_child=1 2 3 -5 -6 -7 -8
leaf_value=-0.011413432071253686 -0.011040505827311291 0.054783275067423143 0.058153887409041122 -0.010912022182328864 0.033060700311259412 0.014094317869666398 0.06974422875542767
leaf_weight=40.842171594500542 6.110789351165292 12.85461490601301 4.5767382308840725 4.3906588926911363 2.8066994845867166 2.4661180377006522 43.219189256429672
leaf_count=363 54 35 11 38 13 16 61
internal_value=0.0304549 0.0540345 0.0609448 0.0249361 0.00334246 -0.00988804 0.0665687
internal_weight=117.267 73.9587 65.0412 8.9674 8.91749 43.3083 56.0738
internal_count=591 212 145 49 67 379 96
is_linear=0
shrinkage=0.01


Tree=2
num_leaves=8
num_cat=0
split_feature=24 19 19 46 22 34 24
split_gain=1095.71 240.043 51.3302 76.3949 38.5742 16.3318 1.70934
threshold=584.29926295000007 305.02712690000004 679.05893530000014 0.85017194123765483 568.52310660000012 -0.053763131499999943 829.95558815000015
decision_type=8 10 10 10 8 8 10
left_child=5 4 6 -4 -2 -1 -3
right_child=1 2 3 -5 -6 -7 -8
leaf_value=0.014093083493570238 -0.011016098246391522 0.055773946820605984 0.011570529435862894 0.05867649707182615 0.032141321177775149 -0.011401680078685953 0.066522095898115613
leaf_weight=2.4661958962678909 5.956848539412019 13.631652556359766 5.6278398111462584 9.2716373205184919 2.8678662553429612 41.900979980826378 38.1277846544981
leaf_count=16 53 31 36 19 13 375 48
internal_value=0.0294973 0.05262 0.0590866 0.0413632 0.00348821 -0.00991318 0.0639685
internal_weight=119.851 75.4836 66.6589 14.8995 8.82471 44.3672 51.7594
internal_count=591 200 134 55 66 391 79
is_linear=0
shrinkage=0.01


Tree=3
num_leaves=9
num_cat=0
split_feature=46 21 42 42 30 21 30 42
split_gain=970.023 73.4016 70.1156 83.708 40.8227 32.6466 16.2492 3.09553
threshold=-0.17323305642389655 153.13955140000004 0.39664310989651791 -1.2489770236517612 2.0219519695000003 379.09859590000002 6.9975779320000004 -1.3039019588939482
decision_type=8 8 8 8 10 8 10 10
left_child=6 7 3 -3 -5 -4 -1 -2
right_child=1 2 5 4 -6 -7 -8 -9
leaf_value=-0.011381418214490169 0.060502592954378535 0.052334600381045537 0.063385628174784506 -0.011109847572091481 0.032759427870378888 0.035382183116875958 0.014069115302051492 0.049803227893804619
leaf_weight=40.201477587223053 32.053071416914463 4.9947933927178383 9.5440912842750567 6.6502819582819921 2.8204470500349998 9.7268088459968549 2.4684767797589293 13.874659590423105
leaf_count=363 47 10 11 58 12 39 16 35
internal_value=0.0286077 0.0491668 0.0374159 0.0202582 0.00244156 0.0498757 -0.00983537 0.057553
internal_weight=122.334 79.6642 33.7364 14.4655 9.47073 19.2709 42.67 45.9277
internal_count=591 212 130 80 70 50 379 82
is_linear=0
shrinkage=0.01


Tree=4
num_leaves=8
num_cat=0
split_feature=24 23 35 24 14 42 42
split_gain=956.419 93.5534 59.573 16.8601 16.2272 12.4782 8.85389
threshold=584.29926295000007 451.60744475000007 -0.0045074914999999492 829.95558815000015 0.52469733000000007 -1.3039019588939482 -1.0432873727320999
decision_type=8 8 10 10 10 8 8
left_child=4 3 -3 5 -1 -2 -4
right_child=1 2 6 -5 -6 -7 -8
leaf_value=-0.011371605426160961 0.051723549519024123 0.041897920062638358 0.012828884327641229 0.056238060377267196 0.014022628097994736 0.032582302342705198 -0.010761998043949107
leaf_weight=41.272064186632633 9.231480233371256 7.2598657533526421 2.5927344411611557 49.673523716628551 2.4729627370834342 8.8411999344825762 3.3770638182759267
leaf_count=375 18 23 16 78 16 36 29
internal_value=0.02778 0.0480858 0.0231435 0.0528546 -0.00986417 0.042924 -0.000401056
internal_weight=124.721 80.9759 13.2297 67.7462 43.745 18.0727 5.9698
internal_count=591 200 68 132 391 54 45
is_linear=0
shrinkage=0.01


Tree=5
num_leaves=7
num_cat=0
split_feature=24 41 19 41 28 41
split_gain=882.189 208.955 46.7598 65.8257 16.0161 5.50323
threshold=584.29926295000007 -1.1728876916099706 691.41288720000011 0.45149197711875355 2.3481774355000007 -0.5539829254478611
decision_type=8 10 10 8 8 10
left_child=4 -2 5 -4 -1 -3
right_child=1 2 3 -5 -6 -7
leaf_value=-0.011353324888215111 -0.011023369052800235 0.044434002748682228 0.050644563594442138 0.0088043421096864975 0.013785478431977048 0.05652498861318369
leaf_weight=40.68287169188261 5.8748097941279402 10.441657185554503 9.3870125338435155 6.3760132417082778 2.4965001717209807 49.384311109781265
leaf_count=373 52 25 18 39 16 62
internal_value=0.02668 0.0460036 0.0504581 0.0341187 -0.00982851 0.0546055
internal_weight=124.643 81.4638 75.589 15.763 43.1794 59.826
internal_count=585 196 144 57 389 87
is_linear=0
shrinkage=0.01


Tree=6
num_leaves=7
num_cat=0
split_feature=24 41 41 41 28 41
split_gain=829.676 193.733 41.4534 60.2505 15.8021 4.16437
threshold=584.29926295000007 -1.1728876916099706 0.29467155524772753 0.45149197711875355 2.3481774355000007 -0.5539829254478611
decision_type=8 10 10 8 8 10
left_child=4 -2 5 -4 -1 -3
right_child=1 2 3 -5 -6 -7
leaf_value=-0.011336752327714474 -0.011003911066465605 0.042743592754805708 0.049455243172696867 0.0086676647047478159 0.013534202385755879 0.053652110212357454
leaf_weight=40.337012097239494 5.8270177543163291 10.754100449383257 8.4747353047132474 6.4154431521892539 2.5218310281634322 52.475998118519783
leaf_count=373 52 25 15 39 16 65
internal_value=0.0259609 0.0441964 0.0483364 0.0323113 -0.00980292 0.0519699
internal_weight=126.806 83.9473 78.1203 14.8902 42.8588 63.2301
internal_count=585 196 144 54 389 90
is_linear=0
shrinkage=0.01


Tree=7
num_leaves=7
num_cat=0
split_feature=46 41 41 19 6 41
split_gain=756.527 180.157 60.0085 108.133 16.4693 4.74531
threshold=-0.17323305642389655 -1.1728876916099706 0.38094775952388982 762.86461080000015 85.025792095000014 -0.57278959646044336
decision_type=8 10 8 8 2 10
left_child=4 -2 5 -4 -1 -3
right_child=1 2 3 -5 -6 -7
leaf_value=-0.011318803494564647 -0.010993537252024309 0.039236508682467315 0.048165562366668954 -0.011131077856550329 0.014576538899751886 0.050906752833591071
leaf_weight=39.237335026264191 5.8914481848478308 8.896154433488844 7.5524583160877201 4.9474475979805002 2.4108428061008444 59.950301393866539
leaf_count=366 53 22 14 40 15 75
internal_value=0.0252851 0.0419886 0.0458483 0.024926 -0.0097415 0.0495441
internal_weight=128.886 87.2378 81.3464 12.4999 41.6482 68.8465
internal_count=585 204 151 54 381 97
is_linear=0
shrinkage=0.01


Tree=8
num_leaves=7
num_cat=0
split_feature=46 41 41 41 34 41
split_gain=715.12 168.308 54.4855 93.6919 16.5913 4.11549
threshold=-0.17323305642389655 -1.1728876916099706 0.38094775952388982 0.50790831737309305 -0.060633512999999993 -0.57278959646044336
decision_type=8 10 8 10 8 10
left_child=4 -2 5 -4 -1 -3
right_child=1 2 3 -5 -6 -7
leaf_value=0.014777882171541147 -0.010974464915320252 0.037907157681595333 0.044485550636661514 -0.011075298836207984 -0.011305156476845211 0.048826433847667314
leaf_weight=2.3917554914951324 5.8433359339833251 9.123446121811865 8.0473183467984182 4.6547375544905654 38.947416469454765 61.879890769720078
leaf_count=15 53 22 16 38 366 75
internal_value=0.0246476 0.0404954 0.044111 0.0242938 -0.00971604 0.0475594
internal_weight=130.888 89.5487 83.7054 12.7021 41.3392 71.0033
internal_count=585 204 151 54 381 97
is_linear=0
shrinkage=0.01


Tree=9
num_leaves=7
num_cat=0
split_feature=24 41 19 41 29 41
split_gain=700.869 157.718 31.2151 47.9581 16.2456 3.07493
threshold=584.29926295000007 -1.1728876916099706 691.41288720000011 0.45149197711875355 5.323240901000001 -0.5539829254478611
decision_type=8 10 10 8 8 10
left_child=4 -2 5 -4 -1 -3
right_child=1 2 3 -5 -6 -7
leaf_value=-0.011293157665614752 -0.010946549983636152 0.038377593399292691 0.042960624770634732 0.0082866261184724559 0.014308617466208779 0.04759266565203437
leaf_weight=39.503781817853451 5.6854555979371062 11.642615750432013 10.653181299567221 6.5226601064205196 2.4360492303967467 56.367468625307083
leaf_count=374 52 25 18 39 15 62
internal_value=0.0240462 0.03962 0.0430176 0.0300988 -0.00972979 0.0461595
internal_weight=132.811 90.8714 85.1859 17.1758 41.9398 68.0101
internal_count=585 196 144 57 389 87
is_linear=0
shrinkage=0.01


Tree=10
num_leaves=9
num_cat=0
split_feature=24 19 20 19 19 19 18 24
split_gain=665.998 120.379 36.315 27.4257 31.38 56.6546 16.4636 1.58643
threshold=584.29926295000007 305.02712690000004 238.29970840000001 701.35862980000013 732.70478540000011 799.83096700000021 0.39525049050000005 795.73534120000011
decision_type=8 10 8 10 10 8 10 10
left_child=6 2 -2 7 -5 -6 -1 -3
right_child=1 3 -4 4 5 -7 -8 -9
leaf_value=-0.011286165089219905 -0.011040118609123186 0.039518972458281641 0.030375432212149573 0.04544159042882643 0.037865527438161919 -0.011077752568239278 0.014613702967399762 0.046567910612935116
leaf_weight=39.729211799800396 5.9469846040010426 17.75781275331974 2.9755260869860658 6.7104106098413459 5.1362871527671787 4.0591203868389139 2.4066035300493231 49.33259242773056
leaf_count=378 53 32 11 8 12 32 15 48
internal_value=0.0231532 0.0382133 0.00320382 0.0419556 0.0292323 0.0165242 -0.00972913 0.0448537
internal_weight=134.055 91.9187 8.92251 82.9962 15.9058 9.19541 42.1358 67.0904
internal_count=589 196 64 132 52 44 393 80
is_linear=0
shrinkage=0.01


Tree=11
num_leaves=8
num_cat=0
split_feature=46 19 46 19 19 13 46
split_gain=595.843 89.6046 48.9397 39.9138 64.2998 16.3398 2.31548
threshold=-0.17323305642389655 307.83178985000001 -0.10316954173081037 710.2789568500001 751.08254970000007 0.68912993050000015 0.50947672429323998
decision_type=8 10 10 10 10 10 10
left_child=5 2 -2 6 -5 -1 -3
right_child=1 3 -4 4 -6 -7 -8
leaf_value=-0.011259508171439061 0.032425624689490361 0.037746004269508263 -0.011021606087225633 0.040033474169927516 -0.00089312713415471367 0.014559946530955603 0.044687306555819623
leaf_weight=37.78774181753397 4.3144219666719437 19.681079283356667 5.804717615246771 9.9695698246359843 6.1272048428654662 2.4113303124904624 49.687164396047592
leaf_count=364 14 36 52 18 42 15 48
internal_value=0.02263 0.0361882 0.00782239 0.0395139 0.0246693 -0.00963 0.0428586
internal_weight=135.783 95.5842 10.1191 85.465 16.0968 40.1991 69.3682
internal_count=589 210 66 144 60 379 84
is_linear=0
shrinkage=0.01


Tree=12
num_leaves=9
num_cat=0
split_feature=24 23 42 22 18 44 24 15
split_gain=604.319 38.2849 38.835 50.3822 16.1264 10.7249 9.85929 8.69627
threshold=584.29926295000007 451.60744475000007 -1.2994210900706435 1935.2829555000003 0.39525049050000005 -0.66667531915177547 1205.2564705000002 0.0059684010000000008
decision_type=8 8 10 8 10 10 10 8
left_child=4 5 -3 -4 -1 -2 7 -7
right_child=1 2 3 -5 -6 6 -8 -9
leaf_value=-0.011258486476172388 0.041379921309750829 0.040437318164991194 -0.011135271869742136 0.033809765028202342 0.014225083987049398 0.016602201040073001 0.040234756067808533 0.033603385289737574
leaf_weight=39.108800485730171 56.417585276067257 6.1002995371818534 5.5866519659757587 4.1368027925491342 2.4431887045502654 6.7722964733839044 9.8565701618790609 7.0342279002070436
leaf_count=378 73 10 48 9 15 29 12 15
internal_value=0.0221309 0.0359054 0.021145 0.00833812 -0.00968364 0.0387477 0.0321096 0.025704
internal_weight=137.456 95.9044 15.8238 9.72345 41.552 80.0807 23.6631 13.8065
internal_count=589 196 67 57 393 129 56 44
is_linear=0
shrinkage=0.01


Tree=13
num_leaves=8
num_cat=0
split_feature=24 41 21 41 42 6 24
split_gain=576.392 94.0034 34.9197 16.0465 16.0426 15.9099 1.16839
threshold=584.29926295000007 -0.71734353929994332 380.18301600000007 0.31797532538477363 0.87446537832985094 85.025792095000014 795.73534120000011
decision_type=8 10 8 10 10 2 10
left_child=5 2 -2 6 -5 -1 -3
right_child=1 3 -4 4 -6 -7 -8
leaf_value=-0.011243109726077132 -0.011034350551378936 0.035387420206224283 0.029634158315632403 0.01790390646625251 0.037809376888000561 0.013968458013469371 0.041568371526768413
leaf_weight=38.773249618709087 5.7209841832518551 17.808328941464424 3.0267626047134408 8.6603671014308947 9.0770133063197118 2.4680122882127753 53.540454134345055
leaf_count=378 51 31 11 35 17 15 51
internal_value=0.0216555 0.0348479 0.0034508 0.0379121 0.0284706 -0.00965891 0.0401529
internal_weight=139.075 97.8339 8.74775 89.0862 17.7374 41.2413 71.3488
internal_count=589 196 62 134 52 393 82
is_linear=0
shrinkage=0.01


Tree=14
num_leaves=9
num_cat=0
split_feature=24 19 20 19 19 19 14 24
split_gain=550.569 94.8884 32.4994 20.8113 26.6277 50.3672 16.8426 0.966941
threshold=584.29926295000007 305.02712690000004 238.29970840000001 701.35862980000013 732.70478540000011 799.83096700000021 0.57992423900000012 795.73534120000011
decision_type=8 10 8 10 10 8 10 10
left_child=6 2 -2 7 -5 -6 -1 -3
right_child=1 3 -4 4 5 -7 -8 -9
leaf_value=-0.011231593696797467 -0.011015394276353514 0.034951228490073864 0.027408594039854118 0.040422108924314415 0.0338614481665881 -0.011164398187546252 0.015338817196350345 0.040725765816069556
leaf_weight=38.601520925760269 5.8614000082015965 19.32944817841053 3.2003401443362245 7.3139912784099606 5.5646866858005497 4.1716292351484308 2.3310341089963904 54.248462662100792
leaf_count=379 53 32 11 8 12 32 14 48
internal_value=0.0212034 0.0338588 0.00290923 0.0369363 0.0261889 0.0147602 -0.00963433 0.0393307
internal_weight=140.623 99.69 9.06174 90.6282 17.0503 9.73632 40.9326 73.5779
internal_count=589 196 64 132 52 44 393 80
is_linear=0
shrinkage=0.01


Tree=15
num_leaves=8
num_cat=0
split_feature=24 23 35 27 30 21 20
split_gain=537.998 24.7297 35.5535 24.6445 16.8678 7.44401 11.5583
threshold=584.29926295000007 409.71098905000002 -0.0049454254999999987 100224.13240000002 19.662743183000003 346.01508570000004 957.45803285000011
decision_type=8 10 8 10 10 8 8
left_child=4 5 -3 -4 -1 -2 -7
right_child=1 2 3 -5 -6 6 -8
leaf_value=-0.0112146797826022 0.03749565617381688 0.034534279455668768 -0.010932001823381592 0.024391886540113386 0.015464967787081133 0.019213605207380968 0.036645669912964161
leaf_weight=37.072085067629814 70.880659781396389 9.6751665621995908 4.0682795122265842 3.4160963967442513 2.3189633116126052 8.2177109718322772 9.2725312262773496
leaf_count=367 86 19 36 10 14 28 17
internal_value=0.0219358 0.0336865 0.0221046 0.00544148 -0.00955622 0.0358673 0.0288378
internal_weight=144.921 105.53 17.1595 7.48438 39.391 88.3709 17.4902
internal_count=577 196 65 46 381 131 45
is_linear=0
shrinkage=0.01


Tree=16
num_leaves=10
num_cat=0
split_feature=45 32 21 17 42 42 15 15 19
split_gain=400.227 68.2366 46.7139 38.6207 27.9992 25.9588 14.4893 8.37101 0.0183769
threshold=-0.38097607522734528 0.096470654214285662 373.57710545000003 0.087930513500000015 -1.1967348890133553 -0.43392672579986236 0.17990480800000003 0.00045154550000000004 409.23454395000005
decision_type=10 2 10 10 8 10 8 10 10
left_child=2 -2 8 7 -3 -6 -7 -4 -1
right_child=1 4 3 -5 5 6 -8 -9 -10
leaf_value=0.03367561876315988 -0.011211880026639205 0.036184264230693895 -0.011126583632764529 0.028565021378141625 -0.010870039920988521 0.0030865290617076479 0.028058635156194278 0.01120456327317295 0.037944473203321359
leaf_weight=28.307413630187511 30.164556205272675 3.8634648621082306 3.6226112395525005 12.735286772251127 5.3019939959049251 4.4604054391384098 4.7843057811260232 2.7234684452414513 50.532652355730534
leaf_count=46 299 4 29 33 50 33 17 15 51
internal_value=0.0214834 -0.00198282 0.0331009 0.0186793 0.013083 0.00644517 0.0164088 -0.00147005 0.0365216
internal_weight=146.496 48.5747 97.9214 19.0814 18.4102 14.5467 9.24471 6.34608 78.8401
internal_count=577 403 174 77 104 100 50 44 97
is_linear=0
shrinkage=0.01


Tree=17
num_leaves=8
num_cat=0
split_feature=24 19 26 19 19 19 18
split_gain=494.769 76.5841 33.4751 20.2471 32.119 40.4167 16.9134
threshold=584.29926295000007 305.02712690000004 75.196437225000025 694.81791820000001 742.07260735000011 799.83096700000021 0.39907725050000004
decision_type=8 10 8 10 10 8 10
left_child=6 2 -2 -3 -5 -6 -1
right_child=1 3 -4 4 5 -7 -8
leaf_value=-0.011189380057364567 -0.011065977414177175 0.036693719107753327 0.028626508428124184 0.036163119715727332 0.030492989226684645 -0.01123735648542006 0.015664819815311405
leaf_weight=36.62111472338438 5.6230621263384792 80.910834014415741 3.0898955315351495 10.630563676357271 4.4738377928733799 4.3739864081144342 2.2925421595573416
leaf_count=368 50 79 10 13 11 33 13
internal_value=0.0210507 0.0319511 0.00339789 0.0344142 0.0246035 0.0101065 -0.00951723
internal_weight=148.016 109.102 8.71296 100.389 19.4784 8.84782 38.9137
internal_count=577 196 60 136 57 44 381
is_linear=0
shrinkage=0.01


Tree=18
num_leaves=9
num_cat=0
split_feature=24 19 20 19 19 19 29 44
split_gain=474.518 72.5128 32.6413 18.9653 30.3773 39.0086 16.6757 0.0242757
threshold=584.29926295000007 305.02712690000004 284.74041800000003 694.81791820000001 742.07260735000011 799.83096700000021 5.3980900560000018 -0.43018200767538539
decision_type=8 10 8 10 10 8 10 8
left_child=6 2 -2 7 -5 -6 -1 -3
right_child=1 3 -4 4 5 -7 -8 -9
leaf_value=-0.011174885270420567 -0.011001793862376352 0.036507062357919715 0.028101644231967041 0.035163122593908462 0.029688086091481054 -0.0112127377859597 0.015377776790290136 0.0314041216368212
leaf_weight=36.305093787610531 5.6028637140989277 67.647629112005234 3.1211526617407808 10.82948260009289 4.5553899109363529 4.3404588624835023 2.3173301815986624 14.699803620576857
leaf_count=368 51 58 9 13 11 33 13 21
internal_value=0.0206443 0.0311483 0.00336327 0.0335086 0.0240605 0.00995635 -0.00949287 0.0356928
internal_weight=149.419 110.797 8.72402 102.073 19.7253 8.89585 38.6224 82.3474
internal_count=577 196 60 136 57 44 381 79
is_linear=0
shrinkage=0.01


Tree=19
num_leaves=9
num_cat=0
split_feature=24 41 51 21 41 20 27 41
split_gain=455.665 64.5832 17.2124 14.4388 23.0625 12.2822 9.02445 0.242572
threshold=584.29926295000007 -1.1728876916099706 5.323240901000001 360.99490020000007 0.48248226917150244 876.85258620000002 100075.38870000001 -0.45667563708284453
decision_type=8 10 8 8 8 10 10 10
left_child=2 6 -1 4 7 -5 -2 -3
right_child=1 3 -4 5 -6 -7 -8 -9
leaf_value=-0.011161018226226383 -0.010654129193674261 0.031687466423625334 0.016223761990781425 0.013133486608934035 0.0075025410979750167 0.030047336224920233 0.012814594061472704 0.036190913288858366
leaf_weight=36.096925489604473 3.6623482480645171 21.928149595856667 2.2361991032958022 7.5382728502154377 3.3076753616332999 12.18861650675535 2.5777122154831886 61.215265348553658
leaf_count=369 35 29 12 27 18 24 15 48
internal_value=0.0202578 0.0303934 -0.00946863 0.0322268 0.0340698 0.0238281 -0.000828762 0.0351006
internal_weight=150.751 112.418 38.3331 106.178 86.4511 19.7269 6.24006 83.1434
internal_count=577 196 381 146 95 51 50 77
is_linear=0
shrinkage=0.01


Tree=20
num_leaves=8
num_cat=0
split_feature=24 41 41 20 18 28 24
split_gain=449.017 85.0219 47.2393 48.2675 17.3205 10.0637 3.64723
threshold=584.29926295000007 0.50790831737309305 -0.610800232186678 7.1532174575000012 0.40324882000000006 0.014675249500000003 829.95558815000015
decision_type=8 8 10 10 10 10 10
left_child=4 2 3 -2 -1 -5 -4
right_child=1 -3 6 5 -6 -7 -8
leaf_value=-0.011148103101623674 0.03278550816451626 -0.011267736571720538 0.028971052371629252 -0.011029491263638707 0.016392595773412344 0.012252383076547841 0.035110847381106029
leaf_weight=36.363625280559063 7.0515410006046277 4.7495256736874572 21.80964232981205 5.0986267104744911 2.2213138863444319 2.6079858243465424 78.737663254141808
leaf_count=375 10 36 35 46 12 14 63
internal_value=0.0201618 0.029685 0.0313929 0.0143455 -0.00946721 -0.0030056 0.0338534
internal_weight=158.64 120.055 115.305 14.7582 38.5849 7.70661 100.547
internal_count=591 204 168 70 387 60 98
is_linear=0
shrinkage=0.01


Tree=21
num_leaves=8
num_cat=0
split_feature=24 41 41 45 30 43 24
split_gain=432.001 81.4777 44.6654 37.0957 17.892 9.41846 3.45803
threshold=584.29926295000007 0.50790831737309305 -0.610800232186678 -0.51622207675254783 20.194455064500005 -0.67001742488816896 829.95558815000015
decision_type=8 8 10 10 10 10 10
left_child=4 2 3 -2 -1 -5 -4
right_child=1 -3 6 5 -6 -7 -8
leaf_value=-0.011139897954873601 0.028984579227119164 -0.011243479295271142 0.028292891662811959 -0.01086960296672196 0.017212214173261849 0.012077545824446459 0.034234660553150206
leaf_weight=36.139728777110577 7.7047483623027802 4.712885931134223 22.113382056355476 4.5283508449792862 2.1547604799270621 2.6206300407648069 79.945355460047722
leaf_count=375 14 36 35 42 12 14 63
internal_value=0.0198003 0.0290089 0.0306524 0.0141162 -0.00944333 -0.00232514 0.0330187
internal_weight=159.92 121.625 116.912 14.8537 38.2945 7.14898 102.059
internal_count=591 204 168 70 387 56 98
is_linear=0
shrinkage=0.01


Tree=22
num_leaves=8
num_cat=0
split_feature=24 41 41 20 18 29 24
split_gain=416.011 78.1721 42.3403 44.7568 17.8284 9.59079 3.29304
threshold=584.29926295000007 0.50790831737309305 -0.610800232186678 7.1532174575000012 0.40685380800000009 0.13999192150000037 829.95558815000015
decision_type=8 8 10 10 8 10 10
left_child=4 2 3 -2 -1 -5 -4
right_child=1 -3 6 5 -6 -7 -8
leaf_value=-0.011121945349334392 0.031249661088447747 -0.011219460446515835 0.027648006155981598 -0.010990798596118335 0.017244795709079414 0.011637615194334261 0.033409214725643795
leaf_weight=35.862246416509151 7.2685848623514158 4.6764516085386267 22.407077834010124 5.005763053894043 2.1441926807165137 2.6750638708472252 81.101467937231064
leaf_count=376 10 36 35 46 11 14 63
internal_value=0.0194535 0.0283671 0.0299505 0.0138906 -0.0094194 -0.00298328 0.0322309
internal_weight=161.141 123.134 118.458 14.9494 38.0064 7.68083 103.509
internal_count=591 204 168 70 387 60 98
is_linear=0
shrinkage=0.01


Tree=23
num_leaves=8
num_cat=0
split_feature=24 41 41 45 34 21 24
split_gain=400.993 75.0896 40.1802 34.3137 17.668 9.30711 3.14891
threshold=584.29926295000007 0.50790831737309305 -0.610800232186678 -0.51622207675254783 -0.060633512999999993 295.71959205000007 829.95558815000015
decision_type=8 8 10 10 8 10 10
left_child=4 2 3 -2 -1 -5 -4
right_child=1 -3 6 5 -6 -7 -8
leaf_value=0.01698222333440394 0.027668967379267981 -0.011195675196283393 0.027033948854663356 -0.010848348102983936 -0.01111450285941896 0.011979602037584669 0.03263023667177848
leaf_weight=2.1715638041496277 7.9208855479955673 4.6402238309383383 22.690976440906525 4.4882570877671224 35.547985151410103 2.6283231973648071 82.207372725009918
leaf_count=12 14 36 35 42 375 14 63
internal_value=0.0191219 0.0277587 0.0292862 0.0136762 -0.00939578 -0.00228811 0.0314862
internal_weight=162.296 124.576 119.936 15.0375 37.7195 7.11658 104.898
internal_count=591 204 168 70 387 56 98
is_linear=0
shrinkage=0.01


Tree=24
num_leaves=8
num_cat=0
split_feature=24 41 41 20 30 28 24
split_gain=386.834 72.2025 38.2237 41.6436 17.4827 9.75171 3.02282
threshold=584.29926295000007 0.50790831737309305 -0.610800232186678 7.1532174575000012 20.194455064500005 0.014675249500000003 829.95558815000015
decision_type=8 8 10 10 10 10 10
left_child=4 2 3 -2 -1 -5 -4
right_child=1 -3 6 5 -6 -7 -8
leaf_value=-0.011101202405111364 0.029863967926076797 -0.011172119274100466 0.026448508131689696 -0.010996910457947718 0.016769532522418286 0.011899565076611192 0.031893918075253942
leaf_weight=35.247899912297726 7.4717774987220746 4.6042034551501265 22.965316995978355 5.0130426287651062 2.1876204386353484 2.6414323970675468 83.264415577054024
leaf_count=375 10 36 35 46 12 14 63
internal_value=0.0188031 0.0271794 0.0286547 0.0134647 -0.00937205 -0.00296127 0.0307809
internal_weight=163.396 125.96 121.356 15.1263 37.4355 7.65448 106.23
internal_count=591 204 168 70 387 60 98
is_linear=0
shrinkage=0.01


Tree=25
num_leaves=9
num_cat=0
split_feature=23 41 35 49 4 21 21 19
split_gain=319.184 81.1799 74.704 24.8412 9.71518 6.60018 21.7954 9.17153
threshold=450.26791310000004 0.50790831737309305 -0.010724153499999998 81.500000000000014 30.663560760000006 355.90491325000011 1098.7095260000003 330.84046560000007
decision_type=10 8 10 2 2 8 8 10
left_child=1 5 3 4 -2 7 -7 -1
right_child=2 -3 -4 -5 -6 6 -8 -9
leaf_value=0.020822112332834312 -0.010549981330304013 -0.01108416781738371 -0.011149263651352697 0.027546486355423696 0.015033543325040295 0.012385992893774081 0.033674380362503864 0.031378805777518344
leaf_weight=11.400278754532335 3.2861868143081647 5.1411347836256018 33.692834816873074 7.9497577622532845 2.3164631351828575 10.261339329183103 9.6657478436827642 86.919463753700256
leaf_count=28 32 44 355 17 13 39 10 65
internal_value=0.0189052 0.0273544 -0.00318634 0.0164511 0.00019956 0.0290457 0.0229992 0.0302103
internal_weight=170.633 123.388 47.2452 13.5524 5.60265 118.247 19.9271 98.3197
internal_count=603 186 417 62 45 142 49 93
is_linear=0
shrinkage=0.01


Tree=26
num_leaves=8
num_cat=0
split_feature=45 35 19 21 7 49 33
split_gain=307.438 58.6435 33.4941 30.2211 32.8776 20.5342 9.52263
threshold=-0.26763691561948671 -0.010724153499999998 305.02712690000004 355.90491325000011 6.5000000000000009 81.500000000000014 30.450433705000005
decision_type=10 10 10 8 2 2 2
left_child=2 5 -1 -4 -5 6 -2
right_child=1 -3 3 4 -6 -7 -8
leaf_value=0.0011044868570300348 -0.010531212739443876 -0.011116336745049124 0.029877223537916619 0.024385014354833982 -0.0022342125202062307 0.026042560312640864 0.014773237951877015
leaf_weight=5.0244947522878638 3.2607069462537748 32.179656587541103 100.20801632851362 15.626398891210558 6.4943895190954199 6.6020054966211319 2.3386211544275284
leaf_count=32 32 344 88 37 41 16 13
internal_value=0.0185965 -0.00405165 0.0264824 0.0275198 0.0166272 0.0144262 0.000198874
internal_weight=171.734 44.381 127.353 122.329 22.1208 12.2013 5.59933
internal_count=603 405 198 166 78 61 45
is_linear=0
shrinkage=0.01


Tree=27
num_leaves=8
num_cat=0
split_feature=45 41 35 41 21 41 21
split_gain=296.313 78.4655 57.6456 15.9072 6.03021 23.1567 21.4387
threshold=-0.26763691561948671 0.50790831737309305 -0.010724153499999998 -0.45667563708284453 355.90491325000011 -0.64788628826877437 1098.7095260000003
decision_type=10 8 10 10 8 10 8
left_child=1 4 3 -2 5 -1 -6
right_child=2 -3 -4 -5 6 -7 -8
leaf_value=0.0089934137456088564 0.00082323714195983526 -0.011098042884586733 -0.011102527928045711 0.023729368286741201 0.011573655096928663 0.029843303247319892 0.032359224291049309
leaf_weight=5.9228073209524146 5.2297069206833839 5.3480736687779418 31.899192817509174 7.055324122309683 10.585372969508173 96.863000527024269 9.9022083729505521
leaf_count=27 39 46 344 22 41 74 10
internal_value=0.0182964 0.0259592 -0.0040285 0.0141913 0.0275863 0.0286669 0.0218871
internal_weight=172.806 128.621 44.1842 12.285 123.273 102.786 20.4876
internal_count=603 198 405 61 152 101 51
is_linear=0
shrinkage=0.01


Tree=28
num_leaves=8
num_cat=0
split_feature=24 41 18 5 41 42 41
split_gain=353.554 61.2589 17.8603 9.68523 5.05505 14.2991 0.493072
threshold=584.29926295000007 -1.1728876916099706 0.40959685200000007 3.2009820025000004 0.29467155524772753 1.161696277461477 -0.46613394160252375
decision_type=8 10 8 2 8 10 10
left_child=2 3 -1 -2 6 -6 -3
right_child=1 4 -4 -5 5 -7 -8
leaf_value=-0.011063980040914719 -0.010898930208480085 0.025338797264797291 0.01756285514163004 0.012144030392111115 0.01408140184795892 0.030644036022055829 0.028831091177120408
leaf_weight=34.967754647135735 4.7359165623784056 26.579687863588333 2.1059445142745963 2.6388050988316536 12.03476867824793 10.222130849957464 80.519513994455338
leaf_count=382 44 35 10 16 42 10 64
internal_value=0.0180095 0.0254268 -0.0093312 -0.00251757 0.0270223 0.0219423 0.0280248
internal_weight=173.805 136.731 37.0737 7.37472 129.356 22.2569 107.099
internal_count=603 211 392 60 151 52 99
is_linear=0
shrinkage=0.01


Tree=29
num_leaves=7
num_cat=0
split_feature=46 19 21 14 21 20
split_gain=326.942 59.3033 34.5678 18.5081 18.1604 19.5786
threshold=-0.17323305642389655 305.02712690000004 545.06049650000011 0.84755486800000013 355.90491325000011 889.51475070000004
decision_type=8 10 8 10 8 10
left_child=3 2 -2 -1 -3 -6
right_child=1 4 -4 -5 5 -7
leaf_value=-0.011040945015007774 -0.011187694993800242 0.028244775934839553 0.027658430243712378 0.01865374700041026 0.004415741885797627 0.024328255065079851
leaf_weight=33.613799445331097 6.9393356665968868 106.17809861898422 3.1189555674791345 2.0179807171225539 7.3997927233576801 15.474712394177912
leaf_count=372 63 92 7 9 31 29
internal_value=0.0177342 0.0246484 0.00122024 -0.00924121 0.0264679 0.0180051
internal_weight=174.743 139.111 10.0583 35.6318 129.053 22.8745
internal_count=603 222 70 381 152 60
is_linear=0
shrinkage=0.01


Tree=30
num_leaves=8
num_cat=0
split_feature=46 41 41 42 51 43 23
split_gain=319.187 69.8787 32.3105 30.0744 18.8223 14.9369 9.54775
threshold=-0.17323305642389655 0.50790831737309305 -0.70914309751105764 -1.2489770236517612 6.2219462045000009 -0.43896059225262968 571.17127065000011
decision_type=8 8 10 10 8 8 10
left_child=4 2 3 -2 -1 -4 -5
right_child=1 -3 5 6 -6 -7 -8
leaf_value=-0.011024346483016787 0.029583676118895112 -0.011233101344445537 0.028434422114581182 -0.010894401428863623 0.019245741280993742 0.017197726363144764 0.011973043088347884
leaf_weight=33.107246220111847 4.4109890162944794 5.1846966445446006 112.95211204886436 4.8316445797681791 1.9681708738207806 14.816534325480459 2.6132575497031212
leaf_count=370 5 41 85 46 8 36 14
internal_value=0.0178113 0.0243595 0.0256991 0.00963934 -0.00920198 0.0271674 -0.00273118
internal_weight=179.885 144.809 139.625 11.8559 35.0754 127.769 7.4449
internal_count=605 227 186 65 378 121 60
is_linear=0
shrinkage=0.01


Tree=31
num_leaves=8
num_cat=0
split_feature=24 41 41 20 29 14 44
split_gain=326.792 63.8599 24.1643 41.0351 18.808 9.63086 1.06858
threshold=584.29926295000007 0.50790831737309305 -0.57278959646044336 66.489035320000013 6.8215301630000011 0.018387899000000003 -0.43018200767538539
decision_type=8 8 10 10 10 8 8
left_child=4 2 3 -2 -1 -5 -4
right_child=1 -3 6 5 -6 -7 -8
leaf_value=-0.011029675378846358 0.026707585426632919 -0.011213084334244606 0.027843101258453854 -0.010940823704757381 0.019183728496522331 0.011853942473392574 0.023857185102565008
leaf_weight=34.232987955212593 11.145094737410547 4.7698817178606978 98.645048215985298 5.0898564904928199 1.9707787483930577 2.603985533118248 22.272221744060516
leaf_count=383 13 37 74 49 8 12 29
internal_value=0.0175508 0.0242731 0.0255023 0.014651 -0.00926504 -0.00308781 0.0271592
internal_weight=180.73 144.526 139.756 18.8389 36.2038 7.69384 120.917
internal_count=605 214 177 74 391 61 103
is_linear=0
shrinkage=0.01


Tree=32
num_leaves=8
num_cat=0
split_feature=24 29 21 21 45 14 42
split_gain=316.797 18.5016 13.3015 26.1788 10.0291 16.0836 22.3477
threshold=584.29926295000007 6.8215301630000011 380.18301600000007 1083.7298605000003 -0.42715988275969374 0.0046470880000000006 -0.5850899468527081
decision_type=8 10 8 8 8 8 10
left_child=1 -1 4 -4 -2 6 -6
right_child=2 -3 3 -5 5 -7 -8
leaf_value=-0.011016882829859709 0.026389736985715333 0.01880676333311089 0.0024120467295886765 0.02552280584579637 -0.010507191383005605 0.02460160565208222 0.023832988391163105
leaf_weight=33.931802816689014 105.00448235869408 1.9949548095464695 8.475020959973337 11.592537909746168 3.8002008348703393 13.37303317338228 3.3425429537892359
leaf_count=383 92 8 38 19 40 19 6
internal_value=0.0173003 -0.00924258 0.0238554 0.0159132 0.0250911 0.018208 0.00580819
internal_weight=181.515 35.9268 145.588 20.0676 125.52 20.5158 7.14274
internal_count=605 391 214 57 157 65 46
is_linear=0
shrinkage=0.01


Tree=33
num_leaves=8
num_cat=0
split_feature=46 41 41 42 32 43 46
split_gain=290.723 64.7376 28.9551 29.707 18.0829 14.1384 9.95291
threshold=-0.17323305642389655 0.50790831737309305 -0.64788628826877437 -1.2489770236517612 0.3924358756428572 -0.43896059225262968 0.29612101518189399
decision_type=8 8 10 10 2 8 8
left_child=4 2 3 -2 -1 -4 -5
right_child=1 -3 5 6 -6 -7 -8
leaf_value=-0.010987547598007822 0.025859690020757969 -0.011222651105767398 0.02710836643960108 0.012501905391050871 0.01836380438110995 0.016305507061616084 -0.010897597667940994
leaf_weight=32.255042344331741 6.4425849318504333 5.1586337536573401 113.69132901728153 2.5261951014399511 2.0243211612105361 15.136959731578825 5.0654787793755531
leaf_count=370 8 41 81 12 8 36 49
internal_value=0.0170541 0.0231244 0.0243823 0.010484 -0.00913404 0.025873 -0.00295332
internal_weight=182.301 148.021 142.863 14.0343 34.2794 128.828 7.59167
internal_count=605 227 186 69 378 117 61
is_linear=0
shrinkage=0.01


Tree=34
num_leaves=8
num_cat=0
split_feature=24 41 41 42 29 35 44
split_gain=298.356 59.3643 21.7725 37.2481 17.9657 9.6116 1.01829
threshold=584.29926295000007 0.50790831737309305 -0.57278959646044336 -1.2489770236517612 6.8215301630000011 -0.0055326329999999492 -0.43018200767538539
decision_type=8 8 10 10 10 8 8
left_child=4 2 3 -2 -1 -5 -4
right_child=1 -3 6 5 -6 -7 -8
leaf_value=-0.010993564632263062 0.025209722458135912 -0.011204698190741038 0.026424996787161252 0.011888124970499337 0.018156558117822682 -0.010934316701046087 0.022643742515422189
leaf_weight=33.361514270305634 11.466687977313997 4.7537407055497161 100.92507064342499 2.593208871781826 2.037273943424224 5.0594568550586692 22.789391383528709
leaf_count=383 13 37 74 12 8 49 29
internal_value=0.0168204 0.0230669 0.0242253 0.0139939 -0.00920053 -0.00306132 0.0257752
internal_weight=182.986 147.588 142.834 19.1194 35.3988 7.65267 123.714
internal_count=605 214 177 74 391 61 103
is_linear=0
shrinkage=0.01


Tree=35
num_leaves=7
num_cat=0
split_feature=46 19 20 13 43 20
split_gain=266.795 45.1865 30.2886 18.8484 11.6442 9.80769
threshold=-0.17323305642389655 305.02712690000004 379.27185020000007 0.95857896200000015 -0.51022129998690191 931.78998700000011
decision_type=8 10 8 10 8 10
left_child=3 2 -2 -1 -3 -6
right_child=1 4 -4 -5 5 -7
leaf_value=-0.010968935801227131 -0.01120056041996677 0.025065307337785878 0.024805216814601249 0.019517988293951117 0.0082939375160912387 0.021953157188422456
leaf_weight=31.829076893627644 6.464587822556493 109.03522585332394 3.3405953496694574 1.9430283159017552 8.9394700080156344 14.374311476945875
leaf_count=371 59 96 7 8 33 25
internal_value=0.0161268 0.0221223 0.00136305 -0.00908478 0.0236542 0.0168596
internal_weight=175.926 142.154 9.80518 33.7721 132.349 23.3138
internal_count=599 220 66 379 154 58
is_linear=0
shrinkage=0.01


Tree=36
num_leaves=7
num_cat=0
split_feature=46 19 22 29 43 7
split_gain=259.15 43.6435 31.8483 18.8403 11.3231 15.6322
threshold=-0.17323305642389655 305.02712690000004 1256.1281300000003 6.8215301630000011 -0.51022129998690191 5.5000000000000009
decision_type=8 10 8 8 8 2
left_child=3 2 -2 -1 -3 -6
right_child=1 4 -4 -5 5 -7
leaf_value=-0.010952361390022496 -0.011215011357331566 0.024653526030587906 0.026018794178480867 0.019654036665244921 0.023333475255283776 0.0065619469095653839
leaf_weight=31.589629091322422 6.5747355669736836 109.74828273057938 3.2202516198158273 1.9248410165309895 13.828409232199194 9.6335759758949262
leaf_count=372 60 96 6 7 20 38
internal_value=0.0159122 0.0217713 0.00135321 -0.00906245 0.0232668 0.0165893
internal_weight=176.52 143.005 9.79499 33.5145 133.21 23.462
internal_count=599 220 66 379 154 58
is_linear=0
shrinkage=0.01


Tree=37
num_leaves=8
num_cat=0
split_feature=24 11 45 42 42 7 22
split_gain=265.445 18.7316 10.3515 11.2524 35.5328 1.87974 0.944476
threshold=584.29926295000007 1.1079207990000002 -0.38097607522734528 -0.43392672579986236 -1.2994210900706435 10.500000000000002 288.41906255000009
decision_type=8 10 8 8 10 2 10
left_child=1 -1 5 4 -4 6 -2
right_child=2 -3 3 -5 -6 -7 -8
leaf_value=-0.010973071056673967 0.024817350562548829 0.019242143892371968 0.023123863060946364 0.022036072003126361 -0.011010458033238838 0.019715208837916501 0.021442009093111142
leaf_weight=32.548604235053062 63.196611866354942 1.9675366282463063 6.7147886008024216 12.574934840202333 5.2248502522706968 24.271808497607708 30.568970948457718
leaf_count=382 49 9 7 21 50 37 44
internal_value=0.0157048 -0.00912507 0.0217228 0.0154769 0.00825834 0.0229845 0.0237765
internal_weight=177.068 34.5161 142.552 24.5146 11.9396 118.037 93.7656
internal_count=599 391 208 78 57 130 93
is_linear=0
shrinkage=0.01


Tree=38
num_leaves=8
num_cat=0
split_feature=24 41 41 20 18 23 43
split_gain=258.027 56.2557 26.8911 25.6316 19.4611 8.70232 3.74342
threshold=584.29926295000007 0.50790831737309305 -0.610800232186678 7.1532174575000012 0.41041017200000002 597.81134715000019 -0.44392874124267589
decision_type=8 8 10 10 10 10 8
left_child=4 2 3 -2 -1 -5 -4
right_child=1 -3 6 5 -6 -7 -8
leaf_value=-0.010954201648861196 0.021646626158843642 -0.011323196416079954 0.024945869595347211 -0.010951132280344956 0.020519841721828899 0.010608662160817356 0.018805145533339371
leaf_weight=32.385341070592403 8.892786309123041 4.9324041903018943 106.2913169413805 4.8675909638404837 1.8672124221920956 2.7192208617925644 15.640539199113844
leaf_count=384 12 37 74 47 7 12 26
internal_value=0.0155024 0.021388 0.0225722 0.0103592 -0.00910276 -0.00312306 0.0241981
internal_weight=177.596 143.344 138.411 16.4796 34.2526 7.58681 121.932
internal_count=599 208 171 71 391 59 100
is_linear=0
shrinkage=0.01


Tree=39
num_leaves=9
num_cat=0
split_feature=46 41 41 23 25 35 43 19
split_gain=238.239 57.7464 37.7816 28.9635 19.1662 9.45528 6.45483 1.04913
threshold=-0.17323305642389655 0.50790831737309305 -0.71734353929994332 1839.7225015000001 86.783550245000001 0.018810883499999955 -0.43896059225262968 394.27292605000008
decision_type=8 8 10 8 8 8 8 10
left_child=4 2 3 -2 -1 6 7 -4
right_child=1 -3 5 -5 -6 -7 -8 -9
leaf_value=-0.010926989265749259 -0.011019187121784272 -0.011287603326705295 0.021857601354029092 0.024969269106347527 0.020248300740897222 -0.010920285050672232 0.016702603227164409 0.025243391689065278
leaf_weight=30.868887722492218 5.8323628157377216 5.2594108060002318 29.668370351195335 3.2956241071224222 1.8823157772421826 0.66458861529827018 14.62052061408758 85.91116738319397
leaf_count=372 56 41 30 6 7 3 30 54
internal_value=0.0153126 0.0208001 0.0220238 0.00227762 -0.00899595 0.0233937 0.0235896 0.024423
internal_weight=178.003 145.252 139.993 9.12799 32.7512 130.865 130.2 115.58
internal_count=599 220 179 62 379 117 114 84
is_linear=0
shrinkage=0.01


Tree=40
num_leaves=8
num_cat=0
split_feature=21 41 21 44 20 44 44
split_gain=120.904 104.068 69.0079 16.834 15.0057 3.29326 3.06189
threshold=380.18301600000007 -0.71734353929994332 1120.7061335000001 1.9903033492763873 433.54164095000004 -0.89461784036439707 -0.43018200767538539
decision_type=10 10 10 10 8 8 8
left_child=1 4 3 -2 -1 -3 -7
right_child=2 5 -4 -5 -6 6 -8
leaf_value=-0.010983945042432931 -0.011390114782065437 0.024081207405045931 0.019663311751381436 0.016714965852997542 0.016696969724025776 0.021746654135255197 0.015581064353465561
leaf_weight=11.846102222800251 26.446092978119854 60.416688561439514 11.390255115926264 2.1000300198793402 2.109750173985959 36.545503169298172 14.874343514442442
leaf_count=132 281 44 25 9 9 41 42
internal_value=0.0142621 0.0190666 -0.00089283 -0.00919523 -0.00657799 0.0222749 0.0200469
internal_weight=165.729 125.792 39.9364 28.5461 13.9559 111.837 51.4198
internal_count=583 268 315 290 141 127 83
is_linear=0
shrinkage=0.01


Tree=41
num_leaves=7
num_cat=0
split_feature=24 19 20 24 2 13
split_gain=244.837 31.1062 29.2047 10.517 12.8112 0.0479971
threshold=584.29926295000007 307.83178985000001 375.22062380000006 829.95558815000015 100393.70990000002 9.9550000000000021e-05
decision_type=8 10 8 10 2 8
left_child=-1 2 -2 4 -3 -5
right_child=1 3 -4 5 -6 -7
leaf_value=-0.010944781144547222 -0.011079910852680301 0.0074549541477039287 0.025003045745187726 0.020703194968455733 0.020858547039734502 0.023581246386648224
leaf_weight=31.483092427253723 5.9040521830320332 11.705932185053827 3.2883906066417703 21.25406377017498 19.828040190041065 72.593769267201424
leaf_count=379 57 34 6 24 26 57
internal_value=0.0140925 0.0199597 0.0021323 0.0212593 0.0159812 0.0229858
internal_weight=166.057 134.574 9.19244 125.382 31.534 93.8478
internal_count=583 204 63 141 60 81
is_linear=0
shrinkage=0.01


Tree=42
num_leaves=7
num_cat=0
split_feature=24 41 41 23 41 24
split_gain=238.721 53.9802 23.6903 14.0644 9.51487 5.22309
threshold=584.29926295000007 0.50790831737309305 -0.64788628826877437 361.12627400000002 -1.2230081200458975 795.73534120000011
decision_type=8 8 10 10 8 10
left_child=-1 2 3 -2 -5 -4
right_child=1 -3 5 4 -6 -7
leaf_value=-0.010932930840565664 0.018859010285947889 -0.011372899871197047 0.017857788676779809 -0.010579731996235173 0.013296959586023376 0.023537710450375959
leaf_weight=31.203709989786148 5.7338658273220044 5.2302488386631003 25.431863352656364 4.4272670298814774 2.3551927655935287 91.945581212639809
leaf_count=379 10 39 36 48 7 64
internal_value=0.0139295 0.0196809 0.020951 0.00767092 -0.00210244 0.0223474
internal_weight=166.328 135.124 129.894 12.5163 6.78246 117.377
internal_count=583 204 165 65 55 100
is_linear=0
shrinkage=0.01


Tree=43
num_leaves=7
num_cat=0
split_feature=24 41 41 20 5 43
split_gain=232.933 52.575 22.9703 17.3061 9.55288 7.48539
threshold=584.29926295000007 0.50790831737309305 -0.64788628826877437 8.692012527000001 3.4306801025000007 -0.44392874124267589
decision_type=8 8 10 10 2 8
left_child=-1 2 3 -2 -5 -4
right_child=1 -3 5 4 -6 -7
leaf_value=-0.010921205293604202 0.020746556839043945 -0.011348156482878862 0.02303809204337099 -0.010958345393923746 0.012315940005105875 0.014988478240319209
leaf_weight=30.92649157345295 5.3679326921701414 5.1899711936712256 102.65348467230797 4.6411105543375015 2.5206329226493835 15.21103799343109
leaf_count=379 7 39 72 45 13 28
internal_value=0.0137752 0.0194185 0.0206627 0.00758991 -0.00261923 0.0220331
internal_weight=166.511 135.584 130.394 12.5297 7.16174 117.865
internal_count=583 204 165 65 58 100
is_linear=0
shrinkage=0.01


Tree=44
num_leaves=7
num_cat=0
split_feature=24 41 41 42 5 24
split_gain=227.369 51.229 22.292 16.8465 9.39297 5.12684
threshold=584.29926295000007 0.50790831737309305 -0.64788628826877437 -1.3039019588939482 3.4306801025000007 795.73534120000011
decision_type=8 8 10 10 2 10
left_child=-1 2 3 -2 -5 -4
right_child=1 -3 5 4 -6 -7
leaf_value=-0.010909602345751257 0.020429610358720502 -0.011323666605894634 0.017319393180031707 -0.010938452786477844 0.012125312366066739 0.022902858852328189
leaf_weight=30.651427686214447 5.4003261625766754 5.1499131619930258 25.663502410054207 4.6036875396966916 2.5384108871221542 92.649524986743927
leaf_count=379 7 39 36 45 13 64
internal_value=0.0136256 0.0191654 0.0203848 0.00751023 -0.0025998 0.0217307
internal_weight=166.657 136.005 130.855 12.5424 7.1421 118.313
internal_count=583 204 165 65 58 100
is_linear=0
shrinkage=0.01


Tree=45
num_leaves=10
num_cat=0
split_feature=46 43 22 13 19 19 44 30 19
split_gain=188.529 23.7343 34.6198 19.767 16.6033 18.9797 7.8256 6.10277 0.190041
threshold=-0.17323305642389655 -0.43896059225262968 1293.9907305000004 1.6280887315000003 326.30996015000005 307.83178985000001 -1.1421458428559741 0.25674033300000004 384.57092750000004
decision_type=8 8 10 10 10 10 8 8 10
left_child=3 4 7 -1 5 6 -2 -3 -6
right_child=1 2 -4 -5 8 -7 -8 -9 -10
leaf_value=-0.010858026795220256 0.010680304021969211 -0.012732727641317576 0.021556692455275743 0.021396168113724905 0.019200584863751577 0.019789830471790046 -0.010865010033303283 0.0036590051498186886 0.022379407129153414
leaf_weight=28.613620713353161 2.555780366063118 5.2172472476959237 8.9042275175452215 1.8085310384631146 16.317245289683342 8.9659895449876768 4.0044909566640845 3.7266636192798623 83.609007865190506
leaf_count=363 11 32 14 6 16 9 40 15 66
internal_value=0.0136225 0.0187432 0.00785975 -0.00878256 0.0204048 0.0105268 -0.00237672 -0.00597793 0.0219093
internal_weight=163.723 133.301 17.8481 30.4222 115.453 15.5263 6.56027 8.94391 99.9263
internal_count=572 203 61 369 142 60 51 47 82
is_linear=0
shrinkage=0.01


Tree=46
num_leaves=7
num_cat=0
split_feature=24 41 18 24 40 41
split_gain=190.963 47.2009 20.3441 6.97118 18.0327 0.746156
threshold=584.29926295000007 -1.1728876916099706 0.41408113750000003 829.95558815000015 0.99608817538410788 0.40374645774896445
decision_type=8 10 10 10 2 8
left_child=2 -2 -1 4 -3 -5
right_child=1 3 -4 5 -6 -7
leaf_value=-0.010866328871749383 -0.010844922028499345 0.0071601479591866255 0.022179472319712495 0.021829413973024323 0.021770129889693943 0.017280282512217554
leaf_weight=29.219588130712513 5.0565637648105612 14.691193625330923 1.7624466121196736 82.209624364972115 20.856327809393406 10.067193090915678
leaf_count=371 52 42 6 57 23 21
internal_value=0.0134756 0.0186824 -0.00882487 0.0198696 0.0158246 0.021381
internal_weight=163.863 132.881 30.982 127.824 35.5475 92.2768
internal_count=572 195 377 143 65 78
is_linear=0
shrinkage=0.01


Tree=47
num_leaves=11
num_cat=0
split_feature=23 49 43 3 4 45 42 20 35 28
split_gain=166.224 29.4733 18.6537 31.4469 10.7939 5.02662 9.19077 15.8023 6.35143 0.248331
threshold=568.52310660000012 81.500000000000014 -0.48766065113765883 0.089648402000000016 28.433905190000004 -0.45971824434719127 -0.43392672579986236 34.843279460000005 0.00025023599999990007 0.0039940380000001502
decision_type=8 2 8 2 2 8 8 8 10 10
left_child=2 -2 5 -4 -3 9 7 -7 -9 -1
right_child=1 4 3 -5 -6 6 -8 8 -10 -11
leaf_value=0.022009146923772139 -0.01107299047208418 0.023026991545222749 -0.011823693543629219 0.017330582444643635 0.00026997008009914516 0.02148864512668892 0.024089274454754613 -0.010494722597525635 0.0094300019119788296 0.019592560106207739
leaf_weight=53.500641837716103 26.693351469933987 3.498071722686289 5.0723539292812374 12.135829031467436 4.7343986481428146 5.0307865738868687 6.369454741477969 3.5236550867557535 2.5411808267235756 40.887496054172516
leaf_count=38 324 9 43 28 35 4 4 38 10 39
internal_value=0.0133314 -0.00598772 0.0185615 0.00868686 0.0103348 0.0200577 0.0146525 0.00882542 -0.00209091 0.0210165
internal_weight=163.987 34.9258 129.061 17.2082 8.23247 111.853 17.4651 11.0956 6.06484 94.3881
internal_count=572 368 204 71 44 133 56 52 48 77
is_linear=0
shrinkage=0.01


Tree=48
num_leaves=6
num_cat=0
split_feature=24 41 6 44 35
split_gain=182.226 45.0684 20.0897 6.95628 1.13724
threshold=584.29926295000007 -1.1728876916099706 86.783550245000001 -0.39320314117443761 5.9229000000000927e-05
decision_type=8 10 2 8 10
left_child=2 -2 -1 4 -3
right_child=1 3 -4 -5 -6
leaf_value=-0.010849619824517889 -0.01081697915300568 0.021162991400843056 0.021931698186906989 0.013632498591842339 0.017852816630280852
leaf_weight=28.775428846478466 4.9908396974205962 82.248106598854065 1.7721075043082226 20.215184859931469 26.093859560787678
leaf_count=371 52 71 6 41 31
internal_value=0.0131906 0.018225 -0.00878617 0.0193716 0.0204085
internal_weight=164.096 133.548 30.5475 128.557 108.342
internal_count=572 195 377 143 102
is_linear=0
shrinkage=0.01


Tree=49
num_leaves=9
num_cat=0
split_feature=45 35 43 7 11 49 20 20
split_gain=150.117 40.9301 22.9968 31.6846 12.4985 14.2453 0.730711 1.55553
threshold=-0.26763691561948671 -0.0049454254999999987 -0.43896059225262968 3.5000000000000004 0.82674745150000006 93.500000000000014 360.97478360000008 8.692012527000001
decision_type=8 8 8 2 8 2 10 10
left_child=2 4 6 -4 5 -2 7 -1
right_child=1 -3 3 -5 -6 -7 -8 -9
leaf_value=0.020308112882918099 -0.010707990602799844 -0.011076230103636847 0.017400650177540961 -0.01199168057234426 0.021541900373367274 0.0144450766680686 0.021962609123694441 0.016307740106581866
leaf_weight=53.657336443662643 4.138834379613396 26.194070793688297 9.9895822033286077 5.5009542107582083 5.4008232206106195 4.3910881355404854 33.316633187234402 21.60188115388155
leaf_count=42 46 324 22 45 15 15 24 39
internal_value=0.0130516 -0.00374345 0.0184807 0.00693342 0.0099917 0.00227252 0.0201081 0.0192175
internal_weight=164.191 40.1248 124.066 15.4905 13.9307 8.52992 108.576 75.2592
internal_count=572 400 172 67 76 61 105 81
is_linear=0
shrinkage=0.01


Tree=50
num_leaves=9
num_cat=0
split_feature=46 18 45 35 20 19 46 19
split_gain=175.637 20.4224 14.4667 18.8541 20.8693 7.0242 10.2416 3.64724
threshold=-0.17323305642389655 0.41449383900000009 -0.38097607522734528 -0.0076025974999998991 977.94866475000015 691.41288720000011 0.69635311890141527 384.57092750000004
decision_type=8 8 8 10 10 10 10 10
left_child=1 -1 5 -4 -5 7 -7 -2
right_child=2 -3 3 4 -6 6 -8 -9
leaf_value=-0.010825993859258462 0.016770703796251042 0.022620274113466662 0.018472698208263204 -0.011496408246263429 0.01796850590631683 0.0058160484904961583 0.019238998984271602 0.021637155463760806
leaf_weight=28.303328804671768 27.13106445223093 1.723307006061076 11.576012678444387 6.0890684053301793 3.6296490952372551 9.7214191928505915 14.582657501101492 71.390771083533764
leaf_count=372 37 5 23 56 4 37 18 46
internal_value=0.0132074 -0.00873647 0.0177869 0.009989 -0.000312793 0.0191156 0.0139848 0.0203427
internal_weight=174.147 30.0266 144.121 21.2947 9.71872 122.826 24.3041 98.5218
internal_count=598 377 221 83 60 138 55 83
is_linear=0
shrinkage=0.01


Tree=51
num_leaves=8
num_cat=0
split_feature=24 19 21 18 19 19 19
split_gain=181.198 29.6308 29.1372 20.1306 8.34466 21.1731 1.68862
threshold=584.29926295000007 305.02712690000004 804.05744865000008 0.41449383900000009 694.81791820000001 751.08254970000007 384.57092750000004
decision_type=8 10 8 8 10 10 10
left_child=3 2 -2 -1 6 -6 -3
right_child=1 4 -4 -5 5 -7 -8
leaf_value=-0.010832659625617792 -0.011234637669272116 0.017496722419032506 0.02410360939865536 0.022172385119273025 0.020035958201458329 0.0012145728543532816 0.021195136033827035
leaf_weight=29.213367402553562 6.4986339136958096 26.289142921566963 3.323426842689515 1.7453623935580242 17.764550179243091 9.0103571340441686 80.368027031421661
leaf_count=384 63 28 5 5 17 43 53
internal_value=0.0130715 0.0178079 0.00100908 -0.0088101 0.0190397 0.0137736 0.0203264
internal_weight=174.213 143.254 9.82206 30.9587 133.432 26.7749 106.657
internal_count=598 209 68 389 141 60 81
is_linear=0
shrinkage=0.01


Tree=52
num_leaves=9
num_cat=0
split_feature=46 32 45 14 52 19 46 19
split_gain=167.605 20.2479 13.8063 22.5632 9.43782 6.83292 9.92139 3.50288
threshold=-0.17323305642389655 0.40927577557142863 -0.38097607522734528 0.10347738100000002 585.96690094934149 691.41288720000011 0.69635311890141527 384.57092750000004
decision_type=8 2 8 8 2 10 10 10
left_child=1 -1 5 4 -4 7 -7 -2
right_child=2 -3 3 -5 -6 6 -8 -9
leaf_value=-0.010801033494151817 0.016384886887645514 0.022615283913587091 -0.011436546169096356 0.01739417221058721 0.011239531166350467 0.0056116509514064026 0.018783363222989364 0.021142483199866113
leaf_weight=27.852937094867233 27.237600401043892 1.7111930698156346 5.1687634810805347 13.627244479954241 2.5452509820461273 9.7706887051463145 14.66468597948551 71.621403709053993
leaf_count=373 37 4 49 23 11 37 18 46
internal_value=0.0129427 -0.00869444 0.0173732 0.00976262 -0.0038285 0.0186679 0.0136277 0.0198762
internal_weight=174.2 29.5641 144.636 21.3413 7.71401 123.294 24.4354 98.859
internal_count=598 377 221 83 60 138 55 83
is_linear=0
shrinkage=0.01


Tree=53
num_leaves=9
num_cat=0
split_feature=46 32 45 14 5 19 46 19
split_gain=163.744 19.8947 13.486 21.9873 9.08135 6.73195 9.68195 3.45945
threshold=-0.17323305642389655 0.40927577557142863 -0.38097607522734528 0.10347738100000002 3.5874259920000005 691.41288720000011 0.69635311890141527 384.57092750000004
decision_type=8 2 8 8 2 10 10 10
left_child=1 -1 5 4 -4 7 -7 -2
right_child=2 -3 3 -5 -6 6 -8 -9
leaf_value=-0.010790618385802324 0.016186563336603649 0.022182753093611281 -0.011427006567952371 0.017154266443131002 0.010719191685466757 0.005544888848218227 0.0185400535468472 0.0209046217541482
leaf_weight=27.60251330584288 27.298297099769115 1.7317744642496098 5.0788786783814457 13.682781621813772 2.6082029566168785 9.7922803610563296 14.711534947156904 71.714276753365993
leaf_count=373 37 4 48 23 12 37 18 46
internal_value=0.0128128 -0.00867391 0.0171709 0.00965378 -0.00380343 0.0184492 0.0134564 0.0196477
internal_weight=174.221 29.3343 144.886 21.3699 7.68708 123.516 24.5038 99.0126
internal_count=598 377 221 83 60 138 55 83
is_linear=0
shrinkage=0.01


end of trees

feature_importances:
water_area_km2_lag1_zscore=65
water_area_km2_lag1=48
water_area_km2_lag14=48
water_area_km2_lag14_zscore=23
water_area_km2_lag2=20
water_area_km2_lag3=19
water_area_km2_lag2_zscore=18
water_area_km2_lag7_zscore=12
soil_moisture_change_3day=11
water_area_km2_lag3_zscore=11
soil_moisture_lag3=10
water_area_km2_lag7=10
water_area_km2_lag5_zscore=9
precipitation_lag5=8
precipitation_7day_sum=7
precipitation_14day_sum=6
water_area_km2_lag5=5
precipitation_3day_sum=5
wind_speed=4
month=4
precipitation_lag3=4
soil_moisture_7day_avg=4
days_in_monsoon=4
humidity=3
precipitation_lag1=3
precipitation_lag7=3
precip_change_1day=3
temperature=2
pressure_lag1=2
precip_7day_x_monsoon=2
pressure=1
soil_moisture=1
soil_moisture_lag1=1
soil_moisture_lag2=1
humidity_lag1=1
humidity_lag2=1
temperature_7day_avg=1
pressure_zscore=1
pressure_low_x_humidity_high=1

parameters:
[boosting: gbdt]
[objective: binary]
[metric: auc]
[tree_learner: serial]
[device_type: cpu]
[data_sample_strategy: bagging]
[data: ]
[valid: ]
[num_iterations: 5000]
[learning_rate: 0.01]
[num_leaves: 21]
[num_threads: 0]
[seed: 42]
[deterministic: 0]
[force_col_wise: 0]
[force_row_wise: 0]
[histogram_pool_size: -1]
[max_depth: -1]
[min_data_in_leaf: 22]
[min_sum_hessian_in_leaf: 0.001]
[bagging_fraction: 0.862098]
[pos_bagging_fraction: 1]
[neg_bagging_fraction: 1]
[bagging_freq: 5]
[bagging_seed: 400]
[bagging_by_query: 0]
[feature_fraction: 0.60376]
[feature_fraction_bynode: 1]
[feature_fraction_seed: 30056]
[extra_trees: 0]
[extra_seed: 12879]
[early_stopping_round: 0]
[early_stopping_min_delta: 0]
[first_metric_only: 0]
[max_delta_step: 0]
[lambda_l1: 0.00845709]
[lambda_l2: 0.244444]
[linear_lambda: 0]
[min_gain_to_split: 0]
[drop_rate: 0.1]
[max_drop: 50]
[skip_drop: 0.5]
[xgboost_dart_mode: 0]
[uniform_drop: 0]
[drop_seed: 17869]
[top_rate: 0.2]
[other_rate: 0.1]
[min_data_per_group: 100]
[max_cat_threshold: 32]
[cat_l2: 10]
[cat_smooth: 10]
[max_cat_to_onehot: 4]
[top_k: 20]
[monotone_constraints: ]
[monotone_constraints_method: basic]
[monotone_penalty: 0]
[feature_contri: ]
[forcedsplits_filename: ]
[refit_decay_rate: 0.9]
[cegb_tradeoff: 1]
[cegb_penalty_split: 0]
[cegb_penalty_feature_lazy: ]
[cegb_penalty_feature_coupled: ]
[path_smooth: 0]
[interaction_constraints: ]
[verbosity: -1]
[saved_feature_importance_type: 0]
[use_quantized_grad: 0]
[num_grad_quant_bins: 4]
[quant_train_renew_leaf: 0]
[stochastic_rounding: 1]
[linear_tree: 0]
[max_bin: 255]
[max_bin_by_feature: ]
[min_data_in_bin: 3]
[bin_construct_sample_cnt: 200000]
[data_random_seed: 175]
[is_enable_sparse: 1]
[enable_bundle: 1]
[use_missing: 1]
[zero_as_missing: 0]
[feature_pre_filter: 1]
[pre_partition: 0]
[two_round: 0]
[header: 0]
[label_column: ]
[weight_column: ]
[group_column: ]
[ignore_column: ]
[categorical_feature: ]
[forcedbins_filename: ]
[precise_float_parser: 0]
[parser_config_file: ]
[objective_seed: 16083]
[num_class: 1]
[is_unbalance: 1]
[scale_pos_weight: 1]
[sigmoid: 1]
[boost_from_average: 1]
[reg_sqrt: 0]
[alpha: 0.9]
[fair_c: 1]
[poisson_max_delta_step: 0.7]
[tweedie_variance_power: 1.5]
[lambdarank_truncation_level: 30]
[lambdarank_norm: 1]
[label_gain: ]
[lambdarank_position_bias_regularization: 0]
[eval_at: ]
[multi_error_top_k: 1]
[auc_mu_weights: ]
[num_machines: 1]
[local_listen_port: 12400]
[time_out: 120]
[machine_list_filename: ]
[machines: ]
[gpu_platform_id: -1]
[gpu_device_id: -1]
[gpu_use_dp: 0]
[num_gpu: 1]

end of parameters

pandas_categorical:[]
