tree
version=v4
num_class=1
num_tree_per_iteration=1
label_index=0
max_feature_idx=52
objective=binary sigmoid:1
feature_names=evaporation precipitation pressure soil_moisture temperature wind_speed humidity month is_monsoon avg_elevation_m is_missing_precipitation precipitation_lag1 precipitation_lag2 precipitation_lag3 precipitation_lag5 precipitation_lag7 soil_moisture_lag1 soil_moisture_lag2 soil_moisture_lag3 water_area_km2_lag1 water_area_km2_lag2 water_area_km2_lag3 water_area_km2_lag5 water_area_km2_lag7 water_area_km2_lag14 humidity_lag1 humidity_lag2 pressure_lag1 precipitation_3day_sum precipitation_7day_sum precipitation_14day_sum precipitation_30day_sum soil_moisture_7day_avg temperature_7day_avg precip_change_1day soil_moisture_change_3day pressure_drop_1day precipitation_zscore soil_moisture_zscore temperature_zscore pressure_zscore water_area_km2_lag1_zscore water_area_km2_lag2_zscore water_area_km2_lag3_zscore water_area_km2_lag5_zscore water_area_km2_lag7_zscore water_area_km2_lag14_zscore days_since_heavy_rain days_since_dry_day days_in_monsoon precip_x_soil_moisture precip_7day_x_monsoon pressure_low_x_humidity_high
feature_infos=[-0.0032798359999999999:-6.7600000000000003e-05] [0:1549.5999999999999] [84200:100960.1382] [0.079473167999999997:0.423587506] [12.671372059999999:38.264351449999999] [0.093459249999999994:6.7545570220000002] [10.33721231:99.799999999999997] [1:12] [0:1] [109:285] [0:1] [0:387.39999999999998] [0:387.39999999999998] [0:387.39999999999998] [0:5.3513113739999998] [0:5.3513113739999998] [0.079702202999999999:0.42548794699999998] [0.079456637999999996:0.42548794699999998] [0.079456637999999996:0.42548794699999998] [0:1763.041487] [0:1763.041487] [0:1968.2472829999999] [0:2284.285464] [0:2944.5316029999999] [0:2944.5316029999999] [11.61961123:90.310797190000002] [11.61961123:90.310797190000002] [84200:100960.1382] [0:1549.6003419919998] [0:1549.6198086639999] [0:1549.6362879039998] [7.539999999999999e-05:1549.64010065] [0.079939569142857145:0.41599203614285718] [13.479483208571429:38.546001548571425] [-2.9668073929999998:1549.599871592] [-0.097754610999999991:0.21301699199999996] [-15652.458700000003:16218.517200000002] [-0.095123473749185408:11.328537295299652] [-0.61780960608176128:4.3681327535878793] [-2.2085620002082988:1.6188861265543508] [-15.03919136584433:1.6960741106336146] [-1.3617718203317275:2.2344469160301879] [-1.367096662628472:2.4185426454050791] [-1.3721217598723086:2.5699708827414365] [-1.3665079597487717:3.4275439896815239] [-1.3630679373853509:4.4811683090775078] [-1.3680545386003899:4.4665449261885124] [0:45] [0:732] [0:152] [0:340.89433843399996] [0:16.844043891999998] [0:6859.2760394199995]
tree_sizes=1048 1184 1088 1077 1290 977 1077 1079 1080 1077 1081 1178 1085 1186 1181 874 873 977 871 971 870 973 1078 872 868 1071 1071 1173 1175 1174 1084 1082 1081 1281 1083 981 1095 976 1087 1079 1188 1172 1085 1294 1293 984 978 1299 977 1087 1195 1183 1187 1182 1200 1184 1290 1088 1184 1189 1292 1189 1189 1290 1194 1189 1184 1188 1187 1187 1188 1191 1296 1191 1082 1079 1083 1512 1082

Tree=0
num_leaves=9
num_cat=0
split_feature=24 19 41 19 29 20 5 41
split_gain=1261.14 252.34 89.4365 111.853 62.6515 19.6815 11.7886 7.69395
threshold=615.25365915000009 296.69629330000004 0.34204028945544784 766.81211030000009 16.070903015500004 1061.8133300000002 3.1633424830000005 -0.71788491779249386
decision_type=8 10 10 8 8 10 2 10
left_child=4 6 7 -4 5 -1 -2 -3
right_child=1 2 3 -5 -6 -7 -8 -9
leaf_value=-1.9016609182278115 -1.8996436752549002 -1.8907110309304238 -1.833902965916804 -1.8993136951719445 -1.851809597470059 -1.8731666694811937 -1.8743461678325715 -1.8188949246513484
leaf_weight=43.655533827841282 4.4453415647149077 0.11398311704397102 5.9676494747400257 3.7614428624510774 1.8515924289822567 1.6666864752769459 1.7806695923209188 51.755934558808804
leaf_count=383 39 1 13 33 5 9 10 83
internal_value=-1.85789 -1.83059 -1.82455 -1.85776 -1.89756 -1.90024 -1.89105 -1.81907
internal_weight=114.999 67.825 61.599 9.72909 47.1738 45.3222 6.22601 51.8699
internal_count=576 179 130 46 397 392 49 84
is_linear=0
shrinkage=1


Tree=1
num_leaves=10
num_cat=0
split_feature=24 41 41 19 29 45 27 43 19
split_gain=1162.79 226.13 75.3671 104.664 64.1138 19.6356 11.7589 7.30116 6.89291
threshold=615.25365915000009 -0.71788491779249386 0.34204028945544784 766.81211030000009 16.611968046000005 -1.3524026276639984 100372.39825000001 1.5711446266758602 296.69629330000004
decision_type=8 10 10 8 8 8 10 8 10
left_child=4 6 7 -4 5 -1 -2 8 -3
right_child=1 2 3 -5 -6 -7 -8 -9 -10
leaf_value=0.017239732745612739 -0.0092046578507896139 -0.00027082770099669679 0.05407945185179542 -0.0088585197691843798 0.0397356663535577 -0.011213121355821426 0.016063058231226071 -0.00035324488749932252 0.067451541886440203
leaf_weight=1.668799042701721 4.4351132065057746 0.11321009695529838 6.2194373905658695 3.736845128238202 1.787514492869376 43.431243121623993 1.7826985865831373 0.12008771300315757 54.407738089561462
leaf_count=9 39 1 13 33 4 384 10 1 82
internal_value=0.0314848 0.0567815 0.062245 0.0317135 -0.00708827 -0.00978749 -0.000599864 0.0671202 0.0672906
internal_weight=117.703 70.8151 64.5973 9.95628 46.8876 45.1 6.21781 54.641 54.5209
internal_count=576 179 130 46 397 393 49 84 83
is_linear=0
shrinkage=0.01


Tree=2
num_leaves=9
num_cat=0
split_feature=24 19 41 19 29 0 22 43
split_gain=1076.48 203.929 64.1095 98.1943 62.5765 19.5401 11.691 6.60886
threshold=615.25365915000009 296.69629330000004 0.34204028945544784 766.81211030000009 16.611968046000005 -8.4799999999999988e-05 450.60323945000005 1.5711446266758602
decision_type=8 10 10 8 10 2 8 8
left_child=4 6 7 -4 5 -1 -2 -3
right_child=1 2 3 -5 -6 -7 -8 -9
leaf_value=-0.011195298573888342 -0.0091925219612945513 0.063546938489981331 0.051836454221766311 -0.0088344400065016784 0.038751894736214619 0.017158775793620823 0.015995160058102358 -0.00035287590113168809
leaf_weight=43.086047805845737 4.4198642224073401 57.200088746845722 6.4656618982553455 3.7124084383249292 1.8396837711334217 1.6757864281535138 1.7890505716204641 0.12005713582038779
leaf_count=384 39 83 13 33 4 9 10 1
internal_value=0.0305056 0.0540403 0.0590147 0.0308069 -0.0070502 -0.00976017 -0.000584125 0.0633922
internal_weight=120.309 73.7071 67.4982 10.1781 46.6015 44.7618 6.20891 57.3201
internal_count=576 179 130 46 397 393 49 84
is_linear=0
shrinkage=0.01


Tree=3
num_leaves=9
num_cat=0
split_feature=24 19 19 6 19 19 21 21
split_gain=1000.31 184.989 54.7655 52.1927 49.9174 33.375 19.4779 11.534
threshold=615.25365915000009 296.69629330000004 692.06514095000011 86.436432850000003 730.64264925000009 788.58873015000006 1123.3077595000002 314.37764675000005
decision_type=8 10 10 2 10 10 10 8
left_child=3 7 -3 6 -4 -6 -1 -2
right_child=1 2 4 -5 5 -7 -8 -9
leaf_value=-0.011176321918544944 -0.0091719600541158297 0.060363074021144145 0.050782729499969072 0.031535414019254401 0.033095564735145418 -0.0089016380274314529 0.017131886733414769 0.0158166224195442
leaf_weight=42.324695065617561 4.3941128924489012 58.759820073843002 5.5215564072132093 2.3144280239939681 2.1925279423594475 3.8280977830290794 1.6780510693788517 1.8059560656547544
leaf_count=380 39 81 9 8 6 34 9 10
internal_value=0.0295935 0.0515735 0.0561296 -0.00701244 0.0314031 0.00878562 -0.00971787 -0.000568583
internal_weight=122.819 76.5021 70.302 46.3172 11.5422 6.02063 44.0027 6.20007
internal_count=576 179 130 397 49 40 389 49
is_linear=0
shrinkage=0.01


Tree=4
num_leaves=11
num_cat=0
split_feature=24 41 41 28 19 19 43 27 43 19
split_gain=933.31 169.361 47.3583 45.4341 36.0262 31.3353 19.326 11.5036 5.49232 5.14337
threshold=615.25365915000009 -0.71788491779249386 0.34204028945544784 2.4299329015000004 730.64264925000009 817.83326700000009 1.3033549584562978 100372.39825000001 1.5711446266758602 296.69629330000004
decision_type=8 10 10 10 8 10 10 10 8 10
left_child=3 7 8 6 -4 -6 -1 -2 9 -3
right_child=1 2 4 -5 5 -7 -8 -9 -10 -11
leaf_value=-0.011155408360934246 -0.009172218752725626 -0.00025235872144543968 0.047124427523139445 0.026875901786302083 0.032347688956218791 -0.0087211864684596865 0.016995929494149513 0.015771625393997214 -0.0003432341146355209 0.057420562675300629
leaf_weight=41.636985771358013 4.3932564258575431 0.11165587604045768 4.7966526001691792 2.7130116820335379 2.243645854294301 3.5527443885803223 1.6898726299405087 1.8101864382624624 0.11925754696130653 62.150552183389664
leaf_count=377 39 1 8 11 6 32 9 10 1 82
internal_value=0.0287486 0.0493616 0.0535706 -0.00697548 0.0291885 0.009449 -0.00967621 -0.000575686 0.0571693 0.057299
internal_weight=125.218 79.178 72.9745 46.0399 10.593 5.79639 43.3269 6.20344 62.3815 62.2622
internal_count=576 179 130 397 46 38 386 49 84 83
is_linear=0
shrinkage=0.01


Tree=5
num_leaves=8
num_cat=0
split_feature=24 19 29 19 19 44 36
split_gain=839.081 127.755 59.0312 55.7907 73.3123 19.3146 10.6267
threshold=587.22881350000011 74.721747020000024 16.611968046000005 698.3485065000001 784.19782505000012 2.0176303498358723 110.10370500000137
decision_type=8 10 8 10 10 10 10
left_child=2 6 5 -3 -5 -1 -2
right_child=1 3 -4 4 -6 -7 -8
leaf_value=-0.011143386823708102 -0.0088137906371077452 0.054316202019203584 0.036552127640538383 0.043254860494092801 -0.0088756735453587275 0.016995245693418041 0.015769867731955101
leaf_weight=41.880347788333893 3.6908613815903655 61.039684064686298 1.9629248678684224 6.3948976248502714 3.7424052134156227 1.6897995769977558 1.8102200627326963
leaf_count=382 33 87 4 13 33 9 10
internal_value=0.027008 0.0469953 -0.00691588 0.050536 0.024851 -0.00967281 0.000303415
internal_weight=122.211 76.6781 45.5331 71.177 10.1373 43.5701 5.50108
internal_count=571 176 395 133 46 391 43
is_linear=0
shrinkage=0.01


Tree=6
num_leaves=9
num_cat=0
split_feature=24 19 29 19 19 19 42 23
split_gain=787.361 117.456 57.6831 49.3651 22.7892 27.2899 19.2166 10.5308
threshold=587.22881350000011 74.721747020000024 16.611968046000005 698.3485065000001 740.40342685000007 788.58873015000006 0.99882695014454048 605.54316340000014
decision_type=8 10 8 10 10 10 10 8
left_child=2 7 6 -3 -5 -6 -1 -2
right_child=1 3 -4 4 5 -7 -8 -9
leaf_value=-0.011126234420582715 -0.0088000914536771318 0.051926324126827135 0.03570135864345475 0.039658317280327142 0.028968944555233071 -0.0086824556364886781 0.016911278504930509 0.015656675430122773
leaf_weight=41.54542925208807 3.676935300230979 63.245021782815456 2.0131781399250022 4.3345372229814512 2.5031446889042854 3.4622577801346779 1.6970406249165524 1.8209758773446081
leaf_count=382 33 87 4 8 7 31 9 10
internal_value=0.0262982 0.0451547 -0.00687885 0.0484447 0.0242743 0.00886367 -0.00964594 0.000309276
internal_weight=124.299 79.0429 45.2556 73.545 10.2999 5.9654 43.2425 5.49791
internal_count=571 176 395 133 46 38 391 43
is_linear=0
shrinkage=0.01


Tree=7
num_leaves=9
num_cat=0
split_feature=24 19 29 19 19 19 45 27
split_gain=741.011 108.476 56.3846 43.4993 21.4523 26.5305 19.1624 10.4758
threshold=587.22881350000011 74.721747020000024 16.611968046000005 698.3485065000001 730.64264925000009 788.58873015000006 -1.1929828071597115 100299.41525000002
decision_type=8 10 8 10 8 10 8 10
left_child=2 7 6 -3 -5 -6 -1 -2
right_child=1 3 -4 4 5 -7 -8 -9
leaf_value=0.016880823131129468 -0.0087914264409308038 0.049756657366508437 0.034885381921990838 0.038513483155723657 0.028364516118977372 -0.0086585344506195944 -0.011109538055856053 0.015594383015280218
leaf_weight=1.6995473057031629 3.6678996682167044 65.375334843993187 2.0628008246421805 4.4478924572467777 2.5519804209470758 3.4399791359901428 41.217438012361526 1.8268463090062139
leaf_count=9 33 87 4 8 7 31 382 10
internal_value=0.0256359 0.0434794 -0.00684211 0.0465499 0.0237874 0.00876814 -0.00961919 0.000314936
internal_weight=126.29 81.3099 44.9798 75.8152 10.4399 5.99196 42.917 5.49475
internal_count=571 176 395 133 46 38 391 43
is_linear=0
shrinkage=0.01


Tree=8
num_leaves=9
num_cat=0
split_feature=24 19 29 19 19 19 0 22
split_gain=698.971 100.533 55.1333 38.523 20.2215 25.8015 19.8554 10.4085
threshold=587.22881350000011 74.721747020000024 16.611968046000005 698.3485065000001 730.64264925000009 788.58873015000006 -8.2199999999999979e-05 406.12196615000005
decision_type=8 10 8 10 8 10 2 8
left_child=2 7 6 -3 -5 -6 -1 -2
right_child=1 3 -4 4 5 -7 -8 -9
leaf_value=-0.011092953656758235 -0.0087811913268993676 0.04777799781210023 0.034102437815314621 0.037433004571832247 0.027782211475814406 -0.0086347065237503216 0.017840862288380045 0.015516764122704542
leaf_weight=40.984240256249905 3.6573826670646659 67.432644963264465 2.1117668747901908 4.5588096827268574 2.6001283824443826 3.4178478568792343 1.6094508916139592 1.8342051804065702
leaf_count=383 33 87 4 8 7 31 8 10
internal_value=0.0250108 0.0419357 -0.00680565 0.0448115 0.0233187 0.00867383 -0.00959254 0.000320465
internal_weight=128.206 83.501 44.7055 78.0094 10.5768 6.01798 42.5937 5.49159
internal_count=571 176 395 133 46 38 391 43
is_linear=0
shrinkage=0.01


Tree=9
num_leaves=9
num_cat=0
split_feature=24 19 29 19 45 19 19 27
split_gain=660.685 93.4701 53.9267 34.2752 19.7384 19.0865 25.1013 11.0722
threshold=587.22881350000011 74.721747020000024 16.611968046000005 698.3485065000001 -1.3297718153410807 730.64264925000009 788.58873015000006 100305.53280000002
decision_type=8 10 8 10 8 8 10 10
left_child=2 7 4 -3 -1 -5 -7 -2
right_child=1 3 -4 5 -6 6 -8 -9
leaf_value=0.017733267707272894 -0.0088229593009117157 0.045966098255463363 0.033350846159016498 0.036411845214468511 -0.011076268756581029 0.027220946255831872 -0.0086109705224112244 0.016411060484558974
leaf_weight=1.6181872710585592 3.7467236816883078 69.418913185596466 2.1600532829761496 4.667281121015546 40.653474316000938 2.6475795805454263 3.3958631828427315 1.7417099773883817
leaf_count=8 34 87 4 8 383 7 31 9
internal_value=0.0244201 0.0405088 -0.0067694 0.0432108 -0.00956598 0.0228674 0.00858074 0.000325844
internal_weight=130.05 85.6181 44.4317 80.1296 42.2717 10.7107 6.04344 5.48843
internal_count=571 176 395 133 391 46 38 43
is_linear=0
shrinkage=0.01


Tree=10
num_leaves=9
num_cat=0
split_feature=24 19 31 41 19 21 36 24
split_gain=604.601 98.9551 58.6897 41.8344 45.0374 19.7673 11.6937 3.20976
threshold=587.22881350000011 74.721747020000024 968.55912599300007 0.41918259146972986 766.81211030000009 1109.0875990000002 128.7278000000006 734.25672705000011
decision_type=8 10 8 8 8 8 10 10
left_child=2 6 5 7 -5 -1 -2 -3
right_child=1 3 -4 4 -6 -7 -8 -9
leaf_value=-0.011056777194284171 -0.009093107167447342 0.032029076266105856 0.036947383809633617 0.034221008545707692 -0.0086737529156484423 0.017842440161965338 0.016319608899182613 0.045686246830791866
leaf_weight=39.333236038684845 4.2940334230661383 14.138972803950308 1.9249557256698597 4.9367256015539143 3.5488678887486467 1.6086293160915364 1.7498151436448095 63.914001457393169
leaf_count=373 39 34 2 10 33 8 9 67
internal_value=0.0243436 0.0385971 -0.00659592 0.0412992 0.0171529 -0.00949913 -0.000321317 0.0436614
internal_weight=135.449 92.5824 42.8668 86.5386 8.48559 40.9419 6.04385 78.053
internal_count=575 192 383 144 43 381 48 101
is_linear=0
shrinkage=0.01


Tree=11
num_leaves=10
num_cat=0
split_feature=46 41 19 1 45 43 44 5 43
split_gain=522.183 99.0059 100.681 56.9206 19.6956 17.7 24.8521 11.8576 6.66571
threshold=-0.15908883482345568 0.55947121390570775 74.721747020000024 968.50000000000011 -1.0878633458204419 -0.10994000100860514 1.3813973780894362 3.1633424830000005 0.76025885420820905
decision_type=8 8 10 10 8 10 10 2 8
left_child=3 2 7 4 -1 -4 8 -2 -7
right_child=1 -3 5 -5 -6 6 -8 -9 -10
leaf_value=0.017894491627053814 -0.0091370034110385932 -0.0090395775585111558 0.043756540702447486 0.036130899160372584 -0.011021067026635552 0.0023419201084616628 0.039117846912514194 0.016387605265758536 0.020915508721648025
leaf_weight=1.6038682982325552 4.3977087363600722 4.2146289423108092 70.73395799100399 1.9711334705352772 36.795315608382225 4.2891469225287437 8.193420581519602 1.743290342390537 3.2927092388272277
leaf_count=8 40 39 80 2 352 24 12 9 9
internal_value=0.0237966 0.036286 0.0384331 -0.0062992 -0.0093644 0.04118 0.0276477 -0.000470932 0.012022
internal_weight=137.235 96.8649 92.6502 40.3703 38.3992 86.5092 15.7753 6.141 7.58186
internal_count=575 213 174 362 360 125 45 49 33
is_linear=0
shrinkage=0.01


Tree=12
num_leaves=9
num_cat=0
split_feature=24 45 1 36 43 21 21 45
split_gain=545.569 57.711 56.1294 43.8342 19.5041 15.7124 10.1554 6.83802
threshold=587.22881350000011 -0.4118499139446945 968.50000000000011 -1.0000000180025095e-35 1.2042274947253986 541.1207194000001 1006.2025395000002 0.092574725272961775
decision_type=8 10 10 8 10 10 10 10
left_child=2 5 4 -3 -1 -2 -7 -5
right_child=1 3 -4 7 -6 6 -8 -9
leaf_value=-0.011025237085156729 0.041757695435089739 -0.0093709291566855604 0.035347878494917453 0.013247298408066575 0.017589196722062109 0.010934707093490341 0.032219655106414377 0.035262290074084428
leaf_weight=38.723169147968292 69.608402609825134 4.2718682065606117 2.0165693759918204 4.6708833873271924 1.6291874200105656 5.1555035039782515 8.1062935888767225 4.7818422690033913
leaf_count=373 86 35 2 24 8 23 16 8
internal_value=0.0232751 0.0362904 -0.00652732 0.0155931 -0.00944836 0.0394795 0.0253622 0.0267877
internal_weight=138.964 96.5948 42.3689 13.7246 40.3524 82.8702 13.2618 9.45273
internal_count=575 192 383 67 381 125 39 32
is_linear=0
shrinkage=0.01


Tree=13
num_leaves=10
num_cat=0
split_feature=24 19 1 19 0 19 19 24 24
split_gain=519.116 83.0722 54.9144 33.1805 20.2427 17.4087 26.0423 11.3659 3.20475
threshold=587.22881350000011 74.721747020000024 968.50000000000011 698.3485065000001 -8.1449999999999988e-05 730.64264925000009 784.19782505000012 1632.5965525000004 734.25672705000011
decision_type=8 10 10 10 2 10 10 8 10
left_child=2 7 4 8 -1 -5 -7 -2 -3
right_child=1 3 -4 5 -6 6 -8 -9 -10
leaf_value=-0.011009745970754263 -0.0090836105318056071 0.028929569505349861 0.034596629723135361 0.031534441429764165 0.018610306526214055 0.026188037850987066 -0.0089605978766668839 0.015857407636098244 0.041771579666768893
leaf_weight=38.509271554648876 4.2797523215413085 13.583948388695715 2.0612411499023429 5.2542360275983793 1.5382696166634549 2.724199503660202 3.9798857718706131 1.79162111133337 66.913976594805717
leaf_count=374 39 31 2 9 7 6 36 9 62
internal_value=0.0227793 0.0352387 -0.00649149 0.0375674 -0.00942198 0.0193027 0.00673756 -0.000380596 0.0399983
internal_weight=140.636 98.5276 42.1088 92.4562 40.0475 11.9583 6.70409 6.07137 80.4979
internal_count=575 192 383 144 381 51 42 48 93
is_linear=0
shrinkage=0.01


Tree=14
num_leaves=10
num_cat=0
split_feature=24 19 31 41 20 5 19 19 24
split_gain=494.936 78.3447 53.7423 25.7545 20.0946 11.296 9.58426 25.8273 4.94658
threshold=587.22881350000011 74.721747020000024 968.55912599300007 0.39259439172023686 1089.8226365000003 3.1633424830000005 730.64264925000009 784.19782505000012 651.88539290000006
decision_type=8 10 8 8 10 2 8 10 10
left_child=2 5 4 8 -1 -2 -5 -8 -3
right_child=1 3 -4 6 -6 -7 7 -9 -10
leaf_value=-0.010993542499199187 -0.0090716809843860834 0.024041810700057172 0.033875543282007252 0.029147959479268685 0.018466243102498635 0.015786687333790961 0.027444631961809633 -0.0086829090514582742 0.039656989903238911
leaf_weight=38.194699995219707 4.2646710351109496 8.3363531529903394 2.1051285266876212 4.023580610752103 1.5491525903344143 1.7979146614670751 2.6030805557966241 3.5579889044165611 75.769602380692959
leaf_count=374 39 23 2 7 7 9 5 33 76
internal_value=0.0223141 0.0342669 -0.00645587 0.0364847 -0.00939566 -0.000366666 0.0183945 0.00814245 0.0384217
internal_weight=142.202 100.353 41.849 94.2906 39.7439 6.06259 10.1847 6.16107 84.106
internal_count=575 192 383 144 381 48 45 38 99
is_linear=0
shrinkage=0.01


Tree=15
num_leaves=7
num_cat=0
split_feature=24 19 1 19 19 22
split_gain=465.042 102.532 52.4567 22.9121 62.8616 20.0148
threshold=587.22881350000011 74.721747020000024 968.50000000000011 680.09820520000005 784.19782505000012 1462.8786690000002
decision_type=8 10 10 10 10 8
left_child=2 -2 5 -3 -5 -1
right_child=1 3 -4 4 -6 -7
leaf_value=-0.010973426452034111 -0.0093310976038123612 0.03792431263091451 0.033183094124465559 0.033684143202937181 -0.0091286233985092852 0.018438915721442056
leaf_weight=37.115252733230591 4.9182740151882163 82.126967906951904 2.1482145786285392 10.622480869293211 4.3085578233003607 1.5507642328739155
leaf_count=366 45 89 2 16 39 7
internal_value=0.0220709 0.0333994 -0.00633167 0.0356479 0.0214696 -0.00933347
internal_weight=142.791 101.976 40.8142 97.058 14.931 38.666
internal_count=564 189 375 144 55 373
is_linear=0
shrinkage=0.01


Tree=16
num_leaves=7
num_cat=0
split_feature=24 19 29 19 19 22
split_gain=444.1 97.6358 51.3646 21.1426 60.3698 19.7765
threshold=587.22881350000011 74.721747020000024 968.50180299400006 680.09820520000005 766.81211030000009 1462.8786690000002
decision_type=8 10 8 10 8 8
left_child=2 -2 5 -3 -5 -1
right_child=1 3 -4 4 -6 -7
leaf_value=-0.010956992734428517 -0.0093078130113873146 0.036838166457965213 0.03251783410394115 0.032820509894485858 -0.0091048072728955737 0.018181673703381689
leaf_weight=36.802279412746429 4.8839456960558882 83.724186688661575 2.1904842853546134 10.818287551403042 4.2793918699026117 1.5710238143801678
leaf_count=366 45 89 2 16 39 7
internal_value=0.0216317 0.0325209 -0.00629649 0.0346707 0.0210474 -0.00930716
internal_weight=144.27 103.706 40.5638 98.8219 15.0977 38.3733
internal_count=564 189 375 144 55 373
is_linear=0
shrinkage=0.01


Tree=17
num_leaves=8
num_cat=0
split_feature=24 19 7 21 41 45 44
split_gain=424.633 93.1247 51.061 19.6778 39.9322 22.4371 28.2361
threshold=587.22881350000011 74.721747020000024 1.5000000000000002 566.98512700000015 0.55947121390570775 -1.1929828071597115 2.1559899737932127
decision_type=8 10 2 10 8 8 10
left_child=2 -2 -1 4 -3 -5 -7
right_child=1 3 -4 5 -6 6 -8
leaf_value=0.019204357937120789 -0.009284624780826492 0.036976207144583419 -0.010923296052177567 0.030275911855034497 -0.0069258509245306759 -0.0097968199931835701 0.026602742766425727
leaf_weight=5.7219772934913626 4.8498503789305678 81.969863459467888 34.592599734663963 9.9259728342294675 1.7885771840810765 4.1613702103495624 2.6745160594582558
leaf_count=28 45 77 347 15 17 29 6
internal_value=0.0212126 0.0316937 -0.00626165 0.0337526 0.0359563 0.0212805 0.00589432
internal_weight=145.685 105.37 40.3146 100.52 83.7584 16.7619 6.83589
internal_count=564 189 375 144 94 50 35
is_linear=0
shrinkage=0.01


Tree=18
num_leaves=7
num_cat=0
split_feature=24 19 7 19 19 19
split_gain=406.865 88.9743 50.1452 18.322 21.8789 25.5413
threshold=587.22881350000011 74.721747020000024 1.5000000000000002 680.09820520000005 730.64264925000009 784.19782505000012
decision_type=8 10 2 10 8 10
left_child=2 -2 -1 -3 -5 -6
right_child=1 3 -4 4 5 -7
leaf_value=0.018831857118799807 -0.009261531123989631 0.034877771558494447 -0.010907068004746183 0.03035759938761597 0.025077832829378269 -0.0090816191567652301
leaf_weight=5.7962106838822356 4.815987415611743 86.719731405377388 34.300579443573952 8.3742913901805842 2.8041563034057626 4.2488001212477684
leaf_count=28 45 89 347 11 5 39
internal_value=0.0208083 0.0309172 -0.00623018 0.0328927 0.0202294 0.00580313
internal_weight=147.06 106.963 40.0968 102.147 15.4272 7.05296
internal_count=564 189 375 144 55 44
is_linear=0
shrinkage=0.01


Tree=19
num_leaves=8
num_cat=0
split_feature=24 41 7 21 41 45 44
split_gain=390.317 85.1386 49.2561 17.6485 36.3224 20.8508 27.2213
threshold=587.22881350000011 -1.1749941811157305 1.5000000000000002 566.98512700000015 0.55947121390570775 -1.1929828071597115 2.1559899737932127
decision_type=8 10 2 10 8 8 10
left_child=2 -2 -1 4 -3 -5 -7
right_child=1 3 -4 5 -6 6 -8
leaf_value=0.018471355297075373 -0.00923853021310868 0.03507165845812231 -0.010890983916584615 0.028885840166237475 -0.0068773290977139287 -0.0098339498545409899 0.025657761239326449
leaf_weight=5.8693848252296439 4.782356232404708 84.780133903026581 34.010653503239155 10.233799658715723 1.766874074935912 4.171048745512965 2.7545632719993591
leaf_count=28 45 77 347 15 17 29 6
internal_value=0.0204231 0.0301856 -0.00619896 0.032084 0.0341351 0.020374 0.00561242
internal_weight=148.369 108.489 39.88 103.706 86.547 17.1594 6.92561
internal_count=564 189 375 144 94 50 35
is_linear=0
shrinkage=0.01


Tree=20
num_leaves=7
num_cat=0
split_feature=24 41 7 21 21 43
split_gain=396.148 66.6377 53.7474 43.7484 15.8645 17.0921
threshold=587.22881350000011 -0.71788491779249386 1.5000000000000002 799.9261780500002 391.72093750000005 1.153325426869017
decision_type=8 10 2 8 8 8
left_child=2 3 -1 -2 -3 -6
right_child=1 4 -4 -5 5 -7
leaf_value=0.020624917718066463 -0.0099818493357492644 0.033923820586166185 -0.010887472702949765 0.034723163574277953 0.0061631423635057827 0.02851548317272716
leaf_weight=5.3993985056877127 6.6952601000666592 89.381260618567467 35.23654593527317 2.0615591779351243 6.5195059403777105 8.7849989607930166
leaf_count=23 59 85 363 3 28 15
internal_value=0.0203794 0.0299097 -0.00628153 0.00292043 0.0321088 0.020017
internal_weight=154.079 113.443 40.6359 8.75682 104.686 15.3045
internal_count=576 190 386 62 128 43
is_linear=0
shrinkage=0.01


Tree=21
num_leaves=8
num_cat=0
split_feature=24 41 29 21 45 21 43
split_gain=380.664 63.2386 47.9853 42.626 20.294 14.8169 16.3536
threshold=587.22881350000011 -0.71788491779249386 968.50180299400006 799.9261780500002 -1.3524026276639984 391.72093750000005 1.153325426869017
decision_type=8 10 8 8 8 8 8
left_child=2 3 4 -2 -1 -3 -7
right_child=1 5 -4 -5 -6 6 -8
leaf_value=0.019033159775126044 -0.0099578245723243742 0.033094632648124456 0.030410880489284656 0.033975429726136125 -0.010896735005862771 0.0060920751042304391 0.027900403772185133
leaf_weight=1.4933716803789137 6.6469542384147617 90.722665123641491 2.3300318717956534 2.1076337620615968 36.585963279008865 6.5411596298217756 8.9102869629859907
leaf_count=6 59 85 2 3 378 28 15
internal_value=0.020018 0.029237 -0.00625072 0.00291516 -0.00924037 0.0313506 0.0196604
internal_weight=155.338 114.929 40.4094 8.75459 38.0793 106.174 15.4514
internal_count=576 190 386 62 384 128 43
is_linear=0
shrinkage=0.01


Tree=22
num_leaves=9
num_cat=0
split_feature=24 41 7 22 19 19 19 19
split_gain=365.882 60.0992 52.1773 41.5469 6.034 18.3099 19.4833 3.30949
threshold=587.22881350000011 -0.71788491779249386 1.5000000000000002 1256.1451165000001 680.09820520000005 730.64264925000009 784.19782505000012 296.69629330000004
decision_type=8 10 2 8 10 10 10 10
left_child=2 3 -1 -2 7 -6 -7 -3
right_child=1 4 -4 -5 5 6 -8 -9
leaf_value=0.020016357342578672 -0.0099339253519829598 -0.0011056242927553017 -0.010856912612958019 0.033257383468451251 0.029618480465107191 0.021843598167804752 -0.0086615572165168759 0.032092155385924123
leaf_weight=5.5046219229698172 6.5989626720547649 0.17718212306499381 34.651754066348076 2.1529665365815172 9.977972626686098 3.1320485472679129 3.3748830407857895 90.941954031586647
leaf_count=23 59 1 363 3 11 6 30 80
internal_value=0.0196768 0.0285985 -0.006217 0.00290936 0.0306327 0.021591 0.00684241 0.0320054
internal_weight=156.512 116.356 40.1564 8.75193 107.604 16.4849 6.50693 91.1191
internal_count=576 190 386 62 128 47 36 81
is_linear=0
shrinkage=0.01


Tree=23
num_leaves=7
num_cat=0
split_feature=24 41 7 21 21 21
split_gain=352.359 57.2289 51.2359 40.5091 13.5252 15.6933
threshold=587.22881350000011 -0.71788491779249386 1.5000000000000002 799.9261780500002 391.72093750000005 1067.9868320000003
decision_type=8 10 2 8 8 8
left_child=2 3 -1 -2 -3 -6
right_child=1 4 -4 -5 5 -7
leaf_value=0.019633332232845049 -0.0099101492829539763 0.031602994067984384 -0.010841484047935271 0.032567528643543106 0.0057758611103564759 0.026880640676202945
leaf_weight=5.5750409290194503 6.5512850210070583 93.181325644254684 34.356958769261837 2.1975404694676408 6.6716451570391628 9.0950118228793144
leaf_count=23 59 85 363 3 29 14
internal_value=0.019348 0.0279989 -0.00618665 0.00290308 0.0299604 0.0188869
internal_weight=157.629 117.697 39.932 8.74883 108.948 15.7667
internal_count=576 190 386 62 128 43
is_linear=0
shrinkage=0.01


Tree=24
num_leaves=7
num_cat=0
split_feature=24 19 7 21 21 43
split_gain=339.507 54.541 50.3219 39.5119 12.7268 15.1187
threshold=587.22881350000011 296.69629330000004 1.5000000000000002 799.9261780500002 391.72093750000005 1.153325426869017
decision_type=8 10 2 8 8 8
left_child=2 3 -1 -2 -3 -6
right_child=1 4 -4 -5 5 -7
leaf_value=0.019262735519854308 -0.0098869445652804821 0.030900403748257477 -0.010826188429504955 0.031904443298939482 0.005656994259718196 0.026327407106915172
leaf_weight=5.6443623378872863 6.5042968839406941 94.363910786807537 34.06432294100523 2.2413408756256112 6.6639023050665838 9.2353521734476072
leaf_count=23 59 85 363 3 28 15
internal_value=0.0190286 0.0274215 -0.00615653 0.00289551 0.0293144 0.0185703
internal_weight=158.717 119.009 39.7087 8.74564 110.263 15.8993
internal_count=576 190 386 62 128 43
is_linear=0
shrinkage=0.01


Tree=25
num_leaves=9
num_cat=0
split_feature=24 29 41 19 22 18 24 24
split_gain=305.699 76.3356 52.9857 48.0769 20.5513 11.6134 4.63809 2.68531
threshold=587.22881350000011 16.611968046000005 0.55947121390570775 74.721747020000024 1495.2511190000002 0.25599881050000006 734.25672705000011 712.18642095000007
decision_type=8 8 8 10 10 8 10 8
left_child=1 4 3 5 -1 -2 7 -5
right_child=2 -3 -4 6 -6 -7 -8 -9
leaf_value=-0.010852046529829169 -0.008911812942868488 0.034681553276067173 -0.0088079631760728458 0.025873815711494559 0.019550930100748889 0.016681111026402608 0.03066228129700688 0.014261570824954904
leaf_weight=36.106075912714005 4.1555800363421431 3.4313027411699286 3.6121159866452208 12.644600301980974 1.4438329264521588 1.7020914331078527 91.697927638888359 8.8824135810136777
leaf_count=384 41 4 32 19 5 8 78 23
internal_value=0.0187981 -0.00474529 0.0266447 0.0277928 -0.00918025 0 0.0292257 0.0219726
internal_weight=163.676 40.9812 122.695 119.083 37.5499 5.85767 113.225 21.527
internal_count=594 393 201 169 389 49 120 42
is_linear=0
shrinkage=0.01


Tree=26
num_leaves=9
num_cat=0
split_feature=24 6 41 19 22 18 24 24
split_gain=294.546 69.6309 51.1138 46.0352 20.2989 11.4216 4.32891 2.51913
threshold=587.22881350000011 86.436432850000003 0.55947121390570775 74.721747020000024 1495.2511190000002 0.25599881050000006 734.25672705000011 712.18642095000007
decision_type=8 2 8 10 8 8 10 8
left_child=1 4 3 5 -1 -2 7 -5
right_child=2 -3 -4 6 -6 -7 -8 -9
leaf_value=-0.010836392551985475 -0.0088893126225471804 0.031486669653282208 -0.0087837501594931807 0.025365059057518066 0.019287723469366296 0.016455449155619858 0.030013706651597895 0.014052244605428827
leaf_weight=35.542137563228607 4.1271114647388449 3.7541505098342887 3.5887262225151053 12.788557544350626 1.4624527096748341 1.7217922583222387 92.758822821080685 8.9391892254352552
leaf_count=381 41 7 32 19 5 8 78 23
internal_value=0.0185026 -0.00471273 0.0261228 0.0272359 -0.00914336 0 0.0286221 0.0215778
internal_weight=164.683 40.7587 123.924 120.335 37.0046 5.8489 114.487 21.7277
internal_count=594 393 201 169 386 49 120 42
is_linear=0
shrinkage=0.01


Tree=27
num_leaves=10
num_cat=0
split_feature=24 29 41 19 45 21 24 44 44
split_gain=284.036 72.9085 49.3518 44.1291 20.1342 11.2773 4.05648 5.62772 23.615
threshold=587.22881350000011 16.611968046000005 0.55947121390570775 74.721747020000024 -1.3578220309004569 331.61012800000009 734.25672705000011 -1.0043878994521136 1.2102633682005837
decision_type=8 10 8 10 8 8 10 8 8
left_child=1 4 3 5 -1 -2 7 -5 -9
right_child=2 -3 -4 6 -6 -7 -8 8 -10
leaf_value=0.019114579428228477 -0.0088710662513374703 0.03324079508268795 -0.0087596346802026118 0.027122398832195738 -0.010822939984269021 0.01628990768057207 0.029397295939368257 -0.0011163157180497283 0.026243390411084644
leaf_weight=1.4742783755064008 4.1040621027350417 3.5554525703191748 3.5654895752668372 10.464129164814947 35.511395834386349 1.7361095175147054 93.772553354501724 5.5146832093596476 5.9439057558774948
leaf_count=5 41 4 32 10 384 8 78 24 8
internal_value=0.0182176 -0.00468064 0.0256243 0.0267045 -0.00913149 0 0.028047 0.021197 0.013963
internal_weight=165.642 40.5411 125.101 121.535 36.9857 5.84017 115.695 21.9227 11.4586
internal_count=594 393 201 169 389 49 120 42 32
is_linear=0
shrinkage=0.01


Tree=28
num_leaves=10
num_cat=0
split_feature=24 29 41 41 44 23 24 44 44
split_gain=274.132 71.1947 47.7007 42.3588 20.6711 11.979 3.75575 5.37897 22.8659
threshold=587.22881350000011 16.611968046000005 0.55947121390570775 -1.1749941811157305 2.3833560732460479 660.97935150000012 734.25672705000011 -1.0043878994521136 1.2102633682005837
decision_type=8 8 8 10 10 8 10 8 8
left_child=1 4 3 5 -1 -2 7 -5 -9
right_child=2 -3 -4 6 -6 -7 -8 8 -10
leaf_value=-0.010808305811297911 -0.008906021601998498 0.032522105022592319 -0.0087356152230843535 0.026624115642804199 0.019903719458970206 0.01725009236461561 0.028810705569435876 -0.0011073763337892957 0.025753429580000823
leaf_weight=35.291949212551117 4.1889382824301711 3.6194536685943595 3.5424057319760314 10.571537494659422 1.4081930294632901 1.6425209566950796 94.740355379879475 5.5116951912641543 6.0150810182094574
leaf_count=385 42 4 32 10 4 7 78 24 8
internal_value=0.0179457 -0.00464884 0.0251514 0.0262008 -0.00910666 0 0.0275027 0.0208471 0.0137666
internal_weight=166.532 40.3196 126.213 122.67 36.7001 5.83146 116.839 22.0983 11.5268
internal_count=594 393 201 169 389 49 120 42 32
is_linear=0
shrinkage=0.01


Tree=29
num_leaves=10
num_cat=0
split_feature=24 29 41 19 42 17 24 44 44
split_gain=264.748 69.5489 46.1425 40.6887 20.8929 11.8869 3.48634 5.14776 22.1525
threshold=587.22881350000011 16.611968046000005 0.55947121390570775 74.721747020000024 1.1874679498424565 0.2978179465000001 734.25672705000011 -1.0043878994521136 1.2102633682005837
decision_type=8 8 8 10 10 8 10 8 8
left_child=1 4 3 5 -1 -2 7 -5 -9
right_child=2 -3 -4 6 -6 -7 -8 8 -10
leaf_value=-0.010796379572594089 -0.0088936578611122502 0.031835300623982508 -0.0087116900626970535 0.026146398558787736 0.020230902578574541 0.017151944464102946 0.028251825643891705 -0.0010985058555607261 0.025282393021041367
leaf_weight=35.032398648560047 4.1717596575617781 3.681818187236785 3.5194743052124968 10.674784690141676 1.3831376507878292 1.6500547230243681 95.66343230754137 5.5087300613522547 6.0841552317142487
leaf_count=385 42 4 32 10 4 7 78 24 8
internal_value=0.017684 -0.00461731 0.0246991 0.0257195 -0.00908196 0 0.0269831 0.0205095 0.0135755
internal_weight=167.37 40.0974 127.272 123.753 36.4155 5.82181 117.931 22.2677 11.5929
internal_count=594 393 201 169 389 49 120 42 32
is_linear=0
shrinkage=0.01


Tree=30
num_leaves=9
num_cat=0
split_feature=24 29 41 19 45 22 22 24
split_gain=262.707 65.8215 42.5362 41.8294 20.5635 11.8918 9.58133 4.75422
threshold=587.22881350000011 16.611968046000005 0.55947121390570775 74.721747020000024 -1.3578220309004569 450.60323945000005 62.659745815000015 642.0309774000001
decision_type=8 10 8 10 8 8 8 10
left_child=1 4 3 5 -1 -2 -5 -8
right_child=2 -3 -4 6 -6 -7 7 -9
leaf_value=0.019825128583923112 -0.0089456644551294279 0.02996367004975372 -0.0085830555979826018 -0.0048388567798238911 -0.010787272970053987 0.01691105631979813 0.016639557725121101 0.027735689801536807
leaf_weight=1.4110465571284292 4.3215441554784766 3.8799437880516043 3.3091575652360907 0.62121042609214683 35.435336530208588 1.6701512113213537 10.201781481504439 104.32110171020031
leaf_count=4 44 5 30 3 393 7 23 86
internal_value=0.0172187 -0.00472166 0.0243873 0.0253591 -0.00909568 -0.000207342 0.0266884 0.0269085
internal_weight=165.171 40.7263 124.445 121.136 36.8464 5.9917 115.144 114.523
internal_count=595 402 193 163 397 51 112 109
is_linear=0
shrinkage=0.01


Tree=31
num_leaves=9
num_cat=0
split_feature=24 29 41 19 21 23 22 24
split_gain=253.981 64.3697 41.1941 40.2351 20.4917 11.6996 9.3062 4.53557
threshold=587.22881350000011 16.611968046000005 0.55947121390570775 74.721747020000024 1218.6105360000004 652.17605520000018 62.659745815000015 642.0309774000001
decision_type=8 10 8 10 10 8 8 10
left_child=1 4 3 5 -1 -2 -5 -8
right_child=2 -3 -4 6 -6 -7 7 -9
leaf_value=-0.010773811613744666 -0.0089236869008202779 0.029365005853447798 -0.0085592042647532323 -0.0048239808541439616 0.019782444889578546 0.016687942559501633 0.016382162950259967 0.027222914382447283
leaf_weight=35.146920017898083 4.2916517853736869 3.9395365118980399 3.2880874574184409 0.61998461186885734 1.4125467389821995 1.6889223381876943 10.273795649409292 105.23739117383957
leaf_count=393 44 5 30 3 4 7 23 86
internal_value=0.0169759 -0.00469082 0.023963 0.0249092 -0.00907132 -0.000193174 0.0262011 0.0264162
internal_weight=165.899 40.499 125.4 122.112 36.5595 5.98057 116.131 115.511
internal_count=595 402 193 163 397 51 112 109
is_linear=0
shrinkage=0.01


Tree=32
num_leaves=9
num_cat=0
split_feature=24 29 19 43 27 21 21 19
split_gain=245.691 62.9706 37.3331 21.2613 12.0084 8.11838 11.7893 2.05741
threshold=587.22881350000011 16.611968046000005 74.721747020000024 1.3364597578030526 100404.71865000001 511.4850995000001 1006.2025395000002 296.69629330000004
decision_type=8 10 10 10 10 10 10 10
left_child=1 3 4 -1 -2 7 -7 -4
right_child=2 -3 5 -5 -6 6 -8 -9
leaf_value=-0.010760956405327798 -0.0089952951606956863 0.02879079107694834 0.0096525538644110197 0.02087540678245044 0.016911474060518891 0.0050427972122232701 0.022409092017336124 0.026376974095294856
leaf_weight=34.946681708097458 4.4242538586258879 3.9975750446319571 2.4434307068586341 1.3279009088873852 1.6676709875464437 6.8856557831168201 11.875504717230795 99.011966839432716
leaf_count=394 45 5 8 3 7 29 18 86
internal_value=0.0167413 -0.0046603 0.0235559 -0.00904704 -0.000377685 0.0247701 0.0166637 0.0260821
internal_weight=166.581 40.2722 126.308 36.2746 6.09192 120.217 18.7612 101.455
internal_count=595 402 193 397 52 141 47 94
is_linear=0
shrinkage=0.01


Tree=33
num_leaves=11
num_cat=0
split_feature=46 29 45 49 43 21 41 41 49 41
split_gain=214.191 60.77 23.8754 31.5623 20.9118 13.539 19.4447 16.0682 7.7622 5.23098
threshold=-0.15908883482345568 16.611968046000005 -0.4118499139446945 107.50000000000001 1.3364597578030526 378.94033740000003 0.55947121390570775 0.23280670636494735 129.50000000000003 0.41918259146972986
decision_type=8 10 10 2 10 10 8 8 2 8
left_child=1 4 5 -4 -1 6 -2 -7 -5 -9
right_child=2 -3 3 8 -6 7 -8 9 -10 -11
leaf_value=-0.010720545026399743 0.026616237129042659 0.028239613299043117 -0.0095382533945543354 0.024784738663787689 0.02060822942532128 0.020501129279710883 -0.0063152454905748626 0.0086000529538998033 0.0075879795374588091 -0.0084342998358532973
leaf_weight=32.524504661560059 91.823364712297916 4.0540729463100424 4.7723499909043339 7.7378011643886548 1.3445458412170399 12.523762583732603 1.4259630292654026 2.5214802324771899 5.8055055513978004 2.692099057137967
leaf_count=371 71 5 43 10 3 21 13 8 27 23
internal_value=0.0165164 -0.00427404 0.0226077 0.0110349 -0.00889282 0.0243929 0.0260404 0.0147511 0.0185105 0
internal_weight=167.225 37.9231 129.302 18.3157 33.8691 110.987 93.2493 17.7373 13.5433 5.21358
internal_count=595 379 216 80 374 136 84 52 37 31
is_linear=0
shrinkage=0.01


Tree=34
num_leaves=9
num_cat=0
split_feature=24 29 41 19 21 22 22 24
split_gain=230.599 60.3311 38.6382 36.4078 20.7695 11.3128 8.81813 4.29266
threshold=587.22881350000011 16.611968046000005 0.55947121390570775 74.721747020000024 1249.1980880000003 450.60323945000005 62.659745815000015 642.0309774000001
decision_type=8 10 8 10 10 8 8 10
left_child=1 4 3 5 -1 -2 -5 -8
right_child=2 -3 -4 6 -6 -7 7 -9
leaf_value=-0.010733906350045723 -0.0088901923808829657 0.027710161031358364 -0.0085756772648586353 -0.0049199747717597669 0.020350020590844085 0.016214083288484577 0.015568563009008437 0.025876061923545537
leaf_weight=34.371291041374207 4.2443403899669638 4.10904437303543 3.3036774918436995 0.62715728580951591 1.3607494086027134 1.7275807857513426 10.492536827921866 107.59598826617002
leaf_count=394 44 5 30 3 3 7 23 86
internal_value=0.0162978 -0.00460464 0.0227973 0.0236981 -0.00900116 -0.000200515 0.0249003 0.025107
internal_weight=167.832 39.8411 127.991 124.688 35.732 5.97192 118.716 118.089
internal_count=595 402 193 163 397 51 112 109
is_linear=0
shrinkage=0.01


Tree=35
num_leaves=8
num_cat=0
split_feature=24 6 19 22 19 21 46
split_gain=212.23 57.8217 55.8383 20.7456 11.4645 20.5184 6.14147
threshold=587.22881350000011 86.436432850000003 74.721747020000024 1551.1991360000004 680.09820520000005 566.98512700000015 0.72125950937552774
decision_type=8 2 10 8 10 10 10
left_child=1 3 -2 -1 -4 -6 -7
right_child=2 -3 4 -5 5 6 -8
leaf_value=-0.010715099320512232 -0.0091707972964250924 0.026731999284385532 0.024946316033852105 0.020424085646761361 0.021335003312499677 -0.0092047846866064615 0.0087871545297259785
leaf_weight=32.933658979833126 4.8951703533530226 4.2352076470851889 104.93486519157887 1.3539693355560292 12.214351013302805 3.1935205832123748 2.4544861167669296
leaf_count=380 50 7 90 3 23 23 8
internal_value=0.0160735 -0.00439182 0.0222414 -0.00891318 0.0235657 0.0145095 -0.00108985
internal_weight=166.215 38.5228 127.692 34.2876 122.797 17.8624 5.64801
internal_count=584 390 194 383 144 54 31
is_linear=0
shrinkage=0.01


Tree=36
num_leaves=9
num_cat=0
split_feature=46 29 41 19 45 43 43 46
split_gain=183.033 58.9376 45.2148 57.0559 20.5086 9.63429 9.97242 15.3391
threshold=-0.15908883482345568 16.611968046000005 0.55947121390570775 74.721747020000024 -1.1929828071597115 -0.10994000100860514 0.90000611350205295 -1.0000000180025095e-35
decision_type=8 10 8 10 8 10 10 8
left_child=1 4 3 -2 -1 -5 7 -7
right_child=2 -3 -4 5 -6 6 -8 -9
leaf_value=0.020316947553177655 -0.0091773922001943085 0.027935127617008396 -0.0090087137930726022 0.025157880346178781 -0.010667772994750888 0.016755383670411218 0.020695207147567438 -0.0095580616644986623
leaf_weight=1.3593612611293793 4.9471954703330985 4.0565792322158805 4.1962484195828429 102.22015982866287 30.682973213493824 3.7505050599575043 12.313127815723417 3.2121902927756336
leaf_count=3 51 4 40 79 359 9 17 22
internal_value=0.0158668 -0.00395687 0.0213406 0.0224184 -0.00874792 0.0237776 0.0155285 0.00481447
internal_weight=166.738 36.0989 130.639 126.443 32.0423 121.496 19.2758 6.9627
internal_count=584 366 218 178 362 127 48 31
is_linear=0
shrinkage=0.01


Tree=37
num_leaves=8
num_cat=0
split_feature=24 29 19 22 19 21 46
split_gain=199.686 58.6729 52.6763 20.3232 10.7104 19.5364 5.99704
threshold=587.22881350000011 16.611968046000005 74.721747020000024 1551.1991360000004 680.09820520000005 566.98512700000015 0.72125950937552774
decision_type=8 10 10 8 10 10 10
left_child=1 3 -2 -1 -4 -6 -7
right_child=2 -3 4 -5 5 6 -8
leaf_value=-0.010687227320527808 -0.0091272346533965362 0.02743769280254104 0.02416016524039839 0.019981674220228132 0.0206964868795931 -0.0091885377756438583 0.0085840024963181466
leaf_weight=32.619368702173233 4.8256231695413581 4.1066960841417304 106.2406679391861 1.3813026398420323 12.37484931945801 3.173103302717208 2.4730084389448166
leaf_count=383 50 4 90 3 23 23 8
internal_value=0.0156691 -0.00433677 0.0215706 -0.00887741 0.0228341 0.0141044 -0.00113336
internal_weight=167.195 38.1074 129.087 34.0007 124.262 18.021 5.64611
internal_count=584 390 194 386 144 54 31
is_linear=0
shrinkage=0.01


Tree=38
num_leaves=9
num_cat=0
split_feature=24 29 41 42 19 21 46 24
split_gain=193.712 57.4772 51.1924 20.9419 10.3423 18.9589 5.91785 0.0837511
threshold=587.22881350000011 16.611968046000005 -1.1749941811157305 1.3948779974661796 680.09820520000005 566.98512700000015 0.72125950937552774 734.25672705000011
decision_type=8 8 10 10 10 10 10 10
left_child=1 3 -2 -1 7 -6 -7 -4
right_child=2 -3 4 -5 5 6 -8 -9
leaf_value=-0.010674198204744781 -0.0091055904027755874 0.026959187028584387 0.018546143841037758 0.02089502345457207 0.020368867275860035 -0.0091587218981305681 0.0085011592100209445 0.024685771579252502
leaf_weight=32.424902707338333 4.7912722229957572 4.1552924066781989 19.024916499853134 1.3097395971417416 12.463782563805582 3.1549455225467673 2.4818372875452042 87.829497650265694
leaf_count=384 50 4 30 2 23 23 8 60
internal_value=0.0154755 -0.00430804 0.0212493 -0.00885347 0.0224842 0.0139152 -0.00112319 0.023784
internal_weight=167.636 37.8899 129.746 33.7346 124.955 18.1006 5.63678 106.854
internal_count=584 390 194 386 144 54 31 90
is_linear=0
shrinkage=0.01


Tree=39
num_leaves=9
num_cat=0
split_feature=24 6 41 44 19 24 43 24
split_gain=188.045 53.5379 49.7887 20.7559 10.0129 15.0279 6.74773 0.110867
threshold=587.22881350000011 86.436432850000003 -1.1749941811157305 2.3833560732460479 680.09820520000005 1004.6200230000001 -0.43518389007099234 734.25672705000011
decision_type=8 2 10 10 10 8 8 10
left_child=1 3 -2 -1 7 6 -6 -4
right_child=2 -3 4 -5 5 -7 -8 -9
leaf_value=-0.010663825241560773 -0.0090840167004692194 0.025039862127919008 0.018267625659011431 0.02071768048832285 0.010331334449925017 0.019182148749055074 -0.009055856467119195 0.024317176719849648
leaf_weight=31.934434056282043 4.7571704462170592 4.4175814017653456 19.136509552598 1.3195826709270466 2.2172966673970222 12.907528616487978 3.0524431541562107 88.282030120491982
leaf_count=381 50 7 30 2 7 24 23 60
internal_value=0.0152904 -0.0042795 0.0209432 -0.00882088 0.0221512 0.0137307 -0.000392261 0.0234271
internal_weight=168.025 37.6716 130.353 33.254 125.596 18.1773 5.26974 107.419
internal_count=584 390 194 383 144 54 30 90
is_linear=0
shrinkage=0.01


Tree=40
num_leaves=10
num_cat=0
split_feature=24 7 41 19 23 36 12 36 41
split_gain=205.274 35.9985 34.5635 27.7274 11.3251 3.20914 2.56113 2.39675 1.52905
threshold=587.22881350000011 1.5000000000000002 0.55947121390570775 74.721747020000024 660.97935150000012 379.22665499999863 0.010135326000000002 -396.7756299999964 -0.71788491779249386
decision_type=8 2 8 10 8 8 8 10 10
left_child=1 6 3 4 -2 7 -1 -5 -9
right_child=2 -3 -4 5 -6 -7 -8 8 -10
leaf_value=0.0047409208426379655 -0.0087387760050830418 -0.010611035371909681 -0.0085829591287142938 -0.0015367145602539606 0.016718452273875674 -0.0025031694677272306 0.018798924352869811 0.011742534693940663 0.023218843866604787
leaf_weight=3.4249764978885642 4.0070438459515563 29.04028581827879 3.3101186230778685 0.20376849174499412 1.683824725449085 0.24206286668777366 3.4839724451303482 4.7090305685997 121.06190754473209
leaf_count=20 43 352 30 1 7 1 10 13 102
internal_value=0.0153679 -0.0057237 0.0209836 0.021792 1.70323e-05 0.0227581 0.013437 0.0228339 0.0228931
internal_weight=171.167 35.9492 135.218 131.908 5.69087 126.217 6.90895 125.975 125.771
internal_count=579 382 197 167 50 117 30 116 115
is_linear=0
shrinkage=0.01


Tree=41
num_leaves=10
num_cat=0
split_feature=24 29 19 21 22 21 45 44 19
split_gain=199.581 33.2576 25.9744 20.1389 12.0222 7.25668 17.1482 23.125 0.975409
threshold=587.22881350000011 968.50180299400006 74.721747020000024 1434.9705000000001 541.80823460000011 398.65619730000009 -1.1802985743605634 2.4989432778319056 342.41304915000006
decision_type=8 8 10 8 8 10 8 10 10
left_child=1 3 4 -1 -2 8 -7 -8 -4
right_child=2 -3 5 -5 -6 6 7 -9 -10
leaf_value=-0.010653834420594919 -0.0088237128522563029 0.021937337015131356 0.016373672862406281 0.020013622087593459 0.01749292996062091 0.021148579596980927 -0.010502886567504319 0.020332439160279662 0.023571388366222829
leaf_weight=31.418263107538223 4.1890112906694403 2.9583626985549918 13.679912909865378 1.3636008203029621 1.608524367213249 13.817124456167219 4.8425898253917712 3.1695956438779831 94.496213249862194
leaf_count=378 45 2 20 2 6 17 32 4 73
internal_value=0.015183 -0.00569508 0.0206864 -0.00879391 0 0.0216031 0.0147519 0.00248708 0.0228286
internal_weight=171.543 35.7402 135.803 32.7819 5.79754 130.005 21.8293 8.01219 108.176
internal_count=579 382 197 380 51 146 53 36 93
is_linear=0
shrinkage=0.01


Tree=42
num_leaves=9
num_cat=0
split_feature=24 41 29 19 21 21 22 41
split_gain=194.067 33.3316 32.7328 26.0188 19.9102 11.8382 7.90976 1.52543
threshold=587.22881350000011 0.55947121390570775 968.50180299400006 74.721747020000024 1434.9705000000001 381.73185500000005 62.659745815000015 -0.71788491779249386
decision_type=8 8 8 10 8 8 8 10
left_child=2 3 4 5 -1 -2 -5 -8
right_child=1 -3 -4 6 -6 -7 7 -9
leaf_value=-0.010640225890217356 -0.0087534271477141389 -0.0085875975386047552 0.021658247509989136 -0.0052208034761237988 0.019778157287310267 0.017467196444190917 0.011426015705199244 0.022626405463962912
leaf_weight=31.146501578390598 4.0600202456116667 3.3132061660289756 2.9792988300323477 0.64759477972984214 1.3778697997331608 1.6093552112579343 4.7621627599000922 121.9504202902317
leaf_count=378 44 30 2 3 2 6 13 101
internal_value=0.0150109 0.0204045 -0.00566605 0.0211927 -0.00877022 4.28228e-05 0.0221187 0.0223061
internal_weight=171.846 136.343 35.5037 133.03 32.5244 5.66938 127.36 126.713
internal_count=579 197 382 167 380 50 117 114
is_linear=0
shrinkage=0.01


Tree=43
num_leaves=11
num_cat=0
split_feature=24 7 41 19 22 22 36 12 36 41
split_gain=188.709 34.8434 32.4868 25.2145 11.653 7.73654 3.11362 2.34886 2.29731 1.5915
threshold=587.22881350000011 1.5000000000000002 0.55947121390570775 74.721747020000024 498.8060162000001 62.659745815000015 379.22665499999863 0.010135326000000002 -396.7756299999964 -0.71788491779249386
decision_type=8 2 8 10 8 8 8 8 10 10
left_child=1 7 3 4 -2 -5 8 -1 -7 -10
right_child=2 -3 -4 5 -6 6 -8 -9 9 -11
leaf_value=0.0046529124336305043 -0.0087328630356315502 -0.01057104009697383 -0.0085637190756639621 -0.0052040956593439481 0.017249105014801029 -0.0015534822542025159 -0.0025714149625838166 0.018173523228392545 0.011283064072712939 0.022446169680298424
leaf_weight=3.423383615911006 4.0327220112085334 28.296507902443409 3.2921141460537902 0.64639364182948966 1.6266374066472051 0.20469361543655296 0.24356342852115531 3.5483612939715385 4.7868173271417609 122.0206808000803
leaf_count=20 44 352 30 3 6 1 1 10 13 99
internal_value=0.0148401 -0.00563725 0.0201271 0.0209002 5.36196e-05 0.0218072 0.0219917 0.0130764 0.0220664 0.0221242
internal_weight=172.122 35.2683 136.854 133.562 5.65936 127.902 127.256 6.97174 127.012 126.807
internal_count=579 382 197 167 50 117 114 30 113 112
is_linear=0
shrinkage=0.01


Tree=44
num_leaves=11
num_cat=0
split_feature=24 7 41 19 23 22 36 12 36 41
split_gain=183.685 34.3901 31.676 24.448 11.5236 7.57021 3.05209 2.27556 2.25021 1.55046
threshold=587.22881350000011 1.5000000000000002 0.55947121390570775 74.721747020000024 696.66369770000017 62.659745815000015 379.22665499999863 0.010135326000000002 -396.7756299999964 -0.71788491779249386
decision_type=8 2 8 10 8 8 8 8 10 10
left_child=1 7 3 4 -2 -5 8 -1 -7 -10
right_child=2 -3 -4 5 -6 6 -8 -9 9 -11
leaf_value=0.0046074256637922591 -0.0087172473394308263 -0.010557682155246944 -0.0085399325175606576 -0.0051874718886468201 0.017102605557225006 -0.0015510179976548227 -0.0025665877985834424 0.01791065119515925 0.011142840203210829 0.022135957695335922
leaf_weight=3.4324360936880103 4.01158233731985 28.051479175686836 3.271161437034606 0.64519108831882377 1.6377910301089285 0.20455819368362327 0.24346256256103416 3.5789571031928062 4.8110464066267005 122.50490148365498
leaf_count=20 44 352 30 3 6 1 1 10 13 99
internal_value=0.0146703 -0.00560915 0.0198584 0.0206169 6.40507e-05 0.0215059 0.0216877 0.0129109 0.0217614 0.0218184
internal_weight=172.393 35.0629 137.33 134.059 5.64937 128.409 127.764 7.01139 127.521 127.316
internal_count=579 382 197 167 50 117 114 30 113 112
is_linear=0
shrinkage=0.01


Tree=45
num_leaves=8
num_cat=0
split_feature=24 29 41 41 21 22 24
split_gain=154.655 51.0346 25.7341 27.1378 19.2938 11.9098 3.82666
threshold=609.59994370000015 16.611968046000005 0.55947121390570775 -0.99598087181617612 1434.9705000000001 515.11816475000012 651.88539290000006
decision_type=8 10 8 10 10 8 10
left_child=1 4 3 5 -1 -2 -5
right_child=2 -3 -4 6 -6 -7 -8
leaf_value=-0.010598113919943586 -0.0090109448625566562 0.024565590565791523 -0.0081202189674462466 0.012972927194822681 0.019205982922113281 0.016898710779267932 0.021918500395106323
leaf_weight=29.353574693202976 4.3426323533058158 4.4277921319007865 2.729974888265132 11.058475956320761 1.4121316522359837 1.6541122272610662 112.29338301718235
leaf_count=366 46 5 25 21 2 6 87
internal_value=0.0146492 -0.00386883 0.019583 0.0202332 -0.00863709 -0.000327451 0.0212353
internal_weight=167.272 35.1935 132.079 129.349 30.7657 5.99674 123.352
internal_count=558 373 185 160 368 52 108
is_linear=0
shrinkage=0.01


Tree=46
num_leaves=8
num_cat=0
split_feature=24 29 41 41 21 21 24
split_gain=150.478 50.0485 25.1254 26.3584 19.078 11.7495 3.73358
threshold=609.59994370000015 16.070903015500004 0.55947121390570775 -0.99598087181617612 1434.9705000000001 407.11870825000005 651.88539290000006
decision_type=8 8 8 10 10 8 10
left_child=1 4 3 5 -1 -2 -5
right_child=2 -3 -4 6 -6 -7 -8
leaf_value=-0.010584780826477982 -0.008991099813751003 0.024177244540445449 -0.008096791529646534 0.012811044561137346 0.018987198808818235 0.016719359942885356 0.02163105729198295
leaf_weight=29.099179483950142 4.3158428519964209 4.4697728157043448 2.713471256196498 11.098662942647932 1.4255738854408253 1.6683512255549429 112.65914658457041
leaf_count=366 46 5 25 21 2 6 87
internal_value=0.0144911 -0.00384209 0.0193346 0.0199735 -0.0086135 -0.000312441 0.0209571
internal_weight=167.45 34.9945 132.455 129.742 30.5248 5.98419 123.758
internal_count=558 373 185 160 368 52 108
is_linear=0
shrinkage=0.01


Tree=47
num_leaves=11
num_cat=0
split_feature=46 29 41 45 19 22 22 36 36 41
split_gain=135.451 43.9625 28.1562 26.79 25.6545 11.5598 3.48973 2.94606 2.91641 0.606265
threshold=-0.021741511692944242 16.070903015500004 0.55947121390570775 -0.82263349595336022 147.37351360000002 515.11816475000012 68.803873085000006 379.22665499999863 -396.7756299999964 0.39259439172023686
decision_type=8 8 8 8 10 8 8 8 10 8
left_child=1 3 4 -1 5 -2 -6 8 -8 -10
right_child=2 -3 -4 -5 6 -7 7 -9 9 -11
leaf_value=0.014642512106338204 -0.0089646144101926725 0.023267093624667071 -0.0083792240750138417 -0.01062966863248253 -0.0028675977667804507 0.01651529137940129 -0.0021854747757752875 -0.0026438569696026399 0.021350193613808282 0.012662805252364526
leaf_weight=3.9868753552436829 4.2783126384019843 4.596298247575759 3.0870729163289061 27.715896971523765 0.32154233753681083 1.6850157231092451 0.28650566935539146 0.24498100578784843 114.77872534096241 6.6168098896741858
leaf_count=13 46 6 29 348 2 6 2 1 90 15
internal_value=0.0143372 -0.00268131 0.0190344 -0.00707035 0.019762 -0.000283517 0.0207423 0.0208355 0.0209121 0.0209922
internal_weight=167.598 36.2991 131.299 31.7028 128.212 5.96333 122.249 121.927 121.682 121.396
internal_count=558 367 191 361 162 52 110 108 107 105
is_linear=0
shrinkage=0.01


Tree=48
num_leaves=8
num_cat=0
split_feature=24 29 41 41 21 21 24
split_gain=142.773 48.1959 23.974 24.9278 18.727 11.4192 3.66187
threshold=609.59994370000015 16.070903015500004 0.55947121390570775 -0.99598087181617612 1434.9705000000001 407.11870825000005 651.88539290000006
decision_type=8 8 8 10 10 8 10
left_child=1 4 3 5 -1 -2 -5
right_child=2 -3 -4 6 -6 -7 -8
leaf_value=-0.01056137895468654 -0.0089515034126127855 0.023447031353110027 -0.0080493173227759885 0.012457319298960377 0.01864067439008147 0.016342372432525128 0.021091796862100321
leaf_weight=28.626641400158409 4.2625112012028685 4.548869162797927 2.6801726520061484 11.182694613933561 1.4466033726930607 1.6989310458302496 113.28840684890747
leaf_count=366 46 5 25 21 2 6 87
internal_value=0.014185 -0.00379504 0.0188624 0.01948 -0.00856981 -0.000287362 0.0204295
internal_weight=167.735 34.6221 133.113 130.433 30.0732 5.96144 124.471
internal_count=558 373 185 160 368 52 108
is_linear=0
shrinkage=0.01


Tree=49
num_leaves=9
num_cat=0
split_feature=24 6 19 0 19 21 45 43
split_gain=139.052 46.3341 22.7538 18.8255 11.5846 6.58046 13.4981 9.79913
threshold=609.59994370000015 86.436432850000003 147.37351360000002 -7.7849999999999981e-05 0.91053062400000007 511.4850995000001 -1.1929828071597115 0.86781876737061714
decision_type=8 2 10 2 10 10 8 8
left_child=1 3 4 -1 -2 -4 -7 -8
right_child=2 -3 5 -5 -6 6 7 -9
leaf_value=-0.010565864323090778 0.016537646372772823 0.022518826098154542 0.020633669106727731 0.018803469343881888 -0.0089830268198211067 0.018977994825336658 -0.0098763155771930591 0.010387307705226017
leaf_weight=28.295633316040039 1.6843488737940777 4.6969404369592658 107.37839917093515 1.4317994043231035 4.2646025866270065 12.28248357772827 3.1178020164370555 4.6736177876591691
leaf_count=363 7 8 90 2 45 12 19 12
internal_value=0.0140391 -0.00376913 0.0186359 -0.00855286 -0.000273315 0.0195215 0.0128282 0.00196384
internal_weight=167.826 34.4244 133.401 29.7274 5.94895 127.452 20.0739 7.79142
internal_count=558 373 185 365 52 133 43 31
is_linear=0
shrinkage=0.01


Tree=50
num_leaves=10
num_cat=0
split_feature=45 6 41 46 43 43 43 27 22
split_gain=123.275 68.8528 29.301 13.3668 12.957 17.8417 9.69885 8.00161 4.54401
threshold=-0.4225169170869138 71.551591535000014 0.55947121390570775 3.3136948712203833 -0.25064647054026101 0.90000611350205295 0.31468167417551263 98802.639675000013 450.60323945000005
decision_type=10 2 8 10 10 10 8 10 8
left_child=2 3 4 -2 -1 8 7 -3 -6
right_child=1 6 -4 -5 5 -7 -8 -9 -10
leaf_value=0.021031374353924773 -0.010839554213351947 0.0030653147441926094 -0.0084496102693435559 0.013174769170734943 0.0054731029525689869 0.017716466035234631 -0.0060556830092300404 0.021415515933702261 -0.0093269655381976284
leaf_weight=104.05968551337719 28.501762643456463 3.5295793637633315 3.2562189623713484 1.6443238258361805 2.9423112496733692 11.100293278694151 1.3611174076795602 11.948070056736467 3.3992577493190765
leaf_count=80 344 23 32 1 11 17 16 25 31
internal_value=0.0136702 -0.000126531 0.0188339 -0.00911664 0.0196362 0.0105694 0.015521 0.0177315 -0.00251377
internal_weight=171.743 46.9849 124.758 30.1461 121.502 17.4419 16.8388 15.4776 6.34157
internal_count=580 409 171 345 139 59 64 48 42
is_linear=0
shrinkage=0.01


Tree=51
num_leaves=10
num_cat=0
split_feature=24 6 41 19 21 19 24 22 44
split_gain=130.608 44.6958 27.3965 21.9697 18.1866 14.0129 3.57515 4.04078 9.95336
threshold=587.22881350000011 86.436432850000003 0.55947121390570775 74.721747020000024 1434.9705000000001 0.39656510050000005 734.25672705000011 151.96182445000002 1.7542909673387068
decision_type=8 2 8 10 10 10 10 8 8
left_child=1 4 3 5 -1 -2 7 -5 -9
right_child=2 -3 -4 6 -6 -7 -8 8 -10
leaf_value=-0.010523748750648376 0.020133520000713327 0.021822696111380692 -0.0084795618953572242 0.019314503834377959 0.018103705913715684 -0.008927114875052336 0.020555496061707836 0.0033887191086671604 0.02030449122746027
leaf_weight=28.156527273356918 1.3689030483365048 4.7796452939510337 3.257619008421897 11.999868869781496 1.4789684116840351 4.5350733995437622 101.16048599779606 10.16102361679077 4.9116770625114432
leaf_count=368 3 8 31 10 2 51 73 29 5
internal_value=0.0135308 -0.00377889 0.0178698 0.0185751 -0.00851814 -0.000103981 0.019437 0.0146385 0.00988354
internal_weight=171.81 34.4151 137.395 134.137 29.6355 5.90398 128.233 27.0726 15.0727
internal_count=580 378 202 171 370 54 117 44 34
is_linear=0
shrinkage=0.01


Tree=52
num_leaves=10
num_cat=0
split_feature=24 28 41 19 21 19 24 44 44
split_gain=127.382 38.6408 26.8053 21.3723 17.9399 13.7934 3.49985 3.94567 9.71455
threshold=587.22881350000011 2.4299329015000004 0.55947121390570775 74.721747020000024 1434.9705000000001 0.39656510050000005 734.25672705000011 -1.0043878994521136 1.7542909673387068
decision_type=8 10 8 10 10 10 10 8 8
left_child=1 4 3 5 -1 -2 7 -5 -9
right_child=2 -3 -4 6 -6 -7 -8 8 -10
leaf_value=-0.010487693768208874 0.019885444096615301 0.018769701893092641 -0.0084563230628399849 0.019089829362261227 0.017907208433035775 -0.0089061855188398518 0.020319069914320233 0.0033549038994773561 0.02004266921100031
leaf_weight=27.390947900712494 1.384516768157481 5.3373477533459655 3.2367583587765685 12.031296655535696 1.491156831383704 4.5027853697538376 101.32496973872185 10.170835852622988 4.9390051513910285
leaf_count=363 3 13 31 10 2 51 73 29 5
internal_value=0.0134009 -0.00375349 0.0176708 0.0183655 -0.00843802 -8.59048e-05 0.0192129 0.0144726 0.00977729
internal_weight=171.81 34.2195 137.59 134.353 28.8821 5.8873 128.466 27.1411 15.1098
internal_count=580 378 202 171 365 54 117 44 34
is_linear=0
shrinkage=0.01


Tree=53
num_leaves=10
num_cat=0
split_feature=24 6 41 19 21 19 24 44 44
split_gain=124.289 43.2178 26.2345 20.7993 17.796 13.5782 3.42991 3.85509 9.48467
threshold=587.22881350000011 86.436432850000003 0.55947121390570775 74.721747020000024 1434.9705000000001 0.39656510050000005 734.25672705000011 -1.0043878994521136 1.7542909673387068
decision_type=8 2 8 10 8 10 10 8 8
left_child=1 4 3 5 -1 -2 7 -5 -9
right_child=2 -3 -4 6 -6 -7 -8 8 -10
leaf_value=-0.01049984981168736 0.019642385249444488 0.021256154724627878 -0.0084331667366583495 0.018871348463359056 0.01771450461740828 -0.0088853133789263423 0.020089799346723235 0.0033214670359855369 0.019788104945214414
leaf_weight=27.683817364275459 1.3999288231134404 4.8441927507519713 3.2160394489765158 12.060310795903204 1.5031220912933339 4.4707389026880264 101.4671808630228 10.180510058999063 4.9652487188577643
leaf_count=368 3 8 31 10 2 51 73 29 5
internal_value=0.0132736 -0.00372837 0.0174774 0.0181618 -0.008475 -6.82471e-05 0.0189953 0.0143105 0.00967292
internal_weight=171.791 34.0311 137.76 134.544 29.1869 5.87067 128.673 27.2061 15.1458
internal_count=580 378 202 171 370 54 117 44 34
is_linear=0
shrinkage=0.01


Tree=54
num_leaves=10
num_cat=0
split_feature=45 6 41 46 43 43 36 22 40
split_gain=111.998 64.9207 26.8347 12.7684 11.8444 16.5596 8.95153 4.41543 0.617121
threshold=-0.4225169170869138 71.551591535000014 0.55947121390570775 3.3136948712203833 -0.25064647054026101 0.90000611350205295 -1.0000000180025095e-35 450.60323945000005 -0.67396435270540944
decision_type=10 2 8 10 10 10 10 8 2
left_child=2 3 4 -2 -1 7 -3 -6 -8
right_child=1 6 -4 -5 5 -7 8 -9 -10
leaf_value=0.020108806553503805 -0.010811296254061976 0.0012672258305896186 -0.0083554327110281022 0.012675107110961424 0.0053048357698645366 0.016940758187968811 0.010575291328046582 -0.0093101274761202314 0.021554473832738629
leaf_weight=104.70900670439005 27.66047836095095 4.0789686813950565 3.1704434975981703 1.6521352529525746 2.958853185176852 11.232869431376455 4.6538791432976732 3.3478383272886276 8.2769568935036624
leaf_count=80 344 29 32 1 11 17 20 31 15
internal_value=0.0131499 -0.000127916 0.0180241 -0.00908008 0.0187786 0.0101273 0.0148912 -0.0025289 0.0187176
internal_weight=171.741 46.3224 125.419 29.3126 122.249 17.5396 17.0098 6.30669 12.9308
internal_count=580 409 171 345 139 59 64 42 35
is_linear=0
shrinkage=0.01


Tree=55
num_leaves=10
num_cat=0
split_feature=24 29 41 22 19 19 24 24 43
split_gain=121.187 43.4894 22.0357 17.4913 16.994 12.0259 3.20783 7.37178 0.811619
threshold=587.22881350000011 16.611968046000005 0.55947121390570775 1715.9522590000004 74.721747020000024 0.78955991700000017 734.25672705000011 693.80051780000008 0.91250325906011298
decision_type=8 8 8 8 10 10 10 8 8
left_child=1 3 4 -1 5 -2 7 -6 -8
right_child=2 -3 -4 -5 6 -7 8 -9 -10
leaf_value=-0.010480940730606974 0.018201237704979133 0.021498784132803494 -0.0081025225921814523 0.017379630696877851 0.017814717027209232 -0.0086447223414405604 0.019852601911589152 0.0053837255394560924 0.0099389695144612936
leaf_weight=28.128960490226749 1.5108686685562123 4.7492409944534293 2.792692504823207 1.5234138518571843 14.81332339346409 3.9678694382309914 94.224353179335594 8.9016600698232633 4.3456248939037314
leaf_count=380 4 5 27 2 18 46 65 23 7
internal_value=0.0127489 -0.00383715 0.0171229 -0.00849666 0.0177407 0.000270896 0.0185067 0.0135957 0.0195298
internal_weight=164.958 34.4016 130.556 29.6524 127.764 5.47874 122.285 23.715 98.57
internal_count=577 387 190 382 163 50 113 41 72
is_linear=0
shrinkage=0.01


Tree=56
num_leaves=11
num_cat=0
split_feature=24 29 41 21 19 19 21 44 19 46
split_gain=118.296 42.7259 21.5845 17.3046 16.5564 12.5832 3.22298 5.42888 3.39525 2.73054
threshold=587.22881350000011 16.611968046000005 0.55947121390570775 1434.9705000000001 74.721747020000024 0.39656510050000005 360.99490020000007 1.3813973780894362 342.41304915000006 0.48723700278862947
decision_type=8 10 8 10 10 10 10 10 10 10
left_child=1 3 4 -1 5 -2 8 9 -6 -8
right_child=2 -3 -4 -5 6 -7 7 -9 -10 -11
leaf_value=-0.010468543986200726 0.019005941591813843 0.02120910216478605 -0.0080796547024516423 0.017197186665942558 0.013097993946442415 -0.0086653625955062669 0.0028777026506910885 0.019359593678268418 0.020279220636508236 0.01247420738584837
leaf_weight=27.883064255118374 1.4400634914636601 4.7794713377952567 2.7755072191357604 1.5347313582897175 16.389193072915077 4.0263574197888374 7.0128125399351138 8.4819742143154127 84.405076682567596 6.1341490000486374
leaf_count=380 3 5 27 2 23 47 21 8 52 9
internal_value=0.0126337 -0.00381268 0.0169418 -0.00847443 0.0175511 0.00028153 0.0183056 0.0131521 0.0192615 0.00799121
internal_weight=164.862 34.1973 130.665 29.4178 127.89 5.46642 122.423 21.6289 100.794 13.147
internal_count=577 387 190 382 163 50 113 38 75 30
is_linear=0
shrinkage=0.01


Tree=57
num_leaves=9
num_cat=0
split_feature=45 3 41 31 42 21 43 18
split_gain=109.094 52.7424 25.3518 16.2189 22.235 6.95736 17.8372 7.95398
threshold=-0.4118499139446945 0.11157905400000001 0.55947121390570775 23.588327970000005 -1.2774980686462623 443.00134745000008 0.90000611350205295 0.23715795800000003
decision_type=10 2 8 10 10 10 10 10
left_child=2 -2 5 4 -3 -1 7 -7
right_child=1 3 -4 -5 -6 6 -8 -9
leaf_value=0.019331536557671492 -0.01068571532819472 0.016334609944431519 -0.0082945769022266802 0.020549322844971251 -0.0094992345898418998 -0.0099976764990997516 0.017688013880312922 0.010294044344167162
leaf_weight=98.649661339819431 24.136111870408058 5.1614703685045242 3.1418616250157347 8.4466652870178205 6.2611875012516993 4.0018692687153843 12.785801224410532 2.1505487263202667
leaf_count=78 312 4 33 14 76 36 18 6
internal_value=0.0125229 -0.000928894 0.0174016 0.0108193 0.00246883 0.0181608 0.0113485 -0.00231742
internal_weight=164.735 44.0054 120.73 19.8693 11.4227 117.588 18.9382 6.15242
internal_count=577 406 171 94 80 138 60 42
is_linear=0
shrinkage=0.01


Tree=58
num_leaves=10
num_cat=0
split_feature=24 29 41 21 19 19 24 24 43
split_gain=113.071 41.3697 20.7275 16.9645 15.7068 12.229 3.18688 7.09865 0.870944
threshold=587.22881350000011 16.611968046000005 0.55947121390570775 1434.9705000000001 74.721747020000024 0.39656510050000005 734.25672705000011 693.80051780000008 0.91250325906011298
decision_type=8 10 8 8 10 10 10 8 8
left_child=1 3 4 -1 5 -2 7 -6 -8
right_child=2 -3 -4 -5 6 -7 8 -9 -10
leaf_value=-0.01044746120086369 0.018610567026822671 0.02069809686467592 -0.00803274854635673 0.016867769949480575 0.017233004710208322 -0.0086246016071906181 0.019254689300782925 0.0051049518524578586 0.0095387071209758999
leaf_weight=27.445562057197098 1.465000882744788 4.8300472497940055 2.7404289171099654 1.5545811653137196 14.945517688989641 3.9710543528199196 94.349047854542732 8.9390170723199827 4.3658641576766959
leaf_count=380 3 5 27 2 18 47 65 23 7
internal_value=0.0124099 -0.00377325 0.0166008 -0.00843642 0.0171939 0.000311014 0.0179259 0.0131217 0.018935
internal_weight=164.606 33.8302 130.776 29.0001 128.036 5.43606 122.599 23.8845 98.7149
internal_count=577 387 190 382 163 50 113 41 72
is_linear=0
shrinkage=0.01


Tree=59
num_leaves=10
num_cat=0
split_feature=24 28 41 21 19 19 24 24 43
split_gain=110.448 35.499 20.3184 16.7475 15.3113 12.0405 3.1828 6.9183 0.842998
threshold=587.22881350000011 2.4299329015000004 0.55947121390570775 1434.9705000000001 74.721747020000024 0.39656510050000005 734.25672705000011 693.80051780000008 0.91250325906011298
decision_type=8 10 8 10 10 10 10 8 8
left_child=1 3 4 -1 5 -2 7 -6 -8
right_child=2 -3 -4 -5 6 -7 8 -9 -10
leaf_value=-0.010422836562043266 0.018393694475573385 0.017608769232758045 -0.0080101191909627088 0.016695101619030501 0.017020758080717738 -0.0086038712467215034 0.019061540372107173 0.0050534853985306103 0.0094535422788989531
leaf_weight=26.62791104614735 1.4791702330112446 5.4343195259571067 2.7235987037420264 1.5652413368225087 14.992796063423159 3.9433643817901611 94.362082004547119 8.9498843401670438 4.3701306581497184
leaf_count=373 3 12 27 2 18 47 65 23 7
internal_value=0.0123024 -0.00374944 0.0164333 -0.00836272 0.0170187 0.000322151 0.0177401 0.0129694 0.0187453
internal_weight=164.448 33.6275 130.821 28.1932 128.097 5.42253 122.675 23.9427 98.7322
internal_count=577 387 190 375 163 50 113 41 72
is_linear=0
shrinkage=0.01


Tree=60
num_leaves=11
num_cat=0
split_feature=24 29 41 21 19 19 24 35 44 41
split_gain=124.775 28.1397 23.7172 16.6422 13.7975 11.5646 3.491 10.7785 24.8595 5.37302
threshold=587.22881350000011 16.611968046000005 0.55947121390570775 1434.9705000000001 74.721747020000024 0.39656510050000005 748.16053210000007 -0.0082942364999999945 -1.0043878994521136 0.066861675286428765
decision_type=8 10 8 8 10 10 10 10 8 10
left_child=1 3 4 -1 5 -2 7 -6 -9 -10
right_child=2 -3 -4 -5 6 -7 -8 8 9 -11
leaf_value=-0.010432912848892867 0.018181056107397318 0.019119911693410211 -0.008319783037613741 0.016525622830131283 0.020760079050319197 -0.0084532393187039864 0.018802820569929019 0.017123969968488521 -0.011992479250586836 0.0032786915398337396
leaf_weight=27.501514002680782 1.4931303709745396 3.252848654985427 3.1602903157472602 1.5756833404302586 11.585449188947679 3.6990357413887978 103.30791543424129 10.539487764239309 4.2398991584777859 3.3558769673109055
leaf_count=387 3 4 32 2 9 45 73 9 20 10
internal_value=0.0124269 -0.00514476 0.01646 -0.00843792 0.0170895 0.00074379 0.0177097 0.013389 0.00778897 -0.00553269
internal_weight=173.711 32.33 141.381 29.0772 138.221 5.19217 133.029 29.7207 18.1353 7.59578
internal_count=594 393 201 389 169 48 121 48 39 30
is_linear=0
shrinkage=0.01


Tree=61
num_leaves=10
num_cat=0
split_feature=24 29 41 21 19 19 24 44 45
split_gain=121.988 27.7049 23.2545 16.4686 13.4596 11.386 3.44699 4.76806 7.11321
threshold=587.22881350000011 16.611968046000005 0.55947121390570775 1434.9705000000001 74.721747020000024 0.39656510050000005 748.16053210000007 -1.0268308709842742 -1.1348183426984464
decision_type=8 10 8 10 10 10 10 10 8
left_child=1 3 4 -1 5 -2 7 -6 -9
right_child=2 -3 -4 -5 6 -7 -8 8 -10
leaf_value=-0.010420895899345233 0.017972542702073914 0.018885858436205726 -0.0082973451248311552 0.016359253459996531 0.017613861553539677 -0.008432649937335366 0.018618555117583219 0.0145823349964611 0.0011477494784725467
leaf_weight=27.260257646441463 1.506880834698676 3.2725229263305655 3.1399544328451148 1.5859085470437992 14.165995091199877 3.6735561341047287 103.29697212576866 7.7967946976423264 7.7927580624818784
leaf_count=387 3 4 32 2 13 45 73 10 25
internal_value=0.0123224 -0.00511806 0.0162998 -0.00841628 0.0169213 0.000751494 0.0175331 0.0132497 0.00840105
internal_weight=173.492 32.1187 141.373 28.8462 138.233 5.18044 133.053 29.7555 15.5896
internal_count=594 393 201 389 169 48 121 48 35
is_linear=0
shrinkage=0.01


Tree=62
num_leaves=10
num_cat=0
split_feature=24 29 41 22 41 23 24 44 45
split_gain=119.28 27.2794 22.8044 16.2975 13.1327 10.6027 3.41524 4.66205 6.96301
threshold=587.22881350000011 16.611968046000005 0.55947121390570775 1715.9522590000004 -1.1749941811157305 744.46394855000005 748.16053210000007 -1.0268308709842742 -1.1348183426984464
decision_type=8 10 8 10 10 8 10 10 8
left_child=1 3 4 -1 5 -2 7 -6 -9
right_child=2 -3 -4 -5 6 -7 -8 8 -10
leaf_value=-0.010408949734952556 -0.0083715607798567192 0.018657510228440154 -0.0082749786854471874 0.016195916140934939 0.017424080742731048 0.016917462137227512 0.018439220147369782 0.01442361400112754 0.0011372202429818044
leaf_weight=27.020974993705757 3.5709497556090346 3.2915915846824637 3.1197611466050139 1.595917835831641 14.187865957617761 1.5977426990866659 103.26845069229603 7.8146799504756927 7.7955066710710508
leaf_count=387 44 4 32 2 13 4 73 10 25
internal_value=0.0122197 -0.00509155 0.0161427 -0.00839472 0.0167564 0.000758869 0.0173601 0.0131105 0.0083167
internal_weight=173.263 31.9085 141.355 28.6169 138.235 5.16869 133.067 29.7981 15.6102
internal_count=594 393 201 389 169 48 121 48 35
is_linear=0
shrinkage=0.01


Tree=63
num_leaves=11
num_cat=0
split_feature=24 29 21 19 19 21 45 35 19 36
split_gain=116.651 26.8629 16.1289 12.4927 12.0595 7.69888 11.1598 19.8252 3.17087 2.74338
threshold=587.22881350000011 16.611968046000005 1434.9705000000001 74.721747020000024 1.0000000180025095e-35 398.65619730000009 -1.1802985743605634 -0.027733543999999995 297.58815355000007 379.22665499999863
decision_type=8 8 10 10 10 10 8 10 10 8
left_child=1 2 -1 4 -2 8 -7 -8 -5 -10
right_child=3 -3 -4 5 -6 6 7 -9 9 -11
leaf_value=-0.010397073126435695 0.018776273474254992 0.018434658662577787 0.016035535454524182 0.0048722231389531157 -0.0085178447629466521 0.01555409913269315 0.01670373646619611 -0.01109521904305902 0.018057613015737228 -0.0032046934331411005
leaf_weight=26.7836551219225 1.432100623846053 3.3100639879703513 1.6057128310203541 2.9953987002372733 3.8308221027255058 13.308243796229361 3.4959921911358833 4.967715725302698 111.03772576153278 0.24999965727329154
leaf_count=387 2 4 2 8 47 17 5 31 90 1
internal_value=0.012119 -0.00506523 -0.00837326 0.0159892 0.000561654 0.0165702 0.0101633 0.000833368 0.0176834 0.0179728
internal_weight=173.017 31.6994 28.3894 141.318 5.26292 136.055 21.772 8.46371 114.283 111.288
internal_count=594 393 389 201 49 152 53 36 99 91
is_linear=0
shrinkage=0.01


Tree=64
num_leaves=10
num_cat=0
split_feature=24 29 41 21 19 19 24 43 36
split_gain=114.085 26.4552 22.3024 15.9626 12.5065 10.9375 6.20485 2.40748 0.00503064
threshold=587.22881350000011 16.611968046000005 0.55947121390570775 1434.9705000000001 74.721747020000024 0.39656510050000005 642.0309774000001 -1.2790084360266789 -44.14607499999692
decision_type=8 10 8 10 10 10 10 10 10
left_child=1 3 4 -1 5 -2 7 -6 -8
right_child=2 -3 -4 -5 6 -7 8 -9 -10
leaf_value=-0.010385264186902686 0.017465649833638602 0.018217102186060916 -0.0082804513831681199 0.015878036610343382 0.016707106286418867 -0.0083761263652289263 0.014389935591303032 0.0062759951004587016 0.018582392072306376
leaf_weight=26.548285067081459 1.5388772636651982 3.3279496133327475 3.1225114390254012 1.6152949184179295 3.2705920934677115 3.6036239564418793 24.381022110581398 11.344742327928541 94.015261933207512
leaf_count=387 3 4 32 2 2 45 27 28 64
internal_value=0.0120194 -0.00503909 0.0158375 -0.00835187 0.0164454 0.000778609 0.0170334 0.00959472 0.0178552
internal_weight=172.768 31.4915 141.277 28.1636 138.154 5.1425 133.012 14.6153 118.396
internal_count=594 393 201 389 169 48 121 30 91
is_linear=0
shrinkage=0.01


Tree=65
num_leaves=10
num_cat=0
split_feature=24 19 29 21 21 44 41 43 41
split_gain=105.524 30.4997 25.6116 15.7687 8.52951 28.6803 11.3884 6.58783 4.11881
threshold=587.22881350000011 74.721747020000024 16.611968046000005 1434.9705000000001 398.65619730000009 1.3813973780894362 0.55947121390570775 1.2042274947253986 -0.50374503033268259
decision_type=8 10 10 10 10 10 8 8 10
left_child=2 -2 3 -1 6 7 8 -6 -3
right_child=1 4 -4 -5 5 -7 -8 -9 -10
leaf_value=-0.0103613548064178 -0.0087925500331700567 0.011852848169203369 0.017823810547382732 0.015723345835685583 -0.011497261194623741 0.018296456405431229 -0.0063624214450892433 0.0057492208648220805 0.018722240393797541
leaf_weight=25.926533155143268 4.4163405895233145 18.388345271348953 3.3517276942729941 1.6246655136346806 4.9934754222631472 12.114397041499613 1.473595805466174 2.654958702623845 92.501122251152992
leaf_count=383 54 25 4 2 30 12 14 8 57
internal_value=0.0115758 0.0153338 -0.00495762 -0.00829131 0.0162077 0.00924978 0.0173303 -0.00542241 0.0177082
internal_weight=167.445 136.542 30.9029 27.5512 132.126 19.7628 112.363 7.64843 110.889
internal_count=589 200 389 385 146 50 96 38 82
is_linear=0
shrinkage=0.01


Tree=66
num_leaves=10
num_cat=0
split_feature=24 19 29 21 21 44 41 23 41
split_gain=103.283 29.9235 25.229 15.6072 8.38364 28.0894 11.1917 7.42149 4.06787
threshold=587.22881350000011 74.721747020000024 16.611968046000005 1434.9705000000001 398.65619730000009 1.3813973780894362 0.55947121390570775 1.6079241325000002 -0.50374503033268259
decision_type=8 10 10 8 10 10 8 8 10
left_child=2 -2 3 -1 6 7 8 -6 -3
right_child=1 4 -4 -5 5 -7 -8 -9 -10
leaf_value=-0.010349699380876523 -0.0087723525569033747 0.011737432787030986 0.017621448206882589 0.015571397659053972 0.0073381765175778626 0.018095447515223635 -0.0063428723432293593 -0.011353127892010722 0.018556763906763203
leaf_weight=25.69844354689122 4.3847047165036193 18.393275633454323 3.3677188754081717 1.6338260024785984 2.3067914992570904 12.137467354536055 1.466473914682864 5.3190823569893837 92.402129009366035
leaf_count=383 54 25 4 2 5 12 14 33 57
internal_value=0.0114859 0.0151972 -0.00493196 -0.00827002 0.0160607 0.00916292 0.0171746 -0.00538792 0.0175487
internal_weight=167.11 136.41 30.7 27.3323 132.025 19.7633 112.262 7.62587 110.795
internal_count=589 200 389 385 146 50 96 38 82
is_linear=0
shrinkage=0.01


Tree=67
num_leaves=10
num_cat=0
split_feature=24 19 6 21 21 44 41 23 41
split_gain=101.112 29.3654 23.8495 15.463 8.23304 27.5084 11.0008 7.33536 4.02076
threshold=587.22881350000011 74.721747020000024 86.436432850000003 1434.9705000000001 398.65619730000009 1.3813973780894362 0.55947121390570775 1.6079241325000002 -0.50374503033268259
decision_type=8 10 2 8 10 10 8 8 10
left_child=2 -2 3 -1 6 7 8 -6 -3
right_child=1 4 -4 -5 5 -7 -8 -9 -10
leaf_value=-0.010358531014578906 -0.0087522009829983979 0.011623881583809548 0.016491862954534104 0.015422118814134782 0.0072814504070289037 0.017899453376996454 -0.0063233974106259253 -0.011310377254502584 0.018395708076436132
leaf_weight=25.299998410046108 4.3533122837543479 18.39697502553463 3.5554107874631873 1.6427782773971547 2.3092926889658001 12.158507376909254 1.4593958482146252 5.2897224500775337 92.288321524858475
leaf_count=379 54 25 8 2 5 12 14 33 57
internal_value=0.0113983 0.0150643 -0.00490647 -0.00825516 0.0159178 0.00908044 0.0170226 -0.00535441 0.0173933
internal_weight=166.754 136.256 30.4982 26.9428 131.902 19.7575 112.145 7.59902 110.685
internal_count=589 200 389 381 146 50 96 38 82
is_linear=0
shrinkage=0.01


Tree=68
num_leaves=10
num_cat=0
split_feature=24 19 29 21 21 22 41 24 41
split_gain=99.0112 28.8233 24.5633 15.2923 8.08747 22.141 10.8155 7.59558 3.97723
threshold=587.22881350000011 74.721747020000024 16.611968046000005 1434.9705000000001 398.65619730000009 1144.1465730000002 0.55947121390570775 679.49183070000015 -0.50374503033268259
decision_type=8 10 8 10 10 10 8 8 10
left_child=2 -2 3 -1 6 7 8 -6 -3
right_child=1 4 -4 -5 5 -7 -8 -9 -10
leaf_value=-0.010327467014204669 -0.0087320939779452419 0.011512141912057901 0.017282314531844842 0.015275447458882709 0.0079917190178963333 0.016456963372770812 -0.0063039958046166968 -0.01125090160313626 0.018238904000995686
leaf_weight=25.258848942816265 4.3221620097756377 18.399477750062943 3.3921547234058371 1.6515239924192417 2.2548499852418926 12.716706849634646 1.4523614197969426 4.7781526520848274 92.160156145691872
leaf_count=383 54 25 4 2 5 15 14 30 57
internal_value=0.0113121 0.0149345 -0.00488068 -0.00822935 0.0157782 0.00899954 0.0168744 -0.00473018 0.0172416
internal_weight=166.386 136.084 30.3025 26.9104 131.762 19.7497 112.012 7.033 110.56
internal_count=589 200 389 385 146 50 96 35 82
is_linear=0
shrinkage=0.01


Tree=69
num_leaves=10
num_cat=0
split_feature=24 19 29 21 21 44 41 43 41
split_gain=96.9549 28.2945 24.2017 15.1374 7.95918 26.4743 10.6355 6.41723 3.93707
threshold=587.22881350000011 74.721747020000024 16.611968046000005 1434.9705000000001 398.65619730000009 1.3813973780894362 0.55947121390570775 1.2042274947253986 -0.50374503033268259
decision_type=8 10 10 8 10 10 8 8 10
left_child=2 -2 3 -1 6 7 8 -6 -3
right_child=1 4 -4 -5 5 -7 -8 -9 -10
leaf_value=-0.01031598974205908 -0.0087120309595260514 0.011402162009481734 0.017092275330009135 0.015131317439383342 -0.011366672910733329 0.017534819846340418 -0.0062846678681338355 0.0057084048784895019 0.018086190992135816
leaf_weight=25.036310628056533 4.2912523150444022 18.400818765163422 3.406616508960723 1.6600647121667851 4.9082171022892016 12.193557791411875 1.445370316505431 2.6453691497445115 92.018086239695549
leaf_count=383 54 25 4 2 30 12 14 8 57
internal_value=0.0112276 0.0148068 -0.00485551 -0.0082083 0.0156411 0.00891685 0.0167297 -0.00530158 0.0170936
internal_weight=166.006 135.903 30.103 26.6964 131.611 19.7471 111.864 7.55359 110.419
internal_count=589 200 389 385 146 50 96 38 82
is_linear=0
shrinkage=0.01


Tree=70
num_leaves=10
num_cat=0
split_feature=24 29 45 19 27 24 35 22 21
split_gain=88.4207 35.9683 15.1913 12.7132 12.0216 7.25868 11.5703 13.3571 5.12214
threshold=587.22881350000011 16.611968046000005 -1.3578220309004569 74.721747020000024 100591.96245000001 748.16053210000007 -0.0082942364999999945 141.53478655000001 895.87865060000013
decision_type=8 8 8 10 10 10 10 8 10
left_child=1 2 -1 4 -2 6 -5 -8 -9
right_child=3 -3 -4 5 -6 -7 7 8 -10
leaf_value=0.015193076704523861 -0.0086116347325967887 0.019063276792781744 -0.010316568347902145 0.017916159484269223 0.01827089327871324 0.017124535819261315 0.012380053370929914 -0.011911372752507195 0.0032559401055660365
leaf_weight=1.6576682701706884 4.0591491237282744 4.8904913812875739 24.804486662149436 10.360566169023516 1.47748826444149 98.153578236699104 7.954933695495126 3.9326088652014741 3.2907808423042297
leaf_count=3 51 4 381 10 3 82 14 19 11
internal_value=0.0115033 -0.00344774 -0.00818711 0.015137 0.000106841 0.0157955 0.010197 0.00408441 -0.00532428
internal_weight=160.582 31.3526 26.4622 129.229 5.53664 123.692 25.5389 15.1783 7.22339
internal_count=578 388 384 190 54 136 54 44 30
is_linear=0
shrinkage=0.01


Tree=71
num_leaves=10
num_cat=0
split_feature=24 29 41 45 19 27 46 22 36
split_gain=86.5212 35.3953 19.5446 15.037 12.8458 11.714 5.06549 2.43833 0.57049
threshold=587.22881350000011 16.611968046000005 0.55947121390570775 -1.3578220309004569 74.721747020000024 100591.96245000001 0.14504205289131247 68.803873085000006 -52.622609999998524
decision_type=8 10 8 8 10 10 10 10 10
left_child=1 3 4 -1 5 -2 -6 -8 -9
right_child=2 -3 -4 -5 6 -7 7 8 -10
leaf_value=0.015048780038062679 -0.0085357449242477769 0.018856211749026179 -0.0081391843771749343 -0.010305100058275856 0.0087719329651367983 0.018065533837937763 -0.0029601497945795476 0.012430532197916264 0.017708464637889606
leaf_weight=1.6663720831274984 3.9289592877030364 4.9056570529937735 2.9264239221811286 24.585977945476778 12.184670358896254 1.4906415492296217 0.24908480048179527 14.994530022144316 93.323715835809708
leaf_count=3 50 4 30 381 25 3 1 17 64
internal_value=0.0114159 -0.00342627 0.0150046 -0.00816592 0.0156091 0.000299463 0.0162799 0.0170256 0.0171074
internal_weight=160.256 31.158 129.098 26.2524 126.172 5.4196 120.752 108.567 108.318
internal_count=578 388 190 384 160 53 107 82 81
is_linear=0
shrinkage=0.01


Tree=72
num_leaves=11
num_cat=0
split_feature=24 29 41 45 19 27 46 22 43 36
split_gain=84.6826 34.8349 19.1995 14.8848 12.5591 11.5377 5.02171 2.40936 1.31347 0.108298
threshold=587.22881350000011 16.611968046000005 0.55947121390570775 -1.3578220309004569 74.721747020000024 100591.96245000001 0.14504205289131247 68.803873085000006 1.5711446266758602 -52.622609999998524
decision_type=8 10 8 8 10 10 10 10 8 10
left_child=1 3 4 -1 5 -2 -6 -8 9 -9
right_child=2 -3 -4 -5 6 -7 7 8 -10 -11
leaf_value=0.014906902852658159 -0.0085155988309593422 0.018654297390690491 -0.0081168615835809244 -0.010293689174588019 0.0086790694532013733 0.017864120085695705 -0.0029543542650183668 0.012610283801327763 -0.0011148004308858472 0.017558121332978772
leaf_weight=1.6748838499188421 3.9013759344816199 4.919919714331626 2.9079701304435721 24.369295492768295 12.202501460909842 1.5035830885171888 0.24903964996337791 14.802223697304724 0.17780101299285789 93.190804004669189
leaf_count=3 50 4 30 381 25 3 1 16 1 64
internal_value=0.0113306 -0.00340499 0.0148761 -0.0081448 0.0154742 0.000310097 0.0161374 0.0168807 0.0169621 0.017011
internal_weight=159.899 30.9641 128.935 26.0442 126.027 5.40496 120.622 108.42 108.171 107.993
internal_count=578 388 190 384 160 53 107 82 81 80
is_linear=0
shrinkage=0.01


Tree=73
num_leaves=10
num_cat=0
split_feature=24 29 41 45 19 27 24 35 44
split_gain=82.8956 34.2868 18.8637 14.7347 12.282 11.3648 5.03995 9.8338 14.7336
threshold=587.22881350000011 16.611968046000005 0.55947121390570775 -1.3578220309004569 74.721747020000024 100591.96245000001 748.16053210000007 -0.0082942364999999945 -1.0043878994521136
decision_type=8 10 8 8 10 10 10 10 8
left_child=1 3 4 -1 5 -2 7 -6 -9
right_child=2 -3 -4 -5 6 -7 -8 8 -10
leaf_value=0.014767388034276647 -0.0084954943382217658 0.018457338005691323 -0.0080946095526115026 -0.010282333195109801 0.018023708462390469 0.017666548133477112 0.01715644816058242 0.013971094184691448 -0.0052117446049501819
leaf_weight=1.6832056418061254 3.8740062266588202 4.9332991689443579 2.8896454572677603 24.154428374022253 10.185533210635187 1.5163130313158033 96.127141863107681 7.2721314877271652 6.8921559005975706
leaf_count=3 50 4 30 381 8 3 66 7 26
internal_value=0.011247 -0.00338389 0.0147504 -0.00812375 0.0153424 0.000320402 0.0159981 0.0108894 0.00484288
internal_weight=159.528 30.7709 128.757 25.8376 125.867 5.39032 120.477 24.3498 14.1643
internal_count=578 388 190 384 160 53 107 41 33
is_linear=0
shrinkage=0.01


Tree=74
num_leaves=9
num_cat=0
split_feature=24 29 41 45 19 27 24 19
split_gain=81.1924 33.7505 18.5433 14.5866 12.0212 11.1951 4.98268 4.28362
threshold=587.22881350000011 16.611968046000005 0.55947121390570775 -1.3578220309004569 74.721747020000024 100591.96245000001 748.16053210000007 620.8322442000001
decision_type=8 8 8 8 10 10 10 10
left_child=1 3 4 -1 5 -2 7 -6
right_child=2 -3 -4 -5 6 -7 -8 -9
leaf_value=0.01463017896229005 -0.0084754305064535795 0.018265147304765496 -0.008072427056721853 -0.010271031018201829 0.005331018065885644 0.017472724381755698 0.017019718201642012 0.014592290532932969
leaf_weight=1.6913391724228857 3.8468488976359358 4.9458150565624228 2.8714493736624709 23.941365692764528 11.086073800921442 1.5288317203521726 95.939366772770882 13.262242853641508
leaf_count=3 50 4 30 381 25 3 66 16
internal_value=0.0111676 -0.00336297 0.0146315 -0.00810277 0.0152178 0.000330388 0.0158667 0.0107916
internal_weight=159.113 30.5785 128.535 25.6327 125.663 5.37568 120.288 24.3483
internal_count=578 388 190 384 160 53 107 41
is_linear=0
shrinkage=0.01


Tree=75
num_leaves=9
num_cat=0
split_feature=24 6 41 21 41 23 36 44
split_gain=84.717 37.2437 15.0903 14.8545 10.2794 25.9611 0.61013 2.0311
threshold=642.0309774000001 74.647949480000008 0.55947121390570775 1434.9705000000001 -0.62767410000180734 341.62787020000002 -125.55808999999861 -1.1707054011365829
decision_type=8 2 8 10 10 10 10 10
left_child=1 3 4 -1 5 -2 -6 -8
right_child=2 -3 -4 -5 6 -7 7 -9
leaf_value=-0.010687886959828538 0.017560257906679318 0.015024030128476241 -0.0075625736706568091 0.014447874055007675 0.00921100031326255 -0.010086805245366003 0.0048791518879383851 0.016767909114657413
leaf_weight=24.337544888257984 6.7555918022990209 7.9270452447235575 2.3231181874871245 1.6954921483993519 6.0347787439823142 5.1240408197045326 2.7071214467287055 108.52154828608036
leaf_count=368 7 28 24 2 9 53 6 79
internal_value=0.0112535 -0.00273857 0.0148688 -0.00853995 0.015335 0.00570033 0.0162462 0.0165335
internal_weight=165.426 33.9601 131.466 26.033 129.143 11.8796 117.263 111.229
internal_count=576 398 178 370 154 60 94 85
is_linear=0
shrinkage=0.01


Tree=76
num_leaves=9
num_cat=0
split_feature=24 6 41 22 41 23 36 44
split_gain=83.0339 36.6104 14.8411 14.7082 10.08 25.5106 0.597021 1.99859
threshold=642.0309774000001 74.647949480000008 0.55947121390570775 1715.9522590000004 -0.62767410000180734 341.62787020000002 -125.55808999999861 -1.1707054011365829
decision_type=8 2 8 8 10 10 10 10
left_child=1 3 4 -1 5 -2 -6 -8
right_child=2 -3 -4 -5 6 -7 7 -9
leaf_value=-0.010674618382064668 0.017380655401635105 0.014833973914484266 -0.0075408376442311995 0.014318509774008488 0.0091360734043130602 -0.010059945860911045 0.0048405991236554801 0.016633833737843065
leaf_weight=24.126419514417652 6.7674193829298002 7.9609621576964846 2.3094672486186019 1.7027007192373265 6.0316453576087943 5.0891892313957214 2.7093487530946723 108.31142304837704
leaf_count=368 7 28 24 2 9 53 6 79
internal_value=0.0111721 -0.00271887 0.0147502 -0.00851747 0.0152123 0.00565825 0.0161154 0.0164007
internal_weight=165.009 33.7901 131.218 25.8291 128.909 11.8566 117.052 111.021
internal_count=576 398 178 370 154 60 94 85
is_linear=0
shrinkage=0.01


Tree=77
num_leaves=13
num_cat=0
split_feature=45 3 41 36 1 31 49 42 21 43 19 19
split_gain=66.4308 52.7562 17.5199 9.25139 5.41263 2.68584 4.14531 5.45121 2.22833 9.09201 8.50468 0.125997
threshold=-0.4118499139446945 0.11157905400000001 0.55947121390570775 -1.0000000180025095e-35 1.3511405385000004 23.588327970000005 125.50000000000001 -1.3216675936110742 529.87978190000013 0.98524102564433902 646.12452260000009 383.59549155000008
decision_type=10 2 8 10 10 10 2 8 10 10 10 10
left_child=2 -2 8 4 -3 6 7 -5 11 10 -10 -1
right_child=1 3 -4 5 -6 -7 -8 -9 9 -11 -12 -13
leaf_value=0.012612582498223597 -0.010639399764628328 -0.0085980115689250278 -0.0078352019215570182 0.011448664023993079 0.0096008834365219672 0.018465323358414772 0.013713388855644982 -0.0074875374595743047 0.0095360286904206011 0.015875737988028098 -0.0096581381578169975 0.016976036078211673
leaf_weight=19.186122201383114 21.039944119751453 2.9935911744833019 2.6856011524796477 1.6508660316467285 1.7578793950378893 8.3556154519319517 5.3805156089365482 2.5517941378057021 4.6316277086734798 12.536820329725741 2.908147320151329 78.899965614080429
leaf_count=28 316 36 31 1 3 10 8 38 13 15 27 50
internal_value=0.0110922 0.000484169 0.0148871 0.0108546 -0.00119254 0.0139928 0.00862248 0.000529476 0.0154734 0.0109536 0.00175156 0.0162685
internal_weight=164.578 43.7302 120.848 22.6903 4.75147 17.9388 9.58318 4.20266 118.163 20.0766 7.53978 98.0861
internal_count=576 412 164 96 39 57 47 39 133 55 40 78
is_linear=0
shrinkage=0.01


Tree=78
num_leaves=9
num_cat=0
split_feature=24 6 21 41 41 42 43 43
split_gain=80.0847 35.4854 14.4411 14.365 9.70258 19.4461 0.800819 1.62303
threshold=642.0309774000001 74.647949480000008 1434.9705000000001 0.55947121390570775 -0.62767410000180734 -1.2774980686462623 -0.36551420393044282 0.98524102564433902
decision_type=8 2 10 8 10 10 8 10
left_child=1 2 -1 4 5 -2 -6 -8
right_child=3 -3 -4 -5 6 -7 7 -9
leaf_value=-0.010659054665626415 0.015062552149292915 0.01449949410382371 0.014077782974972761 -0.0074960736868763481 0.016557541138496047 -0.0092342643032076541 0.0068004730859690266 0.014517873331621321
leaf_weight=23.749933026731018 7.23580701649189 8.0065851248800737 1.7150042057037342 2.281510278582572 95.77004486322403 4.5774324908852559 7.9788600206375149 12.820212081074713
leaf_count=368 8 28 2 24 63 52 18 13
internal_value=0.0110148 -0.00269784 -0.00848631 0.0145289 0.0149829 0.00558397 0.0158713 0.012051
internal_weight=164.135 33.4715 25.4649 130.664 128.382 11.8132 116.569 20.7991
internal_count=576 398 370 178 154 60 94 31
is_linear=0
shrinkage=0.01


end of trees

feature_importances:
water_area_km2_lag1=120
water_area_km2_lag14=108
water_area_km2_lag1_zscore=85
water_area_km2_lag3=62
precipitation_7day_sum=45
water_area_km2_lag5=32
water_area_km2_lag3_zscore=32
water_area_km2_lag5_zscore=29
water_area_km2_lag7_zscore=28
pressure_drop_1day=19
humidity=13
water_area_km2_lag14_zscore=13
pressure_lag1=11
month=10
water_area_km2_lag7=10
water_area_km2_lag2_zscore=6
precipitation=5
evaporation=4
precipitation_30day_sum=4
soil_moisture_change_3day=4
wind_speed=3
precipitation_lag2=3
soil_moisture_lag3=3
precipitation_3day_sum=3
days_in_monsoon=3
soil_moisture=2
water_area_km2_lag2=2
soil_moisture_lag2=1
pressure_zscore=1

parameters:
[boosting: gbdt]
[objective: binary]
[metric: auc]
[tree_learner: serial]
[device_type: cpu]
[data_sample_strategy: bagging]
[data: ]
[valid: ]
[num_iterations: 500]
[learning_rate: 0.01]
[num_leaves: 32]
[num_threads: 0]
[seed: 42]
[deterministic: 0]
[force_col_wise: 0]
[force_row_wise: 0]
[histogram_pool_size: -1]
[max_depth: -1]
[min_data_in_leaf: 15]
[min_sum_hessian_in_leaf: 0.001]
[bagging_fraction: 0.85]
[pos_bagging_fraction: 1]
[neg_bagging_fraction: 1]
[bagging_freq: 5]
[bagging_seed: 400]
[bagging_by_query: 0]
[feature_fraction: 0.85]
[feature_fraction_bynode: 1]
[feature_fraction_seed: 30056]
[extra_trees: 0]
[extra_seed: 12879]
[early_stopping_round: 0]
[early_stopping_min_delta: 0]
[first_metric_only: 0]
[max_delta_step: 0]
[lambda_l1: 0.1]
[lambda_l2: 1]
[linear_lambda: 0]
[min_gain_to_split: 0]
[drop_rate: 0.1]
[max_drop: 50]
[skip_drop: 0.5]
[xgboost_dart_mode: 0]
[uniform_drop: 0]
[drop_seed: 17869]
[top_rate: 0.2]
[other_rate: 0.1]
[min_data_per_group: 100]
[max_cat_threshold: 32]
[cat_l2: 10]
[cat_smooth: 10]
[max_cat_to_onehot: 4]
[top_k: 20]
[monotone_constraints: ]
[monotone_constraints_method: basic]
[monotone_penalty: 0]
[feature_contri: ]
[forcedsplits_filename: ]
[refit_decay_rate: 0.9]
[cegb_tradeoff: 1]
[cegb_penalty_split: 0]
[cegb_penalty_feature_lazy: ]
[cegb_penalty_feature_coupled: ]
[path_smooth: 0]
[interaction_constraints: ]
[verbosity: -1]
[saved_feature_importance_type: 0]
[use_quantized_grad: 0]
[num_grad_quant_bins: 4]
[quant_train_renew_leaf: 0]
[stochastic_rounding: 1]
[linear_tree: 0]
[max_bin: 255]
[max_bin_by_feature: ]
[min_data_in_bin: 3]
[bin_construct_sample_cnt: 200000]
[data_random_seed: 175]
[is_enable_sparse: 1]
[enable_bundle: 1]
[use_missing: 1]
[zero_as_missing: 0]
[feature_pre_filter: 1]
[pre_partition: 0]
[two_round: 0]
[header: 0]
[label_column: ]
[weight_column: ]
[group_column: ]
[ignore_column: ]
[categorical_feature: ]
[forcedbins_filename: ]
[precise_float_parser: 0]
[parser_config_file: ]
[objective_seed: 16083]
[num_class: 1]
[is_unbalance: 1]
[scale_pos_weight: 1]
[sigmoid: 1]
[boost_from_average: 1]
[reg_sqrt: 0]
[alpha: 0.9]
[fair_c: 1]
[poisson_max_delta_step: 0.7]
[tweedie_variance_power: 1.5]
[lambdarank_truncation_level: 30]
[lambdarank_norm: 1]
[label_gain: ]
[lambdarank_position_bias_regularization: 0]
[eval_at: ]
[multi_error_top_k: 1]
[auc_mu_weights: ]
[num_machines: 1]
[local_listen_port: 12400]
[time_out: 120]
[machine_list_filename: ]
[machines: ]
[gpu_platform_id: -1]
[gpu_device_id: -1]
[gpu_use_dp: 0]
[num_gpu: 1]

end of parameters

pandas_categorical:[]
