tree
version=v4
num_class=1
num_tree_per_iteration=1
label_index=0
max_feature_idx=52
objective=binary sigmoid:1
feature_names=evaporation precipitation pressure soil_moisture temperature wind_speed humidity month is_monsoon avg_elevation_m is_missing_precipitation precipitation_lag1 precipitation_lag2 precipitation_lag3 precipitation_lag5 precipitation_lag7 soil_moisture_lag1 soil_moisture_lag2 soil_moisture_lag3 water_area_km2_lag1 water_area_km2_lag2 water_area_km2_lag3 water_area_km2_lag5 water_area_km2_lag7 water_area_km2_lag14 humidity_lag1 humidity_lag2 pressure_lag1 precipitation_3day_sum precipitation_7day_sum precipitation_14day_sum precipitation_30day_sum soil_moisture_7day_avg temperature_7day_avg precip_change_1day soil_moisture_change_3day pressure_drop_1day precipitation_zscore soil_moisture_zscore temperature_zscore pressure_zscore water_area_km2_lag1_zscore water_area_km2_lag2_zscore water_area_km2_lag3_zscore water_area_km2_lag5_zscore water_area_km2_lag7_zscore water_area_km2_lag14_zscore days_since_heavy_rain days_since_dry_day days_in_monsoon precip_x_soil_moisture precip_7day_x_monsoon pressure_low_x_humidity_high
feature_infos=[-0.0030278000000000002:-6.7600000000000003e-05] [0:3.441955949] [97838.916129999998:101050.69590000001] [0.079835987999999997:0.41038757300000001] [12.043576079999999:58.299999999999997] [0.109340083:6.1288103459999999] [10.33721231:99.799999999999997] [1:12] [0:1] [285:610] [0:1] [0:3.441955949] [0:3.441955949] [0:3.441955949] [0:3.441955949] [0:3.441955949] [0.079835987999999997:0.41038757300000001] [0.079835987999999997:0.41038757300000001] [0.079871586999999994:0.41038757300000001] [0.15470170999999999:1706.388406] [0.15470170999999999:1706.388406] [0.22192738400000001:1648.6390260000001] [0.59804565499999995:1879.3011919999999] [0.59804565499999995:1879.3011919999999] [0.15470170999999999:1879.3011919999999] [13.587946609999999:89.771974540000002] [15.73441843:89.771974540000002] [97838.916129999998:101050.69590000001] [0:5.4120124060000006] [0:6.3986905419999998] [2.4939999999999995e-05:6.853043993] [0.00013498500000000001:7.0431720040000005] [0.079949542714285698:0.36808514071428572] [12.600989795714286:38.546001548571432] [-2.2151404179999998:2.6987150230000001] [-0.087898191000000001:0.306236383] [-634.95550999999978:584.92283999999927] [-0.26093881762072829:17.334453745666753] [-0.47372108135508539:7.5187927522708593] [-2.3222240920600803:4.8424499654422197] [-2.17297362184169:1.9440747673938656] [-1.3709936860106222:2.8113761098193075] [-1.3687936828060507:2.8110124093653184] [-1.3664890970558661:2.6683115454919992] [-1.3711808418272371:3.4236311118380005] [-1.3738303965819765:3.4232622928052141] [-1.373543663375826:3.4083789873895323] none [0:2] [0:121] [0:0.99359117575340816] [0:6.3986905419999998] [0:1328.7775052388326]
tree_sizes=850 1086

Tree=0
num_leaves=7
num_cat=0
split_feature=24 19 19 19 24 42
split_gain=1514.61 323.554 154.425 123.791 41.4264 19.9236
threshold=600.42257210000014 145.01800560000004 751.69733460000009 788.82737310000005 624.16150105000008 0.91487480513629582
decision_type=8 10 10 10 10 10
left_child=5 -2 4 -4 -3 -1
right_child=1 2 3 -5 -6 -7
leaf_value=-1.9884820465320601 -1.9880339712501034 -1.9371541078533503 -1.9086850641810746 -1.987897207844495 -1.8998191407307281 -1.9599346334683747
leaf_weight=43.69338808208704 5.3414899855852118 4.0239225029945365 3.4066836759448043 4.1663621887564659 55.136047698557377 2.373995564877986
leaf_count=409 50 19 7 39 93 16
internal_value=-1.94216 -1.91361 -1.90763 -1.95125 -1.90218 -1.98693
internal_weight=118.142 72.0745 66.733 7.57305 59.16 46.0674
internal_count=633 208 158 46 112 425
is_linear=0
shrinkage=1


Tree=1
num_leaves=9
num_cat=0
split_feature=46 41 43 22 41 44 41 11
split_gain=1367.39 277.617 101.018 50.111 31.4385 19.8953 13.2353 12.9059
threshold=0.097179817277390459 -0.61392881878506234 -0.43057960949885749 1146.7116010000002 0.45006541096401892 1.9650478250541104 0.33676787876507186 0.0045341575000000011
decision_type=8 10 8 8 8 10 8 8
left_child=5 7 4 6 -3 -1 -4 -2
right_child=1 2 3 -5 -6 -7 -8 -9
leaf_value=-0.011304092827269555 -0.010776328706104581 0.073866984059877017 0.034339006439007835 0.061956292385446345 0.045983265611059629 0.017242685374708803 0.0064552415218254236 0.016766205190363627
leaf_weight=42.928806535899639 4.4810846149921408 51.398432120680809 2.9675071015953991 4.710402913391591 6.0902286395430556 2.3727171272039405 3.9465665817260742 2.4140624701976776
leaf_count=405 42 75 14 11 24 16 30 16
internal_value=0.0337414 0.0595954 0.0656116 0.0374509 0.0711217 -0.00972255 0.0191986 -0.000877672
internal_weight=121.31 76.0083 69.1131 11.6245 57.4887 45.3015 6.91407 6.89515
internal_count=633 212 154 55 99 421 44 58
is_linear=0
shrinkage=0.01


end of trees

feature_importances:
water_area_km2_lag1=3
water_area_km2_lag1_zscore=3
water_area_km2_lag14=2
precipitation_lag1=1
water_area_km2_lag5=1
water_area_km2_lag2_zscore=1
water_area_km2_lag3_zscore=1
water_area_km2_lag5_zscore=1
water_area_km2_lag14_zscore=1

parameters:
[boosting: gbdt]
[objective: binary]
[metric: auc]
[tree_learner: serial]
[device_type: cpu]
[data_sample_strategy: bagging]
[data: ]
[valid: ]
[num_iterations: 5000]
[learning_rate: 0.01]
[num_leaves: 21]
[num_threads: 0]
[seed: 42]
[deterministic: 0]
[force_col_wise: 0]
[force_row_wise: 0]
[histogram_pool_size: -1]
[max_depth: -1]
[min_data_in_leaf: 22]
[min_sum_hessian_in_leaf: 0.001]
[bagging_fraction: 0.862098]
[pos_bagging_fraction: 1]
[neg_bagging_fraction: 1]
[bagging_freq: 5]
[bagging_seed: 400]
[bagging_by_query: 0]
[feature_fraction: 0.60376]
[feature_fraction_bynode: 1]
[feature_fraction_seed: 30056]
[extra_trees: 0]
[extra_seed: 12879]
[early_stopping_round: 0]
[early_stopping_min_delta: 0]
[first_metric_only: 0]
[max_delta_step: 0]
[lambda_l1: 0.00845709]
[lambda_l2: 0.244444]
[linear_lambda: 0]
[min_gain_to_split: 0]
[drop_rate: 0.1]
[max_drop: 50]
[skip_drop: 0.5]
[xgboost_dart_mode: 0]
[uniform_drop: 0]
[drop_seed: 17869]
[top_rate: 0.2]
[other_rate: 0.1]
[min_data_per_group: 100]
[max_cat_threshold: 32]
[cat_l2: 10]
[cat_smooth: 10]
[max_cat_to_onehot: 4]
[top_k: 20]
[monotone_constraints: ]
[monotone_constraints_method: basic]
[monotone_penalty: 0]
[feature_contri: ]
[forcedsplits_filename: ]
[refit_decay_rate: 0.9]
[cegb_tradeoff: 1]
[cegb_penalty_split: 0]
[cegb_penalty_feature_lazy: ]
[cegb_penalty_feature_coupled: ]
[path_smooth: 0]
[interaction_constraints: ]
[verbosity: -1]
[saved_feature_importance_type: 0]
[use_quantized_grad: 0]
[num_grad_quant_bins: 4]
[quant_train_renew_leaf: 0]
[stochastic_rounding: 1]
[linear_tree: 0]
[max_bin: 255]
[max_bin_by_feature: ]
[min_data_in_bin: 3]
[bin_construct_sample_cnt: 200000]
[data_random_seed: 175]
[is_enable_sparse: 1]
[enable_bundle: 1]
[use_missing: 1]
[zero_as_missing: 0]
[feature_pre_filter: 1]
[pre_partition: 0]
[two_round: 0]
[header: 0]
[label_column: ]
[weight_column: ]
[group_column: ]
[ignore_column: ]
[categorical_feature: ]
[forcedbins_filename: ]
[precise_float_parser: 0]
[parser_config_file: ]
[objective_seed: 16083]
[num_class: 1]
[is_unbalance: 1]
[scale_pos_weight: 1]
[sigmoid: 1]
[boost_from_average: 1]
[reg_sqrt: 0]
[alpha: 0.9]
[fair_c: 1]
[poisson_max_delta_step: 0.7]
[tweedie_variance_power: 1.5]
[lambdarank_truncation_level: 30]
[lambdarank_norm: 1]
[label_gain: ]
[lambdarank_position_bias_regularization: 0]
[eval_at: ]
[multi_error_top_k: 1]
[auc_mu_weights: ]
[num_machines: 1]
[local_listen_port: 12400]
[time_out: 120]
[machine_list_filename: ]
[machines: ]
[gpu_platform_id: -1]
[gpu_device_id: -1]
[gpu_use_dp: 0]
[num_gpu: 1]

end of parameters

pandas_categorical:[]
