tree
version=v4
num_class=1
num_tree_per_iteration=1
label_index=0
max_feature_idx=16
objective=binary sigmoid:1
feature_names=evaporation precipitation pressure soil_moisture temperature wind_speed humidity precip_3day_avg precip_7day_avg temp_3day_avg soil_3day_avg day_of_year month year is_monsoon avg_elevation_m is_missing_precipitation
feature_infos=[-0.0032798359999999999:-7.1000000000000005e-05] [0:387.39999999999998] [84200:101050.69590000001] [0.079309273:0.42548794699999998] [12.043576079999999:58.299999999999997] [0.093459249999999994:44.799999999999997] [11.61961123:90.310797190000002] [0:4.3623755759999998] [0:2.5017432980000001] [12.19454717:37.368215309999997] [0.079376744999999999:0.42189633999999998] [1:365] [1:12] [2022:2023] [0:1] [109:610] [0:1]
tree_sizes=3039 2962 2941 3060 3058 2864 2943 3075 3158

Tree=0
num_leaves=28
num_cat=0
split_feature=2 13 11 8 1 3 8 0 5 5 2 1 5 9 8 2 5 0 1 1 0 11 9 2 8 4 2
split_gain=47.1761 23.4175 18.1304 13.0416 13.6957 11.6851 10.9697 10.9308 9.98166 9.38485 11.3628 8.36106 8.16608 7.55705 7.11711 10.8807 9.79438 6.35152 5.58069 8.42926 5.30753 8.27564 10.7911 13.3878 6.23124 2.92984 2.73803
threshold=98708.434930000018 2022.5000000000002 154.50000000000003 0.00090993150000000017 0.0084955745000000003 0.088716933000000012 0.11911421600000001 -0.0015272419999999998 2.1030786555000005 3.5244161915000007 99540.587920000005 1.0000000180025095e-35 3.8779451585000007 29.061320665000004 0.031030826500000004 100129.94075000002 2.2102576085000005 -0.0008711229999999998 0.00064835800000000014 9.1500000000000015e-05 -0.00044154099999999994 86.500000000000014 33.531522670000008 100224.13240000002 0.00055192350000000012 33.601308560000007 100485.04490000002
decision_type=2 2 2 2 8 2 2 2 2 2 2 8 2 2 2 2 2 2 10 8 2 2 2 2 2 2 2
left_child=6 7 3 11 5 -5 18 13 17 10 -10 -3 14 -2 15 16 -4 -9 19 -1 -19 24 23 -23 -22 -20 -17
right_child=1 2 12 4 -6 -7 -8 8 9 -11 -12 -13 -14 -15 -16 26 -18 20 25 -21 21 22 -24 -25 -26 -27 -28
leaf_value=-0.55178100876769931 -0.61644618512406757 -0.62386534371407631 -0.60794528332066167 -0.5527333656164316 -0.66734484326564503 -0.63337813359941975 -0.6268680397017391 -0.57585758409029997 -0.71961657275136193 -0.59340108946329928 -0.63496074935678926 -0.69987066676240872 -0.61902878355443447 -0.54343547999998931 -0.73305341289579151 -0.73305341289579151 -0.68631453141550336 -0.65403190196904326 -0.52217930309655247 -0.62769585571961339 -0.55109457154772057 -0.69708904035091368 -0.5650876294124787 -0.60418744794534707 -0.61974578907561506 -0.5634274032107589 -0.68673502991209012
leaf_weight=8.5143043696880305 6.6179792284965497 6.184202998876569 7.7103723585605648 10.699090629816061 7.3402165770530692 7.7421825826168051 8.1759588122367841 9.2047314941883069 7.1789963543415132 4.8351589739322653 8.8504808247089368 8.7210708260536194 5.0759047567844382 7.6308467984199524 6.7452201247215262 6.5203794538974744 8.2554843723773939 9.7657486200332624 8.6914297044277209 6.4090436697006234 7.4219112396240217 8.0465488135814685 4.5944131910800925 7.4855316877365103 5.9593623280525208 8.5302094817161542 6.2478234469890594
leaf_count=23 22 21 25 29 28 27 28 27 31 15 31 36 17 20 30 29 33 36 21 22 20 33 13 24 20 24 25
internal_value=-0.623748 -0.635353 -0.654688 -0.631106 -0.609582 -0.58659 -0.575156 -0.617419 -0.625204 -0.654458 -0.672875 -0.668336 -0.678346 -0.577346 -0.686833 -0.675983 -0.648468 -0.613573 -0.562004 -0.584384 -0.621596 -0.612143 -0.632404 -0.652316 -0.581668 -0.54261 -0.710389
internal_weight=209.155 168.834 81.2419 40.6868 25.7815 18.4413 40.3209 87.5917 73.3429 20.8646 16.0295 14.9053 40.5552 14.2488 35.4793 28.7341 15.9659 52.4782 32.145 14.9233 43.2735 33.5078 20.1265 15.5321 13.3813 17.2216 12.7682
internal_count=710 592 300 141 84 56 118 292 250 77 62 57 159 42 142 112 58 173 90 45 146 110 70 57 40 45 54
is_linear=0
shrinkage=1


Tree=1
num_leaves=27
num_cat=0
split_feature=2 13 6 0 0 8 9 8 0 4 1 7 3 6 2 7 1 9 6 7 10 6 12 4 4 7
split_gain=40.826 20.7213 18.8622 11.5464 9.64182 19.882 15.9347 9.30082 8.37695 10.0323 7.20433 6.52549 6.69263 4.82201 8.51114 8.96206 7.42558 4.62943 3.66975 9.03602 17.8076 7.4239 5.99259 5.79609 5.49475 1.84023
threshold=98708.434930000018 2022.5000000000002 40.246822750000007 -0.00027096099999999996 -0.00010287449999999999 9.170000000000002e-05 28.940942430000003 0.11911421600000001 -0.00011057399999999999 33.601308560000007 0.0016046410000000002 0.0055482540000000007 0.08492055900000002 55.738166605000011 99508.328035000028 8.5950000000000016e-05 0.00038754700000000008 30.800916675000003 51.887140880000011 0.00069223550000000009 0.094306225000000007 75.768028595000018 10.500000000000002 20.872766825000003 26.881384215000004 8.5950000000000016e-05
decision_type=2 2 2 2 2 2 2 2 2 2 8 2 2 2 2 2 10 2 2 2 2 2 2 2 2 2
left_child=7 4 3 -3 6 -6 18 11 9 13 -8 12 -1 14 -4 -16 -17 -15 23 22 -21 -22 -20 -2 -25 -10
right_child=1 2 8 -5 5 -7 10 -9 25 -11 -12 -13 -14 17 15 16 -18 -19 19 20 21 -23 -24 24 -26 -27
leaf_value=0.092322089813644814 0.073763333465052497 0.074840650319909038 0.050712851419607879 0.0018091401500192703 0.053392239403914167 -0.075830476589499582 0.049669875816726244 0.028479243828898444 -0.07463780444713114 -0.075493813743207225 0.11006986782694157 0.11880087733579525 0.034381909934356081 0.00023410081842211512 0.031011498937372158 -0.075853307395275391 0.010682961189504342 -0.057264944669121978 0.022705300345869504 0.10599709277875874 -0.031581363286176722 0.039893830872532579 -0.047077062259851032 -0.0067499868167042766 0.059827845896336662 -0.030896679893710522
leaf_weight=14.131247758865358 10.225662991404535 12.034878969192507 10.622702792286875 9.8349055945873243 6.6638596355915052 5.3795390129089355 9.1333454549312609 8.2531388849019987 5.3049196600913984 4.4680165946483603 10.745212405920027 11.222737297415732 7.6995702534914008 10.171060413122175 9.0355100035667437 5.6092078238725644 4.442223995923996 5.3377587348222724 5.811569005250929 6.8505988866090801 6.4888351857662192 8.254488676786421 6.5372534245252609 6.9265165328979474 5.6083102226257324 4.3979966193437576
leaf_count=38 30 35 34 36 21 24 29 28 24 20 27 27 25 38 31 25 16 23 20 18 26 27 27 26 17 18
internal_value=0.0313775 0.0205374 0.00230076 0.0419982 0.0372582 -0.0043289 0.0437983 0.0759602 -0.0123176 -0.00401923 0.0823187 0.0878158 0.071887 0.00304314 0.01484 -0.00512477 -0.0376087 -0.0195557 0.0302942 0.0198782 0.039387 0.00843615 -0.0142363 0.0458276 0.0230382 -0.0548115
internal_weight=211.191 169.884 81.2592 21.8698 88.6252 12.0434 76.5818 41.3067 59.3894 49.6865 19.8786 33.0536 21.8308 45.2185 29.7096 19.0869 10.0514 15.5088 56.7032 33.9427 21.5939 14.7433 12.3488 22.7605 12.5348 9.70292
internal_count=710 592 300 71 292 45 247 118 229 187 56 90 63 167 106 72 41 61 191 118 71 53 47 73 43 42
is_linear=0
shrinkage=0.05


Tree=2
num_leaves=27
num_cat=0
split_feature=2 13 6 8 9 0 8 5 6 7 0 9 5 5 7 6 1 7 2 9 11 11 11 1 1 5
split_gain=35.6304 18.3881 16.877 10.5803 10.9436 8.60206 8.00409 7.93581 7.70892 7.14701 9.73692 6.88531 7.70012 10.4838 8.31829 6.88378 5.78637 5.5182 6.35461 4.71184 6.40201 3.87948 3.67432 3.46007 3.06343 2.16084
threshold=98708.434930000018 2022.5000000000002 40.246822750000007 0.0006217035000000001 30.122476110000004 -0.0024334774999999996 0.11911421600000001 3.8299763260000006 55.738166605000011 1.0000000180025095e-35 -0.00010287449999999999 17.948139830000002 1.8669366880000002 1.413423987 0.00073985100000000003 59.980957485000005 2.0700000000000005e-05 0.0055482540000000007 98590.904255000016 32.432470730000013 309.50000000000006 78.500000000000014 254.50000000000003 0.0014283680000000004 0.00038754700000000008 1.7300731030000003
decision_type=2 2 2 2 2 2 2 2 2 2 2 2 2 2 2 2 10 2 2 2 2 2 2 8 10 2
left_child=6 5 3 -3 -5 -2 17 8 19 25 11 -11 13 14 16 23 -13 18 -1 20 21 -4 -10 -14 -23 -7
right_child=1 2 7 4 -6 9 -8 -9 22 10 -12 12 15 -15 -16 -17 -18 -19 -20 -21 -22 24 -24 -25 -26 -27
leaf_value=0.088051501856870509 0.086183213417039606 -0.015444414864943882 -0.008640600323873265 0.019567408351295057 0.1027000078072161 0.07987958426881929 0.026821311477473089 0.031741879475534085 -0.02467605715295311 -0.014396095524398961 -0.033033578755964479 0.031188622648335836 -0.03506230747224439 0.086530184070502655 0.072382827418123907 0.046727361253215999 -0.037725235320747265 0.10960325438963654 0.033066565513013853 -0.053611175206269263 -0.037645354344615856 0.0068812809365142143 -0.073657716241945323 0.01961222302622671 0.056952556359512685 0.040960096191098694
leaf_weight=13.724725723266603 7.5253314077854148 6.2899164557456997 10.010854810476308 7.9032331407070142 7.9317332655191422 7.8982518017292005 8.3232607990503293 8.8985482752323133 7.6901349425315839 7.6709436029195777 6.8427970558404914 7.9221643507480639 6.9616847485303888 12.834026575088499 7.0104571580886832 8.4194814413785917 4.9488120824098587 11.547202259302138 8.5144453495740873 4.6086271405220023 8.0210189223289472 5.7867447882890684 7.6248981058597565 4.9521166682243356 6.4702083468437195 6.5025638192892075
leaf_count=36 20 24 38 27 20 22 28 30 31 29 28 26 28 35 20 26 20 27 27 20 34 21 35 17 20 21
internal_value=0.0295486 0.0193884 0.00216579 0.0394167 0.0612085 0.0350228 0.070741 -0.011777 -0.0194893 0.0303256 0.023509 0.0298811 0.0362837 0.0513015 0.0285605 0.0121205 0.00469166 0.0815606 0.0670001 -0.00651087 0.000655728 0.014452 -0.0490626 -0.0123362 0.0333129 0.0623058
internal_weight=212.834 170.725 81.2359 22.1249 15.835 89.4886 42.1096 59.111 50.2125 81.9633 67.5625 60.7197 53.0487 32.7155 19.8814 20.3333 12.871 33.7864 22.2392 34.8975 30.2888 22.2678 15.315 11.9138 12.257 14.4008
internal_count=710 592 300 71 47 292 118 229 199 272 229 201 172 101 66 71 46 90 63 133 113 79 66 45 41 43
is_linear=0
shrinkage=0.05


Tree=3
num_leaves=28
num_cat=0
split_feature=2 13 6 8 9 0 8 9 5 0 4 8 5 6 1 7 3 3 1 10 2 8 11 6 9 7 0
split_gain=31.3218 16.3537 15.1273 9.3458 9.4604 7.8285 17.5379 13.1474 11.369 7.19552 9.06104 6.97817 6.69439 7.18931 5.60771 4.78236 5.73288 4.58665 10.2385 6.87192 6.5365 3.81344 9.39781 8.22907 3.93972 3.83737 1.88523
threshold=98708.434930000018 2022.5000000000002 40.246822750000007 0.0006217035000000001 30.122476110000004 -0.00010287449999999999 9.170000000000002e-05 28.940942430000003 2.8021685330000006 -0.00011057399999999999 33.601308560000007 0.11911421600000001 3.8299763260000006 58.096882035000007 0.0016046410000000002 0.0055482540000000007 0.08492055900000002 0.086897585000000013 0.0035879030000000004 0.085471669500000028 100588.04645000001 0.0026671395000000004 237.50000000000003 52.646617895000006 20.573446435000005 0.00056781300000000013 -8.0899999999999988e-05
decision_type=2 2 2 2 2 2 2 2 2 2 2 2 2 2 8 2 2 2 10 2 2 2 2 2 2 2 2
left_child=11 5 3 -3 -5 7 -7 8 21 10 12 15 13 17 -9 16 -1 19 20 -4 -19 23 -23 24 -2 -25 -11
right_child=1 2 9 4 -6 6 -8 14 -10 26 -12 -13 -14 -15 -16 -17 -18 18 -20 -21 -22 22 -24 25 -26 -27 -28
leaf_value=0.081165694963536705 0.06726199257564347 -0.014743552013051104 -0.0076509322388544675 0.01848566142649942 0.095221976600912195 0.048251132098279317 -0.073611148040388388 0.044498716216952561 -0.04218462751792032 -0.072036389578088542 -0.072990476207228761 0.02528148095556575 0.04486435159898039 -0.056862708306516907 0.096977087401175527 0.10197024352319795 0.028340772323734616 -0.063908757433859265 0.043712636241302234 0.064554799946635141 0.011461471940803498 0.021568809647241199 0.090964177022577142 -0.029102607045377218 0.022354464181823158 0.028470814160265614 -0.026900208151567989
leaf_weight=14.672495022416117 9.1488455384969729 6.2602474689483669 7.0812810957431811 7.9462844580411938 8.1216213852167112 6.8092987239360792 5.2125046104192734 9.3360872864723223 5.4520239233970633 5.0923136472702026 4.3034125566482535 8.3869978338479978 7.8639978915452948 5.8369976431131354 11.194299727678297 11.784339115023611 7.902336284518241 8.236552760004999 5.580070048570632 6.1629786193370819 4.4205175489187232 11.56618891656399 8.4378998428583127 8.0865708142518979 10.476577043533323 4.5074337869882575 4.2393502146005613
leaf_count=38 26 24 27 27 20 21 24 29 22 24 20 28 25 26 27 27 25 36 18 19 16 39 22 32 35 15 18
internal_value=0.0278805 0.0183297 0.00204257 0.037081 0.0572725 0.0329774 -0.00458684 0.0387517 0.0265205 -0.0112586 -0.00366436 0.0661708 0.00293863 -0.00589625 0.0731128 0.0761518 0.0626743 0.00355349 -0.0127105 0.0259487 -0.0375855 0.0336931 0.0508404 0.0230469 0.0432891 -0.0084969 -0.0515311
internal_weight=214.12 171.373 81.1456 22.3282 16.0679 90.2277 12.0218 78.2059 57.6755 58.8175 49.4858 42.7462 45.1824 37.3184 20.5304 34.3592 22.5748 31.4814 18.2371 13.2443 12.6571 52.2235 20.0041 32.2194 19.6254 12.594 9.33166
internal_count=710 592 300 71 47 292 45 247 191 229 187 118 167 142 56 90 63 116 70 46 52 169 61 108 61 47 42
is_linear=0
shrinkage=0.05


Tree=4
num_leaves=28
num_cat=0
split_feature=2 13 6 0 0 8 9 5 0 4 8 5 6 1 7 2 6 2 7 1 8 6 7 6 2 1 1
split_gain=27.701 14.588 13.5949 8.6799 6.95453 16.0538 11.562 10.2247 6.6684 8.42124 6.15171 5.97427 6.63676 4.99045 4.22669 5.55711 5.43323 4.20949 9.04069 7.33123 3.51806 5.30251 8.42726 4.32726 5.00712 3.68571 1.8266
threshold=98708.434930000018 2022.5000000000002 40.246822750000007 -0.00027096099999999996 -0.00010287449999999999 9.170000000000002e-05 28.940942430000003 2.8021685330000006 -0.00011057399999999999 33.601308560000007 0.11911421600000001 3.8299763260000006 58.096882035000007 0.0016046410000000002 0.0055482540000000007 98614.059730000008 51.454777885000006 99508.328035000028 8.5950000000000016e-05 0.00044764900000000005 0.012650175500000001 52.646617895000006 0.00073985100000000003 49.641615380000012 100014.03545000001 0.0047805605000000003 0.00023038800000000002
decision_type=2 2 2 2 2 2 2 2 2 2 2 2 2 10 2 2 2 2 2 10 2 2 2 2 2 10 8
left_child=10 4 3 -3 6 -6 7 20 9 11 14 12 17 -8 15 16 -1 -4 -19 -20 21 23 -23 24 -2 -22 -10
right_child=1 2 8 -5 5 -7 13 -9 26 -11 -12 -13 -14 -15 -16 -17 -18 18 19 -21 25 22 -24 -25 -26 -27 -28
leaf_value=0.044566956277293047 0.052640034098905789 0.062572554900994337 0.030478307142566548 1.836448700353834e-06 0.045268805578144722 -0.071940508189399566 0.046067274333527974 -0.040598569514343867 -0.070562191431862112 -0.071376142465955417 0.023848210210150822 0.042083496199345947 -0.055215380390097296 0.095220956335775445 0.095520438036779981 0.022776356422685468 0.1037398921701605 0.028859717129359416 -0.073400347696833609 0.0031731338671608014 0.075220693931205396 -0.027149762010716463 0.048196372645980479 0.072089422366568151 -0.0075196291653175694 0.027343557937104288 -0.025706588190981795
leaf_weight=7.3750718086957958 7.1784474253654498 12.563862249255182 9.8377043902874011 9.9178862571716291 6.892751067876814 5.0704736262559891 11.330234467983248 5.3835304975509635 4.951706945896146 4.18373979628086 8.4449567198753339 7.9618297517299643 5.7137353718280783 9.48790794610977 11.946462094783781 7.284531742334365 8.1841560900211316 9.1344812065362948 6.4966225922107679 6.0243651419878006 8.0244351923465747 9.8184916377067548 5.966154843568801 6.9121041297912589 6.6748065501451492 8.0548174828290922 4.1901554018259057
leaf_count=21 21 35 33 36 21 24 34 22 24 20 28 25 26 22 27 23 19 31 30 22 22 39 18 19 24 26 18
internal_value=0.0263564 0.0173523 0.00192312 0.0349693 0.0311131 -0.004409 0.0365039 0.025033 -0.0107779 -0.00351202 0.0621288 0.00277388 -0.00563791 0.0684692 0.0714211 0.0588179 0.0756919 0.00335682 -0.008964 -0.0365577 0.0317466 0.0231723 0.00132897 0.0397764 0.0236538 0.0512369 -0.0500027
internal_weight=215.005 171.77 80.9761 22.4817 90.7942 11.9632 78.8309 58.0128 58.4943 49.3525 43.2352 45.1687 37.2069 20.8181 34.7902 22.8438 15.5592 31.4932 21.6555 12.521 52.6293 36.55 15.7846 20.7654 13.8533 16.0793 9.14186
internal_count=710 592 300 71 292 45 247 191 229 187 118 167 142 56 90 63 40 116 83 52 169 121 57 64 45 48 42
is_linear=0
shrinkage=0.05


Tree=5
num_leaves=26
num_cat=0
split_feature=4 0 2 13 8 8 0 8 9 2 2 0 1 6 0 0 2 1 3 11 5 7 1 8 6
split_gain=20.8445 11.9868 8.54402 11.8328 13.8072 32.3868 9.86962 8.46607 6.3264 10.1235 9.50694 8.57555 10.5061 7.18194 7.17366 12.6607 5.28551 4.87894 4.52978 3.37701 5.18258 3.06157 6.31423 1.76276 0.442218
threshold=28.928127280000002 -0.00010951149999999998 98623.748425000013 2022.5000000000002 0.0020191260000000004 0.010923757500000001 -9.8349999999999992e-05 0.044781935500000009 28.572533555000003 99585.862465000013 100212.48325 -0.00024669749999999994 0.00012804900000000003 61.462142685000011 -0.00058951149999999987 -0.00025399899999999992 100327.16820000001 0.00041883850000000005 0.086926632500000003 193.50000000000003 4.3437690930000015 0.00018993850000000005 0.0016046410000000002 0.00014437450000000005 49.39844273500001
decision_type=2 2 2 2 2 2 2 2 2 2 2 2 8 2 2 2 2 8 2 2 2 2 10 2 2
left_child=1 8 19 6 17 -6 21 -7 9 -1 14 13 -13 16 -11 24 -12 -5 -17 20 -2 -4 -23 -3 -16
right_child=2 23 3 4 5 7 -8 -9 -10 10 11 12 -14 -15 15 18 -18 -19 -20 -21 -22 22 -24 -25 -26
leaf_value=0.058135270351008808 0.01785053018751696 -0.025675411354327389 0.090935322261428364 0.0030385673521549231 0.085856270008197941 -0.063620708561175521 0.0088369754935842121 0.015869414450781508 -0.0293381378830356 0.029221072982688473 0.088438597187419879 -0.047870194194122626 0.030947081408041685 -0.0064069308619093233 -0.078273138516258278 0.035878872163645693 0.03663594865024531 -0.052635960409552797 -0.019502850987655515 0.085373709531536279 0.074061745465889381 0.019525582798194954 0.076592440013517046 -0.071117618686491732 -0.056760026354417119
leaf_weight=13.237292289733885 7.2135544121265474 4.3948254883289319 8.8313941806554812 8.3286484032869303 14.900869473814966 6.2677251249551755 10.001667737960814 7.1945696473121643 7.7448225766420355 8.8818025290966016 8.4984413981437665 7.0502404719591238 10.562310248613356 5.4171768724918357 5.0399443358182889 6.7528279125690487 11.707390159368513 7.4594784379005441 8.1462638527154905 11.106373578310011 9.5018194764852506 7.6185599416494396 13.325263440608976 4.1486509740352631 4.5410222262144089
leaf_count=39 22 20 22 30 39 27 36 26 30 29 22 30 35 20 22 22 38 31 31 27 24 25 33 20 19
internal_value=0.0249194 0.00904919 0.0399905 0.0320305 0.0142107 0.0350719 0.05181 -0.0211393 0.0140215 0.0177596 0.010782 0.0262555 -0.000603189 0.0447174 -0.00927096 -0.0232366 0.0584238 -0.0232662 0.00559823 0.0640031 0.0498037 0.0662449 0.0558337 -0.0477418 -0.0680767
internal_weight=217.873 106.123 111.75 83.9282 44.1513 28.3632 39.7769 13.4623 97.5795 89.8347 76.5974 43.2356 17.6126 25.623 33.3619 24.4801 20.2058 15.7881 14.8991 27.8217 16.7154 29.7752 20.9438 8.54348 9.58097
internal_count=719 377 342 269 153 92 116 53 337 307 268 145 65 80 123 94 60 61 53 73 46 80 58 40 41
is_linear=0
shrinkage=0.05


Tree=6
num_leaves=27
num_cat=0
split_feature=4 10 2 13 5 0 11 10 11 11 9 2 2 7 6 11 4 0 10 11 1 7 4 1 11 6
split_gain=18.6239 14.0788 7.60054 10.5254 12.1429 8.75904 6.77768 6.42377 7.49226 6.3269 8.08095 7.76378 8.93152 7.59896 6.49547 6.10422 7.75216 9.56574 4.19385 2.97577 4.68085 2.79548 2.65244 3.36881 2.61075 2.10241
threshold=28.928127280000002 0.085471669500000028 98623.748425000013 2022.5000000000002 1.6609173595000002 -9.8349999999999992e-05 246.50000000000003 0.088151842000000022 314.50000000000006 42.500000000000007 16.058123050000003 100152.66900000001 99585.862465000013 0.00011362450000000002 81.308034430000006 260.50000000000006 33.57261556000001 -0.00038047599999999993 0.087132846000000014 193.50000000000003 0.0031114745000000005 0.00063770000000000005 33.411546185000006 0.013377286 188.50000000000003 49.39844273500001
decision_type=2 2 2 2 2 2 2 2 2 2 2 2 2 2 2 2 2 2 2 2 8 2 2 8 2 2
left_child=1 -1 19 5 24 22 9 8 25 10 13 12 14 -3 -11 16 17 -6 -10 20 -2 -20 23 -4 -5 -8
right_child=2 6 3 4 15 -7 7 -9 18 11 -12 -13 -14 -15 -16 -17 -18 -19 21 -21 -22 -23 -24 -25 -26 -27
leaf_value=-0.052424152465384545 0.0699031319515767 0.063731131815809416 0.088061304069606827 0.069793299835675102 -0.0066681344223309099 0.0083732217617816587 0.060406971438382751 -0.037037307200291109 -0.036547414424303482 0.086440439662281002 -0.032893030651862103 0.08424819867644058 -0.010527191421978282 -0.0085602966985591639 0.019466069626892041 -0.054453773129958964 -0.038568269023289685 0.068898766787249044 -0.010173616189050133 0.080279323499173424 0.016602037333697688 0.039651129828909629 0.035879241163426417 0.049472784014501822 0.027075257729726021 0.019851354210224759
leaf_weight=8.6856780350208265 9.5975271910429054 7.4256228208541888 12.557271867990499 8.1099271029233915 10.526356905698782 10.027160033583639 6.1688253283500654 9.5755137801170331 8.3822485059499758 6.877356901764875 8.5570307970046979 7.5681530535221091 9.8330363184213621 7.1212889701128006 7.6439345180988312 5.1311978697776786 7.0966351628303519 6.9548686593771007 7.0351340621709806 11.2174826413393 7.2158709019422522 4.6932095438241959 7.2004925906658164 10.29101015627384 6.3987092673778525 6.6303334087133408
leaf_count=38 24 22 30 22 38 36 18 39 38 18 34 20 36 27 25 23 29 19 26 27 22 14 22 28 22 22
internal_value=0.0235868 0.00857483 0.0377799 0.0302796 0.0134593 0.0488383 0.0140082 -0.000993787 0.00949354 0.0255911 0.00566208 0.0400147 0.026269 0.0283416 0.0511855 -0.00485129 0.00550438 0.023396 -0.00953881 0.0603344 0.0470277 0.00976424 0.0623414 0.0706808 0.0509535 0.039398
internal_weight=218.522 106.197 112.325 84.2936 44.2177 40.0759 97.5117 42.4853 32.9098 55.0264 23.1039 31.9225 24.3543 14.5469 14.5213 29.7091 24.5779 17.4812 20.1106 28.0309 16.8134 11.7283 30.0488 22.8483 14.5086 12.7992
internal_count=719 377 342 269 153 116 339 157 118 182 83 99 79 49 43 109 86 57 78 73 46 40 80 58 44 40
is_linear=0
shrinkage=0.05


Tree=7
num_leaves=28
num_cat=0
split_feature=2 11 13 1 10 10 1 1 7 1 10 7 11 8 8 0 4 9 2 4 8 8 6 7 7 7 1
split_gain=16.8508 9.53726 7.09482 7.75729 9.49637 8.96839 10.8881 7.82943 15.2106 7.24677 5.85227 6.52782 5.44256 7.06828 6.50627 11.673 13.2046 6.24835 6.05883 5.54464 4.9173 4.85805 4.81459 4.20623 3.58723 2.36104 2.14619
threshold=98708.434930000018 314.50000000000006 2022.5000000000002 0.020340532000000005 0.085166851000000016 0.086758423500000015 9.4450000000000019e-05 0.00034281150000000006 0.0064794080000000007 9.1500000000000015e-05 0.087132846000000014 0.00073985100000000003 22.500000000000004 0.012650175500000001 3.8900000000000004e-05 -0.00010091999999999999 28.882562080000003 20.939142595000003 99508.328035000028 29.249659140000002 0.11911421600000001 0.0015467750000000002 48.547504825000011 1.0800000000000002e-05 0.0035429310000000005 0.0010254790000000004 2.0700000000000005e-05
decision_type=2 2 2 10 2 2 10 10 2 10 2 2 2 2 2 2 2 2 2 2 2 2 2 2 2 2 10
left_child=20 2 12 4 -4 9 21 -8 -9 -6 23 -12 -2 14 -14 16 17 -16 19 -15 24 -7 -19 -3 26 -18 -1
right_child=1 10 3 -5 5 6 7 8 -10 -11 11 -13 13 18 15 -17 25 22 -20 -21 -22 -23 -24 -25 -26 -27 -28
leaf_value=0.062825857487772155 -0.014889556246334463 -0.0058990949923355684 -0.038481752463096014 -0.04484715765152758 0.068858337744790041 -0.060357911847550211 0.07087119237127934 -0.047949600650828483 0.053459129215415173 0.012979820741735896 -0.019129359371264337 0.053959706437412658 0.055531590966096778 0.008432644478775576 0.031441762547437115 -0.054831206540239021 0.038817716454288019 0.0057514986024506951 0.09493596307285633 0.069620738333095164 0.017695809162934124 -0.0020740018676503988 -0.059896675336413588 -0.070022640259694222 0.077538652687657791 0.07764307689418419 0.027347032243423143
leaf_weight=8.1589356660842913 6.1204196512699118 4.5390199124813098 7.6799363791942588 6.1377236247062674 13.342719227075579 6.6024414151906949 6.983735620975497 6.8617256432771674 8.0192833095788938 10.266903057694433 8.1504230201244336 4.8865022957324973 12.547768533229826 7.31328332424164 7.649087309837344 5.3019547164440146 7.6255973428487769 5.5619194209575635 7.3508751839399329 7.4984945207834244 8.6670034080743772 7.7977181822061539 5.6098522543907166 5.8578596562147141 15.448100775480269 8.0487289726734144 8.9256761074066144
leaf_count=21 23 20 32 26 37 29 20 29 25 35 31 14 36 24 24 24 22 19 17 18 28 30 24 29 36 20 26
internal_value=0.0223509 0.015673 0.0201861 0.0089721 0.0138619 0.0205759 0.00496211 0.027196 0.00669893 0.044559 -0.014048 0.0082659 0.0304355 0.0341587 0.024138 0.0142398 0.0248561 -0.00337505 0.0578263 0.0394092 0.0511624 -0.028797 -0.0272134 -0.0420279 0.0600782 0.0587544 0.0442903
internal_weight=218.954 177.754 154.32 73.6922 67.5545 59.8745 36.2649 21.8647 14.881 23.6096 23.4338 13.0369 80.628 74.5076 52.3449 39.7971 34.4952 18.8209 22.1627 14.8118 41.1997 14.4002 11.1718 10.3969 32.5327 15.6743 17.0846
internal_count=719 608 514 263 237 205 133 74 54 72 94 45 251 228 169 133 109 67 59 42 111 59 43 49 83 42 47
is_linear=0
shrinkage=0.05


Tree=8
num_leaves=29
num_cat=0
split_feature=4 10 2 2 0 0 10 1 1 5 2 5 11 10 4 9 10 11 10 10 10 6 7 10 11 5 4 5
split_gain=15.1369 12.6487 6.19281 8.81057 7.3455 10.1904 7.33105 6.46161 7.99498 10.81 7.48593 6.81298 5.61576 5.94697 6.44678 9.48099 7.00976 5.94608 10.8187 6.76373 8.59402 13.6108 4.19865 3.80536 3.1277 2.85441 2.25069 1.82472
threshold=28.928127280000002 0.085471669500000028 98623.748425000013 99524.862495000008 -0.0015272419999999998 -0.00043753749999999995 0.10037001750000001 0.0049877870000000013 0.00015087650000000002 3.3452969200000005 99286.339655000003 1.8099728820000001 246.50000000000003 0.088151842000000022 21.791826865000004 19.512628705000004 0.087287133500000016 205.50000000000003 0.14368655100000002 0.10774844150000001 0.086758423500000015 45.370929780000004 0.0005605015000000001 0.08499965700000002 249.50000000000003 3.5244161915000007 24.701932040000003 4.7983748790000007
decision_type=2 2 2 2 2 2 2 10 10 2 2 2 2 2 2 2 2 2 2 2 2 2 2 2 2 2 2 2
left_child=1 -1 25 4 24 6 -6 8 9 11 -10 -7 17 14 15 16 -14 18 19 20 -3 -22 -23 -5 -4 -2 -16 -27
right_child=2 12 3 23 5 7 -8 -9 10 -11 -12 -13 13 -15 26 -17 -18 -19 -20 -21 21 22 -24 -25 -26 27 -28 -29
leaf_value=-0.050854215820733531 0.031291474237258539 0.057550613021147605 0.028923388142190143 0.034795285469847559 -0.063087969377583361 0.036106584531291896 0.016526848968781281 0.067676392435912489 -0.044218407637790322 0.082349777494698198 0.034027672800531594 -0.030647532472870543 -0.024438493104386748 -0.035903646638958668 0.054328219043237869 -0.072603622192891445 0.056509348819561579 0.063805542878139651 -0.039308523407741443 0.071935834354639697 -0.05327788492503234 0.0029786961742405043 0.05388812335689052 0.086309434298197305 0.074493166558963084 0.078709052131871196 0.016628183086125028 0.047473633322011988
leaf_weight=8.4962180256843549 9.152375742793085 9.5605432540178281 7.8452285230159742 6.6040993034839612 6.8791334033012372 9.3787125647068041 4.9880847334861755 6.7362563461065283 8.6099517196416837 7.3287019878625861 4.739340052008628 6.4515980184078208 5.9711908400058729 9.4618673920631391 6.2016208618879345 4.8026345074176779 4.84403957426548 7.7595995962619773 7.3216729760169974 6.872600480914115 7.6995323151350048 8.4262230247259158 7.7980457246303549 7.8417396694421768 7.2405897974967957 10.859462708234789 10.947010636329649 8.2109427303075773
leaf_count=38 26 27 23 21 30 28 17 18 36 18 14 27 26 39 18 23 14 21 29 19 32 31 23 20 17 25 37 22
internal_value=0.0212138 0.00766083 0.0339617 0.0271988 0.0198809 0.0114187 -0.0296239 0.0226817 0.0143796 0.0321441 -0.016439 0.00890113 0.0127512 -0.000986201 0.00909679 -0.0141429 0.0118173 0.0232152 0.0166092 0.026754 0.0174805 0.00146743 0.0274478 0.0627591 0.0507951 0.0542446 0.030262 0.0652603
internal_weight=219.029 106.163 112.866 84.6434 70.1976 55.1118 11.8672 43.2446 36.5083 23.159 13.3493 15.8303 97.6666 42.2284 32.7665 15.6179 10.8152 55.4382 47.6786 40.3569 33.4843 23.9238 16.2243 14.4458 15.0858 28.2228 17.1486 19.0704
internal_count=719 377 342 269 228 188 47 141 123 73 50 55 339 157 118 63 40 182 161 132 113 86 54 41 40 73 55 47
is_linear=0
shrinkage=0.05


end of trees

feature_importances:
precipitation=27
pressure=27
evaporation=24
precip_7day_avg=23
humidity=21
precip_3day_avg=21
wind_speed=18
day_of_year=18
soil_3day_avg=16
temperature=15
temp_3day_avg=15
year=8
soil_moisture=5
month=1

parameters:
[boosting: gbdt]
[objective: binary]
[metric: auc]
[tree_learner: serial]
[device_type: cpu]
[data_sample_strategy: bagging]
[data: ]
[valid: ]
[num_iterations: 1000]
[learning_rate: 0.05]
[num_leaves: 31]
[num_threads: 0]
[seed: 42]
[deterministic: 0]
[force_col_wise: 0]
[force_row_wise: 0]
[histogram_pool_size: -1]
[max_depth: -1]
[min_data_in_leaf: 20]
[min_sum_hessian_in_leaf: 0.001]
[bagging_fraction: 0.8]
[pos_bagging_fraction: 1]
[neg_bagging_fraction: 1]
[bagging_freq: 5]
[bagging_seed: 400]
[bagging_by_query: 0]
[feature_fraction: 0.9]
[feature_fraction_bynode: 1]
[feature_fraction_seed: 30056]
[extra_trees: 0]
[extra_seed: 12879]
[early_stopping_round: 0]
[early_stopping_min_delta: 0]
[first_metric_only: 0]
[max_delta_step: 0]
[lambda_l1: 0]
[lambda_l2: 0]
[linear_lambda: 0]
[min_gain_to_split: 0]
[drop_rate: 0.1]
[max_drop: 50]
[skip_drop: 0.5]
[xgboost_dart_mode: 0]
[uniform_drop: 0]
[drop_seed: 17869]
[top_rate: 0.2]
[other_rate: 0.1]
[min_data_per_group: 100]
[max_cat_threshold: 32]
[cat_l2: 10]
[cat_smooth: 10]
[max_cat_to_onehot: 4]
[top_k: 20]
[monotone_constraints: ]
[monotone_constraints_method: basic]
[monotone_penalty: 0]
[feature_contri: ]
[forcedsplits_filename: ]
[refit_decay_rate: 0.9]
[cegb_tradeoff: 1]
[cegb_penalty_split: 0]
[cegb_penalty_feature_lazy: ]
[cegb_penalty_feature_coupled: ]
[path_smooth: 0]
[interaction_constraints: ]
[verbosity: -1]
[saved_feature_importance_type: 0]
[use_quantized_grad: 0]
[num_grad_quant_bins: 4]
[quant_train_renew_leaf: 0]
[stochastic_rounding: 1]
[linear_tree: 0]
[max_bin: 255]
[max_bin_by_feature: ]
[min_data_in_bin: 3]
[bin_construct_sample_cnt: 200000]
[data_random_seed: 175]
[is_enable_sparse: 1]
[enable_bundle: 1]
[use_missing: 1]
[zero_as_missing: 0]
[feature_pre_filter: 1]
[pre_partition: 0]
[two_round: 0]
[header: 0]
[label_column: ]
[weight_column: ]
[group_column: ]
[ignore_column: ]
[categorical_feature: ]
[forcedbins_filename: ]
[precise_float_parser: 0]
[parser_config_file: ]
[objective_seed: 16083]
[num_class: 1]
[is_unbalance: 1]
[scale_pos_weight: 1]
[sigmoid: 1]
[boost_from_average: 1]
[reg_sqrt: 0]
[alpha: 0.9]
[fair_c: 1]
[poisson_max_delta_step: 0.7]
[tweedie_variance_power: 1.5]
[lambdarank_truncation_level: 30]
[lambdarank_norm: 1]
[label_gain: ]
[lambdarank_position_bias_regularization: 0]
[eval_at: ]
[multi_error_top_k: 1]
[auc_mu_weights: ]
[num_machines: 1]
[local_listen_port: 12400]
[time_out: 120]
[machine_list_filename: ]
[machines: ]
[gpu_platform_id: -1]
[gpu_device_id: -1]
[gpu_use_dp: 0]
[num_gpu: 1]

end of parameters

pandas_categorical:[]
