tree
version=v4
num_class=1
num_tree_per_iteration=1
label_index=0
max_feature_idx=52
objective=binary sigmoid:1
feature_names=evaporation precipitation pressure soil_moisture temperature wind_speed humidity month is_monsoon avg_elevation_m is_missing_precipitation precipitation_lag1 precipitation_lag2 precipitation_lag3 precipitation_lag5 precipitation_lag7 soil_moisture_lag1 soil_moisture_lag2 soil_moisture_lag3 water_area_km2_lag1 water_area_km2_lag2 water_area_km2_lag3 water_area_km2_lag5 water_area_km2_lag7 water_area_km2_lag14 humidity_lag1 humidity_lag2 pressure_lag1 precipitation_3day_sum precipitation_7day_sum precipitation_14day_sum precipitation_30day_sum soil_moisture_7day_avg temperature_7day_avg precip_change_1day soil_moisture_change_3day pressure_drop_1day precipitation_zscore soil_moisture_zscore temperature_zscore pressure_zscore water_area_km2_lag1_zscore water_area_km2_lag2_zscore water_area_km2_lag3_zscore water_area_km2_lag5_zscore water_area_km2_lag7_zscore water_area_km2_lag14_zscore days_since_heavy_rain days_since_dry_day days_in_monsoon precip_x_soil_moisture precip_7day_x_monsoon pressure_low_x_humidity_high
feature_infos=[-0.0032798359999999999:-6.7600000000000003e-05] [0:387.39999999999998] [84200:100960.1382] [0.079473167999999997:0.423587506] [12.671372059999999:38.264351449999999] [0.093459249999999994:6.7545570220000002] [10.33721231:99.799999999999997] [1:12] [0:1] [109:285] [0:1] [0:387.39999999999998] [0:387.39999999999998] [0:387.39999999999998] [0:5.3513113739999998] [0:5.3513113739999998] [0.079702202999999999:0.42548794699999998] [0.079456637999999996:0.42548794699999998] [0.079456637999999996:0.42548794699999998] [0:1763.041487] [0:1763.041487] [0:1968.2472829999999] [0:2284.285464] [0:2944.5316029999999] [0:2944.5316029999999] [11.61961123:90.310797190000002] [11.61961123:90.310797190000002] [84200:100960.1382] [0:387.40102823299998] [0:387.403304354] [0:387.51230195899996] [7.539999999999999e-05:387.51705365199996] [0.079939569142857145:0.41599203614285718] [13.479483208571429:38.546001548571425] [-2.9668073929999998:387.39987480499997] [-0.097754610999999991:0.21301699199999996] [-15652.458700000003:16218.517200000002] [-0.26093881762072829:19.641041433593113] [-0.61189326300891633:4.4002502021580954] [-2.2340791729576917:1.6180014115325336] [-15.075479626716291:1.7129913488842572] [-1.3709936860106222:2.2852630605958422] [-1.3687936828060507:2.44329352709366] [-1.3664890970558659:2.5609596395047327] [-1.360154815355157:3.4236311118380005] [-1.3564084877596299:4.4724819898716435] [-1.373543663375826:4.4603530421595794] [0:45] [0:4] [0:121] [0:33.791129644999998] [0:16.844043891999998] [0:6859.2760394199995]
tree_sizes=1653 1677 1669 1672 1667 1675 1682 1689 1683 1697 1692 1692 1696 1699 1704 1698 1689 1697 1708 1708 1704 1701 1704 1700 1702 1711 1704 1718 1709 1707 1706 1713 1706

Tree=0
num_leaves=15
num_cat=0
split_feature=24 19 41 51 17 21 21 36 42 15 22 41 24 5
split_gain=1160.71 257.473 206.347 58.0774 53.8713 52.5042 40.6987 77.9373 17.17 12.1295 8.61661 8.66232 3.64106 2.06894
threshold=615.25365915000009 296.2030656 0.58352716138987248 16.611968046000005 0.39418673250000008 1434.9705000000001 512.87314965000007 -1.0000000180025095e-35 0.53891727862565808 1.0000000180025095e-35 65.866853915000021 -0.71734353929994332 642.0309774000001 0.29621829900000007
decision_type=8 10 10 8 8 8 10 10 8 8 8 10 8 2
left_child=3 4 6 5 -2 -1 10 -8 9 -9 -3 -12 -13 -14
right_child=1 2 -4 -5 -6 -7 7 8 -10 -11 11 12 13 -15
leaf_value=-1.9473333839928306 -1.9473333839928306 -1.9473333839928306 -1.9473333839928306 -1.6797220440892826 -1.6797220440892828 -1.7136481732974214 -1.9473333839928306 -1.6797220440892826 -1.6797220440892826 -1.8235212181483811 -1.9473333839928328 -1.7399402114823921 -1.7136481732974214 -1.6804816754667216
leaf_weight=40.35703182220459 5.493040442466735 0.11210286617278953 3.1388802528381339 0.7721712589263906 0.77217125892639149 0.88427412509918113 1.5694401264190672 0.7721712589263906 4.6330275535583487 1.6689941883087156 0.11210286617278242 0.99637699127197876 1.7685482501983631 39.492837071418762
leaf_count=360 49 1 28 1 1 2 14 1 6 9 1 3 4 52
internal_value=-1.81635 -1.73226 -1.71123 -1.9375 -1.91435 -1.94232 -1.69674 -1.75608 -1.71365 -1.77804 -1.68467 -1.68397 -1.68327 -1.6819
internal_weight=102.543 60.5297 54.2645 42.0135 6.26521 41.2413 51.1256 8.64363 7.07419 2.44117 42.482 42.3699 42.2578 41.2614
internal_count=532 169 119 363 50 362 91 30 16 10 61 60 59 56
is_linear=0
shrinkage=1


Tree=1
num_leaves=15
num_cat=0
split_feature=24 19 41 51 22 17 43 43 22 41 1 24 5 41
split_gain=904.24 183.192 147.108 48.0228 44.8123 43.9225 24.6693 71.2639 5.98448 6.01074 5.21881 2.12753 1.18183 0.243139
threshold=615.25365915000009 296.2030656 0.58352716138987248 16.611968046000005 1715.9522590000004 0.39418673250000008 -0.11049315906334271 0.8948312442321682 65.866853915000021 -0.71734353929994332 0.00022184800000000002 642.0309774000001 0.29621829900000007 -0.60748822669889013
decision_type=8 10 10 8 8 8 10 10 8 10 10 8 2 10
left_child=3 5 6 4 -1 -2 8 -8 -3 -10 -9 -11 -13 -14
right_child=1 2 -4 -5 -6 -7 7 10 9 11 -12 12 13 -15
leaf_value=-0.034279619642100571 -0.034279619642100571 -0.034279619642100571 -0.034279619642100571 0.19092194778119881 0.16707857894255382 0.19092194778119861 -0.034503327884522324 0.19550834774989681 -0.034279619642102799 0.1477655236455184 0.1462533408678936 0.16707857894255382 0.18310675088507186 0.19104422794030401
leaf_weight=39.332983195781708 5.3536560460925093 0.10925828665494819 3.0592320263385764 0.91226649284362693 1.0205299407243718 0.91226649284362782 1.8107083886861781 4.4734811782836914 0.10925828665494108 1.1289960741996825 3.4132077991962433 2.0410598814487448 3.7795382738113323 42.854195058345802
leaf_count=360 49 1 28 1 2 1 16 5 1 3 9 4 5 47
internal_value=0.0867815 0.153184 0.168622 -0.0243213 -0.0291873 -0.00149213 0.179016 0.135224 0.187506 0.187991 0.174192 0.188479 0.189423 0.190401
internal_weight=110.311 69.0449 62.7789 41.2658 40.3535 6.26592 59.7197 9.6974 50.0223 49.913 7.88669 49.8038 48.6748 46.6337
internal_count=532 169 119 363 362 50 91 30 61 60 14 59 56 52
is_linear=0
shrinkage=0.03


Tree=2
num_leaves=15
num_cat=0
split_feature=24 19 41 51 21 17 21 43 41 22 41 24 5 22
split_gain=733.792 138.635 112.135 41.2615 39.3515 37.2648 16.6598 55.6057 4.57629 4.48356 4.50048 1.42685 0.78544 0.172776
threshold=615.25365915000009 296.2030656 0.58352716138987248 16.611968046000005 1434.9705000000001 0.39418673250000008 512.87314965000007 0.8948312442321682 0.1481759419863837 65.866853915000021 -0.71734353929994332 642.0309774000001 0.29621829900000007 424.18093505000007
decision_type=8 10 10 8 8 8 10 10 10 8 10 8 2 10
left_child=3 5 6 4 -1 -2 9 -8 -9 -3 -11 -12 -13 -14
right_child=1 2 -4 -5 -6 -7 7 8 -10 10 11 12 13 -15
leaf_value=-0.034135403141240354 -0.034135403141240354 -0.034135403141240354 -0.034135403141240354 0.16295324030045996 0.14458625603919298 0.16295324030045985 -0.034350724476576104 0.16885948440649107 0.12534831966606569 -0.03413540314124263 0.12938238457390508 0.14458625603919298 0.16312976892757777 0.15742923810380899
leaf_weight=38.329343497753143 5.2170495316386214 0.10647039860486884 2.9811711609363547 1.0346443653106678 1.1418214291334141 1.0346443653106687 1.7648821026086796 5.0312525629997236 3.832711786031723 0.10647039860486174 1.2486899793148101 2.2836428582668296 47.553736448287964 5.3205338269472113
leaf_count=360 49 1 28 1 2 1 16 5 9 1 3 4 46 6
internal_value=0.0791791 0.133858 0.145909 -0.0240631 -0.0289653 -0.00151758 0.15389 0.119427 0.150046 0.16036 0.160726 0.161094 0.161812 0.162556
internal_weight=116.987 76.4813 70.2296 40.5058 39.4712 6.25169 67.2484 10.6288 8.86396 56.6195 56.5131 56.4066 55.1579 52.8743
internal_count=532 169 119 363 362 50 91 30 14 61 60 59 56 52
is_linear=0
shrinkage=0.03


Tree=3
num_leaves=15
num_cat=0
split_feature=24 19 19 19 51 21 19 44 24 41 5 41 36 44
split_gain=612.783 109.432 64.2884 57.9425 36.3423 35.2311 32.4477 11.0316 5.33516 3.53294 3.45662 0.547951 0.476517 1.70531
threshold=615.25365915000009 296.2030656 727.92467055000009 765.18521800000008 16.611968046000005 1434.9705000000001 1.0000000180025095e-35 -1.1656954238043382 642.0309774000001 -0.71301379230669115 0.29621829900000007 0.43557106572609344 -44.14607499999692 -0.56376143087799035
decision_type=8 10 10 10 8 8 10 10 10 10 2 8 10 8
left_child=4 6 7 -4 5 -1 -2 -3 -9 -10 -11 12 13 -12
right_child=1 2 3 -5 -6 -7 -8 8 9 10 11 -13 -14 -15
leaf_value=-0.033996619129018857 0.14296118803651015 -0.03435711555403357 0.13208960965107727 -0.034112582812140788 0.14296118803651015 0.12790166705818176 -0.03399661912901885 0.10014319834751516 -0.033996619129018857 0.096820208225867233 0.14311291611763394 0.12289444957571813 0.14400464511374131 0.11625910121474309
leaf_weight=37.346088588237762 1.1421183347702015 0.33137858659028907 3.6524020731449118 3.9075962454080582 1.1421183347702015 1.2502156347036351 5.0832176133990288 3.0173753201961508 0.10373913496732612 1.541514679789542 10.271055817604063 1.2860638648271479 49.983834266662605 2.6845893561840048
leaf_count=360 1 3 5 37 1 2 49 9 1 4 9 2 44 5
internal_value=0.0730602 0.11944 0.129248 0.0461834 -0.0238172 -0.0287524 -0.00153142 0.138321 0.139151 0.140938 0.141214 0.14228 0.142676 0.137548
internal_weight=122.743 83.0049 76.7795 7.56 39.7384 38.5963 6.22534 69.2196 68.8882 65.8708 65.7671 64.2255 62.9395 12.9556
internal_count=532 169 119 42 363 362 50 77 74 65 64 60 58 14
is_linear=0
shrinkage=0.03


Tree=4
num_leaves=15
num_cat=0
split_feature=24 19 19 19 51 21 19 44 24 41 5 45 34 33
split_gain=522.651 89.0475 50.3525 50.1113 32.5682 31.9847 28.7745 9.01906 4.16763 2.88029 2.65949 0.4945 0.201346 0.459542
threshold=615.25365915000009 296.2030656 727.92467055000009 765.18521800000008 16.611968046000005 1434.9705000000001 1.0000000180025095e-35 -1.1656954238043382 642.0309774000001 -0.71301379230669115 0.29621829900000007 -1.3110546039626267 0.00039440450000000012 30.010766215
decision_type=8 10 10 10 8 8 10 10 10 10 2 10 10 2
left_child=4 6 7 -4 5 -1 -2 -3 -9 -10 -11 -12 -13 -14
right_child=1 2 3 -5 -6 -7 -8 8 9 10 11 12 13 -15
leaf_value=-0.03386303225212877 0.12791336244002649 -0.034210061284404729 0.11865090593861156 -0.033974834084369507 0.12791336244002649 0.11499426754520285 -0.03386303225212877 0.091231700663972765 -0.03386303225212877 0.088564268800461782 0.11470238580340689 0.1284988447087734 0.11599387471205438 0.12906070642574893
leaf_weight=36.383156776428223 1.2365972995758046 0.32294632494449516 3.9393074661493293 3.8072517514228821 1.2365972995758046 1.3472107648849476 4.952151894569397 3.2095904350280753 0.10106432437896629 1.6331564784049977 2.6980244517326346 56.702025294303894 3.9985830262303335 6.1446571350097656
leaf_count=360 1 3 5 37 1 2 49 9 1 4 4 46 5 5
internal_value=0.0680047 0.10822 0.116447 0.0436389 -0.0235827 -0.0285479 -0.00153788 0.123987 0.124672 0.126178 0.126406 0.127294 0.127802 0.12391
internal_weight=127.712 88.7454 82.5566 7.74656 38.967 37.7304 6.18875 74.81 74.4871 71.2775 71.1764 69.5433 66.8453 10.1432
internal_count=532 169 119 42 363 362 50 77 74 65 64 60 56 10
is_linear=0
shrinkage=0.03


Tree=5
num_leaves=15
num_cat=0
split_feature=24 19 19 19 21 51 19 19 33 36 24 21 14 41
split_gain=472.947 106.88 41.9972 40.5451 31.8506 31.7419 18.1765 13.696 7.84959 5.01433 4.89401 9.20881 17.5957 3.83988
threshold=587.22881350000011 74.963060090000013 717.8477693000001 765.18521800000008 1320.4078840000004 16.611968046000005 236.00450990000002 298.76764780000002 15.028174492857145 294.57211500000273 669.37071020000008 67.573791930000013 0.0087744030000000018 0.37889515064344864
decision_type=8 10 10 10 8 8 10 10 2 8 10 10 10 8
left_child=4 -2 6 -4 5 -1 -3 -8 -9 10 11 -10 -13 -12
right_child=1 2 3 -5 -6 -7 7 8 9 -11 13 12 -14 -15
leaf_value=-0.033734408443218088 -0.033734408443218088 0.21410961467111372 0.10425322695969926 -0.033903252074577096 0.12561070334140981 0.11615686518965813 -0.034802974458454573 0.15449044929469413 0.15103409381875227 -0.040458274437574333 0.11515253825492795 -0.036115875641335921 0.12469022489031399 -0.036758832911538711
leaf_weight=34.948230944573879 4.9222860485315314 1.6648600846528996 4.3086152449250212 3.4366685077548027 1.2521933317184437 1.3195270299911488 0.55307149887084861 4.2894926816225043 1.0964173078536981 0.19167545437812705 73.117235660552979 1.19288719445467 1.2585152387619019 0.15006157755851646
leaf_count=355 50 4 6 34 1 1 5 5 1 1 62 9 1 1
internal_value=0.0671938 0.102434 0.109779 0.0429517 -0.0231449 -0.0282809 0.115977 0.113981 0.114993 0.112793 0.113175 0.0787635 0.0464397 0.114841
internal_weight=133.702 96.1818 91.2595 7.74528 37.52 36.2678 83.5142 81.8494 81.2963 77.0068 76.8151 3.54782 2.4514 73.2673
internal_count=536 179 129 40 357 356 89 85 80 75 74 11 10 63
is_linear=0
shrinkage=0.03


Tree=6
num_leaves=15
num_cat=0
split_feature=24 19 19 19 21 51 24 24 13 19 41 22 36 46
split_gain=412.974 91.7692 34.3537 36.0201 28.9576 29.2581 13.4131 9.09956 19.5346 12.5345 7.90004 5.00891 4.46508 3.36743
threshold=587.22881350000011 74.963060090000013 717.8477693000001 765.18521800000008 1320.4078840000004 16.611968046000005 615.25365915000009 642.0309774000001 0.10808038100000002 256.33922510000008 -0.71301379230669115 75.446899765000012 294.57211500000273 -0.028232691303389078
decision_type=8 10 10 10 8 8 8 10 8 10 10 10 8 10
left_child=4 -2 6 -4 5 -1 -3 8 -8 -9 -11 -12 13 -13
right_child=1 2 3 -5 -6 -7 7 9 -10 10 11 12 -14 -15
leaf_value=-0.033610532684321119 -0.033610532684321119 0.18563578688402504 0.095951425755332789 -0.033773462161021096 0.11432464158334252 0.10670852802237721 -0.035582986235261245 0.22455128024941734 0.13406733332888274 -0.035336682499870757 -0.034579290131310565 -0.036612808513880976 -0.040043589888363956 0.10661916623981409
leaf_weight=34.038463905453682 4.7941498458385459 1.8738382309675206 4.5372159928083411 3.3477224409580231 1.3331928253173817 1.3920779228210438 1.2480757758021348 0.79729890823364158 1.1964281797409055 0.35929188877344032 0.2286451980471601 0.1479930281638947 0.18790757656097312 82.317032933235183
leaf_count=355 50 4 6 34 1 1 10 1 1 3 2 1 1 66
internal_value=0.0631641 0.094492 0.100873 0.0408739 -0.0229326 -0.0280973 0.106228 0.104507 0.04745 0.106167 0.105033 0.105641 0.106029 0.106362
internal_weight=137.799 101.036 96.2415 7.88494 36.7637 35.4305 88.3565 86.4827 2.4445 84.0382 83.2409 82.8816 82.6529 82.465
internal_count=536 179 129 40 357 356 89 85 11 74 73 70 68 67
is_linear=0
shrinkage=0.03


Tree=7
num_leaves=15
num_cat=0
split_feature=24 19 19 19 21 51 24 24 13 19 41 22 36 46
split_gain=364.803 79.9765 28.6834 32.2971 26.5734 27.1671 8.63716 7.71031 16.9882 7.9624 6.86596 4.34736 3.89863 2.92812
threshold=587.22881350000011 74.963060090000013 717.8477693000001 765.18521800000008 1320.4078840000004 16.611968046000005 615.25365915000009 642.0309774000001 0.10808038100000002 256.33922510000008 -0.71301379230669115 75.446899765000012 294.57211500000273 -0.028232691303389078
decision_type=8 10 10 8 8 8 8 10 8 10 10 10 8 10
left_child=4 -2 6 -4 5 -1 -3 8 -8 -9 -11 -12 13 -13
right_child=1 2 3 -5 -6 -7 7 9 -10 10 11 12 -14 -15
leaf_value=-0.033491197375693615 -0.033491197375693615 0.15791132275158898 0.089012975978674733 -0.033648454359778937 0.10521490382986642 0.098944664975127425 -0.035392143308044771 0.1854220857364324 0.12101012870634892 -0.035155704775580582 -0.034423873072679842 -0.036375076854437673 -0.039649356774286895 0.098763906869265117
leaf_weight=33.148396499454975 4.6687882393598548 2.1322327852249137 4.7408462166786167 3.2606695070862779 1.4040013551712025 1.455238103866576 1.2176216766238206 0.93413138389587302 1.284294009208679 0.35044097155332465 0.22287432849407096 0.1445435881614533 0.1841396689414968 86.135826461017146
leaf_count=355 50 4 6 34 1 1 10 1 1 3 2 1 1 66
internal_value=0.059697 0.0878897 0.0935224 0.0390276 -0.0227304 -0.0279217 0.098231 0.0968245 0.0448929 0.0983014 0.0973664 0.0979021 0.0982432 0.0985375
internal_weight=141.284 105.276 100.608 8.00152 36.0076 34.6036 92.6061 90.4739 2.50192 87.972 87.0378 86.6874 86.4645 86.2804
internal_count=536 179 129 40 357 356 89 85 11 74 73 70 68 67
is_linear=0
shrinkage=0.03


Tree=8
num_leaves=15
num_cat=0
split_feature=24 19 21 51 19 19 24 24 13 19 19 22 33 36
split_gain=325.427 70.5666 24.5649 25.3735 24.374 29.1815 5.80512 6.62919 14.9912 5.37911 6.23854 3.82344 4.59145 3.40789
threshold=587.22881350000011 74.963060090000013 1320.4078840000004 16.611968046000005 717.8477693000001 765.18521800000008 615.25365915000009 642.0309774000001 0.10808038100000002 256.33922510000008 298.76764780000002 75.446899765000012 13.938130210000002 294.57211500000273
decision_type=8 10 8 8 10 8 8 10 8 10 10 10 2 8
left_child=2 -2 3 -1 6 -6 -3 8 -8 -9 -11 -12 -13 -14
right_child=1 4 -4 -5 5 -7 7 9 -10 10 11 12 13 -15
leaf_value=-0.03337620717897366 -0.03337620717897366 0.1380135357257265 0.097703270604996922 0.092449588082922821 0.083120587074100027 -0.033528017681396391 -0.035208701559110017 0.1591174492969766 0.11063724255191251 -0.035117387772667409 -0.034274389466499564 0.15306999898846821 0.091256769400778287 -0.039274253421091129
leaf_weight=32.277867384254932 4.5461785048246375 2.3625226169824591 1.4655802249908436 1.5098638534545887 4.9216866493225071 3.1754968017339715 1.1876988187432282 1.0538225173950184 1.3612915277481077 0.35193411260843177 0.21721643954515357 1.0854009389877308 88.498466908931732 0.18037830293178458
leaf_count=355 50 4 1 1 6 34 10 1 1 3 2 1 66 1
internal_value=0.0566886 0.082326 -0.0225379 -0.0277535 0.0873645 0.0373742 0.0915679 0.0903998 0.0426805 0.0917308 0.0909446 0.0914377 0.0917419 0.0909913
internal_weight=144.195 108.942 35.2533 33.7877 104.396 8.09718 96.2987 93.9362 2.54899 91.3872 90.3334 89.9815 89.7642 88.6788
internal_count=536 179 357 356 129 40 89 85 11 74 73 70 68 67
is_linear=0
shrinkage=0.03


Tree=9
num_leaves=15
num_cat=0
split_feature=24 19 21 51 19 19 24 24 13 20 19 41 46 46
split_gain=292.597 62.88 22.8426 23.8112 20.9998 26.5368 4.02654 5.76306 13.3831 4.03365 3.75611 3.14258 2.51149 3.25554
threshold=587.22881350000011 74.963060090000013 1320.4078840000004 16.611968046000005 717.8477693000001 765.18521800000008 615.25365915000009 642.0309774000001 0.10808038100000002 0.47809463050000006 287.62748445000005 -0.71301379230669115 -0.028232691303389078 -1.0000000180025095e-35
decision_type=8 10 8 8 10 8 8 10 8 10 10 10 10 10
left_child=2 -2 3 -1 6 -6 -3 8 -8 -9 -11 -12 -13 -14
right_child=1 4 -4 -5 5 -7 7 9 -10 10 11 12 13 -15
leaf_value=-0.033265381748672586 -0.033265381748672586 0.12297974697894772 0.091401314015683258 0.086934986511616352 0.078048903977600378 -0.033411961455865329 -0.035032311709656788 -0.035378836752763251 0.10219158243530163 0.14012377212984564 -0.033816983174103525 -0.036734728853495963 0.13560264310197898 0.085592859875136804
leaf_weight=31.42669141292572 4.4262945652008048 2.5683341920375815 1.5187662839889515 1.5567116737365712 5.0816761255264256 3.0921889096498498 1.1583125963807099 0.24522815644740958 1.4284809827804563 1.1589790582656849 0.19731451570987601 0.14972274005411534 1.1867429018020477 91.41764923930171
leaf_count=355 50 4 1 1 6 34 10 2 1 1 2 1 1 67
internal_value=0.0540417 0.0775526 -0.0223543 -0.0275923 0.0821077 0.035883 0.0859046 0.0849223 0.0407456 0.0861334 0.0864501 0.0857808 0.0860353 0.0862337
internal_weight=146.613 112.111 34.5022 32.9834 107.685 8.17387 99.5108 96.9424 2.58679 94.3556 94.1104 92.9514 92.7541 92.6044
internal_count=536 179 357 356 129 40 89 85 11 74 72 71 69 68
is_linear=0
shrinkage=0.03


Tree=10
num_leaves=15
num_cat=0
split_feature=24 19 41 19 0 21 22 6 5 36 19 22 24 19
split_gain=287.611 32.1679 33.2926 28.6813 21.1056 8.29761 22.6257 17.0263 3.99019 3.54093 3.15146 2.98763 4.64493 2.62768
threshold=587.22881350000011 74.963060090000013 0.58352716138987248 1.0000000180025095e-35 -7.7849999999999981e-05 402.84254790000006 1295.1823300000003 47.429460015000011 0.24641114300000003 294.57211500000273 148.19859705000002 75.446899765000012 615.25365915000009 165.70921345000002
decision_type=8 10 8 8 2 10 10 2 2 8 10 8 8 10
left_child=4 3 5 -2 -1 8 7 -7 -3 10 -10 -12 -13 -14
right_child=1 2 -4 -5 -6 6 -8 -9 9 -11 11 12 13 -15
leaf_value=-0.033268161328025923 0.13186490102380474 -0.044614054813203227 -0.033155419738060923 -0.033389889138133573 0.074207716469313165 0.084064295482025708 0.084696450626757833 -0.037075189743015276 -0.034016788784849615 0.13456467764450228 0.12906571530936364 -0.036593034474743776 0.12572517528542018 0.081940597874300747
leaf_weight=30.966265209019184 1.2105543613433827 0.22026658058166404 2.4111659228801718 4.3124909251928329 1.7366648763418187 1.5809041261672963 9.554798059165476 3.0759180560708046 0.2082781046628942 1.193276286125182 1.2395615950226773 0.29541993141174216 1.2514106035232533 86.646502867341042
leaf_count=357 1 1 28 49 3 1 9 24 2 1 2 2 1 61
internal_value=0.0508043 0.0734435 0.0770654 0.00283105 -0.0275607 0.07959 0.0582703 0.0040494 0.0829176 0.0832268 0.0825434 0.0828149 0.0821648 0.082564
internal_weight=145.903 113.201 107.678 5.52305 32.7029 105.266 14.2116 4.65682 91.0547 90.8344 89.6412 89.4329 88.1933 87.8979
internal_count=542 182 132 50 360 104 34 25 70 69 68 66 64 62
is_linear=0
shrinkage=0.03


Tree=11
num_leaves=15
num_cat=0
split_feature=46 41 19 19 45 21 22 6 19 5 22 22 36 19
split_gain=240.559 36.5262 29.6097 25.5383 22.3015 11.3555 26.4398 14.8805 4.00197 3.62778 2.688 3.46368 2.66484 2.01117
threshold=-0.16555671247332623 0.58352716138987248 74.963060090000013 1.0000000180025095e-35 -1.3481977031668295 402.84254790000006 1295.1823300000003 47.429460015000011 148.19859705000002 0.24641114300000003 65.866853915000021 75.446899765000012 294.57211500000273 165.70921345000002
decision_type=8 8 10 10 8 10 10 2 10 2 8 8 8 10
left_child=4 2 3 -2 -1 8 7 -7 -4 -10 -11 -12 13 -13
right_child=1 -3 5 -5 -6 6 -8 -9 9 10 11 12 -14 -15
leaf_value=0.082030093918433855 0.11928044701776708 -0.033358063832403397 -0.033640486686350869 -0.03305483758902119 -0.033156109353042001 0.069104308237977516 0.079930753816196007 -0.036218338471250361 -0.043976394177239544 -0.033666588897448543 0.1291574362723561 0.11441592552291441 0.12139960514340527 0.077284572768777024
leaf_weight=1.5978144407272339 1.2966895103454579 3.1068143472075453 0.28679615259170432 4.193816214799881 28.425079688429836 1.7845326960086811 9.8165265098214132 3.7324076890945435 0.21680891513824363 0.19058553874492545 1.2283004522323597 1.3325072526931752 1.2815275192260731 88.908278703689575
leaf_count=1 1 36 3 50 337 3 9 32 1 2 1 1 1 64
internal_value=0.0487529 0.068136 0.0708955 0.0029221 -0.0270259 0.0743264 0.0503982 -0.00215023 0.0782528 0.0785973 0.0788832 0.0791145 0.0784429 0.0778329
internal_weight=147.398 117.376 114.269 5.49051 30.0229 108.778 15.3335 5.51694 93.4448 93.158 92.9412 92.7506 91.5223 90.2408
internal_count=542 204 168 51 338 117 44 35 73 70 69 67 66 65
is_linear=0
shrinkage=0.03


Tree=12
num_leaves=15
num_cat=0
split_feature=24 0 41 42 41 42 45 4 5 22 22 24 36 41
split_gain=241.134 18.9495 17.6012 33.2206 14.0972 27.0846 6.09039 10.1148 3.26471 2.84419 2.70415 4.13707 2.07564 1.58812
threshold=587.22881350000011 -7.7849999999999981e-05 -0.99495971975268693 -0.57246459376055614 0.44105060453283468 1.4680790281093581 0.22954761618138239 30.708822000000001 0.24641114300000003 70.00354332500001 75.446899765000012 615.25365915000009 294.57211500000273 -0.95095393210163126
decision_type=8 2 10 8 10 10 8 2 2 10 10 8 8 10
left_child=1 -1 3 -2 6 -6 8 -8 -4 -10 -11 -12 13 -13
right_child=2 -3 4 -5 5 -7 7 -9 9 10 11 12 -14 -15
leaf_value=-0.033063809938893102 -0.033011105721216939 0.066978429414026555 -0.043375081781385112 0.098148621662235883 -0.035056936751131605 0.075980753286127023 -0.035892390640944752 0.078341426729726313 -0.034264830186961789 0.11714308373170339 -0.036866846488702101 0.10528945767469247 0.11095080717755117 0.073139519431575664
leaf_weight=29.362812839448456 4.2147676199674606 1.8090015649795521 0.21327358484268089 2.9575789123773566 3.2799414917826635 4.9772925451397896 1.2208788916468611 1.6276261806488037 0.21739897131919761 1.3122535943984974 0.3031354546546926 1.4034035205841053 1.3588715791702259 94.264708742499352
leaf_count=357 51 3 1 3 34 4 11 1 2 1 2 1 1 70
internal_value=0.0469099 -0.027258 0.0666111 0.0210737 0.0695754 0.0318743 0.0726298 0.0293804 0.0738733 0.0741262 0.0743651 0.0737884 0.0741341 0.0736111
internal_weight=148.523 31.1718 117.351 7.17235 110.179 8.25723 101.922 2.84851 99.073 98.8598 98.6424 97.3301 97.027 95.6681
internal_count=542 360 182 54 128 38 90 12 78 77 75 74 72 71
is_linear=0
shrinkage=0.03


Tree=13
num_leaves=15
num_cat=0
split_feature=24 19 19 0 19 42 23 41 5 44 24 19 19 44
split_gain=222.187 23.7039 21.3278 17.9976 14.8267 26.3952 4.65806 4.20115 2.9964 2.5924 2.59821 2.20941 6.12114 2.03462
threshold=587.22881350000011 74.963060090000013 1.0000000180025095e-35 -7.7849999999999981e-05 721.76928240000007 1.4680790281093581 1.0815381525000001 0.40758112276723213 0.24641114300000003 -1.1907235031223484 587.22881350000011 236.00450990000002 298.76764780000002 -1.1656954238043382
decision_type=8 10 8 2 10 10 10 8 2 10 10 10 10 10
left_child=3 2 -2 -1 6 -6 -3 8 -8 -10 -11 -12 -13 -14
right_child=1 4 -4 -5 5 -7 7 -9 9 10 11 12 13 -15
leaf_value=-0.032965642820952393 0.10183368271164094 -0.033908543163806905 -0.033139695074387868 0.063775583952382087 -0.034790154700108183 0.07245594650080936 -0.042807337526130952 -0.040274454684572976 -0.034121271519221195 0.039891746606755298 0.097292031847049765 -0.035652899922298302 0.1075101001546154 0.070898734836472257
leaf_weight=28.578581757843498 1.4314078092575062 0.388521708548068 3.992338165640831 1.8423228561878193 3.4892219677567464 5.0614868700504303 0.20967356860637565 0.30910871177911659 0.21184806525707145 2.3717864975333205 2.9380232095718375 0.48292514681816001 1.3857277631759632 96.628941901028156
leaf_count=357 1 4 49 3 37 4 1 2 2 8 2 4 1 67
internal_value=0.0452409 0.0637511 0.0024818 -0.0271069 0.0666795 0.0286929 0.0697751 0.0701605 0.070488 0.0707164 0.0709303 0.0716561 0.0708914 0.0714163
internal_weight=149.322 118.901 5.42375 30.4209 113.477 8.55071 104.927 104.538 104.229 104.019 103.807 101.436 98.4976 98.0147
internal_count=542 182 50 360 132 41 91 87 85 84 82 74 72 68
is_linear=0
shrinkage=0.03


Tree=14
num_leaves=15
num_cat=0
split_feature=24 19 19 0 19 42 23 41 5 24 22 19 19 24
split_gain=205.546 21.6146 19.5751 17.1259 13.3221 24.561 4.27352 3.87033 2.76462 2.38166 2.40995 1.75252 5.62411 1.91896
threshold=587.22881350000011 74.963060090000013 1.0000000180025095e-35 -7.7849999999999981e-05 721.76928240000007 1.4680790281093581 1.0815381525000001 0.40758112276723213 0.24641114300000003 587.22881350000011 70.00354332500001 236.00450990000002 298.76764780000002 609.59994370000015
decision_type=8 10 8 2 10 10 10 8 2 10 10 10 10 10
left_child=3 2 -2 -1 6 -6 -3 8 -8 -10 -11 -12 -13 -14
right_child=1 4 -4 -5 5 -7 7 -9 9 10 11 12 13 -15
leaf_value=-0.032870891927784869 0.094878723744356006 -0.033779920717963555 -0.033039838288462776 0.060887535635779637 -0.034643528470573462 0.069326917494854159 -0.042270658318134119 -0.039900257845901413 0.038202442616031354 -0.033983113571895367 0.091053581499309949 -0.035460795699915365 -0.037104564510096118 0.068599521806940053
leaf_weight=27.81269416958094 1.4893020391464222 0.3784530833363523 3.8858792334794998 1.8713542222976673 3.4002146348357183 5.1301294937729836 0.20602081716060539 0.30274370312690635 2.4018926844000807 0.20641017705202003 3.0434272289276114 0.47115296870469947 0.15481176972389121 99.042453981935978
leaf_count=357 1 4 49 3 37 4 1 2 8 2 2 4 1 67
internal_value=0.0437298 0.0611997 0.00240257 -0.0269601 0.0639542 0.0278841 0.0668513 0.0672112 0.0675184 0.0677332 0.0684224 0.0686282 0.0679434 0.0684346
internal_weight=149.797 120.113 5.37518 29.684 114.738 8.53034 106.207 105.829 105.526 105.32 102.918 102.712 99.6684 99.1973
internal_count=542 182 50 360 132 41 91 87 85 84 76 74 72 68
is_linear=0
shrinkage=0.03


Tree=15
num_leaves=15
num_cat=0
split_feature=24 51 19 21 19 19 11 36 36 33 35 24 5 20
split_gain=180.973 22.4167 19.5131 18.4874 17.7555 10.0616 21.7435 3.20671 3.39002 3.15055 2.75327 2.49263 1.9478 1.86044
threshold=587.22881350000011 16.611968046000005 74.963060090000013 1434.9705000000001 1.0000000180025095e-35 709.46123425000008 0.0080626055000000019 379.22665499999863 200.14034999999424 13.813692838571431 -0.056533616500000002 587.22881350000011 0.24641114300000003 0.47809463050000006
decision_type=8 8 10 8 8 10 10 8 10 2 10 10 2 10
left_child=1 3 4 -1 -2 7 -7 8 9 -4 -11 -12 -13 -14
right_child=2 -3 5 -5 -6 6 -8 -9 -10 10 11 12 13 -15
leaf_value=-0.032702542136110548 0.089006115947407996 0.091577695153500255 0.11021707725671935 0.069573142063494922 -0.032960350590042271 -0.035490915001807607 0.06736815258144252 -0.046118601066286583 0.08386039373762931 -0.04337191370425364 0.034944183653010087 -0.037841894191590598 -0.037337148383702945 0.065731538163820477
leaf_weight=27.207664020359523 1.5391306877136219 1.5172675848007191 1.3645429611206044 1.6894115209579457 3.5563120022416115 2.8238919824361783 5.3611960858106613 0.22735072672366996 9.3937146663665754 0.21325424313545127 2.491341143846511 0.16428449749946494 0.15789423882961173 90.003047995269299
leaf_count=360 1 1 1 1 46 29 10 1 6 1 9 1 1 64
internal_value=0.04439 -0.0208216 0.0612991 -0.0267232 0.00388087 0.0639066 0.0318813 0.0664267 0.0666733 0.0649629 0.0642991 0.0645465 0.065363 0.065551
internal_weight=147.71 30.4143 117.296 28.8971 5.09544 112.201 8.18509 104.015 103.788 94.3944 93.0298 92.8166 90.3252 90.1609
internal_count=532 362 170 361 47 123 39 84 83 77 76 75 66 65
is_linear=0
shrinkage=0.03


Tree=16
num_leaves=15
num_cat=0
split_feature=24 41 51 21 19 19 5 36 35 33 36 41 22 24
split_gain=167.588 21.3705 20.9312 17.6177 17.4238 16.1298 2.95709 2.898 2.59312 2.45658 2.41466 2.24473 1.87774 2.31856
threshold=587.22881350000011 0.50265011013840566 16.611968046000005 1434.9705000000001 74.963060090000013 1.0000000180025095e-35 0.24641114300000003 379.22665499999863 -0.056533616500000002 13.813692838571431 -396.7756299999964 0.48821859579807952 75.446899765000012 587.22881350000011
decision_type=8 8 8 8 10 10 2 8 10 2 10 8 10 10
left_child=2 4 3 -1 5 -2 -6 8 -8 -10 -11 12 -12 -14
right_child=1 -3 -4 -5 6 -7 7 -9 9 10 11 -13 13 -15
leaf_value=-0.03261567197436805 0.083981156248742209 -0.033429602807967924 0.086189049754126043 0.066913506472278131 0.092269628104385923 -0.032589630599305551 -0.042804347092159814 -0.045392114725845235 0.10184559772080606 -0.041593024176297247 0.085405465685822454 -0.040351492223104482 0.033528363458452282 0.062674369588107889
leaf_weight=26.472818166017539 1.5815999507904042 2.2090332284569731 1.5630240440368641 1.703632354736327 3.0625885576009741 3.2916447892785072 0.20965389907359977 0.22410869598388572 1.4313102960586537 0.20103746652603049 3.1691038236021987 0.19072382152080436 2.5182261168956748 100.09191482514143
leaf_count=360 1 27 1 1 3 45 1 1 1 1 3 1 9 77
internal_value=0.0429855 0.059004 -0.0206701 -0.0265978 0.0607646 0.00524314 0.0632 0.062376 0.0626 0.0628054 0.0622791 0.0624761 0.0626615 0.0619591
internal_weight=147.92 118.181 29.7395 28.1765 115.972 4.87324 111.099 108.036 107.812 107.602 106.171 105.97 105.779 102.61
internal_count=532 170 362 361 143 46 97 94 93 92 91 90 89 86
is_linear=0
shrinkage=0.03


Tree=17
num_leaves=15
num_cat=0
split_feature=24 41 51 21 19 19 36 36 24 20 18 36 35 36
split_gain=155.574 19.8083 19.6248 16.8161 15.9507 15.0151 2.73919 2.5319 3.58737 2.68176 8.63882 2.48028 2.44822 2.30293
threshold=587.22881350000011 0.50265011013840566 16.611968046000005 1434.9705000000001 74.963060090000013 1.0000000180025095e-35 379.22665499999863 200.14034999999424 2163.3273165000005 8.2556737715000015 0.11455200550000001 181.59822500000158 -0.056533616500000002 -396.7756299999964
decision_type=8 8 10 10 10 10 8 10 8 10 8 8 10 10
left_child=2 4 3 -1 5 -2 7 8 11 -10 -11 12 -6 -14
right_child=1 -3 -4 -5 6 -7 -8 -9 9 10 -12 -13 13 -15
leaf_value=-0.032531812389451222 0.079632890198445133 -0.033321587536648656 0.081549005146372047 0.064524320406292149 -0.042267828257773921 -0.032506597637550018 -0.044709053194885912 0.074431378901714959 0.064288222052415273 -0.039081066551892217 0.062132001838886168 -0.042597715165677605 -0.04112072469588967 0.061479095452986292
leaf_weight=25.755652897059925 1.6173453330993641 2.1505905017256728 1.6017735004425038 1.7135485410690297 0.20600089430808921 3.202398307621479 0.22075727581977744 11.45630884170532 1.7143532037734974 1.3583679124712946 1.7199872732162473 0.20827659964561362 0.19730260968208213 94.808734059333801
leaf_count=360 1 27 1 1 1 45 1 7 1 11 1 1 1 73
internal_value=0.0416831 0.0568981 -0.0205253 -0.0264774 0.0585605 0.00512368 0.0608624 0.0610711 0.0595437 0.0342171 0.0174703 0.0608158 0.061042 0.061266
internal_weight=147.931 118.86 29.071 27.4692 116.71 4.81974 111.89 111.669 100.213 4.79271 3.07836 95.4203 95.212 95.006
internal_count=532 170 362 361 143 46 97 96 89 13 12 76 75 74
is_linear=0
shrinkage=0.03


Tree=18
num_leaves=15
num_cat=0
split_feature=24 51 41 43 19 19 35 41 46 11 43 35 5 33
split_gain=144.965 18.4639 18.4362 16.0739 14.6793 14.0302 2.27668 2.10435 9.50662 2.28947 1.76309 10.6352 2.5151 1.7422
threshold=587.22881350000011 16.611968046000005 0.50265011013840566 2.1400677856829842 74.963060090000013 1.0000000180025095e-35 -0.056533616500000002 -0.49441288603763373 1.5337824434662439 0.00054372700000000014 0.41275080440121464 1.5142500000002447e-05 0.24641114300000003 15.733675621428574
decision_type=8 8 8 10 10 10 10 10 8 10 10 8 2 2
left_child=1 3 4 -1 5 -2 -6 8 9 -8 12 -12 -9 -14
right_child=2 -3 -4 -5 6 -7 7 10 -10 -11 11 -13 13 -15
leaf_value=-0.032450841435052176 0.075833760146895274 0.077512073263040437 -0.033217218959639062 0.062367005971298413 -0.041760102353029557 -0.032426424959797903 0.040613397199706087 0.089172825213504267 -0.041917625769195062 0.063402315825551128 0.058493759086901985 -0.036824692816137608 0.076262967664440642 0.060094899016020747
leaf_weight=25.055882126092918 1.6469426155090321 1.634118080139159 2.0934893712401381 1.7195345163345326 0.20230621099471946 3.1153207272291183 6.3886051699519184 3.0754123926162711 0.96783687919378536 10.469981610774992 14.398769229650494 1.1366588771343238 6.5680143162608138 69.144897468388081
leaf_count=360 1 1 27 1 1 45 10 2 7 8 12 9 5 43
internal_value=0.0405114 -0.0203868 0.0550245 -0.0263616 0.0566019 0.0050134 0.0587886 0.05897 0.0495172 0.0547664 0.0607564 0.0515197 0.0625777 0.0614975
internal_weight=147.618 28.4095 119.208 26.7754 117.115 4.76226 112.352 112.15 17.8264 16.8586 94.3238 15.5354 78.7883 75.7129
internal_count=532 362 170 361 143 46 97 96 25 18 71 21 50 48
is_linear=0
shrinkage=0.03


Tree=19
num_leaves=15
num_cat=0
split_feature=24 51 41 21 41 20 35 41 46 11 21 45 37 34
split_gain=135.386 17.4232 17.2034 15.3837 13.5468 13.1525 2.13007 2.00016 8.88685 2.12224 1.65883 4.40937 9.03492 1.51757
threshold=587.22881350000011 16.611968046000005 0.50265011013840566 1434.9705000000001 -1.1770742041539612 11.807847370000003 -0.056533616500000002 -0.49441288603763373 1.5337824434662439 0.00054372700000000014 512.87314965000007 -1.1908972616877345 -0.05687196163859904 -0.00012551749999999999
decision_type=8 8 8 10 10 10 10 10 8 10 10 8 8 10
left_child=1 3 4 -1 5 -2 -6 8 9 -8 -9 13 -13 -12
right_child=2 -3 -4 -5 6 -7 7 10 -10 -11 11 12 -14 -15
leaf_value=-0.032372653040675679 0.072486535135140917 0.0739684299481327 -0.033116349075702732 0.060410032979008196 -0.041279112251497524 -0.032349009149250769 0.039256129320427775 0.060706408383173288 -0.041535433388725777 0.061149968497358029 0.072811323596016622 -0.038786541391724903 0.051038380744054777 0.051506591065546524
leaf_weight=24.373209185898311 1.6709166765213002 1.660604953765868 2.0377120077610007 1.7219356298446644 0.19857998192310233 3.0303748324513435 6.4108478054404285 76.882933259010315 0.94774443656206386 10.528986990451811 5.0685499906539917 1.371531546115875 3.8000910803675678 7.4058961570262891
leaf_count=360 1 1 27 1 1 45 10 45 7 8 4 9 6 7
internal_value=0.0394258 -0.0202542 0.0533044 -0.0262502 0.0548054 0.00491128 0.0568883 0.0570618 0.0478627 0.0528643 0.0588025 0.0505072 0.0272165 0.060163
internal_weight=147.11 27.7557 119.354 26.0951 117.316 4.70129 112.615 112.417 17.8876 16.9398 94.529 17.6461 5.17162 12.4744
internal_count=532 362 170 361 143 46 97 96 25 18 71 26 15 11
is_linear=0
shrinkage=0.03


Tree=20
num_leaves=15
num_cat=0
split_feature=24 51 19 0 19 21 31 41 45 13 36 41 22 36
split_gain=136.35 16.6403 14.1988 14.0206 12.8408 4.6937 16.0605 7.04397 3.48065 6.52343 2.37144 2.13996 1.19372 1.18077
threshold=609.59994370000015 16.611968046000005 148.19859705000002 -7.7849999999999981e-05 1.0000000180025095e-35 512.87314965000007 0.12420651000000001 0.58352716138987248 -1.1908972616877345 0.28764874100000004 379.22665499999863 0.48821859579807952 70.00354332500001 193.43213999999719
decision_type=8 8 10 2 8 10 10 8 8 10 8 8 10 10
left_child=1 3 4 -1 -2 7 -7 10 -8 -10 11 12 -4 -14
right_child=2 -3 5 -5 -6 6 8 -9 9 -11 -12 -13 13 -15
leaf_value=-0.032487012053269919 0.069515798364289103 0.070833525194706218 -0.035231290076530204 0.053998326554626906 -0.032663897554200107 -0.036951425553107868 0.059291044519392648 -0.032290448291771814 -0.033975716980274163 0.05877178474963636 -0.042939713592159826 0.077183158442674302 0.055523465381175377 0.064236780240488636
leaf_weight=24.419184453785423 1.6897478103637684 1.6817340850830067 0.12643659114837547 1.8122398108243967 3.2089558988809586 2.1422427818179122 10.703281253576277 0.78975243866443534 1.1309746950864783 1.7212629318237305 0.21053661406040092 4.9081542491912833 82.186481006443501 16.870452523231506
leaf_count=368 1 1 1 2 46 18 9 12 12 1 1 3 56 10
internal_value=0.0393311 -0.0206471 0.0526513 -0.026512 0.00258174 0.0546819 0.0393805 0.0569674 0.0514436 0.0219954 0.0576433 0.0578467 0.0568899 0.0570074
internal_weight=153.601 27.9132 125.688 26.2314 4.8987 120.79 15.6978 105.092 13.5555 2.85224 104.302 104.092 99.1834 99.0569
internal_count=541 371 170 370 47 123 40 83 22 13 71 70 67 66
is_linear=0
shrinkage=0.03


Tree=21
num_leaves=15
num_cat=0
split_feature=46 51 45 19 19 21 31 41 11 15 24 24 36 41
split_gain=127.981 15.8097 14.3077 13.1914 12.1115 4.13941 16.3597 7.12776 3.3464 3.30212 7.48818 2.28459 2.23752 1.74627
threshold=-0.028232691303389078 16.611968046000005 -1.3481977031668295 148.19859705000002 1.0000000180025095e-35 512.87314965000007 0.11215146150000001 0.58352716138987248 1.5552547285000002 0.0046961100000000007 1104.9481930000002 598.15268860000015 379.22665499999863 0.48821859579807952
decision_type=8 8 8 10 8 10 8 8 8 8 10 8 8 8
left_child=1 2 -1 4 -2 7 -7 11 9 -8 -11 -5 13 -13
right_child=3 -3 -4 5 -6 6 8 -9 -10 10 -12 12 -14 -15
leaf_value=0.057122516587775375 0.066862132738512436 0.068041204325915025 -0.032531877813149632 -0.036943514995395707 -0.032580349825659619 -0.036143690492183474 0.054230247452578387 -0.032216489927831382 0.070675642076924436 -0.036437983817336934 0.057129549836798077 0.055485538473440309 -0.042395846192383832 0.073682483301581475
leaf_weight=1.7176452875137329 1.7038767337799061 1.6979638338088978 23.799952045083053 0.23772712051868339 3.1220256015658379 2.2499112486839268 5.2247081845998737 0.83182468265294929 5.0123078823089608 1.3949280083179483 1.7176676988601685 98.790450796484947 0.2068953812122335 4.9858474731445304
leaf_count=1 1 1 364 2 46 22 4 13 3 13 1 66 1 3
internal_value=0.038375 -0.0205989 -0.026497 0.0511661 0.00252971 0.0531115 0.0386913 0.0552528 0.0513039 0.0396577 0.0151967 0.0559509 0.0561633 0.0563598
internal_weight=152.694 27.2156 25.5176 125.478 4.8259 120.652 15.5995 105.053 13.3496 8.3373 3.1126 104.221 103.983 103.776
internal_count=541 366 365 175 47 128 43 85 21 18 14 72 70 69
is_linear=0
shrinkage=0.03


Tree=22
num_leaves=15
num_cat=0
split_feature=46 51 45 19 19 21 31 41 11 15 24 24 36 41
split_gain=120.308 15.0221 13.7339 12.2942 11.4481 3.87522 15.4068 6.68494 2.97335 3.08122 7.10801 2.1473 2.10728 1.46488
threshold=-0.028232691303389078 16.611968046000005 -1.3481977031668295 148.19859705000002 1.0000000180025095e-35 512.87314965000007 0.12420651000000001 0.58352716138987248 1.5552547285000002 0.0046961100000000007 1104.9481930000002 598.15268860000015 379.22665499999863 0.48821859579807952
decision_type=8 8 8 10 8 10 10 8 8 8 10 8 8 8
left_child=1 2 -1 4 -2 7 -7 11 9 -8 -11 -5 13 -13
right_child=3 -3 -4 5 -6 6 8 -9 -10 10 -12 12 -14 -15
leaf_value=0.055616628211234073 0.064478040027872163 0.065538929637518326 -0.032455515574942827 -0.036705571305479183 -0.032499561849560377 -0.035951084817194716 0.052815533102937864 -0.032146235384396551 0.067949419492756277 -0.036234523927209147 0.055623093113726867 0.054012710548950259 -0.041881298678481033 0.070583233736972742
leaf_weight=1.7113183736801147 1.713708996772765 1.7097153663635243 23.150077771395452 0.2321740947663774 3.0371734611690044 2.1949369534850112 5.2040173858404115 0.8089781291782846 5.0562897920608529 1.3611877970397481 1.7113523483276367 98.444714114069939 0.20320990681648154 5.0476286411285392
leaf_count=1 1 1 364 2 46 22 4 13 3 13 1 66 1 3
internal_value=0.0374939 -0.0204778 -0.0263931 0.0498153 0.0024816 0.0516852 0.0376991 0.0537587 0.0498238 0.0387506 0.0149286 0.0544274 0.0546314 0.0548209
internal_weight=151.586 26.5711 24.8614 125.015 4.75088 120.264 15.5278 104.737 13.3328 8.27656 3.07254 103.928 103.696 103.492
internal_count=541 366 365 175 47 128 43 85 21 18 14 72 70 69
is_linear=0
shrinkage=0.03


Tree=23
num_leaves=15
num_cat=0
split_feature=46 51 45 19 19 21 31 41 11 15 24 24 36 41
split_gain=113.293 14.2977 13.1934 11.4825 10.8417 3.63392 14.5363 6.28238 2.65752 2.88028 6.75583 2.02202 1.98792 1.23852
threshold=-0.028232691303389078 16.611968046000005 -1.3481977031668295 148.19859705000002 1.0000000180025095e-35 512.87314965000007 0.11215146150000001 0.58352716138987248 1.5552547285000002 0.0046961100000000007 1104.9481930000002 598.15268860000015 379.22665499999863 0.48821859579807952
decision_type=8 8 8 10 8 10 8 8 8 8 10 8 8 8
left_child=1 2 -1 4 -2 7 -7 11 9 -8 -11 -5 13 -13
right_child=3 -3 -4 5 -6 6 8 -9 -10 10 -12 12 -14 -15
leaf_value=0.054230810353491803 0.06232511789781274 0.063284432147131295 -0.032381603253317653 -0.036476795485692312 -0.032421459515673649 -0.03576493024912674 0.05150228043119616 -0.032078352080516397 0.065500918844343906 -0.036037986866234169 0.054236771052530934 0.052649781508624344 -0.041393969738665964 0.067820810880460838
leaf_weight=1.7025266885757446 1.7196183204650868 1.7173765897750843 22.51639478281141 0.22670403122901817 2.9544045031070709 2.1409859210252735 5.1770110428333256 0.78670545667409797 5.0874273777008066 1.3280536532402047 1.7025711536407471 97.97028274834156 0.19949047267436881 5.0948593616485587
leaf_count=1 1 1 364 2 46 22 4 13 3 13 1 66 1 3
internal_value=0.0366736 -0.0203616 -0.026293 0.0485661 0.00243673 0.0503671 0.036782 0.0523781 0.0484647 0.0379049 0.0146774 0.0530201 0.0532166 0.0533997
internal_weight=150.324 25.9363 24.2189 124.388 4.67402 119.714 15.436 104.278 13.2951 8.20764 3.03062 103.491 103.265 103.065
internal_count=541 366 365 175 47 128 43 85 21 18 14 72 70 69
is_linear=0
shrinkage=0.03


Tree=24
num_leaves=15
num_cat=0
split_feature=24 51 0 41 20 21 31 41 36 11 15 24 22 41
split_gain=106.676 13.5998 11.9606 10.849 14.3789 3.33318 12.6001 5.52365 1.88892 1.66587 2.3486 6.12941 1.19645 0.994985
threshold=609.59994370000015 16.611968046000005 -7.7849999999999981e-05 -0.71301379230669115 3.5604018625000005 512.87314965000007 0.12420651000000001 0.58352716138987248 379.22665499999863 1.5552547285000002 0.0046961100000000007 1104.9481930000002 65.866853915000021 0.48821859579807952
decision_type=8 8 2 10 10 10 10 8 8 8 8 10 8 8
left_child=1 2 -1 4 -2 7 -7 8 12 10 -8 -12 -5 -14
right_child=3 -3 -4 5 -6 6 9 -9 -10 -11 11 -13 13 -15
leaf_value=-0.032195715432176912 0.051956311773509824 0.06124331038332391 0.048686630738561811 -0.035939198054932307 -0.032922504886644444 -0.036237771937157208 0.050279413544574186 -0.032013837965433813 -0.040931955952077631 0.059853185698222587 -0.036235409500513051 0.052957258746001587 0.051778349021840454 0.065343825105153755
leaf_weight=21.836961217224601 3.7852832525968543 1.7213052511215199 1.7795612588524843 0.13794700801372428 3.418465543538332 1.8778825923800457 5.1443221196532205 0.70641027390956779 0.19574655592441459 5.2843961715698251 1.1751771494746217 1.6915591955184937 95.039960607886314 5.1287924051284781
leaf_count=368 4 1 2 1 51 17 4 12 1 4 11 1 61 3
internal_value=0.0359082 -0.0201674 -0.026101 0.0474049 0.0116779 0.0496163 0.0365041 0.0515821 0.0521696 0.0467783 0.0381536 0.016394 0.0523513 0.0524729
internal_weight=148.924 25.3378 23.6165 123.586 7.20375 116.382 15.1733 101.209 100.502 13.2955 8.01106 2.86674 100.307 100.169
internal_count=541 371 370 170 55 115 37 78 66 20 16 12 65 64
is_linear=0
shrinkage=0.03


Tree=25
num_leaves=15
num_cat=0
split_feature=24 41 0 19 19 22 36 0 41 25 44 24 35 42
split_gain=115.893 11.6581 10.8612 9.57564 9.50116 2.05561 2.00905 1.41898 2.62777 7.19207 1.4766 4.011 19.4912 5.35492
threshold=587.22881350000011 0.58352716138987248 -7.7849999999999981e-05 74.963060090000013 1.0000000180025095e-35 65.866853915000021 -396.7756299999964 -0.0028001359999999995 -0.71734353929994332 58.083559615000006 -0.83881942156489508 734.25672705000011 -0.004214722499999996 0.79456929812562216
decision_type=8 8 2 10 10 8 10 2 10 10 10 10 10 8
left_child=2 3 -1 4 -2 -5 -7 -8 9 -9 -10 12 -12 -13
right_child=1 -3 -4 5 -6 6 7 8 10 -11 11 13 -14 -15
leaf_value=-0.032097731477213329 0.058834229697048476 -0.032496018125579049 0.043479052798398012 -0.035373349381330223 -0.031931669189986508 -0.042964938893402943 0.077526632142768809 0.060079549843364076 0.053068011759753578 -0.036374250179539498 0.060060883380104055 0.050746665545582346 -0.041332911466230679 -0.037827196492367307
leaf_weight=21.062243133783344 1.7213388681411732 1.6408330313861359 1.8627143651247013 0.25675290077924628 2.6143754497170448 0.2106994241476049 1.6340049505233754 1.7220119237899774 67.112417228519917 1.1674501746892927 5.1318482831120491 48.980770766735084 2.5562482327222815 0.622107833623878
leaf_count=366 1 26 3 2 46 1 1 1 42 10 4 33 15 5
internal_value=0.0364199 0.0469833 -0.0259569 0.0479585 0.00410365 0.049428 0.0495966 0.0497479 0.0493913 0.0211086 0.0500482 0.0465107 0.026348 0.0496358
internal_weight=158.296 135.371 22.925 133.73 4.33571 129.394 129.138 128.927 127.293 2.88946 124.403 57.291 7.6881 49.6029
internal_count=556 187 369 161 47 114 112 111 110 11 99 57 19 38
is_linear=0
shrinkage=0.03


Tree=26
num_leaves=15
num_cat=0
split_feature=24 41 0 19 19 22 36 35 46 2 0 15 22 11
split_gain=109.726 11.0245 10.4551 8.98094 9.03353 1.9445 1.90424 1.23677 4.81637 11.9822 1.03865 1.33435 2.11087 2.91358
threshold=587.22881350000011 0.58352716138987248 -7.7849999999999981e-05 74.963060090000013 1.0000000180025095e-35 65.866853915000021 -396.7756299999964 1.5142500000002447e-05 0.60725578234891975 100457.94370000002 -0.0028001359999999995 0.0015384145000000003 388.33118215000007 0.048406817000000012
decision_type=8 8 2 10 10 8 10 10 10 2 2 10 10 8
left_child=2 3 -1 4 -2 -5 -7 10 9 -9 -8 -12 -13 -14
right_child=1 -3 -4 5 -6 6 7 8 -10 -11 11 12 13 -15
leaf_value=-0.032034171299892555 0.057186730175653622 -0.03241914587809841 0.042307744022970044 -0.035186825750478636 -0.031870962376052574 -0.042419695396928747 0.073981260924737863 -0.040239606953570858 0.049629207920644292 0.045185276822338034 0.052388361406698156 0.049082239584226459 0.0078373822637702439 0.048793485657731318
leaf_weight=20.47970283403993 1.7178474664688099 1.5960578471422184 1.8569416403770436 0.2504655197262754 2.5418686121702194 0.20706045627593894 1.660513401031493 2.003731343895196 28.151443064212799 5.6299360916018486 63.897031538188457 20.336266502738003 3.00203813612461 3.2617783546447754
leaf_count=366 1 26 3 2 46 1 1 13 18 8 44 15 10 2
internal_value=0.0357132 0.0459564 -0.0258538 0.0468993 0.004044 0.0483211 0.0484843 0.0486314 0.043898 0.0227624 0.0504694 0.050038 0.044392 0.0291646
internal_weight=156.593 134.256 22.3366 132.66 4.25972 128.4 128.15 127.943 35.7851 7.63367 92.1576 90.4971 26.6001 6.26382
internal_count=556 187 369 161 47 114 112 111 39 21 72 71 27 12
is_linear=0
shrinkage=0.03


Tree=27
num_leaves=15
num_cat=0
split_feature=24 41 0 19 19 22 44 37 42 24 35 44 0 14
split_gain=103.924 10.43 10.0688 8.42161 8.60008 1.84007 1.27801 4.56897 8.21091 1.74117 1.10107 1.68655 2.89421 7.304
threshold=587.22881350000011 0.58352716138987248 -7.7849999999999981e-05 74.963060090000013 1.0000000180025095e-35 65.866853915000021 -0.83881942156489508 -0.15655946312846905 -0.47420637328876641 798.29530865000015 -0.0045074915000000012 -0.37226442940309934 -0.00024167149999999998 2.1300000000000003e-05
decision_type=8 8 2 10 10 8 10 8 8 10 10 10 2 10
left_child=2 3 -1 4 -2 -5 -7 8 9 -8 -9 -12 13 -13
right_child=1 -3 -4 5 -6 6 7 10 -10 -11 11 12 -14 -15
leaf_value=-0.031972649770919299 0.055675627864093753 -0.03234475619517567 0.041192469113958595 -0.035007705157461259 -0.031812272989797864 0.05028335418941289 0.023288535748087962 0.054825803761455273 -0.039199046871555995 0.049259317082718856 0.048323472819875368 0.051501512315073876 0.049849881262173219 -0.042592128389533253
leaf_weight=19.912101823836569 1.7116264104843129 1.5523956939578045 1.8501036167144764 0.24428799003362556 2.4712272360920906 66.409929051995277 4.4092007726430875 15.187965892255297 1.4752006381750096 4.9112076759338379 28.215389423072331 1.6751248836517336 3.5267574116587772 1.3335597738623617
leaf_count=366 1 26 3 2 46 44 9 11 10 3 21 1 4 9
internal_value=0.0350259 0.0449615 -0.0257526 0.0458736 0.00398783 0.047249 0.047407 0.0442619 0.0265645 0.0369733 0.0480876 0.0451427 0.0314104 0.00979575
internal_weight=154.886 133.124 21.7622 131.571 4.18285 127.389 127.144 60.7344 10.7956 9.32041 49.9388 34.7508 6.53544 3.00868
internal_count=556 187 369 161 47 114 112 68 22 12 46 35 14 10
is_linear=0
shrinkage=0.03


Tree=28
num_leaves=15
num_cat=0
split_feature=24 41 0 41 20 22 36 24 35 44 45 43 5 41
split_gain=98.5593 9.88173 9.70071 7.63555 8.12291 1.74233 1.7116 1.1635 5.60439 20.7431 2.37608 1.73305 0.755915 0.540949
threshold=587.22881350000011 0.58352716138987248 -7.7849999999999981e-05 -1.1770742041539612 49.176399520000011 65.866853915000021 -396.7756299999964 734.25672705000011 -0.004214722499999996 -0.99881020193115155 -1.3110546039626267 1.5644279654068292 0.46106591850000006 -0.71301379230669115
decision_type=8 8 2 10 10 8 10 10 10 8 10 8 2 10
left_child=2 3 -1 4 -2 -5 -7 8 -8 -10 -9 12 -12 -14
right_child=1 -3 -4 5 -6 6 7 10 9 -11 11 -13 13 -15
leaf_value=-0.031913089180326745 0.054285184467271305 -0.032272761800134352 0.040127825802399104 -0.034835625535344854 -0.031755874149830651 -0.041407513883824708 0.056445942641180885 -0.037943735642214253 0.050595921391844864 -0.039170946950812795 0.057912228549970746 -0.034688538015466008 0.033009235810655208 0.047921453011030214
leaf_weight=19.359129998832945 1.7029305696487416 1.5098254457116116 1.8423303514718998 0.23822150379419227 2.3506029769778252 0.19959694147109885 10.209212377667429 0.289821557700633 8.4541842639446241 3.1913290470838538 6.8164584636688224 0.22720836848020454 2.241309016942977 94.429769977927208
leaf_count=366 1 26 3 2 45 1 8 2 6 23 4 2 4 63
internal_value=0.0343829 0.0440359 -0.025653 0.0449197 0.00439085 0.0462205 0.0463737 0.0465129 0.0402205 0.0259963 0.0478351 0.0480748 0.0482566 0.0475757
internal_weight=153.062 131.86 21.2015 130.351 4.05353 126.297 126.059 125.859 21.8547 11.6455 104.005 103.715 103.488 96.6711
internal_count=556 187 369 161 46 115 113 112 37 29 75 73 71 67
is_linear=0
shrinkage=0.03


Tree=29
num_leaves=15
num_cat=0
split_feature=24 41 0 19 19 22 36 24 35 22 45 15 44 43
split_gain=93.6179 9.37803 9.34974 7.47162 7.82788 1.65523 1.62836 1.09304 5.3583 11.2188 2.25814 1.7485 2.72694 1.64539
threshold=587.22881350000011 0.58352716138987248 -7.7849999999999981e-05 74.963060090000013 1.0000000180025095e-35 65.866853915000021 -396.7756299999964 734.25672705000011 -3.8336999999999393e-05 138.98115880000003 -1.3110546039626267 0.10037535600000001 -1.0212051138996594 1.5644279654068292
decision_type=8 8 2 10 10 8 10 10 10 8 10 8 8 8
left_child=2 3 -1 4 -2 -5 -7 8 11 -10 -9 12 -8 -12
right_child=1 -3 -4 5 -6 6 7 10 9 -11 13 -13 -14 -15
leaf_value=-0.031855423594484469 0.053002003947021058 -0.032203078650865594 0.039109085485583818 -0.034670261545840381 -0.031704246670157733 -0.040944802200142377 0.050062889885462376 -0.037662147280688445 0.047379016363541013 -0.03994420384703596 0.047325368442106629 0.059702209862995882 0.013626938001622098 -0.034529976277885496
leaf_weight=18.820475928485397 1.6919957399368275 1.4683260284364212 1.8337407410144795 0.23226696252822776 2.3394921682775021 0.19585360586643119 6.4927953481674194 0.28332703560590644 3.497528299689292 2.1308480575680733 102.37481004744768 6.9267729967832556 2.5845539793372208 0.2214905396103849
leaf_count=366 1 26 3 2 46 1 4 2 3 15 71 5 9 2
internal_value=0.0337891 0.0431858 -0.025555 0.0440441 0.00384655 0.0453412 0.0454902 0.0456262 0.0394964 0.0143193 0.0469151 0.0483507 0.0396886 0.0471487
internal_weight=151.094 130.44 20.6542 128.972 4.03149 124.94 124.708 124.512 21.6325 5.62838 102.88 16.0041 9.07735 102.596
internal_count=556 187 369 161 47 114 112 111 36 18 75 18 13 73
is_linear=0
shrinkage=0.03


Tree=30
num_leaves=15
num_cat=0
split_feature=24 51 19 19 19 43 19 5 29 41 2 0 22 41
split_gain=84.9712 16.1743 8.50313 7.94801 2.16376 11.6822 1.87843 5.25856 1.82163 6.94621 7.54591 1.50883 1.38521 0.690416
threshold=587.22881350000011 16.611968046000005 74.963060090000013 1.0000000180025095e-35 709.46123425000008 0.070058941646952325 382.71510735000004 0.82712675700000016 0.0071077890000000006 -0.97545577327196564 98626.360300000015 -0.0025596309999999993 1.7467925125000001 0.41708969267974544
decision_type=8 8 10 8 10 10 10 2 10 8 2 2 8 8
left_child=1 -1 3 -2 6 -6 7 -4 -9 -10 -11 -8 -13 -14
right_child=2 -3 4 -5 5 -7 11 8 9 10 -12 12 13 -15
leaf_value=-0.031795249187827557 0.051814598847978781 0.064481919262746656 -0.062500590873566006 -0.031860951488700592 0.04752092080404683 -0.035450363935826297 -0.039391430917149028 0.046449016975191 0.056767323607479166 0.045767014174234656 -0.043372671041262752 -0.033671876449864607 0.046976970880766529 0.066248932284727322
leaf_weight=18.78598485887051 1.6790401935577381 1.7136955261230458 0.47033184766769665 2.6094167828559875 7.1992216482758504 1.9384915828704832 0.18157225847244163 11.434245556592943 3.4984455406665802 1.5554729700088494 1.8971185013651846 0.19029660522937675 84.795094333589077 1.7066937685012806
leaf_count=376 1 1 2 51 14 22 1 8 3 1 11 2 60 1
internal_value=0.0326704 -0.0237468 0.0423765 0.000900159 0.043925 0.0299192 0.0451355 0.0365524 0.0390863 0.0269749 -0.00321316 0.0469984 0.0471793 0.0473572
internal_weight=139.655 20.4997 119.155 4.28846 114.867 9.13771 105.729 18.8556 18.3853 6.95104 3.45259 86.8737 86.6921 86.5018
internal_count=554 377 177 52 125 36 89 25 23 15 12 64 63 61
is_linear=0
shrinkage=0.03


Tree=31
num_leaves=15
num_cat=0
split_feature=24 51 19 19 19 43 19 5 29 41 37 0 22 41
split_gain=80.8015 15.4527 8.02437 7.60311 2.10139 11.0494 1.81616 4.98984 1.75061 6.50096 7.22493 1.43661 1.31685 0.590364
threshold=587.22881350000011 16.611968046000005 74.963060090000013 1.0000000180025095e-35 709.46123425000008 0.070058941646952325 382.71510735000004 0.82712675700000016 0.0029153890000000004 -0.97545577327196564 -1.0000000180025095e-35 -0.0025596309999999993 1.7467925125000001 0.41708969267974544
decision_type=8 8 10 8 10 10 10 2 8 8 10 2 8 8
left_child=1 -1 3 -2 6 -6 7 -4 -9 -10 -11 -8 -13 -14
right_child=2 -3 4 -5 5 -7 11 8 9 10 -12 12 13 -15
leaf_value=-0.031741254217951043 0.050713065467658983 0.062328629625560086 -0.060742653338958931 -0.031803878822781746 0.046248783732059505 -0.035289025920715568 -0.039028678845384662 0.045584799083946512 0.055118027700720607 -0.042889848532193346 0.045061669190945536 -0.033550868508498387 0.046147164043433962 0.063925296379461316
leaf_weight=18.261319115757946 1.6642663478851307 1.7196112871170033 0.46943713724613445 2.5367723740637302 7.1756762042641622 1.8896711841225622 0.17781884968280692 11.303465142846109 3.4950743392109871 1.8614603467285666 1.5327689647674518 0.18532848358154197 83.746107205748558 1.7155220508575428
leaf_count=376 1 1 2 51 14 22 1 8 3 11 1 2 60 1
internal_value=0.032136 -0.0236454 0.0416012 0.000885697 0.0431075 0.0292522 0.0443096 0.0358277 0.0383196 0.0263993 -0.00317263 0.046154 0.0463308 0.046504
internal_weight=137.734 19.9809 117.753 4.20104 113.552 9.06535 104.487 18.6622 18.1928 6.8893 3.39423 85.8248 85.647 85.4616
internal_count=554 377 177 52 125 36 89 25 23 15 12 64 63 61
is_linear=0
shrinkage=0.03


Tree=32
num_leaves=15
num_cat=0
split_feature=24 51 19 19 19 43 19 5 29 14 37 0 24 33
split_gain=76.9029 14.7825 7.58089 7.27899 2.04421 10.4599 1.75618 4.73976 1.6825 4.16475 8.40555 1.36897 0.4428 0.702966
threshold=587.22881350000011 16.611968046000005 74.963060090000013 1.0000000180025095e-35 709.46123425000008 0.070058941646952325 382.71510735000004 0.82712675700000016 0.0029153890000000004 0.14392388300000003 -1.0000000180025095e-35 -0.0025596309999999993 679.49183070000015 13.813692838571431
decision_type=8 8 10 8 10 10 10 2 8 10 10 2 8 2
left_child=1 -1 3 -2 6 -6 7 -4 -9 10 -10 -8 -13 -14
right_child=2 -3 4 -5 5 -7 11 8 9 -11 -12 12 13 -15
leaf_value=-0.031688961805429433 0.049688835317344485 0.060375142525831177 -0.059123276257452534 -0.031748634158880143 0.045043929693596434 -0.035132634765499028 -0.038683088936384717 0.044769510889039389 -0.042464406769405445 0.049626235448774945 0.05113296518229081 0.051971668357831589 -0.033908889420233089 0.044905651318381708
leaf_weight=17.750418800860647 1.6478608846664418 1.7219483852386464 0.46784877777099865 2.4660185649991035 7.1470129266381246 1.8418627828359602 0.17408175766467948 11.166106894612314 1.7879252359271083 3.3638459444046021 1.6702313423156696 8.6284009441733343 0.10198766738176246 75.821611009538174
leaf_count=376 1 1 2 51 14 22 1 8 11 3 1 7 1 55
internal_value=0.03163 -0.0235477 0.0408697 0.000872064 0.0423366 0.0286154 0.0435319 0.0351462 0.037598 0.0258598 0.00274155 0.0453586 0.0455317 0.0447998
internal_weight=135.757 19.4724 116.285 4.11388 112.171 8.98888 103.182 18.456 17.9881 6.822 3.45816 84.7261 84.552 75.9236
internal_count=554 377 177 52 125 36 89 25 23 15 12 64 63 56
is_linear=0
shrinkage=0.03


end of trees

feature_importances:
water_area_km2_lag1=88
water_area_km2_lag14=63
water_area_km2_lag1_zscore=53
water_area_km2_lag5=28
pressure_drop_1day=27
water_area_km2_lag3=24
precip_7day_x_monsoon=23
evaporation=17
wind_speed=17
soil_moisture_change_3day=11
water_area_km2_lag14_zscore=11
water_area_km2_lag3_zscore=10
water_area_km2_lag5_zscore=10
water_area_km2_lag7_zscore=10
precipitation_lag1=8
precipitation_lag7=7
temperature_7day_avg=7
water_area_km2_lag2_zscore=7
water_area_km2_lag2=6
precipitation_lag3=5
precipitation_30day_sum=5
precipitation_zscore=4
precipitation_lag5=3
soil_moisture_lag2=3
precipitation_7day_sum=3
pressure=2
humidity=2
water_area_km2_lag7=2
precip_change_1day=2
precipitation=1
temperature=1
soil_moisture_lag3=1
humidity_lag1=1

parameters:
[boosting: gbdt]
[objective: binary]
[metric: auc]
[tree_learner: serial]
[device_type: cpu]
[data_sample_strategy: bagging]
[data: ]
[valid: ]
[num_iterations: 2000]
[learning_rate: 0.03]
[num_leaves: 15]
[num_threads: 0]
[seed: 42]
[deterministic: 0]
[force_col_wise: 0]
[force_row_wise: 0]
[histogram_pool_size: -1]
[max_depth: -1]
[min_data_in_leaf: 5]
[min_sum_hessian_in_leaf: 0.001]
[bagging_fraction: 0.8]
[pos_bagging_fraction: 1]
[neg_bagging_fraction: 1]
[bagging_freq: 5]
[bagging_seed: 400]
[bagging_by_query: 0]
[feature_fraction: 0.9]
[feature_fraction_bynode: 1]
[feature_fraction_seed: 30056]
[extra_trees: 0]
[extra_seed: 12879]
[early_stopping_round: 0]
[early_stopping_min_delta: 0]
[first_metric_only: 0]
[max_delta_step: 0]
[lambda_l1: 0]
[lambda_l2: 0]
[linear_lambda: 0]
[min_gain_to_split: 0]
[drop_rate: 0.1]
[max_drop: 50]
[skip_drop: 0.5]
[xgboost_dart_mode: 0]
[uniform_drop: 0]
[drop_seed: 17869]
[top_rate: 0.2]
[other_rate: 0.1]
[min_data_per_group: 100]
[max_cat_threshold: 32]
[cat_l2: 10]
[cat_smooth: 10]
[max_cat_to_onehot: 4]
[top_k: 20]
[monotone_constraints: ]
[monotone_constraints_method: basic]
[monotone_penalty: 0]
[feature_contri: ]
[forcedsplits_filename: ]
[refit_decay_rate: 0.9]
[cegb_tradeoff: 1]
[cegb_penalty_split: 0]
[cegb_penalty_feature_lazy: ]
[cegb_penalty_feature_coupled: ]
[path_smooth: 0]
[interaction_constraints: ]
[verbosity: -1]
[saved_feature_importance_type: 0]
[use_quantized_grad: 0]
[num_grad_quant_bins: 4]
[quant_train_renew_leaf: 0]
[stochastic_rounding: 1]
[linear_tree: 0]
[max_bin: 255]
[max_bin_by_feature: ]
[min_data_in_bin: 3]
[bin_construct_sample_cnt: 200000]
[data_random_seed: 175]
[is_enable_sparse: 1]
[enable_bundle: 1]
[use_missing: 1]
[zero_as_missing: 0]
[feature_pre_filter: 1]
[pre_partition: 0]
[two_round: 0]
[header: 0]
[label_column: ]
[weight_column: ]
[group_column: ]
[ignore_column: ]
[categorical_feature: ]
[forcedbins_filename: ]
[precise_float_parser: 0]
[parser_config_file: ]
[objective_seed: 16083]
[num_class: 1]
[is_unbalance: 0]
[scale_pos_weight: 6.88806]
[sigmoid: 1]
[boost_from_average: 1]
[reg_sqrt: 0]
[alpha: 0.9]
[fair_c: 1]
[poisson_max_delta_step: 0.7]
[tweedie_variance_power: 1.5]
[lambdarank_truncation_level: 30]
[lambdarank_norm: 1]
[label_gain: ]
[lambdarank_position_bias_regularization: 0]
[eval_at: ]
[multi_error_top_k: 1]
[auc_mu_weights: ]
[num_machines: 1]
[local_listen_port: 12400]
[time_out: 120]
[machine_list_filename: ]
[machines: ]
[gpu_platform_id: -1]
[gpu_device_id: -1]
[gpu_use_dp: 0]
[num_gpu: 1]

end of parameters

pandas_categorical:[]
