tree
version=v4
num_class=1
num_tree_per_iteration=1
label_index=0
max_feature_idx=52
objective=binary sigmoid:1
feature_names=evaporation precipitation pressure soil_moisture temperature wind_speed humidity month is_monsoon avg_elevation_m is_missing_precipitation precipitation_lag1 precipitation_lag2 precipitation_lag3 precipitation_lag5 precipitation_lag7 soil_moisture_lag1 soil_moisture_lag2 soil_moisture_lag3 water_area_km2_lag1 water_area_km2_lag2 water_area_km2_lag3 water_area_km2_lag5 water_area_km2_lag7 water_area_km2_lag14 humidity_lag1 humidity_lag2 pressure_lag1 precipitation_3day_sum precipitation_7day_sum precipitation_14day_sum precipitation_30day_sum soil_moisture_7day_avg temperature_7day_avg precip_change_1day soil_moisture_change_3day pressure_drop_1day precipitation_zscore soil_moisture_zscore temperature_zscore pressure_zscore water_area_km2_lag1_zscore water_area_km2_lag2_zscore water_area_km2_lag3_zscore water_area_km2_lag5_zscore water_area_km2_lag7_zscore water_area_km2_lag14_zscore days_since_heavy_rain days_since_dry_day days_in_monsoon precip_x_soil_moisture precip_7day_x_monsoon pressure_low_x_humidity_high
feature_infos=[-0.0030278000000000002:-6.7600000000000003e-05] [0:3.441955949] [97838.916129999998:101050.69590000001] [0.079835987999999997:0.41038757300000001] [12.043576079999999:58.299999999999997] [0.109340083:6.1288103459999999] [10.33721231:99.799999999999997] [1:12] [0:1] [285:610] [0:1] [0:3.441955949] [0:3.441955949] [0:3.441955949] [0:3.441955949] [0:3.441955949] [0.079835987999999997:0.41038757300000001] [0.079835987999999997:0.41038757300000001] [0.079871586999999994:0.41038757300000001] [0.15470170999999999:1706.388406] [0.15470170999999999:1706.388406] [0.22192738400000001:1648.6390260000001] [0.59804565499999995:1879.3011919999999] [0.59804565499999995:1879.3011919999999] [0.15470170999999999:1879.3011919999999] [13.587946609999999:89.771974540000002] [15.73441843:89.771974540000002] [97838.916129999998:101050.69590000001] [0:5.4120124060000006] [0:6.3986905419999998] [2.4939999999999995e-05:6.853043993] [0.00013498500000000001:7.0431720040000005] [0.079949542714285698:0.36808514071428572] [12.600989795714286:38.546001548571425] [-2.2151404179999998:2.6987150230000001] [-0.087898191000000014:0.306236383] [-634.95550999999978:584.92283999999927] [-0.26093881762072829:17.334453745666753] [-0.47372108135508539:7.5187927522708593] [-2.3222240920600803:4.8424499654422197] [-2.17297362184169:1.9440747673938656] [-1.3709936860106222:2.8113761098193075] [-1.3687936828060507:2.8110124093653184] [-1.3664890970558659:2.6683115454919992] [-1.3711808418272373:3.4236311118380005] [-1.3738303965819763:3.4232622928052141] [-1.373543663375826:3.4083789873895323] none [0:2] [0:121] [0:0.99359117575340816] [0:6.3986905419999998] [0:1328.7775052388326]
tree_sizes=1658 1693 1683 1688 1696 1685 1682 1704 1699 1697 1697 1712 1698 1698 1702 1696 1698 1698 1687 1696 1704 1691 1704 1717 1701 1727 1705 1701 1691 1714 1698 1706 1700 1699 1690 1703 1702 1702 1702 1704 1707 1700 1706 1706 1698 1706 1702 1705 1706 1706 1711

Tree=0
num_leaves=15
num_cat=0
split_feature=24 19 19 21 21 21 22 41 24 2 19 35 5 26
split_gain=1364.26 311.679 278.427 63.329 46.0328 74.3095 17.3961 11.5956 8.89774 7.87705 4.80778 24.7297 10.8874 2.24763
threshold=600.42257210000014 145.01800560000004 765.32429385000012 1431.8298130000003 510.21160695000009 890.32230510000011 69.303207855000025 -0.61392881878506234 624.16150105000008 100410.06750000002 384.35390715000005 -0.015903576499999992 0.64742658700000011 50.870222600000012
decision_type=8 10 10 8 10 10 8 10 8 2 10 10 2 10
left_child=3 -2 4 -1 6 -6 -3 -8 -9 -7 11 -10 -13 -14
right_child=1 2 -4 -5 5 9 7 8 10 -11 -12 12 13 -15
leaf_value=-2.0113165402583291 -2.0113165402583291 -2.0113165402583291 -2.0113165402583291 -1.7304960253527439 -2.0113165402583291 -1.8156959100499406 -1.8336624381491813 -2.0113165402583291 -2.0113165402583286 -1.7403313492169246 -1.7304960253527439 -1.8336624381491817 -1.7552770257468522 -1.7304960253527439
leaf_weight=40.595323890447617 5.1278303861618033 0.21365959942340751 3.9527025893330565 0.73585003614425559 1.4956171959638584 2.1126788705587387 1.1631692349910725 0.10682979971170325 0.32048939913511532 3.0502299442887306 32.37740159034729 1.1631692349910761 4.8424194157123557 10.301900506019591
leaf_count=380 48 2 37 1 14 8 5 1 3 5 44 5 10 14
internal_value=-1.87107 -1.78667 -1.76781 -2.00632 -1.75097 -1.82511 -1.74119 -1.74004 -1.73783 -1.77117 -1.73723 -1.75034 -1.74521 -1.73842
internal_weight=107.559 66.2281 61.1003 41.3312 57.1476 6.65853 50.489 50.2754 49.1122 5.16291 49.0054 16.628 16.3075 15.1443
internal_count=577 196 148 381 111 27 84 82 77 13 76 32 29 24
is_linear=0
shrinkage=1


Tree=1
num_leaves=15
num_cat=0
split_feature=24 19 41 20 21 46 44 26 12 1 36 45 30 5
split_gain=1047.16 223.387 133.969 68.6161 52.1127 28.985 25.0611 23.9236 20.6182 29.2684 7.31248 7.01463 6.04321 2.88569
threshold=600.42257210000014 145.01800560000004 0.49870401242817786 1181.7886055000001 1431.8298130000003 0.21447176202164667 -1.1579932734624412 50.526866370000008 0.00013287350000000002 0.011378173500000002 372.74524499999103 -1.3651590872319581 3.1645000000000006e-05 0.51721401000000011
decision_type=8 10 10 10 8 10 10 10 10 8 8 10 2 2
left_child=4 -2 5 -4 -1 7 -7 -3 -9 -10 11 -8 -13 -14
right_child=1 2 3 -5 -6 6 10 8 9 -11 -12 12 13 -15
leaf_value=-0.034014371462016496 -0.034014371462016496 -0.034455136530097942 -0.034080227856991073 0.18628557784480834 0.19930357647637481 -0.034350495078140683 -0.034881736359039815 0.19985881177756287 -0.034187635197049024 0.19930357647637456 -0.035185777217227085 -0.034014371462014178 0.17024796370204912 0.19655762695846229
leaf_weight=39.554649293422699 4.9963767528533927 0.78120370209216972 3.9946364462375632 1.865597143769264 0.88075298070907493 0.43793469667434592 0.12036481499671126 2.6362141966819763 1.0703554749488826 0.88075298070907604 0.12566114962100883 0.10409118235111847 4.0252714157104483 55.264257326722145
leaf_count=380 48 7 38 3 1 4 1 3 10 1 1 1 9 70
internal_value=0.0944949 0.159903 0.173491 0.0360729 -0.0289323 0.185796 0.191764 0.119008 0.145142 0.071213 0.193424 0.193907 0.19437 0.194771
internal_weight=116.738 76.3027 71.3063 5.86023 40.4354 65.4461 60.0776 5.36853 4.58732 1.95111 59.6396 59.514 59.3936 59.2895
internal_count=577 196 148 41 381 107 86 21 14 11 82 81 80 79
is_linear=0
shrinkage=0.03


Tree=2
num_leaves=15
num_cat=0
split_feature=24 19 41 20 21 24 38 22 35 45 36 5 24 49
split_gain=841.39 170.969 95.8199 56.67 44.7544 19.6102 28.5863 13.0106 11.3225 10.2812 5.41076 3.87213 12.8713 1.62079
threshold=600.42257210000014 145.01800560000004 0.49870401242817786 1181.7886055000001 1431.8298130000003 624.16150105000008 -0.24709807741756376 70.175946220000014 -0.054979384999999999 -1.3651590872319581 372.74524499999103 0.51721401000000011 965.91877860000011 94.500000000000014
decision_type=8 10 10 10 8 10 2 10 10 10 8 2 10 2
left_child=4 -2 5 -4 -1 6 -3 -7 -9 -10 11 12 -11 -13
right_child=1 2 3 -5 -6 7 -8 8 9 10 -12 13 -14 -15
leaf_value=-0.033880121440984283 -0.033880121440984283 -0.034031944528962903 -0.033943625365748901 0.15892883377753586 0.16871061954696673 -0.033878816646633392 0.15068126480493488 -0.035450037391594642 -0.034715397028185727 0.076351677704315141 -0.035006489038421705 0.16783949862854036 0.17773841303349375 0.15084858396792308
leaf_weight=38.535435348749161 4.8676339387893668 1.1442781835794451 3.8919418528676024 2.1167469248175621 1.0070314407348622 0.30414828658103843 2.2111978679895392 0.25843784213066001 0.23476060479879279 1.8436409160494793 0.12256241589784522 59.688151948153973 2.8989561796188354 5.5201521813869467
leaf_count=380 48 11 38 3 1 3 4 2 2 8 1 64 3 9
internal_value=0.0856255 0.138756 0.149229 0.0340017 -0.0287207 0.158557 0.0876907 0.161912 0.162756 0.163485 0.164149 0.164498 0.138325 0.166401
internal_weight=124.645 85.1026 80.235 6.00869 39.5425 74.2263 3.35548 70.8708 70.5667 70.3082 70.0735 69.9509 4.7426 65.2083
internal_count=577 196 148 41 381 107 15 92 89 87 85 84 11 73
is_linear=0
shrinkage=0.03


Tree=3
num_leaves=15
num_cat=0
split_feature=24 19 19 19 21 24 38 44 35 45 36 46 46 44
split_gain=697.746 136.716 55.3805 61.7934 39.4823 16.5087 25.2788 10.1637 8.86127 8.03031 4.22598 2.81617 7.19662 5.1206
threshold=600.42257210000014 145.01800560000004 756.62592490000009 765.32429385000012 1431.8298130000003 624.16150105000008 -0.24709807741756376 -1.2029249916692699 -0.054979384999999999 -1.3651590872319581 372.74524499999103 0.52390637739106849 0.40420827388528896 -1.1579932734624412
decision_type=8 10 10 10 8 10 2 10 10 10 8 10 10 10
left_child=4 -2 5 -4 -1 6 -3 -7 -9 -10 11 12 -11 -13
right_child=1 2 3 -5 -6 7 -8 8 9 10 -12 13 -14 -15
leaf_value=-0.033750864071657248 -0.033750864071657248 -0.033997112237508016 0.14298937660343841 -0.033819913066542522 0.14717623711779415 -0.033749609581172256 0.13261509020750584 -0.035260663372659075 -0.034554508396048962 0.14231365283931335 -0.034834259476806913 -0.035926357634866381 0.09232119564445912 0.1471972468368867
leaf_weight=37.53759428858757 4.7415908575057975 1.2358093187212946 3.4355187118053427 3.6895165294408798 1.1178468465805043 0.29627224802970786 2.4332876503467551 0.25212640315294166 0.22886708378791709 13.792339824140074 0.11951931565999885 0.1377471387386241 3.1911826133728018 59.278667747974403
leaf_count=380 48 12 4 37 1 3 4 2 2 16 1 1 9 57
internal_value=0.0785768 0.123171 0.131618 0.0514332 -0.0285188 0.138674 0.0764975 0.141626 0.1423 0.142884 0.143414 0.143693 0.13292 0.146773
internal_weight=131.488 92.8324 88.0909 7.12504 38.6554 80.9658 3.6691 77.2967 77.0005 76.7483 76.5195 76.3999 16.9835 59.4164
internal_count=577 196 148 41 381 107 16 91 88 86 84 83 25 58
is_linear=0
shrinkage=0.03


Tree=4
num_leaves=15
num_cat=0
split_feature=24 19 41 20 21 22 46 29 1 35 44 36 30 23
split_gain=592.182 112.805 56.8278 42.128 35.4784 11.5901 10.3479 13.3419 20.8501 7.28836 4.03447 3.4631 3.42845 3.32209
threshold=600.42257210000014 145.01800560000004 0.49870401242817786 1181.7886055000001 1431.8298130000003 70.175946220000014 0.21447176202164667 0.0015743065000000001 0.011378173500000002 -0.054979384999999999 -1.1579932734624412 372.74524499999103 3.1645000000000006e-05 0.81367540900000013
decision_type=8 10 8 10 8 10 10 2 8 10 10 8 2 10
left_child=4 -2 5 -4 -1 -3 7 -7 -9 -8 -11 12 -12 -14
right_child=1 2 3 -5 -6 6 9 8 -10 10 11 -13 13 -15
leaf_value=-0.033626382689203156 -0.033626382689203156 -0.034086163926046721 -0.033717580721693959 0.12514605852744404 0.13113972575703636 0.1253339633172062 -0.035078822540648716 -0.034543218207351706 0.13172129419100653 -0.035717221522619573 -0.034593026427178063 -0.034668763844889539 -0.034398877712840871 0.12944788197758883
leaf_weight=36.561004370450974 4.6182321310043326 0.41361168771982093 3.7081551551818839 2.5255162119865417 1.2152661085128773 3.7858748883008948 0.24592409282922645 1.5438748449087145 1.2114850282669065 0.13444694876670737 0.11514448374509711 0.11653228849172492 0.11152563989162345 81.103751838207245
leaf_count=380 48 4 38 3 1 5 2 14 1 1 1 1 1 77
internal_value=0.0728166 0.111165 0.118202 0.0306446 -0.0283258 0.12435 0.125092 0.0887824 0.0385605 0.127994 0.128486 0.128757 0.128991 0.129223
internal_weight=137.41 99.6341 95.0158 6.23367 37.7763 88.7822 88.3686 6.54123 2.75536 81.8273 81.5814 81.447 81.3304 81.2153
internal_count=577 196 148 41 381 107 103 20 15 83 81 80 79 78
is_linear=0
shrinkage=0.03


Tree=5
num_leaves=15
num_cat=0
split_feature=24 19 19 19 21 22 22 24 36 41 43 20 1 35
split_gain=559.759 100.14 37.2137 46.2229 32.3421 12.4271 11.7786 8.38423 5.20641 3.98583 3.23787 11.3647 16.5569 2.91557
threshold=611.78608715000007 145.01800560000004 756.62592490000009 765.32429385000012 1341.3064175000002 69.303207855000025 70.175946220000014 624.16150105000008 372.74524499999103 -0.61392881878506234 -0.063386944980922552 840.69489385000008 0.011378173500000002 -0.054979384999999999
decision_type=8 10 10 8 8 10 10 8 8 10 10 10 8 10
left_child=4 -2 5 -4 -1 -3 -7 -8 9 -9 13 12 -12 -11
right_child=1 2 3 -5 -6 6 7 8 -10 10 11 -13 -14 -15
leaf_value=-0.033514963159039186 -0.033506467421006284 -0.03386607444894358 0.11610506509416353 -0.033727159274003604 0.1187091642272477 0.23331782104834656 -0.03442436689458233 0.072886863066195531 -0.034054167415835383 -0.034395797154335432 -0.035292860475796238 0.12425937058168211 0.12006092897574991 0.11913057073793909
leaf_weight=36.584408976137638 4.4975398778915396 0.49663683027028938 3.9777060076594344 3.4692514389753342 1.3008228540420521 0.77178758382797141 0.33384958654642005 1.8510784283280362 0.20719021558761497 0.11146747320888906 1.1832813471555845 5.0454744100570679 1.2910741567611692 88.374667450785637
leaf_count=390 48 5 4 36 1 1 3 5 2 1 10 4 1 76
internal_value=0.0713498 0.105171 0.110994 0.046304 -0.0282882 0.115827 0.116577 0.115661 0.116172 0.11649 0.117331 0.0984322 0.045768 0.118937
internal_weight=149.496 111.611 107.113 7.44696 37.8852 99.6665 99.1699 98.3981 98.0642 97.857 96.006 7.51983 2.47436 88.4861
internal_count=587 196 148 40 391 108 103 102 99 97 92 15 11 77
is_linear=0
shrinkage=0.03


Tree=6
num_leaves=15
num_cat=0
split_feature=24 19 19 19 43 22 22 24 36 41 22 14 5 19
split_gain=488.352 85.7735 30.3078 40.7733 29.7514 10.5577 7.25931 7.13562 4.42688 3.27559 2.68 8.07122 10.1554 17.9108
threshold=611.78608715000007 145.01800560000004 756.62592490000009 765.32429385000012 2.0974323780064945 69.303207855000025 70.175946220000014 624.16150105000008 372.74524499999103 -0.61392881878506234 279.42983505000007 0.0016891330000000002 2.5880837785000002 725.89929805000008
decision_type=8 10 10 10 10 10 10 8 8 10 10 8 2 8
left_child=4 -2 5 -4 -1 -3 -7 -8 9 -9 -11 12 13 -12
right_child=1 2 3 -5 -6 6 7 8 -10 10 11 -13 -14 -15
leaf_value=-0.03339914449185151 -0.033390925993718575 -0.033738003852591437 0.10631392291758007 -0.033604427955641211 0.10877959918932883 0.19100775453214827 -0.034274940859996897 0.067941393008524587 -0.033918855298653391 0.1102369175229309 -0.037059359856981139 0.10820390903788688 0.1095172570540914 0.10992676035110857
leaf_weight=35.624430224299431 4.3794919252395621 0.48376085609197517 4.2098932117223731 3.3788297474384308 1.3757420778274525 0.9119330644607534 0.32537391781806846 1.9250522255897511 0.20185679942369361 76.467388704419136 1.6429969295859366 19.384037792682648 2.7399572134017944 1.3667954206466673
leaf_count=390 48 5 4 36 1 1 3 5 2 60 12 17 2 1
internal_value=0.0669268 0.0968753 0.101922 0.0440162 -0.0281126 0.106089 0.106734 0.105995 0.106435 0.106709 0.107444 0.0989449 0.0677302 0.0296894
internal_weight=154.418 117.417 113.038 7.58872 37.0002 105.449 104.965 104.053 103.728 103.526 101.601 25.1338 5.74975 3.00979
internal_count=587 196 148 40 391 108 103 102 99 97 92 32 15 13
is_linear=0
shrinkage=0.03


Tree=7
num_leaves=15
num_cat=0
split_feature=24 19 21 19 19 44 31 24 35 36 45 19 45 35
split_gain=431.288 74.6158 27.5819 25.1938 36.3672 9.12324 5.02539 14.9102 2.32248 2.11888 2.01537 1.62351 3.8144 3.64715
threshold=611.78608715000007 145.01800560000004 1341.3064175000002 756.62592490000009 765.32429385000012 -1.2029249916692699 0.0015801419999999864 624.16150105000008 -0.054979384999999999 372.74524499999103 -1.3651590872319581 384.35390715000005 -0.77350803268091084 -0.015903576499999992
decision_type=8 10 8 10 10 10 2 10 10 8 10 10 10 10
left_child=2 -2 -1 5 -5 -3 -7 -8 -9 10 -10 12 -12 -14
right_child=1 3 -4 4 -6 6 7 8 9 -11 11 -13 13 -15
leaf_value=-0.033287518685566064 -0.033279567236584102 -0.033614622504396639 0.10065963082949453 0.09828030065217612 -0.033486143819773613 0.13356424859465529 -0.033711406446845608 -0.034732515529751207 -0.03395460496082324 -0.03421332468010433 -0.040479336880138855 0.10117490584625451 -0.039585873423024345 0.094581316365919932
leaf_weight=34.68574820458889 4.2640646696090689 0.47116066515445609 1.4410493373870839 4.4140582680702201 3.2903773933649063 3.5950412899255744 0.77376369386911292 0.11769035458564658 0.10290277749299903 0.1079830601811399 0.19186170399189251 76.274533912539482 0.1835153996944453 28.692488133907318
leaf_count=390 48 5 1 4 36 4 8 1 1 1 1 58 1 28
internal_value=0.0631436 0.0900111 -0.0279445 0.0944582 0.0420061 0.098115 0.098679 0.0975008 0.0984616 0.0986101 0.0987461 0.0988758 0.0928428 0.0937286
internal_weight=158.606 122.479 36.1268 118.215 7.70444 110.511 110.04 106.445 105.671 105.553 105.445 105.342 29.0679 28.876
internal_count=587 196 391 148 40 108 103 99 91 90 89 88 30 29
is_linear=0
shrinkage=0.03


Tree=8
num_leaves=15
num_cat=0
split_feature=24 19 21 19 19 22 22 24 36 41 35 21 22 23
split_gain=384.658 65.7154 25.729 21.2844 32.7325 7.99028 3.73197 5.66845 3.35304 2.50606 2.06353 2.04801 3.91655 3.53959
threshold=611.78608715000007 145.01800560000004 1341.3064175000002 756.62592490000009 765.32429385000012 69.303207855000025 70.175946220000014 624.16150105000008 372.74524499999103 -0.61392881878506234 -0.054979384999999999 510.21160695000009 1159.3357685000003 1.0548711445000001
decision_type=8 10 8 10 10 10 10 8 8 10 10 10 10 8
left_child=2 -2 -1 5 -5 -3 -7 -8 9 -9 -11 -12 13 -13
right_child=1 3 -4 4 -6 6 7 8 -10 10 11 12 -14 -15
leaf_value=-0.033179914784234286 -0.033172222225572492 -0.033495725093562523 0.093893325984782949 0.091564524675582834 -0.033372122798707868 0.14638230745030295 -0.034215499190512866 0.059221657812691605 -0.033662133159381283 -0.034570965560931942 0.093900617811411902 0.094827630908038182 0.098416522861830891 0.037119041366758393
leaf_weight=33.768140979111195 4.1512309312820426 0.45883422344922919 1.4976289272308339 4.5927654653787604 3.2038770467042923 1.1223490238189686 0.32235433161258598 2.0635644719004622 0.19149558246135612 0.11473771929740806 102.12427826225758 1.4897332191467265 4.3782519102096558 2.6727434918284416
leaf_count=390 48 5 1 4 36 1 3 5 2 1 76 1 3 11
internal_value=0.0598617 0.0842211 -0.0277835 0.0881917 0.0402243 0.0914455 0.0919462 0.0914073 0.0917655 0.0919784 0.0925886 0.0927204 0.078608 0.0577727
internal_weight=162.152 126.886 35.2658 122.735 7.79664 114.938 114.48 113.357 113.035 112.843 110.78 110.665 8.54073 4.16248
internal_count=587 196 391 148 40 108 103 102 99 97 92 91 15 12
is_linear=0
shrinkage=0.03


Tree=9
num_leaves=15
num_cat=0
split_feature=24 19 21 19 45 22 21 21 24 24 19 14 17 35
split_gain=345.946 58.4777 24.1208 18.2327 29.7897 7.07675 3.24415 9.69529 14.1541 3.50154 2.16684 3.0503 5.6638 1.31386
threshold=611.78608715000007 145.01800560000004 1341.3064175000002 756.62592490000009 -0.21575690129985906 69.303207855000025 510.21160695000009 1010.0366050000001 750.0100583000002 620.27517310000019 384.35390715000005 0.0012327120000000002 0.085817036000000013 -0.0029924370000000001
decision_type=8 10 8 10 8 10 10 10 10 10 10 8 10 10
left_child=2 -2 -1 5 -5 -3 9 8 -8 -7 11 12 -11 -13
right_child=1 3 -4 4 -6 6 7 -9 -10 10 -12 13 -14 -15
leaf_value=-0.033076161841453108 -0.033068717498680678 -0.03338112727939533 0.088167198110240097 -0.033503301709479995 0.085873294470964964 0.11539625571188623 -0.035277180320552617 0.091236878710598865 0.092340696362020303 0.030546856732230517 0.089457457075976229 0.07396936802866251 0.07987026453891781 0.091403671689488722
leaf_weight=32.871380656957626 4.0409621000289908 0.44677916169166465 1.5462589263916005 3.1134071946144104 4.7541725486516944 3.9547822475433341 1.6218314394354802 6.0795760154724121 1.5107879638671875 2.8053655400872257 73.666448354721069 5.2308504953980473 8.2780902385711652 15.179885625839232
leaf_count=390 48 5 1 35 5 3 14 4 1 8 48 7 8 10
internal_value=0.0569902 0.0792762 -0.0276291 0.082861 0.0386329 0.0857906 0.0862406 0.0691448 0.0262699 0.0876839 0.0866417 0.0800557 0.0673859 0.0869356
internal_weight=165.101 130.683 34.4176 126.642 7.86758 118.774 118.328 9.2122 3.13262 109.115 105.161 31.4942 11.0835 20.4107
internal_count=587 196 391 148 40 108 103 19 15 84 81 33 16 17
is_linear=0
shrinkage=0.03


Tree=10
num_leaves=15
num_cat=0
split_feature=46 19 41 21 19 21 41 19 22 22 29 46 35 15
split_gain=300.25 48.2746 28.1626 22.6542 16.4242 5.59594 13.7238 9.70436 4.19583 2.90015 1.45173 1.37648 1.8126 0.9764
threshold=0.097179817277390515 145.01800560000004 0.58045052790404605 1431.8298130000003 795.60727990000021 510.21160695000009 0.43634039806497471 607.59500610000021 1159.3357685000003 81.002554040000021 2.2269999999999999e-05 0.1882415047012764 -0.054979384999999999 1.0000000180025095e-35
decision_type=8 10 8 8 10 10 8 10 10 8 2 10 10 10
left_child=3 -2 5 -1 -4 9 7 -7 -9 -3 -11 -12 -13 -14
right_child=1 2 4 -5 -6 6 -8 8 -10 10 11 12 13 -15
leaf_value=-0.032981641821689708 -0.032968900991989521 0.10397603696778708 0.085712606032749675 0.083258339292670472 -0.033181540263555791 -0.034184915264598902 -0.03684833735579545 0.059453815913665262 0.10228829304908564 -0.033693781301625522 0.0642886449926523 -0.034754647077272452 0.077459974943613896 0.084442247194331813
leaf_weight=30.45404127240181 3.6054581403732291 5.666420876979827 1.5670477151870716 1.5876336097717274 3.1430932059884071 0.70796535164117713 1.170155033469199 3.9883110523223859 4.2527010440826416 0.097609736025332405 3.7847700566053382 0.11809021979570289 23.360207557678223 78.92367097735405
leaf_count=371 44 6 1 1 37 7 10 9 3 1 7 1 20 51
internal_value=0.0550572 0.075277 0.0783554 -0.0272221 0.00637413 0.0811328 0.0597682 0.0724016 0.0815582 0.0830639 0.081949 0.0820553 0.082712 0.0828476
internal_weight=162.427 130.386 126.78 32.0417 4.71014 122.07 10.1191 8.94898 8.24101 111.951 106.284 106.187 102.402 102.284
internal_count=569 197 153 372 38 115 29 19 12 86 80 79 72 71
is_linear=0
shrinkage=0.03


Tree=11
num_leaves=15
num_cat=0
split_feature=24 41 21 41 41 35 22 22 29 24 46 46 24 15
split_gain=277.235 43.8312 21.4086 14.3765 25.2152 5.24863 3.52903 3.36865 2.96021 2.96503 3.63821 7.0039 1.4279 0.971151
threshold=600.42257210000014 -0.99376871966060931 1431.8298130000003 0.48881226985950615 0.60165203858099725 -0.054979384999999999 69.303207855000025 81.002554040000021 2.2269999999999999e-05 600.42257210000014 0.11286369315997068 0.1882415047012764 636.13211230000013 1.0000000180025095e-35
decision_type=8 10 8 10 10 10 10 10 2 10 10 10 10 8
left_child=2 -2 -1 5 -5 -3 -7 -8 -9 -10 -11 -12 -13 -14
right_child=1 3 -4 4 -6 6 7 8 9 10 11 12 13 -15
leaf_value=-0.032885634829103561 -0.032872613930300013 -0.035195186298731342 0.079003713289603081 0.071060418941476647 -0.033083863457463385 -0.033152985551684555 0.10048958755335312 -0.034287480334957258 0.04381262398183898 0.12920703405465037 -0.035814916373853631 -0.033950797819635239 0.069968682900788837 0.078911777479910419
leaf_weight=29.964796230196956 3.5089944899082175 0.37090406566858192 1.6223783493041981 7.0252698510885221 2.9798400923609734 0.25728539377450843 5.7420990467071524 0.21495910733938117 2.3514682352542868 1.2279715538024891 0.49062102288007636 0.10282678157091041 12.329002901911734 96.192555636167526
leaf_count=375 44 3 1 10 36 3 4 2 8 1 4 1 12 65
internal_value=0.052744 0.0717454 -0.0271388 0.0745849 0.0400429 0.0774823 0.0778337 0.0780744 0.0769345 0.0771466 0.077857 0.0772791 0.0777899 0.0778958
internal_weight=164.381 132.794 31.5872 129.285 10.0051 119.28 118.909 118.652 112.909 112.694 110.343 109.115 108.624 108.522
internal_count=569 193 376 149 46 103 100 97 93 91 83 82 78 77
is_linear=0
shrinkage=0.03


Tree=12
num_leaves=15
num_cat=0
split_feature=24 19 21 19 19 22 5 24 21 35 24 46 24 44
split_gain=253.624 39.8352 20.2787 14.1434 24.6738 5.66956 4.20969 6.00411 12.0385 3.42215 3.34035 2.4761 2.77741 2.25365
threshold=600.42257210000014 145.01800560000004 1431.8298130000003 756.62592490000009 776.56248505000019 69.303207855000025 0.48070786900000007 1011.4894290000001 67.524944855000015 -0.054979384999999999 600.42257210000014 0.11286369315997068 611.78608715000007 -1.1579932734624412
decision_type=8 10 10 10 10 10 2 10 10 10 10 10 10 10
left_child=2 -2 -1 5 -5 -3 7 8 -7 -8 -11 -12 -13 -14
right_child=1 3 -4 4 -6 6 9 -9 -10 10 11 12 13 -15
leaf_value=-0.032792339098968545 -0.032779718663469556 -0.033370701600204056 0.075281214957380438 0.073921172564024126 -0.032990789230043505 0.076888191304837344 -0.035316985300611038 0.078827469146591958 -0.040665971984841016 0.040628786652391953 0.11718235197802711 -0.034223155778872701 0.093886088935070264 0.074926277435502259
leaf_weight=29.160685263574127 3.4147925078868857 0.44481185078620811 1.6510604619979847 5.0619834363460523 3.1528585329651833 1.6389373540878289 0.25150201469659705 3.2463846206665039 1.5030896589159963 2.4256551861762992 1.3119652271270741 0.20638491958379646 5.9580792188644258 106.48335611820222
leaf_count=375 44 5 1 4 39 1 2 2 9 8 1 2 4 72
internal_value=0.0506677 0.0683814 -0.0270012 0.0710047 0.0328883 0.0735407 0.0739272 0.0502151 0.0206524 0.075226 0.0754648 0.0762063 0.0757291 0.0759309
internal_weight=165.912 135.1 30.8117 131.685 8.21484 123.47 123.025 6.38841 3.14203 116.637 116.385 113.96 112.648 112.441
internal_count=569 193 376 149 43 106 101 12 10 89 87 79 78 76
is_linear=0
shrinkage=0.03


Tree=13
num_leaves=15
num_cat=0
split_feature=24 21 45 37 22 40 21 22 35 3 22 2 35 5
split_gain=233.191 19.2557 10.4896 15.0206 10.1946 7.08864 5.57363 11.8892 5.71729 12.3519 2.01419 1.456 1.32869 1.22701
threshold=600.42257210000014 1431.8298130000003 -0.37864291676960354 -0.2332746743636098 124.62882095000002 -0.93406406093642813 539.99472110000011 325.37454380000003 -5.2440500000000549e-05 0.10991675050000001 69.303207855000025 98389.594545000014 -0.046828004500000013 0.48070786900000007
decision_type=8 8 8 8 8 2 10 10 8 2 10 2 10 2
left_child=1 -1 6 -4 -5 -6 10 -8 9 -9 -2 -12 -13 -14
right_child=2 -3 3 4 5 -7 7 8 -10 -11 11 12 13 -15
leaf_value=-0.032702307798843082 -0.033074593625372323 0.071997537486505989 -0.033611874570047807 -0.032690077092011154 -0.032729275017459876 0.06624241823722464 -0.037765904435431014 -0.034780497778681752 0.082982510143981225 0.067849306138905149 0.10063994994771606 -0.034279585412559051 0.057030396974778179 0.071158471590036715
leaf_weight=28.375587232410911 0.16863583028316398 1.6741975545883168 2.0248230174183846 1.1327795684337623 0.68706777691841203 12.512378625571726 1.2806357219815243 1.5062372386455534 4.7654369696974737 3.5263677835464478 1.4412114620208729 0.10925764590501685 5.8500476926565161 101.94133257865906
leaf_count=375 2 1 23 15 9 18 11 15 4 4 1 1 8 82
internal_value=0.0488105 -0.026869 0.0654167 0.0428729 0.0536785 0.0610907 0.0684746 0.0481969 0.0594325 0.0371326 0.070526 0.0706858 0.0702857 0.0703917
internal_weight=166.996 30.0498 136.946 16.357 14.3322 13.1994 120.589 11.0787 9.79804 5.03261 109.51 109.342 107.901 107.791
internal_count=569 376 193 65 42 27 128 34 23 19 94 92 91 90
is_linear=0
shrinkage=0.03


Tree=14
num_leaves=15
num_cat=0
split_feature=24 19 21 19 19 22 24 35 29 46 24 22 24 46
split_gain=215.06 34.1367 18.3229 11.9585 21.9776 4.84618 3.07428 2.97735 2.51696 1.71918 2.2766 1.75384 3.34099 1.10573
threshold=600.42257210000014 145.01800560000004 1431.8298130000003 756.62592490000009 765.32429385000012 69.303207855000025 600.42257210000014 -0.054979384999999999 9.5200000000000003e-06 0.11286369315997068 611.78608715000007 81.002554040000021 636.13211230000013 0.1882415047012764
decision_type=8 10 8 10 8 10 10 10 2 10 10 10 10 10
left_child=2 -2 -1 5 -5 -3 -7 -8 -9 -10 -11 -12 -13 -14
right_child=1 3 -4 4 -6 6 7 8 9 10 11 12 13 -15
leaf_value=-0.032615416814522222 -0.03266949994300012 -0.03328144525342655 0.069080108021199613 0.067898188696053283 -0.032929431887039569 0.035118664665146029 -0.035332412258273188 -0.03417802839266209 0.1013671169612875 -0.033935358411495191 0.083934874536350262 -0.036779704726551954 -0.033636276879887274 0.067999554091749917
leaf_weight=27.609216473996643 3.2963662073016158 0.42946214973926444 1.6922631263732899 5.2003499567508671 3.1087429150938997 2.5590771287679663 0.24882318079471488 0.2142973393201818 1.4352320432662953 0.19556117802858253 6.2877697944641104 0.27498369663953681 0.096418969333170845 115.17772947251797
leaf_count=375 44 5 1 4 39 9 2 2 1 2 4 2 1 78
internal_value=0.0470975 0.0627165 -0.0267421 0.0650416 0.0301748 0.0673243 0.0676658 0.0683379 0.0685465 0.0687248 0.0683409 0.068505 0.0676654 0.0679145
internal_weight=167.826 138.525 29.3015 135.228 8.30909 126.919 126.49 123.931 123.682 123.468 122.032 121.837 115.549 115.274
internal_count=569 193 376 149 43 106 101 92 90 88 87 85 81 79
is_linear=0
shrinkage=0.03


Tree=15
num_leaves=15
num_cat=0
split_feature=24 19 41 20 37 19 21 44 41 43 19 26 1 33
split_gain=197.552 28.3075 20.8408 17.491 16.2518 12.7687 3.78225 10.8427 3.32197 3.24879 2.10785 3.37495 8.44127 12.4361
threshold=600.42257210000014 295.18416785000005 0.58045052790404605 1082.9743735000002 0.88202230894693523 765.32429385000012 539.99472110000011 -0.54396169279038153 -0.61392881878506234 1.209149573708584 384.35390715000005 50.870222600000012 0.0016891330000000002 15.998047741904765
decision_type=8 10 8 8 10 10 10 10 10 10 10 10 8 2
left_child=3 4 6 -1 -2 -4 8 -8 -3 -9 11 12 13 -10
right_child=1 2 5 -5 -6 -7 7 9 10 -11 -12 -13 -14 -15
leaf_value=-0.032520501071591053 -0.034566714499667958 -0.047104244795569621 0.068681896338306639 0.066471585717046325 0.076078400795935364 -0.032936575455663183 -0.039469776234074924 0.030393834074053439 0.067849750339584944 0.069155895369798978 0.069416836367340543 0.066995062652604409 0.06554035577722675 -0.044043502875320779
leaf_weight=27.597598634660248 4.3643986880779257 0.23126241564750571 1.6944991350173939 1.7056924104690541 1.6451019048690794 3.242215596139431 1.1438885554671276 2.7095793634653074 1.6989659070968604 6.905817449092865 77.448265552520752 22.21150328963995 7.0276229977607736 1.8867144435644148
leaf_count=386 52 1 1 1 1 41 8 11 1 6 46 14 6 10
internal_value=0.043716 0.0593361 0.0623654 -0.0267583 -0.00427759 0.00194338 0.0648252 0.0478455 0.0664784 0.0582329 0.0667166 0.0603455 0.0464294 0.00897372
internal_weight=161.513 132.21 126.2 29.3033 6.0095 4.93671 121.264 10.7593 110.504 9.6154 110.273 32.8248 10.6133 3.58568
internal_count=585 198 145 387 53 42 103 25 78 17 77 31 17 11
is_linear=0
shrinkage=0.03


Tree=16
num_leaves=15
num_cat=0
split_feature=46 19 41 20 37 21 21 41 41 19 26 46 4 29
split_gain=182.493 25.9235 30.0619 16.6956 15.289 4.08229 11.2315 4.25532 3.09088 2.01461 3.30847 7.72546 11.758 1.29073
threshold=0.097179817277390515 295.18416785000005 0.60165203858099725 1101.1935740000001 0.88202230894693523 539.99472110000011 890.32230510000011 0.40299758857012613 -0.61392881878506234 384.35390715000005 50.870222600000012 1.0706974583228073 15.136326070000003 0.00035743450000000001
decision_type=8 10 8 10 10 10 10 8 10 10 10 10 2 2
left_child=3 4 5 -1 -2 8 -7 -8 -3 10 11 12 -10 -11
right_child=1 2 -4 -5 -6 6 7 -9 9 13 -12 -13 -14 -15
leaf_value=-0.032439160959641639 -0.034438384314692448 -0.046317241620708674 -0.032826581198946499 0.064126078585776347 0.072702863116523991 -0.034412645447993856 0.069118731247056961 0.025018806680903751 0.06536683855437575 0.077023391200879976 0.06455723931181484 0.062352558391249473 -0.043282563186869127 0.065366208092400485
leaf_weight=26.702596664428714 4.2509556338191024 0.22818265855312247 3.0646080300211898 1.7148857116699208 1.6694450378417967 1.4038307890295971 6.8444346934556943 2.7646809667348862 1.7104068994522079 9.7372732162475568 22.356370806694031 7.1391903162002563 1.8837112933397291 70.02310585975647
leaf_count=384 52 1 40 1 1 14 6 7 1 6 14 6 11 41
internal_value=0.0424 0.057137 0.0599941 -0.0266118 -0.00422651 0.0622864 0.0448507 0.0564305 0.0639845 0.0642076 0.0579844 0.0442938 0.00842266 0.0667893
internal_weight=161.494 133.076 127.156 28.4175 5.9204 124.091 11.0129 9.60912 113.078 112.85 33.0897 10.7333 3.59412 79.7604
internal_count=585 200 147 385 53 107 27 13 80 79 32 18 12 47
is_linear=0
shrinkage=0.03


Tree=17
num_leaves=15
num_cat=0
split_feature=24 19 41 20 37 19 21 44 41 43 19 26 1 33
split_gain=171.464 23.9819 17.4373 15.9693 14.4204 11.4079 3.3558 9.6539 2.88744 2.85176 1.74419 2.89825 7.34081 11.1444
threshold=600.42257210000014 295.18416785000005 0.58045052790404605 1101.1935740000001 0.88202230894693523 765.32429385000012 539.99472110000011 -0.54396169279038153 -0.61392881878506234 1.209149573708584 384.35390715000005 50.870222600000012 0.0016891330000000002 15.998047741904765
decision_type=8 10 8 10 10 10 10 10 10 10 10 10 8 2
left_child=3 4 6 -1 -2 -4 8 -8 -3 -9 11 12 13 -10
right_child=1 2 5 -5 -6 -7 7 9 10 -11 -12 -13 -14 -15
leaf_value=-0.032361878627704996 -0.034313793182216008 -0.045578708648374648 0.063829171877706328 0.062006398671451364 0.069708414712817746 -0.03275075106408059 -0.039267182465614558 0.027927784497584211 0.063128957674075253 0.063974171329530899 0.06444285634613113 0.062355514166565498 0.060941710449873003 -0.043127220055356359
leaf_weight=26.115064598619941 4.140073485672473 0.22497211396694083 1.7158175706863392 1.7202118635177601 1.6886136531829832 3.0703817084431648 1.1153648793697364 2.7434830889105761 1.7177845239639258 7.0545428246259689 78.477759957313538 22.449814565479755 7.1273518577218065 1.8398510888218877
leaf_count=386 52 1 1 1 1 41 8 11 1 6 46 14 6 10
internal_value=0.0411949 0.05533 0.0580497 -0.0265299 -0.00417779 0.00187245 0.0602401 0.0443612 0.0617896 0.0538811 0.062006 0.0562344 0.0433737 0.00817798
internal_weight=161.201 133.366 127.537 27.8353 5.82869 4.7862 122.751 10.9134 111.838 9.79803 111.613 33.1348 10.685 3.55764
internal_count=585 198 145 387 53 42 103 25 78 17 77 31 17 11
is_linear=0
shrinkage=0.03


Tree=18
num_leaves=15
num_cat=0
split_feature=24 19 23 20 19 45 43 36 33 24 36 5 37 43
split_gain=160.391 17.7996 17.8699 15.2882 10.5636 17.737 2.75917 2.28993 1.89253 4.57652 2.82783 2.61985 5.27523 10.2044
threshold=600.42257210000014 298.07781040000003 298.76764780000002 1082.9743735000002 742.07260735000011 -0.21575690129985906 1.6860603762827628 372.74524499999103 15.241009805714286 624.16150105000008 -388.93514500000305 0.71942158050000005 -0.14344662778726489 -1.3595315494132914
decision_type=8 10 8 8 10 8 8 8 2 8 10 2 8 8
left_child=3 2 -2 -1 6 -6 7 8 -3 -10 -11 12 13 -12
right_child=1 4 -4 -5 5 -7 -8 -9 9 10 11 -13 -14 -15
leaf_value=-0.03228666721970995 0.057418163039394961 0.070535539800930733 -0.034235817602158221 0.06008207109297492 -0.033114861955792635 0.056722376919315254 -0.036786553297726197 -0.035019470804139897 -0.033793229842154084 -0.046819060514359821 0.064673493355127024 0.05969390048440975 0.066694054264231431 -0.040250042415318585
leaf_weight=25.401392765343193 3.6431068778038016 11.641365528106688 4.0350263267755508 1.7220116853713978 3.1047410666942596 5.4498411715030652 0.27201587706804176 0.23332326114177604 0.48881558328866859 0.23018530011176963 1.7130227088928223 97.708804041147232 3.3920680284500113 1.6261518746614456
leaf_count=386 3 7 52 1 41 7 2 2 5 1 1 65 2 10
internal_value=0.0400875 0.0535965 0.009252 -0.0264224 0.0563017 0.0241175 0.0586488 0.0588706 0.0590582 0.0577876 0.0582153 0.0584468 0.040344 0.0135766
internal_weight=160.662 133.538 7.67813 27.1234 125.86 8.55458 117.306 117.034 116.8 105.159 104.67 104.44 6.73124 3.33917
internal_count=585 198 55 387 143 48 95 93 91 84 79 78 13 11
is_linear=0
shrinkage=0.03


Tree=19
num_leaves=15
num_cat=0
split_feature=24 19 23 41 20 19 21 41 42 24 19 26 1 38
split_gain=150.348 16.4657 16.8976 14.9672 14.652 10.3191 3.12742 8.91624 3.28746 7.36909 1.61029 2.52476 6.54809 10.1063
threshold=600.42257210000014 298.07781040000003 298.76764780000002 0.58045052790404605 1101.1935740000001 765.32429385000012 539.99472110000011 0.43634039806497471 0.77717387758769618 750.0100583000002 384.35390715000005 50.870222600000012 0.0016891330000000002 -0.16253753437683452
decision_type=8 10 8 8 10 10 10 8 10 10 10 10 8 2
left_child=4 2 -2 6 -1 -5 10 8 9 -8 11 12 13 -3
right_child=1 3 -4 5 -6 -7 7 -9 -10 -11 -12 -13 -14 -15
leaf_value=-0.032214019139755239 0.055492438287502756 -0.042718308043963864 -0.034117669472409601 0.059987240147458258 0.058327903464711832 -0.032594207658068433 -0.034516297627696889 -0.039443997354234685 0.061507236291913264 0.063042962524840096 0.06042367222734138 0.058493101178427424 0.056988816625248351 0.058983977726784147
leaf_weight=24.705420531332496 3.6562271863222113 1.7976287379860896 3.9291286244988441 1.7220149040222157 1.7205997705459584 2.922205813229084 1.1723014414310438 1.1056223064661015 6.995809867978096 1.7180029153823853 78.801414012908936 20.77804946154356 7.1785420849919328 1.7215039730072013
leaf_count=386 3 10 52 1 1 41 11 8 5 1 46 13 6 1
internal_value=0.0390597 0.0520014 0.00907541 0.0545874 -0.0263188 0.00173375 0.0566115 0.0413517 0.0503876 0.0234731 0.0581325 0.0523965 0.0405552 0.00703284
internal_weight=159.924 133.498 7.58536 125.913 26.426 4.64422 121.269 10.9917 9.88611 2.8903 110.277 31.4757 10.6977 3.51913
internal_count=585 198 55 143 387 42 101 25 17 12 76 30 17 11
is_linear=0
shrinkage=0.03


Tree=20
num_leaves=15
num_cat=0
split_feature=24 19 41 21 42 21 45 33 41 38 0 36 0 19
split_gain=142.486 18.2059 21.9873 14.0867 12.3567 2.40941 10.954 2.93073 2.39759 1.99581 7.30779 1.23548 1.21578 0.95895
threshold=600.42257210000014 295.18416785000005 0.60165203858099725 1431.8298130000003 -1.36590144340256 510.21160695000009 -1.1761030667840886 19.187674572142861 -0.61392881878506234 -0.37678881703679151 -0.0011905409999999996 372.74524499999103 -0.0023171789999999995 384.35390715000005
decision_type=8 10 8 10 8 10 8 2 10 2 2 8 2 10
left_child=3 4 5 -1 -2 8 7 -7 -3 -9 -11 12 -10 -14
right_child=1 2 -4 -5 -6 6 -8 9 11 10 -12 -13 13 -15
leaf_value=-0.032157710260205641 0.063080502001997205 -0.043901169923048662 -0.032489362506218568 0.05672285880529615 -0.034119450111574974 0.064104912547740797 -0.037379291826179946 0.059107171493833426 -0.035453943827173068 0.058620557335165434 -0.036664920230728378 -0.035580222851929098 0.051854650523618318 0.058113842704955107
leaf_weight=24.724973537027839 1.7179082632064819 0.21638163924217124 2.6809831187129012 1.7162669897079457 3.7391019724309436 6.9310470819473249 1.3907526731491078 1.7216219902038559 0.13016757369041343 1.721061348915099 1.2508959099650407 0.13223771750926872 31.109516032040119 75.474889755249023
leaf_count=396 1 1 39 1 51 6 12 1 1 1 10 1 27 44
internal_value=0.0370207 0.0500972 0.0524806 -0.0263886 -0.00352017 0.0543778 0.0421897 0.0517092 0.0558594 0.0334043 0.0185149 0.0560615 0.056175 0.0562869
internal_weight=154.658 128.217 122.76 26.4412 5.45701 120.079 13.0154 11.6246 107.063 4.69358 2.97196 106.847 106.715 106.584
internal_count=592 195 143 397 52 104 30 18 74 12 11 73 72 71
is_linear=0
shrinkage=0.03


Tree=21
num_leaves=15
num_cat=0
split_feature=46 19 41 21 21 45 4 41 38 0 19 45 7 6
split_gain=132.834 21.1169 20.817 13.5186 2.41143 10.754 2.81174 2.43215 1.97031 7.087 1.22387 1.7174 6.32976 9.42014
threshold=0.097179817277390515 145.01800560000004 0.60165203858099725 1431.8298130000003 510.21160695000009 -1.1761030667840886 19.806726825000002 -0.61392881878506234 -0.38515702968568738 -0.0011905409999999996 384.35390715000005 -0.68907125834966954 11.500000000000002 65.062753680000014
decision_type=8 10 8 10 10 8 2 10 2 2 10 10 2 2
left_child=3 -2 4 -1 7 6 -6 -3 -8 -10 11 12 13 -9
right_child=1 2 -4 -5 5 -7 8 10 9 -11 -12 -13 -14 -15
leaf_value=-0.032089087506799445 -0.032143183943919074 0.0252900471262698 -0.032402673797909759 0.055249248491927534 0.061815808128520944 -0.036911703815516332 0.057436589305266496 -0.044366779784870199 0.056991032514242757 -0.036233996578431779 0.056535677152037833 0.054368884330260499 0.056010771368915545 0.055533982084305815
leaf_weight=23.8584373369813 2.8466720804572097 2.6361301541328421 2.6684880778193465 1.7092826366424549 6.9714182168245298 1.4498289376497258 1.7185848951339706 1.6872772499918955 1.7172147035598744 1.2816637940704847 75.257315397262573 21.148167930543423 6.8503981828689575 1.7108781337738037
leaf_count=393 46 6 40 1 6 13 1 9 1 11 44 16 4 1
internal_value=0.0361763 0.0486513 0.0504898 -0.0262502 0.0522965 0.0401534 0.0497122 0.0537564 0.0318255 0.0171484 0.05446 0.0494845 0.0394055 0.00593052
internal_weight=153.512 127.944 125.097 25.5677 122.429 13.1387 11.6889 109.29 4.71746 2.99888 106.654 31.3967 10.2486 3.39816
internal_count=592 198 152 394 112 32 19 80 13 12 74 30 14 10
is_linear=0
shrinkage=0.03


Tree=22
num_leaves=15
num_cat=0
split_feature=24 19 41 21 42 31 41 21 22 21 1 36 0 19
split_gain=126.628 15.8892 19.4013 12.9974 11.4869 2.3257 2.17515 1.86781 6.73703 2.91545 6.47748 1.17712 1.1585 0.797586
threshold=600.42257210000014 295.18416785000005 0.60165203858099725 1431.8298130000003 -1.36590144340256 0.0014493710000000003 -0.61392881878506234 510.21160695000009 325.37454380000003 1010.0366050000001 0.011378173500000002 372.74524499999103 -0.0023171789999999995 384.35390715000005
decision_type=8 10 8 10 8 2 10 10 10 10 8 8 2 10
left_child=3 4 5 -1 -2 -3 -7 11 -9 10 -10 12 -8 -14
right_child=1 2 -4 -5 -6 6 7 8 9 -11 -12 -13 13 -15
leaf_value=-0.032024116610802705 0.06028260453744827 -0.033659518355720508 -0.032333919536997317 0.053892089465479666 -0.034065510350528211 -0.043644845419765418 -0.035558083829493596 -0.038893489122174829 -0.034910171035102952 0.055364201297246368 0.05735351173963029 -0.035686056380192004 0.049353282969187076 0.055085472129729987
leaf_weight=23.385864771902565 1.7219771146774292 0.28787194937467475 2.5368271879851809 1.6998955011367787 3.5674705058336249 0.21489383280277152 0.13187722861766715 0.88329531997442146 1.1386319473385804 9.005882687866686 1.7183483839035032 0.1339477151632299 30.837785229086876 74.926213502883911
leaf_count=396 1 3 39 1 51 1 1 7 11 9 1 1 26 44
internal_value=0.0353948 0.0475517 0.049762 -0.0262021 -0.00335053 0.051508 0.051714 0.0518865 0.0410361 0.0469876 0.0205824 0.0531909 0.0533033 0.0534141
internal_weight=152.191 127.105 121.816 25.0858 5.28945 119.279 118.991 118.776 12.7462 11.8629 2.85698 106.03 105.896 105.764
internal_count=592 195 143 397 52 104 101 100 28 21 12 72 71 70
is_linear=0
shrinkage=0.03


Tree=23
num_leaves=15
num_cat=0
split_feature=24 19 41 22 42 31 41 43 22 18 36 0 22 19
split_gain=119.621 14.8825 18.2711 12.0581 10.9321 2.19058 2.05554 1.79396 6.35022 2.7971 1.10963 1.09197 0.803523 0.713315
threshold=600.42257210000014 295.18416785000005 0.60165203858099725 1636.4312240000002 -1.36590144340256 0.0014493710000000003 -0.61392881878506234 -0.063386944980922552 325.37454380000003 0.086351120000000017 372.74524499999103 -0.0023171789999999995 69.303207855000025 384.35390715000005
decision_type=8 10 8 8 8 2 10 10 10 10 8 2 8 10
left_child=3 4 5 -1 -2 -3 -7 10 -9 -10 11 -8 -13 -14
right_child=1 2 -4 -5 -6 6 7 8 9 -11 -12 12 13 -15
leaf_value=-0.031960395103000409 0.058511026011858959 -0.033538674383549114 -0.032260111026086676 0.049865843232271313 -0.033956672186476994 -0.043062127919186344 -0.035363924303503991 -0.038593457045469126 0.019450533840002063 0.053775451522473497 -0.035486720831184843 -0.033719315105455352 0.048310164753861268 0.053748764818072378
leaf_weight=22.682076618075374 1.7208998203277588 0.28035541623830695 2.467400111258029 1.7455563135445107 3.4729649759829035 0.21132175624370475 0.12867167592048545 0.86375296115875144 2.7977443635463706 9.0421438515186292 0.13070808351039787 0.098135665059088661 30.628635719418526 74.492298722267151
leaf_count=395 1 3 39 2 51 1 1 7 11 10 1 1 25 44
internal_value=0.0346581 0.0464086 0.0485407 -0.0261132 -0.00331905 0.0502206 0.050419 0.0505861 0.0399356 0.0456645 0.0518688 0.0519772 0.052084 0.0521641
internal_weight=150.763 126.335 121.141 24.4276 5.19386 118.674 118.393 118.182 12.7036 11.8399 105.478 105.348 105.219 105.121
internal_count=592 195 143 397 52 104 101 100 28 21 72 71 70 69
is_linear=0
shrinkage=0.03


Tree=24
num_leaves=15
num_cat=0
split_feature=24 19 41 21 42 31 41 21 22 21 1 36 0 19
split_gain=113.118 13.9545 17.2275 12.048 10.4172 2.06576 1.9443 1.78179 5.96726 2.71734 6.06413 1.04777 1.03099 0.774474
threshold=600.42257210000014 295.18416785000005 0.60165203858099725 1431.8298130000003 -1.36590144340256 0.0014493710000000003 -0.61392881878506234 510.21160695000009 325.37454380000003 1010.0366050000001 0.011378173500000002 372.74524499999103 -0.0023171789999999995 384.35390715000005
decision_type=8 10 8 8 8 2 10 10 10 10 8 8 2 10
left_child=3 4 5 -1 -2 -3 -7 11 -9 10 -10 12 -8 -14
right_child=1 2 -4 -5 -6 6 7 8 9 -11 -12 -13 13 -15
leaf_value=-0.03189916485999543 0.056890682848314583 -0.033422224241769258 -0.032188786645044369 0.051537365195530017 -0.033850687161194326 -0.042511583484168544 -0.0351775490376246 -0.038304668079215516 -0.034939174553883352 0.052301684228998231 0.054476560082502304 -0.035295430577603176 0.046837033681401574 0.052513198830893067
leaf_weight=22.113377332687381 1.7168711423873901 0.27300328016281028 2.3997030220925799 1.6755844354629505 3.380716484040021 0.20769160985946555 0.12552040815353294 0.84444904699921508 1.138714745640754 9.0126261934638006 1.7043123245239256 0.12752212584018607 30.577836200594902 73.965484380722046
leaf_count=396 1 3 39 1 51 1 1 7 11 9 1 1 26 44
internal_value=0.0339568 0.0453283 0.0473871 -0.0260223 -0.00328893 0.0490057 0.0491969 0.049359 0.0387468 0.044235 0.018663 0.0506451 0.0507498 0.050853
internal_weight=149.263 125.474 120.377 23.789 5.09759 117.977 117.704 117.496 12.7001 11.8557 2.84303 104.796 104.669 104.543
internal_count=592 195 143 397 52 104 101 100 28 21 12 72 71 70
is_linear=0
shrinkage=0.03


Tree=25
num_leaves=15
num_cat=0
split_feature=24 41 41 41 26 35 36 31 45 22 23 31 30 24
split_gain=125.804 23.4329 5.29116 10.8133 3.35855 2.48235 2.41781 1.68102 2.96949 1.15216 1.48003 0.776078 0.652565 0.622615
threshold=600.42257210000014 -0.61392881878506234 0.48881226985950615 0.60165203858099725 26.561577215000003 -0.046828004500000013 215.81606500000638 0.0013577880000000002 -0.048502270716810826 69.303207855000025 0.81367540900000013 0.0014493710000000003 3.1645000000000006e-05 600.42257210000014
decision_type=8 10 10 10 10 10 8 2 8 10 10 2 2 10
left_child=-1 -2 4 -4 -3 -6 7 -7 9 -9 -11 -12 -13 -14
right_child=1 2 3 -5 5 6 -8 8 -10 10 11 12 13 -15
leaf_value=-0.031839499108862829 -0.033540291366487986 -0.060177038053901066 0.043966366939383737 -0.032079113974482029 -0.037062385669619176 0.071339452566071465 -0.034106498962169746 -0.033068895718113743 -0.033630277435857413 -0.038331468251281253 -0.033759300158135726 -0.033080028373167328 -0.03291717460086404 0.050404511196239309
leaf_weight=21.553040716797113 3.2460494823753825 0.24999783933162589 7.297473553568123 2.1873009912669659 0.29477935284376044 3.3278627395629874 0.30614475160837074 0.15011587366461654 0.38341414928436179 0.17011077702045341 0.098955847322939827 0.084439240396021797 0.080767862498759224 119.779665350914
leaf_count=397 51 1 10 37 2 2 3 2 4 1 1 1 1 85
internal_value=0.0355557 0.0461078 0.0480313 0.0264294 0.0496714 0.0498917 0.0500977 0.0503055 0.0497258 0.0499913 0.050095 0.0502203 0.0502896 0.0503484
internal_weight=159.21 137.657 134.411 9.48477 124.926 124.676 124.381 124.075 120.747 120.364 120.214 120.044 119.945 119.86
internal_count=598 201 150 47 103 102 100 97 95 91 89 88 87 86
is_linear=0
shrinkage=0.03


Tree=26
num_leaves=15
num_cat=0
split_feature=24 19 19 45 26 35 22 21 42 22 24 24 14 22
split_gain=119.26 20.4253 5.36901 12.0844 3.1662 2.33387 2.27344 1.59418 7.37637 2.1311 1.39725 2.26857 0.729835 0.301168
threshold=600.42257210000014 295.18416785000005 756.62592490000009 -0.21575690129985906 26.561577215000003 -0.046828004500000013 69.303207855000025 510.21160695000009 0.54356236496102428 1159.3357685000003 620.27517310000019 646.02472020000016 1.0000000180025095e-35 82.95763521500001
decision_type=8 10 10 8 10 10 10 10 10 10 10 10 8 10
left_child=-1 -2 4 -4 -3 -6 -7 10 -9 12 -8 -12 -10 -13
right_child=1 2 3 -5 5 6 7 8 9 -11 11 13 -14 -15
leaf_value=-0.031781884284312945 -0.032889479185463186 -0.058414633753533729 -0.032749441440820877 0.048450931597212227 -0.036810176293831792 -0.033018977952483673 0.065379058897365935 -0.035420411468215847 0.043844463928451274 0.056459722351951125 0.020362761332721458 0.058668348665725373 0.019055900684686818 0.049639941763861106
leaf_weight=20.953395832329988 2.9580338373780242 0.24981585144996543 2.4363318309187889 5.1074458658695212 0.28799762576818366 0.30572837963700195 5.0801762342452994 1.1023224070668209 1.8602906465530376 6.780795693397522 2.3876591324806204 3.4372739791870108 2.51299087703228 102.06394446641207
leaf_count=397 50 1 39 5 2 4 3 10 3 4 5 2 7 66
internal_value=0.0348598 0.0450844 0.0468106 0.0222265 0.0482817 0.0484935 0.0486892 0.0488887 0.0386123 0.0459287 0.0500036 0.0492797 0.0296004 0.0499341
internal_weight=157.524 136.571 133.613 7.54378 126.069 125.819 125.531 125.225 12.2564 11.1541 112.969 107.889 4.37328 105.501
internal_count=598 201 151 44 107 106 104 100 24 14 76 73 10 68
is_linear=0
shrinkage=0.03


Tree=27
num_leaves=15
num_cat=0
split_feature=24 41 19 23 26 35 36 43 42 22 20 30 24 24
split_gain=113.217 21.0929 5.0714 11.5009 3.01144 2.21868 2.22057 1.66079 6.41217 2.30886 1.68099 5.71225 1.17491 2.23139
threshold=600.42257210000014 -0.61392881878506234 756.62592490000009 451.60744475000007 26.561577215000003 -0.046828004500000013 215.81606500000638 -0.43057960949885749 0.54356236496102428 1159.3357685000003 783.08235410000009 0.77092234749999999 620.27517310000019 646.02472020000016
decision_type=8 10 10 8 10 10 8 8 10 10 10 2 10 10
left_child=-1 -2 4 -4 -3 -6 7 12 -9 10 -10 -12 -7 -14
right_child=1 2 3 -5 5 6 -8 8 9 -11 11 -13 13 -15
leaf_value=-0.031726172780331581 -0.033433913316236089 -0.056802350722743679 -0.032668320555081419 0.047400015354528965 -0.036568485565237514 0.063193460617896449 -0.034037780726586718 -0.035435257923747777 0.051094036408716993 0.055035698115220771 -0.03754233761681755 0.049225820153893179 0.019765752563410694 0.049107473502850094
leaf_weight=20.369297552853823 3.0829488709568968 0.24920773506164451 2.3701097033917895 5.0647063255310059 0.28130520880222221 5.0979000329971305 0.29784040153026481 0.99701067060232063 1.6696960926055888 6.7480361461639404 1.1702678464353085 1.6395214796066284 2.3860076740384093 104.27581925690174
leaf_count=397 51 1 39 5 2 3 3 9 1 4 10 1 5 67
internal_value=0.0342128 0.0441376 0.045946 0.0218754 0.0473798 0.0475882 0.0477787 0.0479752 0.0374769 0.0439515 0.027254 0.0130872 0.0491236 0.0484511
internal_weight=155.7 135.33 132.247 7.43482 124.813 124.563 124.282 123.984 12.2245 11.2275 4.47949 2.80979 111.76 106.662
internal_count=598 201 150 44 106 105 103 100 25 16 12 11 75 72
is_linear=0
shrinkage=0.03


Tree=28
num_leaves=15
num_cat=0
split_feature=24 41 21 45 41 26 4 11 5 36 31 24 22 22
split_gain=107.657 20.0149 4.47617 11.381 7.89314 2.93291 2.32453 1.81501 5.86068 1.61365 0.987725 0.817111 0.72781 0.226122
threshold=600.42257210000014 -0.61392881878506234 510.21160695000009 -1.1761030667840886 0.60165203858099725 26.561577215000003 19.806726825000002 0.012050644000000001 3.7793755615000006 215.81606500000638 0.0014493710000000003 646.02472020000016 69.303207855000025 81.002554040000021
decision_type=8 10 10 8 8 10 2 8 2 8 2 8 8 8
left_child=-1 -2 4 6 5 -3 -4 8 -8 10 -7 -12 -13 -14
right_child=1 2 3 -5 -6 9 7 -9 -10 -11 11 12 13 -15
leaf_value=-0.031672297147857832 -0.03334082352214672 -0.055322345980641612 0.051621883702030309 -0.034745705570863428 -0.031833762119594516 0.064009952795461497 -0.036228138470035073 0.049402939293396606 0.048451991796683851 -0.0343293267118236 0.034428917362018786 -0.033704978064156899 0.055746903196831323 0.047906218756506871
leaf_weight=19.800411380827427 3.0000612996518603 0.24821271002292533 6.8895342871546728 2.1408502310514441 1.1342459172010411 3.393552064895629 1.3444681465625763 1.6427825689315794 1.624194860458374 0.21432375907897849 4.09559242427349 0.097840517759322121 3.4184964895248404 104.66357330977917
leaf_count=397 51 1 6 27 21 2 12 1 1 2 6 1 2 68
internal_value=0.0336196 0.043274 0.0450298 0.0287653 0.0469219 0.0476911 0.0405876 0.0241022 0.0101015 0.0479118 0.0480642 0.0475822 0.0480802 0.0481542
internal_weight=153.708 133.908 130.908 13.6418 117.266 116.132 11.501 4.61145 2.96866 115.883 115.669 112.276 108.18 108.082
internal_count=598 201 150 47 103 82 20 14 13 81 79 77 71 70
is_linear=0
shrinkage=0.03


Tree=29
num_leaves=15
num_cat=0
split_feature=24 41 19 23 26 35 36 21 44 11 44 35 24 24
split_gain=102.466 19.012 4.45552 10.4819 2.71992 2.05877 1.99759 1.49306 5.24875 2.28123 1.66379 5.37144 0.910446 2.18386
threshold=600.42257210000014 -0.61392881878506234 756.62592490000009 451.60744475000007 26.561577215000003 -0.046828004500000013 215.81606500000638 510.21160695000009 -0.54396169279038153 0.00012012650000000002 -1.0000000180025095e-35 -0.024842614000000002 620.27517310000019 636.13211230000013
decision_type=8 10 10 8 10 10 8 10 10 10 10 10 10 10
left_child=-1 -2 4 -4 -3 -6 7 12 -9 -10 -11 -12 -7 -14
right_child=1 2 3 -5 5 6 -8 8 9 10 11 -13 13 -15
leaf_value=-0.03162018759018248 -0.033250173919976846 -0.05395949856609257 -0.032517543406777427 0.0456007382591819 -0.036230149506291991 0.059557620131352067 -0.033774150396917717 -0.037893210734865672 0.052528792524880026 0.049034902794365939 0.047579266937807986 -0.035069421098486653 -0.036967566713145959 0.046810676375395488
leaf_weight=19.24640853330493 2.9192136488854876 0.24686707556247611 2.2464001029729834 4.9572927802801132 0.27527615427970786 5.1075043678283683 0.28251813352107902 0.80620260164141733 6.6561826467514003 1.6359055042266835 1.6046615839004505 1.2661354094743749 0.28078491240739722 104.11142910271883
leaf_count=397 51 1 39 5 2 3 3 7 4 1 1 12 2 70
internal_value=0.0330588 0.0424611 0.0441681 0.0212403 0.0455189 0.0457202 0.0459055 0.0460908 0.0360307 0.0413696 0.0248879 0.0111279 0.0471904 0.0465853
internal_weight=151.643 132.396 129.477 7.20369 122.273 122.027 121.751 121.469 11.9691 11.1629 4.5067 2.8708 109.5 104.392
internal_count=598 201 150 44 106 105 103 100 25 18 14 13 75 72
is_linear=0
shrinkage=0.03


Tree=30
num_leaves=15
num_cat=0
split_feature=24 20 19 42 41 35 23 37 24 41 43 11 38 32
split_gain=84.3756 12.669 10.3363 10.9301 6.92883 9.25727 1.87836 1.5485 1.84043 4.75643 4.86668 3.77211 6.65727 0.753255
threshold=600.42257210000014 1074.6801805000002 298.07781040000003 -1.36590144340256 0.49870401242817786 -0.026765716999999998 1.0548711445000001 -0.14567560786504608 760.83052530000009 -0.55884610967390513 -0.43939356200755836 0.065369618000000018 -0.16253753437683452 0.085525613071428599
decision_type=8 8 10 8 8 10 8 8 8 10 8 8 2 2
left_child=1 -1 3 -2 6 -6 -4 8 11 -10 -11 12 -8 -9
right_child=2 -3 4 -5 5 -7 7 13 9 10 -12 -13 -14 -15
leaf_value=-0.031566263421533999 0.060004394506506846 0.053972132736306203 -0.035945107627932016 -0.033779385510734443 0.044268136576711997 -0.032583965334997536 -0.045847563872133353 0.037241175098247641 -0.049528755404362891 0.047565567458871257 -0.03741954371582918 0.041983296450284278 0.042686476460780269 0.049175756879285819
leaf_weight=18.636218845844272 1.7220149040222168 1.7005354166030873 0.25591536611318488 3.1909285634756079 3.3073505610227585 2.4597544707357875 1.4136234596371653 5.1579048335552207 0.47759298980236309 30.4199533239007 0.61877887696028011 6.8771863542497167 1.6643857359886141 61.63454981893301
leaf_count=396 1 1 2 53 4 42 9 5 2 20 5 7 2 41
internal_value=0.0320648 -0.0244136 0.0417006 -0.000907632 0.0435323 0.0114896 0.0452351 0.045427 0.0408737 0.0444257 0.0458713 0.029629 0.00202585 0.0482541
internal_weight=139.537 20.3368 119.2 4.91294 114.287 5.76711 108.52 108.264 41.4715 31.5163 31.0387 9.9552 3.07801 66.7925
internal_count=590 397 193 54 139 46 93 91 45 27 25 18 11 46
is_linear=0
shrinkage=0.03


Tree=31
num_leaves=15
num_cat=0
split_feature=24 20 21 28 24 35 5 35 44 24 37 2 45 37
split_gain=80.2763 12.1795 3.45621 8.69986 2.20637 3.43111 6.70772 2.13784 1.81522 3.5546 1.58973 5.82556 1.46439 4.1722
threshold=600.42257210000014 1074.6801805000002 510.21160695000009 0.001970164000000029 765.18521800000008 -1.474400000000403e-05 5.0659727875000007 -0.00010916550000000107 1.5854031510179427 750.0100583000002 -0.26033422404485268 100601.11280000002 -0.31434516093212467 -0.21925812963728541
decision_type=8 8 10 8 8 10 2 10 10 10 10 2 10 10
left_child=1 -1 4 8 5 7 -7 10 9 -4 -2 -12 -6 -14
right_child=2 -3 3 -5 12 6 -8 -9 -10 -11 11 -13 13 -15
leaf_value=-0.031517613946923796 0.046006512523020647 0.052712602518853714 -0.033113369257051752 -0.035416750206079123 0.04551618617551742 -0.041609145553241716 0.046811948380929801 0.047994988907040785 0.047605512364805182 0.041740967541995605 -0.042616801340781205 0.045966294295583604 -0.032181909367873886 0.039148367886476181
leaf_weight=18.112929522991184 1.5627024173736552 1.6891030073165882 0.85569384694099193 1.8160955086350448 83.104266561567783 1.5053568705916396 1.585341215133667 8.2275721430778486 5.2415642216801643 1.7157958522439001 1.1678881458938131 1.5615047216415405 0.80723252147436042 8.6056067496538144
leaf_count=396 1 1 11 21 81 16 1 7 5 3 10 1 15 21
internal_value=0.0315539 -0.0243328 0.0409519 0.0237291 0.0424856 0.0320529 0.00374553 0.0390411 0.0374772 0.0168323 0.0218773 0.00806221 0.0442459 0.0330312
internal_weight=137.559 19.802 117.757 9.62915 108.127 15.6104 3.0907 12.5197 7.81305 2.57149 4.2921 2.72939 92.5171 9.41284
internal_count=590 397 193 40 153 36 17 19 19 14 12 11 117 36
is_linear=0
shrinkage=0.03


Tree=32
num_leaves=15
num_cat=0
split_feature=24 20 19 42 41 35 23 37 34 5 35 35 19 32
split_gain=76.3188 11.7165 9.6784 10.101 6.48843 8.64418 1.70399 1.39733 1.95306 4.39422 2.13565 1.69159 0.841588 0.708116
threshold=600.42257210000014 1074.6801805000002 298.07781040000003 -1.36590144340256 0.49870401242817786 -0.026765716999999998 1.0548711445000001 -0.14567560786504608 -0.00013877249999999947 0.25438656650000008 -0.00030334349999999727 -0.002555332 330.71842440000006 0.085525613071428599
decision_type=8 8 10 8 8 10 8 8 8 2 10 10 10 2
left_child=1 -1 3 -2 6 -6 -4 8 10 -10 -8 -11 -13 -9
right_child=2 -3 4 -5 5 -7 7 13 9 11 -12 12 -14 -15
leaf_value=-0.031470543844016839 0.05699963409257558 0.051546367110260276 -0.035546742645573559 -0.033647748449933235 0.042603542315835637 -0.03254146975669573 0.0045574394739856241 0.035745281982347436 -0.040654043986739691 -0.033805612744013627 0.040450757262039519 0.030679858388402211 0.045841314957344316 0.047455207459284159
leaf_weight=17.603505495935682 1.7172435522079468 1.6756993532180775 0.24391866475343604 3.110093478113412 3.2369345761835575 2.3986916206777087 2.8051762878894806 5.0362593829631797 0.56655439734458823 0.25226058065891166 3.1868128105998039 3.7028562650084487 29.917872928082943 60.241282194852829
leaf_count=396 1 1 2 53 4 42 8 5 3 3 4 5 22 41
internal_value=0.0310313 -0.0242549 0.040187 -0.00140147 0.0419861 0.0106196 0.0436545 0.0438373 0.0394546 0.0422049 0.0236471 0.0435908 0.0441715 0.0465518
internal_weight=135.695 19.2792 116.416 4.82734 111.589 5.63563 105.953 105.709 40.4315 34.4395 5.99199 33.873 33.6207 65.2775
internal_count=590 397 193 54 139 46 93 91 45 33 12 30 27 46
is_linear=0
shrinkage=0.03


Tree=33
num_leaves=15
num_cat=0
split_feature=24 19 41 20 21 2 43 24 19 23 25 0 36 15
split_gain=72.6902 11.8506 11.5675 11.2777 2.44058 5.48677 2.66746 4.65589 1.62553 2.76126 4.0913 7.30641 3.02714 1.98685
threshold=600.42257210000014 145.01800560000004 0.60165203858099725 1074.6801805000002 510.21160695000009 99880.049825000009 1.1582019805550983 750.0100583000002 373.34957270000007 260.03439535000001 56.650285830000009 -8.9299999999999989e-05 -218.53545000000301 1.0000000180025095e-35
decision_type=8 10 8 8 10 2 8 10 10 8 10 2 10 8
left_child=3 -2 4 -1 8 -6 7 -7 9 10 11 -3 -11 -14
right_child=1 2 -4 -5 5 6 -8 -9 -10 12 -12 -13 13 -15
leaf_value=-0.031425002085248809 -0.031508447872951838 -0.046093238388371691 -0.031731303148560056 0.050463869633555439 -0.038176363353515166 -0.033304866466380256 0.048613513231812303 0.045781961763076182 0.046080995216199731 -0.045872785126919086 0.04493441019918408 0.044478034969274514 0.015933968530336861 0.045541371011146116
leaf_weight=17.107627172023061 2.0770386643707743 1.7057961225509644 1.9444654099643219 1.660522699356078 1.0297509506344775 1.1765204071998601 4.9822582080960265 1.5559310913085938 67.691126585006714 0.34780983626842754 3.0566397905349731 1.5122951269149771 2.2164111733436611 25.613123849034309
leaf_count=396 46 9 39 1 7 14 4 1 44 2 2 1 4 20
internal_value=0.0305592 0.0394997 0.0408068 -0.0241798 0.0420788 0.0268676 0.0355496 0.0117293 0.043381 0.0380762 0.0200784 -0.00353059 0.0420841 0.0431834
internal_weight=133.677 114.909 112.832 18.7681 110.888 8.74446 7.71471 2.73245 102.143 34.4521 6.27473 3.21809 28.1773 27.8295
internal_count=590 193 147 397 108 26 19 15 82 38 12 10 26 24
is_linear=0
shrinkage=0.03


Tree=34
num_leaves=15
num_cat=0
split_feature=24 19 41 20 21 27 43 24 19 24 27 26 21 37
split_gain=69.3493 11.2994 11.0247 10.8612 2.3257 5.24179 2.50266 4.46309 1.59141 2.65857 2.79298 6.92126 1.09356 0.427595
threshold=600.42257210000014 145.01800560000004 0.60165203858099725 1074.6801805000002 510.21160695000009 99892.215305000005 1.1582019805550983 750.0100583000002 373.34957270000007 765.18521800000008 100520.35600000001 60.445231845000009 84.916714270000014 -0.20556631891452112
decision_type=8 10 8 8 10 10 8 10 10 8 10 10 10 10
left_child=3 -2 4 -1 8 -6 7 -7 9 10 11 -3 -11 -14
right_child=1 2 -4 -5 5 6 -8 -9 -10 12 -12 -13 13 -15
leaf_value=-0.031380933414885626 -0.031461709731760774 -0.043271310625680501 -0.031677484822502294 0.049456806783924841 -0.037883994969244328 -0.033197842997127781 0.047625500357805467 0.045075722070022667 0.045372271416715348 0.029287315901596857 0.039140749548786151 0.045436347947599945 0.036798017720996876 0.046710702086083779
leaf_weight=16.624982204288248 2.0186020731925955 1.6232274845242491 1.8901552706956852 1.643756866455077 1.0069124475121478 1.1453741230070595 4.9337791055440894 1.5332427024841309 66.700984597206116 5.3201158195734051 3.3991735875606537 1.5450973510742188 5.0836252421140697 17.05815851688385
leaf_count=396 46 9 39 1 7 14 4 1 44 8 3 1 6 11
internal_value=0.030132 0.0388809 0.0401574 -0.0241074 0.0413991 0.0264425 0.0349511 0.011606 0.0426789 0.0373997 0.0202529 -1.12362e-05 0.0415003 0.0444348
internal_weight=131.527 113.258 111.24 18.2687 109.35 8.61931 7.6124 2.67862 100.73 34.0294 6.5675 3.16832 27.4619 22.1418
internal_count=590 193 147 397 108 26 19 15 82 38 13 10 25 17
is_linear=0
shrinkage=0.03


Tree=35
num_leaves=15
num_cat=0
split_feature=24 19 21 41 20 35 5 24 36 33 22 19 35 29
split_gain=66.9545 11.0088 10.4404 5.89401 7.69914 1.85283 1.73212 1.4683 1.33393 1.32793 1.27369 1.03557 0.78152 0.516259
threshold=600.42257210000014 145.01800560000004 1431.8298130000003 0.49870401242817786 1181.7886055000001 -0.054979384999999999 0.45465694100000004 1011.4894290000001 372.74524499999103 24.808519082142862 69.303207855000025 298.07781040000003 -0.046828004500000013 0.00088219400000000032
decision_type=8 10 10 8 10 10 2 10 8 2 10 10 10 2
left_child=2 -2 -1 5 -5 -3 7 9 10 -7 -8 -12 -13 -14
right_child=1 3 -4 4 -6 6 8 -9 -10 -11 11 12 13 -15
leaf_value=-0.031351719219241146 -0.031411859381757903 -0.035939311052587103 0.04851794374479141 -0.03231789660328431 0.040319743363242989 0.037876415128756162 -0.03393956970804056 0.044022868223258599 -0.034374706891680311 0.0037195136755634392 0.02402413878567369 0.063710072614380261 0.046888030239433373 0.042040616062767378
leaf_weight=15.691608775407076 1.9572444111108769 0.27564753592014213 1.6255717277526862 2.2742396853864184 3.1081158593297005 1.6524154022335995 0.19309917837381263 2.9863334894180298 0.20070051401853461 2.6952428594231606 2.4816292822360984 1.7161753177642811 26.694873988628387 76.268042452633381
leaf_count=383 46 2 1 43 4 3 2 2 2 8 6 1 18 63
internal_value=0.0313612 0.0391665 -0.0238543 0.0403124 0.00962772 0.0417465 0.0419329 0.0278265 0.0428948 0.0167015 0.0430393 0.043178 0.043632 0.0432974
internal_weight=139.821 122.504 17.3172 120.547 5.38236 115.164 114.889 7.33399 107.555 4.34766 107.354 107.161 104.679 102.963
internal_count=584 200 384 154 47 107 105 13 92 11 90 88 82 81
is_linear=0
shrinkage=0.03


Tree=36
num_leaves=15
num_cat=0
split_feature=24 19 21 41 20 35 5 24 36 33 22 19 35 29
split_gain=63.8207 10.4907 10.0637 5.57252 7.3781 1.76643 1.69027 1.43455 1.27145 1.2691 1.21383 1.04434 0.679931 0.482643
threshold=600.42257210000014 145.01800560000004 1431.8298130000003 0.49870401242817786 1181.7886055000001 -0.054979384999999999 0.45465694100000004 1011.4894290000001 372.74524499999103 24.808519082142862 69.303207855000025 298.07781040000003 -0.046828004500000013 0.00088219400000000032
decision_type=8 10 8 8 10 10 2 10 8 2 10 10 10 2
left_child=2 -2 -1 5 -5 -3 7 9 10 -7 -8 -12 -13 -14
right_child=1 3 -4 4 -6 6 8 -9 -10 -11 11 12 13 -15
leaf_value=-0.031310048643150436 -0.031368241014290803 -0.035729720754347466 0.047640939201300359 -0.03224924119759446 0.039632050233423331 0.037099643162155631 -0.033809847985857462 0.043419675086883332 -0.034230139154479672 0.0036080802432485876 0.023255264650791915 0.061629386643534331 0.046107294470055175 0.041388005691517661
leaf_weight=15.247812710702421 1.9020004086196411 0.26904632151126762 1.6061246395111073 2.2116533592343322 3.0677985027432442 1.636642538011073 0.18810034543275733 2.937720775604248 0.19557907432317634 2.6951306164264679 2.4866879507899275 1.7208112478256214 26.337884791195393 75.163260728120804
leaf_count=383 46 2 1 43 4 3 2 2 2 8 6 1 18 63
internal_value=0.0309019 0.0385311 -0.0237863 0.0396492 0.00951974 0.041049 0.0412313 0.0272368 0.0421902 0.016262 0.0423313 0.0424668 0.0429296 0.0426126
internal_weight=137.666 120.812 16.8539 118.91 5.27945 113.631 113.362 7.26949 106.092 4.33177 105.897 105.709 103.222 101.501
internal_count=584 200 384 154 47 107 105 13 92 11 90 88 82 81
is_linear=0
shrinkage=0.03


Tree=37
num_leaves=15
num_cat=0
split_feature=46 19 41 21 21 44 48 19 19 12 42 38 46 44
split_gain=60.0317 9.97667 9.84678 9.69425 2.75467 6.70981 5.91587 1.79971 1.7385 1.07228 1.63403 0.447114 0.428559 0.17884
threshold=0.097179817277390515 145.01800560000004 0.60165203858099725 1431.8298130000003 607.59500610000021 1.791147165705441 1.0000000180025095e-35 384.35390715000005 359.94924065000004 0.0011246510000000002 -1.3446721537111315 -0.31329297171281689 0.35197375172053397 -0.58577987208957805
decision_type=8 10 8 10 10 10 2 10 10 10 10 2 10 8
left_child=3 -2 4 -1 7 6 -6 8 9 11 -11 -3 -9 -13
right_child=1 2 -4 -5 5 -7 -8 12 -10 10 -12 13 -14 -15
leaf_value=-0.031269257853061096 -0.03132602655150743 0.034639187706724285 -0.031571858387490888 0.046820215588008557 -0.035571534418884457 0.047000744872987693 0.040520058470303905 0.04984732339607624 0.020258848619098213 0.01598145373715093 0.042550412993593814 0.042138620730653227 0.043031600229980808 0.048937903793662418
leaf_weight=14.656384464353323 1.8482376225292672 4.7576145492494133 1.756710972636937 1.5855606794357306 2.3486258611083013 4.9450483471155167 1.5113144479691984 9.5275232791900617 5.610072746872901 4.0476382672786713 4.2927988767623884 7.5258817672729492 64.59588634967804 6.4788409471511859
leaf_count=379 46 8 39 1 23 4 2 6 9 9 3 6 45 4
internal_value=0.0304623 0.0378321 0.0389209 -0.0236461 0.0399917 0.0238632 -0.00577876 0.041321 0.0354598 0.0386063 0.0296564 0.0425848 0.0439077 0.0452841
internal_weight=135.488 119.246 117.398 16.2419 115.641 8.80499 3.85994 106.836 32.7128 27.1028 8.34044 18.7623 74.1234 14.0047
internal_count=584 204 158 380 119 29 25 90 39 30 12 18 51 10
is_linear=0
shrinkage=0.03


Tree=38
num_leaves=15
num_cat=0
split_feature=24 19 22 43 22 29 19 19 34 19 19 42 15 24
split_gain=58.1388 9.55144 9.10109 4.03424 8.0473 5.78798 1.40743 1.71154 1.08273 2.27565 0.921424 4.31133 0.452778 0.452435
threshold=600.42257210000014 145.01800560000004 1636.4312240000002 0.073605770689905953 1303.2074465000003 0.0006268300000000002 384.35390715000005 359.94924065000004 0.0016955250000000002 324.33955140000006 751.69733460000009 -0.42409260319605696 0.042955097000000005 682.36855765000007
decision_type=8 10 10 10 10 2 10 10 8 10 10 10 8 10
left_child=2 -2 -1 6 5 -5 7 8 9 -3 13 -12 -11 -8
right_child=1 3 -4 4 -6 -7 10 -9 -10 12 11 -13 -14 -15
leaf_value=-0.031230765595237797 -0.031285168138359645 0.005578418712239918 0.044110261268490533 0.037269777219324222 0.046103173013625438 -0.034577395575525534 0.050126223810564877 0.019763373736839247 0.043368316852649989 0.031529133025024247 -0.031508556439965626 0.041025995702110178 0.044800757550466044 0.042527032379443011
leaf_weight=14.357946984469887 1.7959210611879814 2.464005373418332 1.6042541265487678 1.5456070192158202 4.8909000679850578 2.907396174967289 8.0034787654876691 5.5786790698766699 15.007770597934723 4.7309412211179707 0.84708902239799488 5.7008266560733309 4.52773141860962 59.263222813606262
leaf_count=382 46 8 2 3 4 37 5 9 11 7 19 6 3 42
internal_value=0.0300562 0.037368 -0.0236587 0.0384358 0.0195379 -0.00963973 0.0400997 0.0348777 0.0380321 0.0312005 0.0423854 0.0316424 0.0380193 0.0434312
internal_weight=133.226 117.264 15.9622 115.468 9.3439 4.453 106.124 32.3091 26.7304 11.7227 73.8146 6.54792 9.25867 67.2667
internal_count=584 200 384 154 44 40 110 38 29 18 72 25 10 47
is_linear=0
shrinkage=0.03


Tree=39
num_leaves=15
num_cat=0
split_feature=24 19 21 41 20 35 5 24 33 36 22 19 35 0
split_gain=55.5523 9.12515 9.04681 4.79546 6.57779 1.61203 1.63028 1.38946 1.20414 1.19505 1.15372 1.15585 0.48328 0.408552
threshold=600.42257210000014 145.01800560000004 1431.8298130000003 0.49870401242817786 1181.7886055000001 -0.054979384999999999 0.45465694100000004 1011.4894290000001 24.808519082142862 372.74524499999103 69.303207855000025 298.07781040000003 -0.046828004500000013 -0.00026473049999999992
decision_type=8 10 10 8 10 10 2 10 2 8 10 10 10 2
left_child=2 -2 -1 5 -5 -3 7 8 -7 10 -8 -12 -13 -14
right_child=1 3 -4 4 -6 6 9 -9 -10 -11 11 12 13 -15
leaf_value=-0.031193512854684999 -0.031245617743976242 -0.035439949449444827 0.045358220765112742 -0.032077107697556048 0.03803093584702303 0.03531739650053646 -0.033780216224013129 0.041797979743535142 0.0021195314935838067 -0.034334357332382937 0.02039763948751815 0.05690961514120501 0.038618213275913305 0.042551447493415738
leaf_weight=13.992129832506176 1.7450163215398777 0.25980500876903434 1.5425776243209846 2.052874617278575 2.9142886847257614 1.5670163929462422 0.18791364878415961 2.7867003679275513 2.6399502530694008 0.19249533861875434 2.4804668128490439 1.7169369459152211 41.834553912281983 55.035947397351272
leaf_count=383 46 2 1 43 4 3 2 2 8 2 6 1 37 44
internal_value=0.0296678 0.0368365 -0.023592 0.0378817 0.00905604 0.0391989 0.0393777 0.0253682 0.0144851 0.0403435 0.0404855 0.0406236 0.0411325 0.0408528
internal_weight=130.949 115.414 15.5347 113.669 4.96716 108.702 108.442 6.99367 4.20697 101.448 101.256 101.068 98.5874 96.8705
internal_count=584 200 384 154 47 107 105 13 11 92 90 88 82 81
is_linear=0
shrinkage=0.03


Tree=40
num_leaves=15
num_cat=0
split_feature=24 19 22 43 41 41 42 50 19 25 43 25 24 2
split_gain=52.3916 9.51521 8.46698 2.47721 7.04637 4.91186 2.06837 3.07593 1.74368 2.24032 1.18623 0.518986 0.318675 0.0464441
threshold=600.42257210000014 145.01800560000004 1636.4312240000002 -0.040861398993036598 0.43634039806497471 0.60165203858099725 0.77717387758769618 3.4271648029500011e-07 384.35390715000005 45.452698245000008 -1.1266570572467083 53.222899985000005 682.36855765000007 98721.836755000011
decision_type=8 10 10 10 8 8 10 10 10 10 10 10 10 2
left_child=2 -2 -1 5 6 8 7 -5 9 -3 -11 -12 -10 -14
right_child=1 3 -4 4 -6 -7 -8 -9 12 10 11 -13 13 -15
leaf_value=-0.031156678884653552 -0.031207240844677488 0.012562560423803897 0.042693426144010956 0.036794678340121775 -0.034208322734387328 -0.031409879454413495 0.04312285906790269 -0.033680561276923759 0.047279413386342381 0.020979696630677894 0.043695877392467476 0.033557819315482865 0.043029220387590009 0.040908775234164231
leaf_weight=13.378285545855757 1.8430540859699238 4.0598067864775684 1.5601775944232947 1.4829249456524833 1.6056367680430401 0.88409798964857955 6.3431995511054993 0.89302749186754216 9.1943703889846784 3.6067786961793926 11.643212437629701 7.4539027959108344 11.374181866645811 50.892921328544617
leaf_count=377 50 9 2 2 25 21 5 10 6 8 8 9 8 38
internal_value=0.029309 0.0363909 -0.0234438 0.0375293 0.023545 0.0389862 0.0341803 0.0103058 0.0396198 0.0330884 0.0367587 0.0397388 0.0420659 0.0412961
internal_weight=126.216 111.277 14.9385 109.434 10.3248 99.1093 8.71915 2.37595 98.2252 26.7637 22.7039 19.0971 71.4615 62.2671
internal_count=578 199 379 149 42 107 17 12 86 34 25 17 52 46
is_linear=0
shrinkage=0.03


Tree=41
num_leaves=15
num_cat=0
split_feature=46 19 21 21 41 41 19 23 21 3 1 22 46 15
split_gain=49.7442 9.08961 8.42791 2.43116 6.85531 4.69267 1.80375 2.52737 1.58704 1.31503 3.40387 1.09751 0.239209 0.182081
threshold=0.097179817277390515 145.01800560000004 1431.8298130000003 539.99472110000011 0.43634039806497471 0.60165203858099725 384.35390715000005 260.03439535000001 1074.6801805000002 0.085494105500000014 4.0150000000000005e-06 321.11396665000007 0.35197375172053397 0.00055026400000000007
decision_type=8 10 10 10 8 8 10 8 10 2 10 8 10 10
left_child=2 -2 -1 5 8 6 7 -3 9 -5 -11 13 -8 -9
right_child=1 3 -4 4 -6 -7 12 11 -10 10 -12 -13 -14 -15
leaf_value=-0.031121240681416019 -0.031170177336209179 0.010663297851230196 0.044063729979549715 0.042589580080360387 -0.034022760603966473 -0.031366384297754485 0.045774348645671051 0.042733021875982644 0.045536389886488796 0.0361838203012338 -0.034576448706831089 0.024597709847352271 0.040845094963163568 0.03643715762379348
leaf_weight=12.96297143027186 1.7906782329082478 4.077738098800185 1.4967738389968879 1.434242963790892 1.5978511460125435 0.85914071649312873 10.403158187866209 9.8637155294418388 4.64408278465271 1.4630237966775896 1.0516329593956468 5.4280407503247252 59.750900030136108 7.1174344532191745
leaf_count=376 50 9 1 1 26 21 7 7 3 2 11 10 45 9
internal_value=0.0289581 0.0358652 -0.0233386 0.0369799 0.0230375 0.0384371 0.0390577 0.0323875 0.0336478 0.0196662 0.00659178 0.0363406 0.0415761 0.0400942
internal_weight=123.941 109.482 14.4597 107.691 10.1908 97.5001 96.641 26.4869 8.59298 3.9489 2.51466 22.4092 70.1541 16.9811
internal_count=578 201 377 151 43 108 87 35 17 14 13 26 52 16
is_linear=0
shrinkage=0.03


Tree=42
num_leaves=15
num_cat=0
split_feature=24 19 21 21 41 41 42 50 19 25 34 41 24 11
split_gain=47.9945 8.7136 8.14532 2.26952 6.46591 4.49372 1.86393 2.82426 1.77978 2.21517 0.989079 2.45345 0.251979 0.0530494
threshold=600.42257210000014 145.01800560000004 1431.8298130000003 539.99472110000011 0.43634039806497471 0.60165203858099725 0.77717387758769618 3.4271648029500011e-07 384.35390715000005 45.452698245000008 0.057832587000000005 -0.55884610967390513 682.36855765000007 0.013218428500000002
decision_type=8 10 10 10 8 8 10 10 10 10 8 10 10 8
left_child=2 -2 -1 5 6 8 7 -5 9 -3 11 -11 -10 -12
right_child=1 3 -4 4 -6 -7 -8 -9 12 10 13 -13 -14 -15
leaf_value=-0.031088141521038913 -0.031134293486693308 0.01138760623596855 0.043457483579588514 0.035588707636876417 -0.03396861451626812 -0.031324285734996751 0.041775386361038891 -0.033442283407213266 0.04581193968415892 0.0023417910495046397 0.043362967240953974 0.037162961241956838 0.040411626954837472 0.039427204001959308
leaf_weight=12.670733295381066 1.7397283427417267 4.0056367963552502 1.4724918603897101 1.4431658908724769 1.5227268338203419 0.83485287800431152 6.1628878712654114 0.84615344181656826 8.9363484382629377 2.4269981086254147 5.7469429969787624 7.2945424169301925 59.899903774261475 6.6474063247442254
leaf_count=378 50 9 1 2 25 21 5 10 6 8 4 7 46 6
internal_value=0.0286253 0.0354599 -0.023327 0.0365553 0.022937 0.0379734 0.033189 0.0100742 0.0385826 0.0319154 0.0356334 0.0284698 0.0411127 0.0412521
internal_weight=121.651 107.507 14.1432 105.768 9.97493 95.7926 8.45221 2.28932 94.9578 26.1215 22.1159 9.72154 68.8363 12.3943
internal_count=578 199 379 149 42 107 17 12 86 34 25 15 52 10
is_linear=0
shrinkage=0.03


Tree=43
num_leaves=15
num_cat=0
split_feature=24 19 21 21 41 41 19 25 42 50 43 36 24 13
split_gain=45.966 8.34529 7.86899 2.18131 6.19367 4.3022 1.79122 2.1652 1.76961 2.7078 1.16896 1.58924 0.223979 0.0452221
threshold=600.42257210000014 145.01800560000004 1431.8298130000003 539.99472110000011 0.43634039806497471 0.60165203858099725 384.35390715000005 45.452698245000008 0.77717387758769618 3.4271648029500011e-07 -1.1266570572467083 -65.609795000003928 682.36855765000007 0.00017881300000000002
decision_type=8 10 10 10 8 8 10 10 10 10 10 10 10 10
left_child=2 -2 -1 5 8 6 7 -3 9 -5 -9 -12 -8 -13
right_child=1 3 -4 4 -6 -7 12 10 -10 -11 11 13 -14 -15
leaf_value=-0.031054872029781268 -0.031099548050422369 0.011074861476323986 0.042885184186419859 0.035007935988155089 -0.033853784129026447 -0.031283536186459196 0.045135271028090049 0.019324813628658868 0.041113160377302949 -0.033331147622584399 0.01351697647765448 0.043121525107131103 0.040003069431947931 0.039926605048757328
leaf_weight=12.309231512248513 1.6901693735271681 3.9953484982252148 1.4477521181106574 1.4233953654766067 1.4826601464301337 0.81121866405010123 8.8002700805664045 3.5406333804130581 6.0756134986877441 0.82384238392114628 2.0858120173215964 7.1604967117309526 58.714255571365356 8.9972984790801984
leaf_count=378 50 9 1 2 25 21 6 8 5 10 5 5 46 7
internal_value=0.028307 0.0350266 -0.0232736 0.0361022 0.0226367 0.0375052 0.0381034 0.0313763 0.0327001 0.00995468 0.0350996 0.0381611 0.040672 0.0413425
internal_weight=119.358 105.601 13.757 103.911 9.80551 94.1053 93.2941 25.7796 8.32285 2.24724 21.7842 18.2436 67.5145 16.1578
internal_count=578 199 379 149 42 107 86 34 17 12 25 17 52 12
is_linear=0
shrinkage=0.03


Tree=44
num_leaves=15
num_cat=0
split_feature=24 19 21 21 41 41 19 25 42 50 43 36 24 13
split_gain=44.0382 7.99545 7.60384 2.097 5.93503 4.12037 1.8075 2.11591 1.68175 2.59654 1.16078 1.57389 0.199356 0.0401318
threshold=600.42257210000014 145.01800560000004 1431.8298130000003 539.99472110000011 0.43634039806497471 0.60165203858099725 384.35390715000005 45.452698245000008 0.77717387758769618 3.4271648029500011e-07 -1.1266570572467083 -65.609795000003928 682.36855765000007 0.00017881300000000002
decision_type=8 10 10 10 8 8 10 10 10 10 10 10 10 10
left_child=2 -2 -1 5 8 6 7 -3 9 -5 -9 -12 -8 -13
right_child=1 3 -4 4 -6 -7 12 10 -10 -11 11 13 -14 -15
leaf_value=-0.031022648016186125 -0.031065904003731406 0.010770267876979846 0.042344279385045286 0.03444021748072619 -0.03374224644493861 -0.03124408881050721 0.044496482438371079 0.01883346884516305 0.040480270234224305 -0.033223897671408348 0.013139706378444053 0.042576462390684883 0.03961438168932211 0.039538360038770842
leaf_weight=11.95765962079167 1.6419668551534403 3.9852458462119129 1.4226380586624152 1.4037521183490738 1.4435253255069245 0.78822246193885703 8.6609157323837263 3.5242659896612194 5.986830472946167 0.80203600600361813 2.0813972949981769 7.0364762544631896 57.529557108879089 8.8158226013183576
leaf_count=378 50 9 1 2 25 21 6 8 5 10 5 5 46 7
internal_value=0.0279992 0.0346083 -0.023222 0.0356649 0.0223471 0.0370534 0.0376409 0.030845 0.0322299 0.00983719 0.0345734 0.0376665 0.0402532 0.0408869
internal_weight=117.08 103.7 13.3803 102.058 9.63614 92.4219 91.6337 25.4432 8.19262 2.20579 21.458 17.9337 66.1905 15.8523
internal_count=578 199 379 149 42 107 86 34 17 12 25 17 52 12
is_linear=0
shrinkage=0.03


Tree=45
num_leaves=15
num_cat=0
split_feature=24 19 22 19 23 44 34 44 42 24 20 36 0 23
split_gain=42.8902 7.42705 7.3609 2.23338 5.73475 2.09345 1.8846 3.09998 7.71248 1.1892 2.10523 1.1185 0.882466 0.729275
threshold=600.42257210000014 145.01800560000004 1636.4312240000002 756.62592490000009 451.60744475000007 -1.2029249916692699 -0.00012255749999999995 -1.008853475188775 -1.3619076672209995 646.02472020000016 911.94733700000018 372.74524499999103 -0.0025356149999999993 0.81367540900000013
decision_type=8 10 10 10 8 10 8 8 10 8 10 8 2 8
left_child=2 -2 -1 5 -5 -3 7 -7 -9 10 -8 12 -11 -14
right_child=1 3 -4 4 -6 6 9 8 -10 11 -12 -13 13 -15
leaf_value=-0.030990491719054616 -0.031022984859677503 -0.033637362693306819 0.041832483219552491 -0.031751943376529868 0.036244555831811798 0.036522661184438844 0.0023182057368696428 0.039038242185136525 -0.043118583980812072 -0.036108254710304766 0.041524464435766878 -0.034552009856746065 -0.034847474304993152 0.039239713443220997
leaf_weight=11.792479379102584 1.5520983152091492 0.3856331966817369 1.3972263336181647 1.5804941989481438 3.8008907325565815 7.7407581657171249 2.2588289231061927 2.4509949684143066 1.7717429995536784 0.14054824411868949 2.7131885290145874 0.18651346489787002 0.11975511163473029 80.415845517069101
leaf_count=384 49 5 1 39 6 7 8 2 11 1 2 2 1 71
internal_value=0.0277173 0.0341158 -0.0232761 0.035092 0.0162742 0.0361234 0.0363985 0.0252435 0.00456753 0.0379532 0.0237127 0.0388288 0.0389985 0.0391295
internal_weight=118.307 105.117 13.1897 103.565 5.38138 98.1838 97.7982 11.9635 4.22274 85.8347 4.97202 80.8627 80.6761 80.5356
internal_count=589 204 385 155 45 110 105 20 13 85 10 75 73 72
is_linear=0
shrinkage=0.03


Tree=46
num_leaves=15
num_cat=0
split_feature=24 19 21 19 19 44 34 44 42 24 20 36 0 23
split_gain=41.1272 7.12229 7.11603 2.1301 5.51448 2.00757 1.8019 2.96707 7.41053 1.18152 2.04506 1.07292 0.846638 0.699556
threshold=600.42257210000014 145.01800560000004 1431.8298130000003 756.62592490000009 765.32429385000012 -1.2029249916692699 -0.00012255749999999995 -1.008853475188775 -1.3619076672209995 646.02472020000016 911.94733700000018 372.74524499999103 -0.0025356149999999993 0.81367540900000013
decision_type=8 10 10 10 10 10 8 8 10 8 10 8 2 8
left_child=2 -2 -1 5 -5 -3 7 -7 -9 10 -8 12 -11 -14
right_child=1 3 -4 4 -6 6 9 8 -10 11 -12 -13 13 -15
leaf_value=-0.030960295440346154 -0.03099175107050163 -0.033520048631168087 0.041347710080274006 0.03595580420129843 -0.031358683336272321 0.036096864986431318 0.002249270503289845 0.038692205193258881 -0.042656011185245681 -0.035891633300502046 0.041061696807166086 -0.03440270320585774 -0.034681462028701565 0.03880368130292608
leaf_weight=11.454951623454686 1.5077219586819399 0.37552598118781944 1.3715873956680305 3.7173468619585028 1.5528222005814312 7.5992508381605148 2.2582255005836478 2.3995062112808228 1.7377423122525195 0.13720513880252738 2.6622241735458374 0.1817748099565496 0.11676369607448478 78.902799740433693
leaf_count=384 49 5 1 4 41 7 8 2 11 1 2 2 1 71
internal_value=0.0274336 0.0337334 -0.0232281 0.0346935 0.016122 0.0357091 0.0359799 0.0249671 0.00452403 0.0375139 0.0232489 0.0383986 0.0385658 0.0386951
internal_weight=115.975 103.149 12.8265 101.641 5.27017 96.371 95.9955 11.7365 4.13725 84.259 4.92045 79.3385 79.1568 79.0196
internal_count=589 204 385 155 45 110 105 20 13 85 10 75 73 72
is_linear=0
shrinkage=0.03


Tree=47
num_leaves=15
num_cat=0
split_feature=24 21 19 19 23 44 34 44 42 24 20 36 0 23
split_gain=39.4507 6.88062 6.83261 2.03052 5.34197 1.92586 1.72354 2.84033 7.12285 1.17434 1.98784 1.02955 0.812535 0.671278
threshold=600.42257210000014 1431.8298130000003 145.01800560000004 756.62592490000009 451.60744475000007 -1.2029249916692699 -0.00012255749999999995 -1.008853475188775 -1.3619076672209995 646.02472020000016 911.94733700000018 372.74524499999103 -0.0025356149999999993 0.81367540900000013
decision_type=8 10 10 10 8 10 8 8 10 8 10 8 2 8
left_child=1 -1 -2 5 -5 -4 7 -7 -9 10 -8 12 -11 -14
right_child=2 -3 3 4 -6 6 9 8 -10 11 -12 -13 13 -15
leaf_value=-0.030931048186166432 -0.030961501477494744 0.040888078680020881 -0.033406817172945219 -0.031701154272719877 0.035528620841252023 0.035684793197098594 0.0021823665341661582 0.038362312894587421 -0.042212512725824589 -0.0356839203104828 0.040622250118681175 -0.034258756067126944 -0.034521885150536807 0.038384560540755126
leaf_weight=11.126759732142087 1.4645700007677067 1.3457858562469489 0.36564406007528205 1.4997741281986225 3.6583829857409 7.4585267603397369 2.2576390951871863 2.3483104705810547 1.7038329839706401 0.13391342759132285 2.6110670566558838 0.17713255807757278 0.11382866650819679 77.394256316125393
leaf_count=384 49 1 5 39 6 7 8 2 11 1 2 2 1 71
internal_value=0.0271603 -0.0231818 0.0333655 0.0343103 0.015981 0.0353101 0.0355768 0.0247005 0.00448245 0.0370909 0.0227975 0.0379851 0.0381499 0.0382775
internal_weight=113.659 12.4725 101.187 99.7223 5.15816 94.5642 94.1985 11.5107 4.05214 82.6878 4.86871 77.8191 77.642 77.5081
internal_count=589 385 204 155 45 110 105 20 13 85 10 75 73 72
is_linear=0
shrinkage=0.03


Tree=48
num_leaves=15
num_cat=0
split_feature=24 21 19 19 19 44 34 44 42 24 20 36 0 23
split_gain=37.8534 6.65419 6.55669 1.93916 5.13861 1.84806 1.64921 2.71939 6.8486 1.16759 1.93331 0.988258 0.780051 0.644352
threshold=600.42257210000014 1431.8298130000003 145.01800560000004 756.62592490000009 765.32429385000012 -1.2029249916692699 -0.00012255749999999995 -1.008853475188775 -1.3619076672209995 646.02472020000016 911.94733700000018 372.74524499999103 -0.0025356149999999993 0.81367540900000013
decision_type=8 10 10 10 10 10 8 8 10 8 10 8 2 8
left_child=1 -1 -2 5 -5 -4 7 -7 -9 10 -8 12 -11 -14
right_child=2 -3 3 4 -6 6 9 8 -10 11 -12 -13 13 -15
leaf_value=-0.030902717663753444 -0.030932201905423364 0.040451865590254245 -0.033297510181841489 0.035268299896839161 -0.031289667049419281 0.03528548324898928 0.0021174396644876026 0.038047594537112005 -0.041787085982809016 -0.035484671882602785 0.040204576893100565 -0.034119934163760524 -0.034368443612321102 0.037981149210912078
leaf_weight=10.807664059102532 1.422611366957425 1.3198810815811164 0.35598489083349605 3.5757296681404105 1.4744521118700502 7.318762332201004 2.2570689916610709 2.2974717617034917 1.670055340975521 0.13067434728145499 2.5598220825195312 0.17258630692958732 0.11095023900270362 75.892544493079185
leaf_count=384 49 1 5 4 41 7 8 2 11 1 2 2 1 71
internal_value=0.0268954 -0.023137 0.0330096 0.0339396 0.015836 0.0349251 0.0351879 0.0244432 0.0044427 0.0366828 0.0223579 0.0375871 0.0377496 0.0378755
internal_weight=111.366 12.1275 99.2387 97.8161 5.05018 92.7659 92.4099 11.2863 3.96753 81.1236 4.81689 76.3068 76.1342 76.0035
internal_count=589 385 204 155 45 110 105 20 13 85 10 75 73 72
is_linear=0
shrinkage=0.03


Tree=49
num_leaves=15
num_cat=0
split_feature=24 21 19 19 23 22 34 44 42 24 20 36 0 23
split_gain=36.3321 6.43629 6.29399 1.85069 4.98185 1.77392 1.57861 2.60391 6.58699 1.16123 1.88127 0.948911 0.749084 0.618693
threshold=600.42257210000014 1431.8298130000003 145.01800560000004 756.62592490000009 451.60744475000007 70.175946220000014 -0.00012255749999999995 -1.008853475188775 -1.3619076672209995 646.02472020000016 911.94733700000018 372.74524499999103 -0.0025356149999999993 0.81367540900000013
decision_type=8 10 10 10 8 10 8 8 10 8 10 8 2 8
left_child=1 -1 -2 5 -5 -4 7 -7 -9 10 -8 12 -11 -14
right_child=2 -3 3 4 -6 6 9 8 -10 11 -12 -13 13 -15
leaf_value=-0.030875270152566973 -0.030903821107148354 0.040037503285579631 -0.033191971104984543 -0.031656745604178568 0.034860965228120253 0.034898047016169928 0.0020544271703764007 0.037747157088364867 -0.041378799278460693 -0.035293463176742264 0.039807269091693076 -0.033986039202566161 -0.03422085638976622 0.037592338106620743
leaf_weight=10.49743201769888 1.381815569475292 1.2939273118972785 0.34654579870402713 1.4232993181794871 3.5182114876806736 7.1801164448261261 2.256515033543109 2.2470475435256962 1.6364465840160827 0.12748895585536857 2.5085850954055786 0.16813548281788726 0.10812849551439185 74.39977190643549
leaf_count=384 49 1 5 39 6 7 8 2 11 1 2 2 1 71
internal_value=0.0266395 -0.0230936 0.0326664 0.0335821 0.0157019 0.0345533 0.0348123 0.0241944 0.00440466 0.0362887 0.0219294 0.0372034 0.0373638 0.0374881
internal_weight=109.093 11.7914 97.3021 95.9203 4.94151 90.9788 90.6322 11.0636 3.88349 79.5686 4.7651 74.8035 74.6354 74.5079
internal_count=589 385 204 155 45 110 105 20 13 85 10 75 73 72
is_linear=0
shrinkage=0.03


Tree=50
num_leaves=15
num_cat=0
split_feature=24 19 20 5 21 19 19 36 34 37 25 0 15 29
split_gain=35.5977 9.32387 6.248 3.28858 7.2753 1.47983 4.78568 0.891091 0.779861 1.02586 2.20233 0.725924 0.63451 0.665761
threshold=600.42257210000014 308.03127185000005 1101.1935740000001 0.45465694100000004 4.5108621750000006 756.62592490000009 784.19782505000012 372.74524499999103 -0.00012255749999999995 -0.14524799260791046 44.504020335000007 -0.0025356149999999993 1.0000000180025095e-35 9.5200000000000003e-06
decision_type=8 10 10 2 10 10 10 8 8 10 10 2 8 2
left_child=2 -2 -1 4 -3 7 -7 8 9 10 -5 -10 -13 -14
right_child=1 3 -4 5 -6 6 -8 -9 11 -11 -12 12 13 -15
leaf_value=-0.030842495126775241 -0.033685922614320039 0.039525272896212819 0.039643564475584009 0.038109038796721742 -0.042545719404331279 0.037487320503297193 -0.031085890427323626 -0.033856865706374924 -0.035109894998337131 0.037958372266930412 -0.00421966068112782 0.029254732793442578 -0.034447532338123185 0.03862096712300133
leaf_weight=10.540372952818867 1.8880850225687016 2.4875401258468619 1.2679741382598884 2.2852139472961426 1.5956868007779119 3.3024070262908927 1.2675249539315698 0.16377944126725097 0.1243581548333158 4.4973645210266096 2.1442946307361126 7.5611324980854979 0.11244083195924659 59.213837407529354
leaf_count=398 46 2 1 2 13 3 40 2 1 4 9 10 1 55
internal_value=0.0255908 0.0322503 -0.0232737 0.0337192 0.0074527 0.0350487 0.0184677 0.0360443 0.0361951 0.0278655 0.017618 0.0373047 0.0374394 0.0384825
internal_weight=98.452 86.6437 11.8083 84.7556 4.08323 80.6724 4.56993 76.1024 75.9386 8.92687 4.42951 67.0118 66.8874 59.3263
internal_count=587 188 399 142 15 127 43 84 82 15 11 67 66 56
is_linear=0
shrinkage=0.03


end of trees

feature_importances:
water_area_km2_lag1=108
water_area_km2_lag14=93
water_area_km2_lag3=63
water_area_km2_lag1_zscore=58
water_area_km2_lag5=43
soil_moisture_change_3day=32
pressure_drop_1day=30
water_area_km2_lag2=24
water_area_km2_lag5_zscore=22
water_area_km2_lag2_zscore=20
water_area_km2_lag7=19
water_area_km2_lag14_zscore=18
water_area_km2_lag3_zscore=16
water_area_km2_lag7_zscore=15
evaporation=14
wind_speed=14
humidity_lag2=12
precipitation_zscore=11
precipitation=9
precipitation_7day_sum=9
precip_change_1day=9
humidity_lag1=7
precipitation_30day_sum=7
temperature_7day_avg=7
soil_moisture_zscore=7
precipitation_lag7=6
pressure=5
precipitation_lag1=4
precipitation_14day_sum=4
precip_x_soil_moisture=4
temperature=3
precipitation_lag5=3
soil_moisture=2
precipitation_lag2=2
precipitation_lag3=2
pressure_lag1=2
soil_moisture_7day_avg=2
humidity=1
month=1
soil_moisture_lag2=1
soil_moisture_lag3=1
precipitation_3day_sum=1
pressure_zscore=1
days_since_dry_day=1
days_in_monsoon=1

parameters:
[boosting: gbdt]
[objective: binary]
[metric: auc]
[tree_learner: serial]
[device_type: cpu]
[data_sample_strategy: bagging]
[data: ]
[valid: ]
[num_iterations: 2000]
[learning_rate: 0.03]
[num_leaves: 15]
[num_threads: 0]
[seed: 42]
[deterministic: 0]
[force_col_wise: 0]
[force_row_wise: 0]
[histogram_pool_size: -1]
[max_depth: -1]
[min_data_in_leaf: 5]
[min_sum_hessian_in_leaf: 0.001]
[bagging_fraction: 0.8]
[pos_bagging_fraction: 1]
[neg_bagging_fraction: 1]
[bagging_freq: 5]
[bagging_seed: 400]
[bagging_by_query: 0]
[feature_fraction: 0.9]
[feature_fraction_bynode: 1]
[feature_fraction_seed: 30056]
[extra_trees: 0]
[extra_seed: 12879]
[early_stopping_round: 0]
[early_stopping_min_delta: 0]
[first_metric_only: 0]
[max_delta_step: 0]
[lambda_l1: 0]
[lambda_l2: 0]
[linear_lambda: 0]
[min_gain_to_split: 0]
[drop_rate: 0.1]
[max_drop: 50]
[skip_drop: 0.5]
[xgboost_dart_mode: 0]
[uniform_drop: 0]
[drop_seed: 17869]
[top_rate: 0.2]
[other_rate: 0.1]
[min_data_per_group: 100]
[max_cat_threshold: 32]
[cat_l2: 10]
[cat_smooth: 10]
[max_cat_to_onehot: 4]
[top_k: 20]
[monotone_constraints: ]
[monotone_constraints_method: basic]
[monotone_penalty: 0]
[feature_contri: ]
[forcedsplits_filename: ]
[refit_decay_rate: 0.9]
[cegb_tradeoff: 1]
[cegb_penalty_split: 0]
[cegb_penalty_feature_lazy: ]
[cegb_penalty_feature_coupled: ]
[path_smooth: 0]
[interaction_constraints: ]
[verbosity: -1]
[saved_feature_importance_type: 0]
[use_quantized_grad: 0]
[num_grad_quant_bins: 4]
[quant_train_renew_leaf: 0]
[stochastic_rounding: 1]
[linear_tree: 0]
[max_bin: 255]
[max_bin_by_feature: ]
[min_data_in_bin: 3]
[bin_construct_sample_cnt: 200000]
[data_random_seed: 175]
[is_enable_sparse: 1]
[enable_bundle: 1]
[use_missing: 1]
[zero_as_missing: 0]
[feature_pre_filter: 1]
[pre_partition: 0]
[two_round: 0]
[header: 0]
[label_column: ]
[weight_column: ]
[group_column: ]
[ignore_column: ]
[categorical_feature: ]
[forcedbins_filename: ]
[precise_float_parser: 0]
[parser_config_file: ]
[objective_seed: 16083]
[num_class: 1]
[is_unbalance: 0]
[scale_pos_weight: 6.88806]
[sigmoid: 1]
[boost_from_average: 1]
[reg_sqrt: 0]
[alpha: 0.9]
[fair_c: 1]
[poisson_max_delta_step: 0.7]
[tweedie_variance_power: 1.5]
[lambdarank_truncation_level: 30]
[lambdarank_norm: 1]
[label_gain: ]
[lambdarank_position_bias_regularization: 0]
[eval_at: ]
[multi_error_top_k: 1]
[auc_mu_weights: ]
[num_machines: 1]
[local_listen_port: 12400]
[time_out: 120]
[machine_list_filename: ]
[machines: ]
[gpu_platform_id: -1]
[gpu_device_id: -1]
[gpu_use_dp: 0]
[num_gpu: 1]

end of parameters

pandas_categorical:[]
