tree
version=v4
num_class=1
num_tree_per_iteration=1
label_index=0
max_feature_idx=46
objective=binary sigmoid:1
feature_names=evaporation precipitation pressure soil_moisture temperature wind_speed humidity month is_monsoon avg_elevation_m is_missing_precipitation precipitation_lag1 precipitation_lag2 precipitation_lag3 precipitation_lag5 precipitation_lag7 soil_moisture_lag1 soil_moisture_lag2 soil_moisture_lag3 water_area_km2_lag1 water_area_km2_lag2 water_area_km2_lag3 humidity_lag1 humidity_lag2 pressure_lag1 precipitation_3day_sum precipitation_7day_sum precipitation_14day_sum precipitation_30day_sum soil_moisture_7day_avg temperature_7day_avg precip_change_1day soil_moisture_change_3day pressure_drop_1day precipitation_zscore soil_moisture_zscore temperature_zscore pressure_zscore water_area_km2_lag1_zscore water_area_km2_lag2_zscore water_area_km2_lag3_zscore days_since_heavy_rain days_since_dry_day days_in_monsoon precip_x_soil_moisture precip_7day_x_monsoon pressure_low_x_humidity_high
feature_infos=[-0.0032798359999999999:-6.7600000000000003e-05] [0:387.39999999999998] [84200:100960.1382] [0.079309273:0.42548794699999998] [12.671372059999999:39.160095730000002] [0.093459249999999994:6.9984113209999999] [10.33721231:99.799999999999997] [1:12] [0:1] [109:285] [0:1] [0:387.39999999999998] [0:387.39999999999998] [0:387.39999999999998] [0:387.39999999999998] [0:387.39999999999998] [0.079309273:0.42548794699999998] [0.079309273:0.42548794699999998] [0.079309273:0.42548794699999998] [0:2944.5316029999999] [0:2944.5316029999999] [0:2944.5316029999999] [10.33721231:99.799999999999997] [10.33721231:99.799999999999997] [84200:100960.1382] [0:387.40102823299998] [0:387.403304354] [0:387.51230195899996] [7.539999999999999e-05:387.51705365199996] [0.079462201714285724:0.41599203614285718] [13.479483208571429:38.546001548571425] [-2.9668073929999998:387.39987480499997] [-0.097754610999999991:0.21804014499999999] [-15652.458700000003:16218.517200000002] [-0.26093881762072829:19.641041433593113] [-0.61352273211372166:4.4002502021580954] [-2.2340791729576917:1.7053498440170305] [-15.075479626716291:1.7770783903677048] [-1.3709936860106222:4.4961280293470676] [-1.3687936828060507:4.4912394453999713] [-1.3670738340880599:4.4860856185492768] [0:45] [0:4] [0:121] [0:33.791129644999998] [0:16.844043891999998] [0:6859.2760394199995]
tree_sizes=2022 2477 2681 2686 2795 3235 3472 3452 3368 3463 3460 3449 3457 3461 3446 3473 3242 3363 3244 3353 3451 3458 3467 3355 3454 3458 3460 3453 3460 3457 3234 3433 3466 3455 3104 3458 3435 3442 3458 3437 3460 3472 3246 3370 3458 3454 3442 3448 3455 3466 3438 3448 3437 3446 3429 3460 3454 3449 3413 3475 3485 3453 3465 3466 3455

Tree=0
num_leaves=18
num_cat=0
split_feature=38 38 40 21 39 20 38 9 21 20 31 5 13 2 0 31 0
split_gain=355.72 85.615 142.172 82.073 42.4038 19.6164 10.2782 19.3586 7.69374 4.36659 2.50927 1.90111 0.487459 2.84217e-14 1.42109e-14 1.42109e-14 7.10543e-15
threshold=-0.46107077462814366 0.58698398886598724 -0.35234233538829529 1083.834145 -1.1905113444419244 403.16360405000006 1.021390879112136 197.00000000000003 176.11443550000004 948.83266110000011 -0.43169188949999993 3.8168977750000006 0.00043438000000000005 99245.78290000002 -0.00017886149999999997 0.00010671250000000001 -0.00017886149999999997
decision_type=8 10 10 10 10 10 10 2 8 10 10 2 8 2 2 8 2
left_child=4 2 8 9 -1 -3 7 -7 13 10 -4 14 -8 -2 15 -6 -12
right_child=1 5 3 -5 11 6 12 -9 -10 -11 16 -13 -14 -15 -16 -17 -18
leaf_value=-0.58587841161208321 -0.49594321709315003 -0.61948467338372037 -0.6846311855893974 -0.53834409230834268 -0.71718996710754845 -0.499526807220251 -0.50776479592239609 -0.5856364407907273 -0.54982745510963615 -0.65322017500262786 -0.71718996710754845 -0.68900205235806522 -0.49594321709314992 -0.49594321709314992 -0.71718996710754845 -0.71718996710754845 -0.71718996710754845
leaf_weight=7.2274265289306632 9.0080134570598656 4.8566693961620322 8.7445958554744738 10.612988650798796 14.237497508525843 13.952488720417023 12.688660681247709 12.264025896787643 10.207066655158995 4.4507474005222312 13.107537388801578 6.7336986660957328 27.881946414709091 9.865919500589369 22.599202394485477 16.723409771919254 5.1978165507316598
leaf_count=23 21 17 36 29 63 33 31 39 29 17 58 28 65 23 100 74 23
internal_value=-0.605755 -0.561052 -0.599884 -0.658598 -0.700323 -0.522463 -0.515408 -0.539809 -0.514856 -0.699113 -0.706664 -0.714042 -0.49964 -0.495943 -0.71719 -0.71719 -0.71719
internal_weight=210.36 142.838 71.1947 42.1137 67.5212 71.6438 66.7871 26.2165 29.081 31.5007 27.0499 60.2938 40.5706 18.8739 53.5601 30.9609 18.3054
internal_count=709 421 236 163 288 185 168 72 73 134 117 265 96 44 237 137 81
is_linear=0
shrinkage=1


Tree=1
num_leaves=22
num_cat=0
split_feature=19 39 40 39 19 21 39 31 19 19 18 40 4 40 13 38 40 5 31 38 19
split_gain=316.468 149.86 72.0794 56.3513 21.3509 16.529 14.0216 12.2866 10.5399 3.31094 2.87411 0.717215 0.429273 1.26168 0.00297197 0.00264376 0.00519838 0.000649511 0.000366738 0.000203463 4.30526e-05
threshold=783.95006185000011 -1.2092556695056385 -1.2982731691959561 0.93322838985348178 902.19023095000011 1003.2981230000001 -0.36759308154865766 -1.0000000180025095e-35 383.59549155000008 964.23608560000014 0.23715795800000003 0.78647284170432807 29.074483225000005 1.0378875217303059 0.00022028550000000003 -0.44502014538282458 1.0000000180025095e-35 3.7850128380000005 -0.0021522134999999993 -1.3610542181067864 1206.9611795000003
decision_type=8 10 8 10 10 10 10 10 10 10 10 10 2 10 8 10 10 2 10 10 10
left_child=1 8 -3 5 7 10 -6 -2 -1 -8 11 15 13 -11 -14 17 -17 19 -18 -4 -16
right_child=4 2 3 -5 6 -7 9 -9 -10 12 -12 -13 14 -15 20 16 18 -19 -20 -21 -22
leaf_value=0.054571548451497746 0.021412560474070055 0.13385190060202401 -0.0747615198001048 0.090884892927634839 0.04820831788266422 0.028524618473135328 0.094647752279993488 0.093785580494053097 0.13282787657350384 0.1323891382661018 -0.043854563363371048 -0.054357363024459704 0.13318643565655994 0.10766157715915332 0.13224962772528456 -0.076658371070475753 -0.075054366182134943 -0.075069266587189154 -0.074492668604253562 -0.074406100372454417 0.13210231742092851
leaf_weight=6.4510931521654156 10.522235780954363 5.3285118937492371 4.4269964396953503 6.1800807714462271 6.7295037508010855 4.463976874947547 8.2118851095437986 13.24745039641857 12.919689685106276 14.275801539421083 9.2279644310474378 4.6324361711740485 11.125713586807253 8.0772411376237851 8.9260935783386248 4.5246158391237357 4.4471249133348474 4.4484642446041098 8.3853643238544429 44.524870693683624 11.162491887807844
leaf_count=20 36 12 20 17 21 15 22 36 29 32 39 20 25 20 20 20 20 20 38 202 25
internal_value=0.0329655 -0.0205835 -0.0451073 -0.0551175 0.102579 -0.0652464 0.116745 0.0617479 0.106766 0.124211 -0.0701933 -0.0734172 0.128743 0.123454 0.132531 -0.0746651 -0.0752011 -0.0744908 -0.0746873 -0.0744382 0.132168
internal_weight=212.24 119.961 100.59 95.2619 92.2784 89.0818 68.5087 23.7697 19.3708 61.7792 84.6178 75.3899 53.5673 22.353 31.2143 70.7574 17.3571 53.4003 12.8325 48.9519 20.0886
internal_count=709 472 423 411 237 394 165 72 49 144 379 340 122 52 70 320 78 242 58 222 45
is_linear=0
shrinkage=0.05


Tree=2
num_leaves=24
num_cat=0
split_feature=38 19 21 21 39 20 19 21 32 37 15 12 33 31 19 19 19 31 5 21 3 38 2
split_gain=283.197 81.3899 125.797 39.2961 36.4904 10.7911 12.5607 4.53861 4.40844 2.8035 2.36948 2.33565 0.290473 0.118485 0.0162866 0.0135328 0.00505114 0.000840658 0.000590878 0.000204611 0.000159732 7.71336e-08 1.42109e-14
threshold=-0.46107077462814366 830.75793515000009 432.63187125000007 1083.834145 -1.1905113444419244 442.07272335000005 913.71768330000009 176.11443550000004 -0.015454745499999997 0.6668211885894989 0.074189214500000017 1.0000000180025095e-35 135.54009999999838 7.3780000000000015e-05 737.11940010000012 1023.2780955000002 1428.9787865000003 -0.0056346399999999989 3.7850128380000005 822.3308042000001 0.16725716050000003 -1.3208183856036049 100318.38455000002
decision_type=8 10 10 10 10 10 10 8 8 2 10 8 10 10 8 10 10 10 2 10 2 10 2
left_child=4 2 7 8 -1 -3 -7 -2 -4 12 18 -10 13 15 17 -8 -17 -13 20 -19 21 -6 -23
right_child=1 5 3 -5 10 6 9 -9 11 -11 -12 14 -14 -15 -16 16 -18 19 -20 -21 -22 22 -24
leaf_value=0.048104334259236742 0.12272846751204314 0.038948588614345289 -0.0092157536441365689 0.087511879945705626 -0.072649146787090432 0.062439821665678186 0.12512255041784115 0.079915778498755266 -0.042711130536193943 0.093088341339703076 -0.037334224897008821 -0.073728452530576416 0.11218512833572181 0.11702487071245818 -0.076638751971701335 0.12238971989537151 0.12384114608467581 -0.072644154275850595 -0.07329362089002045 -0.07312567748312214 -0.072974305413872523 -0.072656055730849031 -0.072656055730849031
leaf_weight=7.4478119164705268 17.867720931768421 6.3704906404018393 4.345637708902359 5.6452203392982474 4.5058852583169928 13.328907296061514 9.105581581592558 9.4720332920551282 8.9522674977779442 11.26670068502426 5.1974346041679373 4.3609306812286439 8.7079540342092496 8.9502773582935315 4.5184205919504157 17.428169727325443 9.1368812918663007 4.5055094808340019 4.3359748721122733 4.3228740692138672 4.3137529641389838 31.75940352678299 7.2960791885852805
leaf_count=23 39 20 17 15 21 39 20 26 38 28 22 20 20 20 20 38 20 21 20 20 20 148 34
internal_value=0.031126 0.0692419 0.0267263 -0.0338221 -0.0560212 0.101517 0.106632 0.107896 -0.0559135 0.115751 -0.0695297 -0.0635253 0.120538 0.122168 -0.074048 0.123459 0.122889 -0.0731605 -0.0727347 -0.0728799 -0.0726841 -0.0726553 -0.0726561
internal_weight=213.142 148.286 63.9906 36.6509 64.8563 84.295 77.9245 27.3398 31.0056 64.5956 57.4085 26.66 53.3289 44.6209 17.7077 35.6706 26.5651 13.1893 52.2111 8.82838 47.8751 43.5614 39.0555
internal_count=709 421 216 151 288 205 185 65 136 146 265 119 118 98 81 78 58 61 243 41 223 203 182
is_linear=0
shrinkage=0.05


Tree=3
num_leaves=24
num_cat=0
split_feature=38 19 21 21 39 20 19 20 27 21 0 15 15 13 19 24 13 21 5 12 18 38 3
split_gain=254.728 70.5813 111.59 35.6638 33.9543 9.37999 11.1722 13.1697 4.03362 3.99701 2.64929 2.305 0.364268 1.25988 0.00980559 0.00659897 0.0027441 0.00119922 0.000474085 0.000165312 0.000129956 6.18164e-08 4.1765e-09
threshold=-0.46107077462814366 830.75793515000009 432.63187125000007 1083.834145 -1.1905113444419244 442.07272335000005 964.23608560000014 968.25929485000017 2.3046675600000004 176.11443550000004 -0.00013838549999999996 0.074189214500000017 0.0018169470000000002 0.0024805595000000004 717.6658885500002 99841.663130000015 0.00012454450000000001 852.8591538500001 3.7850128380000005 3.6350000000000009e-05 0.17336225100000005 -1.3208183856036049 0.098021822500000008
decision_type=8 10 10 10 10 10 10 10 10 8 2 10 8 8 10 10 8 8 2 10 10 10 2
left_child=4 2 9 8 -1 -3 7 -7 10 -2 14 18 15 -14 17 16 -8 19 20 -4 21 -6 -23
right_child=1 5 3 -5 11 6 12 -9 -10 -11 -12 -13 13 -15 -16 -17 -18 -19 -20 -21 -22 22 -24
leaf_value=0.045138986625273908 0.11433399086378736 0.036650355277214934 -0.071646867213604901 0.081506982960574847 -0.07106173378711686 0.012516910658998954 0.1150424143044486 0.095337690235976658 -0.010563024424482627 0.074524662084948193 -0.037824774540236236 -0.035963447507502251 0.090970019772992738 0.11442561014875224 -0.074363478713825565 0.11599104952724063 0.11390222808952188 -0.072447904473674038 -0.071647470566704272 -0.071208508775628079 -0.071359296506255776 -0.071068328059734939 -0.071066651669861883
leaf_weight=7.5378023087978354 18.210830688476566 6.4298712611198416 4.2153664529323613 5.7550357133150092 4.1708304286003104 6.978357762098315 9.3264775872230583 15.376301303505896 4.5028693974018088 9.6446358114480955 7.9554247558116939 5.1275659352540961 8.4519148916006106 17.744394719600677 5.0458039790391913 9.3097803890705091 12.153701305389403 4.2728608697652826 4.2168361395597449 4.3911589384078979 4.1940827518701544 33.996599674224854 4.1712268441915503
leaf_count=23 39 20 20 15 20 23 20 38 18 26 34 22 20 38 23 20 26 20 20 21 20 163 20
internal_value=0.0295191 0.0650844 0.025346 -0.0326214 -0.0544741 0.0947333 0.0994405 0.0694839 -0.0542388 0.10055 -0.0618378 -0.0679119 0.111192 0.106858 -0.0724951 0.114879 0.114397 -0.0717632 -0.0711398 -0.0714232 -0.0710938 -0.0710675 -0.0710681
internal_weight=213.18 149.765 63.994 36.1385 63.4149 85.7708 79.3409 22.3547 30.3835 27.8555 25.8806 55.8771 56.9863 26.1963 17.9252 30.79 21.4802 12.8794 50.7496 8.60653 46.5327 42.3387 38.1678
internal_count=709 421 216 151 288 205 185 61 136 65 118 265 124 58 84 66 46 61 243 41 223 203 183
is_linear=0
shrinkage=0.05


Tree=4
num_leaves=25
num_cat=0
split_feature=38 19 21 21 39 20 19 32 21 39 37 15 15 15 19 27 19 31 5 12 23 38 3 1
split_gain=230.194 61.8087 99.6543 32.4608 31.6583 8.3028 10.0977 4.12218 3.61393 2.41598 2.32166 2.25321 0.425172 1.16031 0.048763 0.00415178 0.00323224 0.000912745 0.000382277 0.000220815 0.000105837 4.687e-08 1.01179e-08 7.10543e-15
threshold=-0.46107077462814366 830.75793515000009 432.63187125000007 1083.834145 -1.1905113444419244 442.07272335000005 902.19023095000011 -0.015454745499999997 176.11443550000004 0.54021981772854255 0.6668211885894989 0.074189214500000017 0.00086512400000000021 0.011325275000000001 1023.2780955000002 0.014420800499999891 710.94194205000008 -0.0056346399999999989 3.7850128380000005 0.000229485 70.508001445000005 -1.3208183856036049 0.098021822500000008 0.0012547070000000001
decision_type=8 10 10 10 10 10 10 8 8 8 2 10 10 10 10 10 10 10 2 8 10 10 2 10
left_child=4 2 8 7 -1 -3 -7 -4 -2 16 12 18 14 -14 -8 -16 17 -9 20 -19 21 -6 23 -23
right_child=1 5 3 -5 11 6 10 9 -10 -11 -12 -13 13 -15 15 -17 -18 19 -20 -21 -22 22 -24 -25
leaf_value=0.042431816382730594 0.10738793658181056 0.034530296339752006 -0.0072633271016910158 0.076275508809161743 -0.069617047302021354 0.052153261566562359 0.11206527227695567 -0.070971561923492729 0.069780448617014296 -0.037700219274215054 0.080621679187922762 -0.03464552605586458 0.085368453099956873 0.10819332859396223 0.10852524416761807 0.10714927064177726 -0.071990818359481706 -0.070361848063374907 -0.07015079837295983 -0.069854254736546453 -0.069889414106442907 -0.069623003534523609 -0.069620354867332077 -0.069623003534523609
leaf_weight=7.6156820505857459 18.41339668631554 6.4820145666599265 4.2813168168067932 5.8399207144975653 4.0476455539464942 12.543643608689306 9.3698118627071398 4.5769937336444917 9.7815723419189435 8.0813341736793571 11.591833323240278 5.0582788139581671 8.5293783843517321 16.036615431308746 9.9017647206783312 12.282486110925673 4.2248247414827338 4.1110800355672774 4.094562128186225 4.4746231585741052 4.0714451223611823 27.122815877199173 4.0479428172111502 5.8698631376028052
leaf_count=23 39 20 17 15 20 36 20 22 26 35 28 22 20 34 21 26 20 20 20 22 20 134 20 29
internal_value=0.0281039 0.0614874 0.0241247 -0.0315015 -0.0530379 0.0889632 0.0933596 -0.052658 0.0943409 -0.0602888 0.100993 -0.0664246 0.105201 0.100268 0.109041 0.107763 -0.0707875 -0.0704013 -0.0696882 -0.0700973 -0.0696463 -0.0696222 -0.0696227 -0.069623
internal_weight=212.451 150.523 63.7851 35.5901 61.9282 86.7375 80.2555 29.7502 28.195 25.4689 67.7119 54.3126 56.1201 24.566 31.5541 22.1843 17.3875 13.1627 49.2543 8.5857 45.1597 41.0883 37.0406 32.9927
internal_count=709 421 216 151 288 205 185 136 65 119 149 265 121 54 67 47 84 64 243 42 223 203 183 163
is_linear=0
shrinkage=0.05


Tree=5
num_leaves=29
num_cat=0
split_feature=38 19 21 21 39 20 38 32 19 37 21 40 39 1 40 5 19 39 46 20 13 15 20 5 18 38 29 1
split_gain=204.506 59.5723 85.9349 41.2088 30.2936 12.2349 5.1933 4.65515 3.88251 5.95284 3.60802 2.98495 0.786969 0.702383 0.39779 1.07342 0.0534092 0.0462215 0.00619217 0.00398106 0.0039143 0.00367982 0.000586586 0.000120095 3.78665e-05 1.60669e-08 2.41189e-09 7.10543e-14
threshold=-0.46107077462814366 902.19023095000011 468.99642525000007 1071.2334205000004 -1.3067435657044533 456.5502906000001 0.6449846350814753 -0.015454745499999997 997.94403855000007 -0.50107799179828649 176.11443550000004 0.85013262952469992 -0.18720523156562327 0.0044616525000000006 1.0378875217303059 1.9365525565000004 776.70860985000013 -1.1508707839515437 76.515204274311586 804.05744865000008 0.0060883590000000007 0.032709720000000005 693.80051780000008 3.3123666850000002 0.10921542050000001 -1.3138034120682953 0.092374984428571436 0.0011187320000000001
decision_type=8 10 10 10 8 10 10 8 10 2 8 10 10 8 10 2 10 10 2 10 8 10 10 2 10 10 2 10
left_child=4 2 10 6 -1 -3 7 -4 9 -7 13 16 17 -2 18 -16 19 -6 -10 22 -20 23 -9 24 25 -19 27 -27
right_child=1 5 3 -5 12 8 -8 11 14 -11 -12 -13 -14 -15 15 -17 -18 21 20 -21 -22 -23 -24 -25 -26 26 -28 -29
leaf_value=0.047168740799352737 0.10363571276354913 0.019507568141260312 -0.0067032983013501817 0.065753189370001533 -0.073966267506795955 0.09753863658475849 0.0022042770703643044 -0.06858947207524542 0.10345477497650933 0.039377021420841721 0.060287252574264649 -0.023950681910069681 -0.045909393212913388 0.085651675885402928 0.079681165125159895 0.10193423979414151 -0.075561093910853847 -0.068299654579441538 0.1026763478529944 -0.070575745284949185 0.10131360325578814 -0.069930472116839518 -0.06929968959762324 -0.068605319859394803 -0.068467113772049712 -0.068303265370644781 -0.068301927589054331 -0.06830327315017061
leaf_weight=6.5188601315021515 14.185613840818407 6.3333596587181082 4.2657345086336136 10.528505966067312 4.2415138483047476 9.9260668456554431 4.575730934739112 6.9126593023538714 9.478698670864107 7.9013801515102378 9.6241258233785612 4.0745147466659537 4.0049080997705451 8.7955681383609754 8.5822225511074084 14.703559666872023 4.4123285859823218 3.9228876233100847 9.4820846915245074 4.9425528645515433 11.86083662509918 4.0668849498033515 5.0175579637289047 4.1500634700059882 3.9390472620725623 19.616235792636886 3.9231139719486228 3.9232479333877555
leaf_count=19 30 20 17 28 20 22 16 35 20 22 26 18 19 20 20 31 20 20 20 24 25 20 25 21 20 100 20 20
internal_value=0.0254525 0.0553792 0.0242557 -0.0207444 -0.0544127 0.0861315 -0.0473719 -0.0550291 0.0919973 0.0717606 0.0859892 -0.063158 -0.0671994 0.0967527 0.098665 0.0937326 -0.0706633 -0.0689838 0.102391 -0.0693825 0.101919 -0.0684984 -0.0688882 -0.0683509 -0.068321 -0.0683026 -0.0683031 -0.0683033
internal_weight=213.91 155.603 77.3349 44.7296 58.3068 78.2682 34.2011 29.6253 71.9348 17.8274 32.6053 25.3596 51.7879 22.9812 54.1074 23.2858 21.2851 47.783 30.8216 16.8728 21.3429 43.5415 11.9302 39.4746 35.3245 31.3855 27.4626 23.5395
internal_count=718 439 259 183 279 180 155 139 160 44 76 122 260 50 116 51 104 241 65 84 45 221 60 201 180 160 140 120
is_linear=0
shrinkage=0.05


Tree=6
num_leaves=31
num_cat=0
split_feature=38 19 21 21 39 20 19 31 36 19 37 21 20 1 33 45 39 1 2 21 13 15 39 5 27 38 38 32 32 1
split_gain=186.397 53.219 77.3455 37.5388 28.3059 11.0749 4.9096 3.76589 5.53863 3.6039 4.70771 3.35157 0.787986 0.630486 0.280691 0.108895 0.0379549 0.0107069 0.00818375 0.00318709 0.00316902 0.00254541 0.000842049 0.000166436 5.29179e-05 4.67021e-06 1.01518e-08 6.72019e-09 3.05533e-13 3.55271e-15
threshold=-0.46107077462814366 902.19023095000011 468.99642525000007 1071.2334205000004 -1.3067435657044533 456.5502906000001 807.86884910000015 -1.2077607094999998 0.064599781084596145 1023.2780955000002 -0.50107799179828649 176.11443550000004 551.08282875000009 0.0044616525000000006 135.54009999999838 0.28914050600000002 -1.1508707839515437 0.0036302630000000003 99995.109300000011 857.21182255000008 0.00033680500000000008 0.021342429000000003 0.448597657700811 3.4015071215000003 0.72246597200000007 -0.62590951298146713 -1.3165054923746859 -0.0020166494999999947 0.00016514449999999878 1.0650000000000001e-05
decision_type=8 10 10 10 8 10 10 10 2 10 2 8 10 8 10 10 10 10 2 10 8 10 10 2 10 8 10 10 10 10
left_child=4 2 11 6 -1 -3 7 8 -4 10 -7 13 16 -2 15 18 -6 19 20 22 -11 23 -9 24 25 26 -18 -28 29 -29
right_child=1 5 3 -5 12 9 -8 17 -10 14 -12 -13 -14 -15 -16 -17 21 -19 -20 -21 -22 -23 -24 -25 -26 -27 27 28 -30 -31
leaf_value=0.044418713854745384 0.098382307533328217 0.018468804446073777 0.0071422139974125628 0.06191835552482991 -0.072309509124373172 0.092631090726473533 -0.0071593165891653309 -0.067282756930053617 -0.07064530361892335 0.097695825663404304 0.045229691559483143 0.056817273610201904 -0.044359797509797759 0.081347088194208758 0.086509682661401119 0.091437507355698319 -0.067091653583443475 -0.071069400096228211 0.098817826950095333 -0.069346346359733108 0.096525572561645623 -0.068495324390488374 -0.06823469052989492 -0.067471816641686375 -0.067290933973873951 -0.067153307696857192 -0.067092529162323014 -0.067094831717950013 -0.067094848017455119 -0.067094832413254188
leaf_weight=6.5748153626918793 14.195352375507357 6.354532614350318 4.8701644539833051 10.619048386812208 4.1247214525938025 10.917390793561937 6.5574169456958762 5.7248049229383522 4.3165946453809738 10.905293315649034 10.068999305367468 9.6992354542016965 3.9110133349895468 8.797748997807501 9.0332873016595823 9.2553660273551923 3.7970566451549521 4.1239030957221976 9.4874410033225995 4.0112704038619986 12.321121513843535 3.9329061210155478 3.9095357358455658 3.8372923433780661 4.1998650580644599 3.8036237806081798 3.7971518784761455 7.2150662243366295 3.7974048852920523 7.7846768349409103
leaf_count=19 30 20 20 28 20 24 24 30 21 23 27 26 19 20 20 20 20 20 20 20 26 20 20 20 22 20 20 38 20 41
internal_value=0.0243831 0.0527465 0.0231765 -0.0200031 -0.0531344 0.0817434 -0.0459605 -0.0553994 -0.0294079 0.0873287 0.0698885 0.0814664 -0.065911 0.0918642 0.0945049 0.0962258 -0.0677319 -0.0688368 0.0975805 -0.0681621 0.097075 -0.0672841 -0.067669 -0.0671595 -0.0671246 -0.0671015 -0.067094 -0.0670944 -0.0670948 -0.0670948
internal_weight=211.944 155.169 76.8251 44.1327 56.7756 78.3434 33.5137 26.9563 9.18676 71.9889 20.9864 32.6923 50.2008 22.9931 51.0025 41.9692 46.2898 17.7695 32.7139 13.6456 23.2264 42.165 9.63434 38.2321 34.3948 30.195 26.3914 22.5943 18.7971 14.9997
internal_count=718 439 259 183 279 180 155 131 41 160 51 76 260 50 109 89 241 90 69 70 49 221 50 201 181 159 139 119 99 79
is_linear=0
shrinkage=0.05


Tree=7
num_leaves=31
num_cat=0
split_feature=38 19 21 21 20 39 21 38 32 19 37 5 30 12 5 5 19 31 39 36 15 15 39 39 5 12 6 39 26 19
split_gain=170.649 53.2446 73.3318 35.8643 10.1212 6.57555 5.48086 4.99965 4.73106 3.43224 4.90507 1.6497 1.5107 0.818743 0.399576 1.02477 0.0400471 0.00515473 0.00366281 0.00324636 0.00244092 0.00115873 0.000893673 0.000273003 6.53814e-05 7.79561e-07 2.90086e-08 2.36282e-09 3.69269e-10 2.251e-11
threshold=-0.56261905258298583 902.19023095000011 462.25196260000007 1071.2334205000004 456.5502906000001 -1.2092556695056385 238.32762220000004 0.6449846350814753 -0.016277197000000018 997.94403855000007 -0.50107799179828649 2.6176818380000006 28.604964517142861 0.13268071850000004 1.8001338205000001 1.1593516565000004 750.64888495000014 0.0021013880000000005 -1.1356686196106169 0.42593401920672275 0.013904775000000003 0.00037744900000000002 0.24686164799481267 -0.26456555201078996 3.2455647335000006 0.086168537000000017 60.019408785000003 -1.06240470508702 0.00044797200000044413 257.71432060000001
decision_type=8 10 10 10 10 8 10 10 8 10 2 2 2 10 2 2 8 8 10 2 10 8 10 8 2 8 2 10 10 10
left_child=5 2 6 7 -3 -1 12 8 -4 10 -6 16 -2 18 15 -11 17 22 -7 -16 23 -21 -10 24 25 26 27 -20 -29 -30
right_child=1 4 3 -5 9 13 -8 -9 11 14 -12 -13 -14 -15 19 -17 -18 -19 20 21 -22 -23 -24 -25 -26 -27 -28 28 29 -31
leaf_value=-0.00082404634040751179 0.072198371807364867 0.017491555755394 -0.0038456431437358589 0.058452472748222656 0.087633055338814977 -0.067835510936130022 0.040334500088682973 0.0027068463118349213 -0.066098324298999339 0.093381724012416623 0.03495935188798216 -0.039445637816516416 0.095805342356935552 -0.041981009569668111 0.093629710274575395 0.070838395786099337 -0.07265921245291769 -0.06851245606943758 -0.065983891603627942 0.092249404008863667 -0.067403117422147427 0.092990073396816642 -0.067006876560521497 -0.066470664605361121 -0.066212760221248779 -0.066009098913113726 -0.065980151623243263 -0.065984878230146191 -0.06598551010453535 -0.065985357827340205
leaf_weight=4.4950947910547256 13.027942270040514 6.3735735416412345 4.1653520911931992 10.684441864490507 9.9671973288059252 3.8075625002384177 9.4886702597141248 4.5637361407279959 5.3414526283741033 12.271958947181703 7.9410399943590155 6.5746464580297461 14.124439895153044 3.763670250773429 11.805391073226927 8.5557624250650388 4.2080573439598075 4.905410155653958 3.6711883395910325 11.307699322700502 3.8183124959468833 9.9067906439304334 5.486760139465332 3.727094739675521 3.6975261420011512 3.6740826815366736 3.6707451939582816 3.6713050752878251 7.1591906249523145 3.6713618338108063
leaf_count=15 31 20 17 28 22 20 28 16 29 26 22 32 30 19 25 20 20 25 20 24 20 21 29 20 20 20 20 20 39 20
internal_value=0.0234146 0.0482874 0.0202916 -0.0217946 0.0778747 -0.0584469 0.0730469 -0.046121 -0.0533839 0.0832381 0.064276 -0.0611657 0.0844785 -0.0642896 0.0895444 0.0841212 -0.0683266 -0.0671678 -0.0663593 0.0929651 -0.0662064 0.0925953 -0.0665587 -0.0660677 -0.0660163 -0.0659878 -0.0659842 -0.065985 -0.0659853 -0.0659855
internal_weight=209.527 160.7 82.5709 45.9299 78.1294 48.8271 36.6411 35.2454 30.6817 71.7558 17.9082 26.5163 27.1524 44.332 53.8476 20.8277 19.9417 15.7336 40.5684 33.0199 36.7608 21.2145 10.8282 32.9425 29.2154 25.5179 21.8438 18.173 14.5019 10.8306
internal_count=718 465 285 196 180 253 89 168 152 160 44 135 61 238 116 46 103 83 219 70 199 45 58 179 159 139 119 99 79 59
is_linear=0
shrinkage=0.05


Tree=8
num_leaves=30
num_cat=0
split_feature=19 19 40 20 39 20 40 19 37 40 6 42 7 12 39 20 6 28 18 46 20 11 39 37 32 23 25 28 12
split_gain=154.934 44.0032 63.4651 29.7243 23.8209 9.32973 8.90052 3.25093 4.49019 3.17786 2.47214 1.25674 0.388928 0.282709 0.0967919 0.0498488 0.0480834 0.00925213 0.00612254 0.00551007 0.00154883 0.00108912 0.000426014 0.000123074 8.90465e-06 4.83279e-07 8.18273e-08 1.36259e-09 9.87121e-11
threshold=383.59549155000008 902.19023095000011 -0.42361514783564852 935.88003535000018 -1.3207259705426668 456.5502906000001 0.89279576596443289 997.94403855000007 -0.50107799179828649 -0.92945825869395382 68.94525314000002 1.0000000180025095e-35 8.5000000000000018 0.0036302630000000003 1.6067701452017975 89.544234880000019 57.205513245000006 0.021172295500000004 0.21655073750000003 107.06772819295819 765.18521800000008 0.0017201855000000003 -0.25496277661255223 -0.77849317279141761 0.00023717149999999412 30.017052165000006 0.0021712220000000139 0.065253454500000016 0.00010579300000000001
decision_type=8 10 10 10 8 10 10 10 2 8 2 10 2 8 10 10 2 10 10 2 10 8 10 2 8 10 10 10 8
left_child=4 2 9 6 -1 -3 10 8 -7 13 16 15 14 -2 19 -6 17 -4 22 -9 -19 -21 23 -17 25 -25 27 28 -27
right_child=1 5 3 -5 11 7 -8 12 -10 -11 -12 -13 -14 -15 -16 18 -18 20 -20 21 -22 -23 -24 24 -26 26 -28 -29 -30
leaf_value=0.047855560171893352 0.091150858895845399 0.016571277193690902 -0.068635297150269489 0.046440206887698871 -0.071116576095383119 0.083604883555385437 -0.0034102893679009553 0.090558556034392501 0.033176109171635271 0.049677057293923466 -0.025677437390447741 -0.043629041828593521 0.078259994872388411 0.07978138850192508 0.083693416678700006 -0.065270027703656849 -0.073017257128968546 -0.065348117206564013 -0.067221527190297795 0.089519710195487212 -0.066654285354030757 0.088807695604745052 -0.065547609854381308 -0.064982255202248693 -0.065049766086825972 -0.064964744483200457 -0.064956389769946485 -0.064963401718710276 -0.064964384548607618
leaf_weight=5.4590912610292435 13.108524173498155 6.3906948566436759 4.6215795427560868 13.30451315641403 4.1363997459411612 9.925971522927286 10.070978328585623 9.3824700713157672 7.9492459893226615 7.9770862013101604 4.2232545465230933 7.5061699748039237 12.916751593351362 9.3801270574331266 9.1267543584108335 4.2992136031389228 4.0145105123519889 5.3856615424156171 3.7920343577861777 9.3570184111595172 3.9226136803627014 12.60708251595497 4.5205264538526562 3.5479695498943356 3.7342156171798733 3.9003761857748049 4.7853813618421546 3.7229062765836716 3.7230381667613983
leaf_count=15 28 20 24 39 21 22 39 20 22 22 19 38 29 21 20 24 20 30 20 20 21 27 25 20 21 22 27 21 21
internal_value=0.0225265 0.0479742 0.0209296 -0.0164384 -0.0510781 0.0744451 -0.0423877 0.0796349 0.0611788 0.0767909 -0.0600956 -0.0624082 0.0858141 0.0864086 0.0882249 -0.065918 -0.068196 -0.0668065 -0.0653211 0.0895443 -0.0658986 0.089111 -0.0650975 -0.0650241 -0.064979 -0.0649655 -0.0649619 -0.0649642 -0.0649646
internal_weight=206.792 153.665 76.0088 45.5431 53.1273 77.656 32.2386 71.2653 17.8752 30.4657 22.1676 47.6682 53.3901 22.4887 40.4733 40.1621 17.9444 13.9299 36.0257 31.3466 9.30828 21.9641 32.2336 27.7131 23.4139 19.6797 16.1317 11.3463 7.62341
internal_count=718 443 263 192 275 180 153 160 44 71 114 260 116 49 87 222 95 75 201 67 51 47 181 156 132 111 91 64 43
is_linear=0
shrinkage=0.05


Tree=9
num_leaves=31
num_cat=0
split_feature=38 19 21 21 39 20 40 16 19 12 34 12 19 20 33 19 40 39 46 14 29 13 38 20 5 44 25 20 27 7
split_gain=143.939 39.0747 58.1913 29.7492 23.7271 8.661 4.47145 4.35902 3.11648 3.82438 2.73692 1.55054 1.41269 0.842261 0.26463 0.120295 0.0991933 0.0274893 0.00468278 0.00257509 0.0020624 0.000934569 0.000558889 0.00030302 0.00020247 9.08064e-05 5.22506e-06 1.74991e-07 5.21626e-08 3.76119e-10
threshold=-0.46107077462814366 902.19023095000011 468.99642525000007 1071.2334205000004 -1.3067435657044533 456.5502906000001 0.99232770922885094 0.21655073750000003 1023.2780955000002 0.0016117565000000002 -0.26068936272307697 1.0000000180025095e-35 557.41985195000018 551.08282875000009 135.54009999999838 776.70860985000013 1.798095625116376 -1.1508707839515437 76.515204274311586 0.0034659575000000006 0.23299125592857142 0.0028903875000000005 -0.60748822669889013 715.15715680000005 3.2909116675000001 0.014929008524407332 0.011764049500000016 130.85164130000001 0.030929388000000006 8.5000000000000018
decision_type=8 10 10 10 8 10 10 10 10 8 10 8 8 10 10 10 10 10 2 8 2 8 10 10 2 8 10 10 10 2
left_child=4 2 10 6 -1 -3 7 11 9 -7 -2 -4 -12 17 16 19 18 -6 -10 23 22 -20 24 -13 25 26 27 -19 29 -29
right_child=1 5 3 -5 13 8 -8 -9 14 -11 12 15 -14 -15 -16 -17 -18 20 21 -21 -22 -23 -24 -25 -26 -27 -28 28 -30 -31
leaf_value=0.038248042711509056 0.045728669874702942 0.015703885399211633 -0.038593151997076663 0.053916112499086538 -0.06877687782085222 0.035311376576186715 0.00063789659364606221 -0.0035648554254395651 0.08705426602813611 0.078635369354115192 0.066633284833259684 -0.064169125709043706 0.090790742236894373 -0.039533756637079413 0.075371017236014248 -0.074902975935207117 0.080286314335288447 -0.064008566958309643 0.086125801668999968 -0.066028242885933314 -0.065424933979133057 0.085454734811445762 -0.064792232790965784 -0.064821184435196383 -0.064458311124435883 -0.064261340396236627 -0.06407946650208042 -0.064022660379203233 -0.064015865149280926 -0.064023268794887803
leaf_weight=6.6683811694383621 7.9757439643144599 6.4060873538255683 6.3987660855054953 10.733517274260519 3.7966738045215598 8.8708294332027453 5.0582540929317465 4.1448895037174216 11.13354676961899 11.963588640093802 11.376829832792284 3.4390245079994175 12.92946547269821 3.6045330613851538 8.8238247632980329 4.2728272527456275 9.0122582018375379 3.4191330373287299 10.165184766054155 4.5586024522781381 3.7776667326688758 10.596726447343825 3.5087359249591854 3.6971621215343475 3.9988612681627265 5.3526711016893378 4.4572739452123633 4.6184554249048215 3.4201435744762412 5.6449162364006042
leaf_count=19 21 20 32 28 20 24 20 17 24 27 27 20 28 19 20 20 20 20 22 25 21 23 20 21 23 31 26 27 20 33
internal_value=0.0217033 0.0463784 0.0205873 -0.0179932 -0.0498456 0.0713697 -0.0424421 -0.0506615 0.0764231 0.060189 0.0711439 -0.0593894 0.0794836 -0.0627284 0.0832242 -0.0677232 0.0849182 -0.0647192 0.0862269 -0.0650999 -0.0643159 0.0857833 -0.0641942 -0.0645069 -0.0641263 -0.064077 -0.0640313 -0.0640187 -0.0640212 -0.064023
internal_weight=203.825 151.557 74.5851 42.303 52.2674 76.972 31.5695 26.5113 70.566 20.8344 32.282 22.3664 24.3063 45.5991 49.7315 15.9676 40.9077 41.9945 31.8955 11.6948 38.1979 20.7619 34.4202 7.13619 30.9115 26.9126 21.5599 17.1026 13.6835 10.2634
internal_count=718 439 259 183 279 180 155 135 160 51 76 118 55 260 109 86 89 241 69 66 221 45 200 41 180 157 126 100 80 60
is_linear=0
shrinkage=0.05


Tree=10
num_leaves=31
num_cat=0
split_feature=38 19 21 21 39 38 39 40 21 38 39 15 37 39 22 30 1 39 25 6 15 12 38 26 5 1 20 30 28 14
split_gain=125.941 28.7053 43.736 45.7833 26.6109 8.21496 6.64427 3.18888 3.0592 2.76229 4.72382 2.856 2.05505 0.883269 0.750728 0.471513 0.129525 0.0360378 0.0254263 0.0166439 0.00356179 0.00223763 0.000813833 0.000113323 3.51414e-05 3.79165e-05 5.01348e-07 2.21548e-08 1.87147e-09 1.54792e-11
threshold=-0.46107077462814366 968.25929485000017 481.48611050000005 1071.2334205000004 -1.3067435657044533 0.70574081522993193 -0.23049479654006186 -0.6578248844189768 748.16053210000007 0.43555747536558115 0.54021981772854255 1.3295717385000001 -0.085494180537285705 -0.28125286297771707 63.411000355000006 28.848302222142863 0.0021269840000000006 -1.1557910217726921 0.00036290400000005464 60.266859995000011 0.032709720000000005 0.00012693100000000002 -0.59197960393177229 0.346071501 3.3123666850000002 0.078199212000000004 134.64752830000003 30.887322285714291 0.12703966100000003 3.0050000000000002e-05
decision_type=8 10 8 8 8 10 10 10 8 10 8 8 2 10 10 2 10 8 10 2 10 8 10 10 2 8 10 2 10 10
left_child=4 2 7 5 -1 9 -3 15 13 10 11 19 -5 17 16 -2 18 -6 -8 21 22 -4 23 24 25 26 -19 28 29 -28
right_child=1 6 3 12 8 -7 14 -9 -10 -11 -12 -13 -14 -15 -16 -17 -18 20 -20 -21 -22 -23 -24 -25 -26 -27 27 -29 -30 -31
leaf_value=0.047603087415915346 0.072946956994594345 0.026993085207302314 -0.065210624871732681 0.080414936517882563 -0.069018468520544038 0.022679107104639593 0.086055788224625729 0.047420041961636454 -0.01433514067142685 -0.075294755431728561 -0.0044275048331313916 -0.015013170843111552 0.046204388215997809 -0.037671892044588567 0.06925594309467055 0.086456385447102949 0.077699417709291466 -0.063130720483093428 0.083152392794300312 -0.068370520746904029 -0.064970683463003664 -0.063472352916079541 -0.064060416806234505 -0.063499697048991707 -0.063352569062442896 -0.063332127247610545 -0.06315361599046114 -0.063148642460093871 -0.063152278701413433 -0.063153769187515849
leaf_weight=6.8907568007707596 12.971308499574663 6.8046581745147696 3.9212649762630463 9.1790544241666812 3.2416857779026031 5.1545949429273596 14.714758902788164 10.894866645336149 3.702805131673812 6.2447682023048392 7.2274293750524548 3.6472754627466211 8.4133832156658155 3.4838971197605124 13.309027895331381 12.864795804023741 8.8843225687742216 3.4593058079481258 15.466676801443098 4.0619487762451172 3.709073841571807 3.5072835385799408 3.4074048548936871 3.6821165680885306 3.3265552371740332 3.3236946910619727 3.2979853302240354 3.626982554793357 3.6275686174631119 3.2980076968669891
leaf_count=19 30 20 22 21 17 16 32 29 19 31 32 18 22 19 31 28 20 21 34 21 21 21 20 22 20 20 20 22 22 20
internal_value=0.0229076 0.046541 0.0284474 -0.00134794 -0.0439234 -0.0354246 0.0734731 0.0701069 -0.0578806 -0.045893 -0.0376834 -0.0535613 0.0640541 -0.0617674 0.0795119 0.0796738 0.0830059 -0.0639765 0.0845679 -0.0657971 -0.0635063 -0.0643899 -0.0633313 -0.0632414 -0.0632018 -0.0631774 -0.0631477 -0.063152 -0.0631532 -0.0631537
internal_weight=199.345 147.267 88.088 51.357 52.0778 33.7646 59.1794 36.731 45.1871 28.61 22.3652 15.1378 17.5924 41.4843 52.3748 25.8361 39.0658 38.0004 30.1814 11.4905 34.7587 7.42855 31.0496 27.6422 23.9601 20.6335 17.3099 13.8505 10.2236 6.59599
internal_count=710 428 291 204 282 161 137 87 263 145 114 82 43 244 117 58 86 225 66 64 208 43 187 167 145 125 105 84 62 40
is_linear=0
shrinkage=0.05


Tree=11
num_leaves=31
num_cat=0
split_feature=38 19 21 21 39 0 40 39 15 32 21 37 38 20 39 19 40 19 39 38 31 15 30 38 26 5 1 20 30 28
split_gain=115.669 26.486 41.8141 40.0362 24.8209 7.87362 11.2997 6.45808 4.13486 3.26433 2.98996 2.46187 1.9886 2.49459 0.880775 0.502643 0.971838 0.321736 0.030013 0.00755822 0.00358238 0.00294498 0.00179327 0.000676878 9.36836e-05 2.90557e-05 3.135e-05 4.14263e-07 1.83211e-08 1.54805e-09
threshold=-0.46107077462814366 973.34844510000005 490.24161535000002 1071.2334205000004 -1.3067435657044533 -0.00017453149999999999 0.89279576596443289 -0.23049479654006186 0.086168537000000017 -1.3799500000008512e-05 748.16053210000007 -0.085494180537285705 0.39802252287891804 9.5044503850000019 -0.28125286297771707 1118.3146570000001 1.0541387679756871 757.79221385000017 -1.1557910217726921 2.0995940977569405 0.00042838600000000006 0.032709720000000005 28.848302222142863 -0.59197960393177229 0.346071501 3.3123666850000002 0.078199212000000004 134.64752830000003 30.887322285714291 0.12703966100000003
decision_type=8 10 8 8 8 2 10 10 8 10 8 2 10 10 10 10 8 10 8 10 8 10 2 10 10 2 8 10 2 10
left_child=4 2 9 5 -1 8 -7 -3 17 12 14 -5 13 -2 18 16 -9 20 -6 22 -4 23 -17 24 25 26 27 -20 29 -29
right_child=1 7 3 11 10 6 -8 15 -10 -11 -12 -13 -14 -15 -16 19 -18 -19 21 -21 -22 -23 -24 -25 -26 -27 -28 28 -30 -31
leaf_value=0.045002160043141282 0.081458314259844011 0.025615453870152502 -0.06350914790227026 0.076797087817816245 -0.067789499372237702 -0.042687764279355833 0.056392112589814483 0.082149430535035914 -0.024672307735469065 0.039132910057383362 -0.013725018071683399 0.039581944968185304 0.091997613720100652 0.044159259480635413 -0.036555415301190823 0.081163902953784187 0.058653397211109438 -0.081030574808164502 -0.062327398318135767 0.082236290890514763 -0.065554268645083 -0.064031247780621692 0.080243973664158724 -0.063190728373015412 -0.062669194222972777 -0.062532926081381765 -0.062513985492481286 -0.062348676244859028 -0.062343996815409156 -0.062347365983524916
leaf_weight=6.9236586689949036 10.322915077209478 6.811890020966529 4.9882080405950591 9.1320064961910266 3.1380602270364761 6.9444278627634031 4.913862869143486 9.0150192677974683 8.2220950722694379 7.829746574163436 3.6747688949108115 8.6563387513160688 11.23822909593582 7.9235610216855994 3.4126227200031272 8.9769790470600146 8.5985586047172564 4.348322093486785 3.3319245874881878 10.820083796977995 3.7518209666013691 3.5786232948303214 12.924920529127119 3.284695208072665 3.5477710068225852 3.2047362476587287 3.2019187659025183 6.3532496094703657 3.4934868216514579 3.4940634071826935
leaf_count=19 23 20 30 21 17 36 16 20 38 21 19 23 24 21 19 20 21 20 21 24 21 21 29 20 22 20 20 40 22 22
internal_value=0.0221226 0.0447857 0.0276163 -0.00183179 -0.042958 -0.034288 -0.00163084 0.0713061 -0.0524602 0.067831 -0.0568889 0.0586871 0.0754519 0.0652611 -0.0608503 0.0774894 0.0706792 -0.0699165 -0.0631138 0.0811551 -0.0643871 -0.0626757 0.080621 -0.0625135 -0.06243 -0.0623932 -0.0623707 -0.0623432 -0.0623471 -0.0623482
internal_weight=196.059 145.419 88.2715 50.9571 50.6396 33.1687 11.8583 57.1475 21.3104 37.3145 43.7159 17.7883 29.4847 18.2465 40.0412 50.3356 17.6136 13.0884 36.6285 32.722 8.74003 33.4905 21.9019 29.9118 26.6272 23.0794 19.8746 16.6727 13.3408 9.84731
internal_count=710 428 294 205 282 161 52 134 109 89 263 44 68 44 244 114 41 71 225 73 51 208 49 187 167 145 125 105 84 62
is_linear=0
shrinkage=0.05


Tree=12
num_leaves=31
num_cat=0
split_feature=38 19 40 40 39 20 39 29 34 39 40 22 15 19 19 35 30 14 39 39 39 5 31 5 25 33 34 19 2 28
split_gain=106.359 24.5444 37.797 37.4725 23.3416 21.4607 6.17304 5.72197 3.62754 3.32608 16.1455 2.4885 2.4038 0.540393 0.488343 0.976331 0.368682 0.00674993 0.00270036 0.00198437 0.00154915 0.00124378 0.000731891 0.000288618 9.95796e-05 2.77326e-05 6.57643e-06 2.05568e-07 3.61163e-08 2.42993e-09
threshold=-0.46107077462814366 973.34844510000005 -0.11720098287285034 0.87776657080853659 -1.2092556695056385 842.03471425000009 -0.23049479654006186 0.23691773778571432 -0.25566690575333978 0.90764285201104966 -0.92945825869395382 36.859883880000005 0.074189214500000017 813.63578935000021 1118.3146570000001 -0.39920472016633707 28.604964517142861 0.0190134185 -0.26456555201078996 0.43449740232651135 -1.1220883705701177 1.9365525565000004 -0.00014583899999999996 3.6986048625000003 0.23498466450000002 -123.37720500000431 -0.26068936272307697 278.6349060500001 99294.273365000015 0.12703966100000003
decision_type=8 10 8 8 10 8 10 2 10 8 8 10 10 10 10 2 2 8 10 10 10 2 10 2 10 10 10 8 2 10
left_child=4 2 9 7 -1 -5 -3 11 -7 10 16 -4 18 19 15 -8 -2 21 20 22 -6 -16 -13 24 25 -22 -27 28 -28 -30
right_child=1 6 3 5 12 8 14 -9 -10 -11 -12 13 -14 -15 17 -17 -18 -19 -20 -21 23 -23 -24 -25 -26 26 27 -29 29 -31
leaf_value=0.033752919325606694 0.068066758563648563 0.024317165292654784 -0.025525424956005689 -0.044617345166419679 -0.062741422436994626 0.036356794760740191 0.079908902031742168 0.00067023593343968724 0.08138082133195837 0.090854295115785591 -0.017232061653752094 -0.063258594173534091 -0.023862105941532954 -0.084571205394702018 0.0786185639002729 0.056160406399486211 0.080767558172917198 0.079672741911305231 -0.063212891569894389 -0.064161368012641259 -0.06176669575950549 0.07782594170185575 -0.062257790791717817 -0.062187381962018944 -0.061942101072510983 -0.061667199971544899 -0.061595182074179092 -0.061584649939863206 -0.061602384329036225 -0.061600500643068115
leaf_weight=8.4210435599088651 10.566172897815706 6.8166619539260855 4.2272308468818727 5.7486588805913952 4.4586500525474539 6.9554932564497038 8.8620866835117358 5.0087761282920829 12.537771537899967 8.8935958445072156 5.988265514373782 3.294439077377322 4.6550961881875983 4.0538170337676993 8.7858678400516528 8.4584319144487363 12.442241400480269 11.939410448074339 4.293679594993594 3.4116250574588776 3.5454883426427903 11.334465146064757 4.1006104350089982 3.1410976946353903 3.1112250089645377 4.2949766367673972 3.3618366122245718 3.0544814467430124 3.6688795685768127 3.2099447548389435
leaf_count=25 25 20 21 26 28 20 20 21 29 19 21 20 25 18 20 21 28 27 26 20 23 26 26 20 20 28 22 20 24 21
internal_value=0.0213864 0.0431496 0.0265477 -0.00229534 -0.0420355 0.0402792 0.0689191 -0.0468936 0.0653156 0.0641053 0.055901 -0.0593748 -0.0576799 -0.0690036 0.0750762 0.0683114 0.074935 0.0787309 -0.0620358 -0.0631638 -0.0618771 0.0781721 -0.0627036 -0.0617364 -0.061678 -0.0616391 -0.0616134 -0.061596 -0.0615994 -0.0616015
internal_weight=192.642 143.426 87.2287 49.3384 49.2164 25.2419 56.1969 24.0965 19.4933 37.8903 28.9967 19.0877 40.7954 14.8605 49.3803 17.3205 23.0084 32.0597 36.1403 10.8067 31.8466 20.1203 7.39505 27.3879 24.2468 21.1356 17.5901 13.2951 10.2407 6.87882
internal_count=710 428 294 201 282 75 134 126 49 93 74 105 257 84 114 41 53 73 232 66 206 46 46 178 158 138 115 87 67 45
is_linear=0
shrinkage=0.05


Tree=13
num_leaves=31
num_cat=0
split_feature=38 39 19 21 20 33 33 39 37 32 14 5 38 20 19 25 21 39 14 20 27 35 5 38 42 20 12 20 27 1
split_gain=97.9727 27.2623 22.7718 34.8963 35.1868 12.6536 7.55511 5.92874 3.59991 3.00849 2.66328 2.30812 1.64698 2.38329 0.479124 0.966081 0.158312 0.024862 0.00538686 0.00534921 0.00421015 0.00158592 0.000982579 0.000196983 9.38238e-05 3.86339e-05 3.7095e-06 3.90155e-07 2.99684e-08 9.62936e-10
threshold=-0.46107077462814366 -1.3067435657044533 973.34844510000005 490.24161535000002 871.31939865000015 -25.82690000000002 7.4340349999984037 -0.23049479654006186 1.1004735454493269 -1.3799500000008512e-05 0.0072558785000000009 3.8168977750000006 0.39802252287891804 9.5044503850000019 1118.3146570000001 0.0026849470000000282 943.15072610000004 -1.1508707839515437 0.0190134185 537.91283735000013 0.03733901049999995 1.0458739621492346 1.9365525565000004 -0.61114929786816485 1.0000000180025095e-35 407.61725670000004 0.0034659575000000006 130.85164130000001 0.022982151500000002 3.1850000000000008e-05
decision_type=8 10 10 8 8 8 8 10 2 10 10 2 10 10 10 10 8 8 8 10 10 2 2 10 10 10 10 10 8 10
left_child=1 -1 3 9 8 -6 -7 -4 10 12 16 17 13 -2 15 -9 20 -3 22 21 -5 23 -16 24 25 26 27 -19 29 -29
right_child=2 11 7 4 5 6 -8 14 -10 -11 -12 -13 -14 -15 18 -17 -18 19 -20 -21 -22 -23 -24 -25 -26 -27 -28 28 -30 -31
leaf_value=0.047257987260962434 0.077068014724273201 -0.065972162926554154 0.023092100889418522 -0.062118763950655832 -0.024562748616354935 0.087504068229535326 0.025496109819871372 0.077798437747012714 -0.0012233001684067712 0.034977077646894991 -0.028463151121157489 -0.025889575617821344 0.085421339230535534 0.04013407018418947 0.076455489049566366 0.05395713167289562 -0.074491156601512856 -0.060886014146260305 0.077409871584602219 -0.063248625745494738 -0.064383311960932152 -0.062225728374378945 0.075742795757176878 -0.061404941903105914 -0.061243761501546215 -0.061108774759349963 -0.060963562190887111 -0.060907574803207243 -0.060902432607990026 -0.060908755566763617
leaf_weight=7.3758226037025443 9.9046718776226097 3.263444721698761 6.8193022012710562 5.3065734058618581 6.020353376865387 10.415160998702049 9.2974497079849279 8.6857374310493487 3.8688813894987097 7.678975597023963 6.7952662557363501 5.1189165562391272 10.986459761857985 7.8134370893239966 8.5877230763435417 8.3184510171413404 4.5789796411991128 3.0833311676979198 11.680543303489683 3.4584080278873435 3.3470044136047363 3.1463725119829169 11.070559769868849 3.1651283949613598 2.9956781417131415 2.9731929749250403 2.9497350305318824 3.3812980353832218 3.3802731484174737 3.5285558104515076
leaf_count=20 23 19 20 34 24 23 30 20 17 21 33 30 24 21 20 21 24 21 27 21 20 20 26 21 20 20 20 23 23 24
internal_value=0.020709 -0.0411455 0.0416608 0.0255793 -0.00168908 0.0388817 0.058258 0.0667363 -0.0453774 0.0627752 -0.0539069 -0.0572676 0.0702117 0.0607807 0.0728928 0.0661353 -0.0669729 -0.0618145 0.0765594 -0.0613913 -0.0629946 -0.0611667 0.0760541 -0.0610358 -0.0609834 -0.060943 -0.0609128 -0.0609016 -0.0609063 -0.0609082
internal_weight=188.996 47.8202 141.176 86.0132 49.6297 25.733 19.7126 55.1623 23.8967 36.3835 20.0278 40.4443 28.7046 17.7181 48.343 17.0042 13.2326 35.3254 31.3388 32.062 8.65358 28.6036 19.6583 25.4572 22.2921 19.2964 16.3232 13.3735 10.2901 6.90985
internal_count=710 282 428 294 205 77 53 134 128 89 111 262 68 44 114 41 78 232 73 213 54 192 46 172 151 131 111 91 70 47
is_linear=0
shrinkage=0.05


Tree=14
num_leaves=31
num_cat=0
split_feature=38 39 19 21 20 21 39 32 7 32 15 9 38 20 19 35 19 21 39 14 39 14 5 5 19 42 35 39 24 2
split_gain=90.3154 25.4772 21.2259 31.9923 32.4625 11.787 5.71728 4.13415 3.7293 2.83915 2.3059 2.12316 1.51674 2.32408 0.473908 0.94418 0.36982 0.0178342 0.0166821 0.00432728 0.00212758 0.00208127 0.000781344 0.000583225 0.000166203 5.92034e-05 1.04785e-05 3.56126e-07 1.76251e-07 1.46243e-08
threshold=-0.46107077462814366 -1.3067435657044533 973.34844510000005 490.24161535000002 857.21182255000008 1003.2981230000001 -0.23049479654006186 -0.015454745499999997 11.500000000000002 -1.3799500000008512e-05 0.074189214500000017 197.00000000000003 0.39802252287891804 9.5044503850000019 1118.3146570000001 -0.39920472016633707 781.45721145000005 920.19092825000007 -1.1508707839515437 0.0190134185 -0.26456555201078996 0.011325275000000001 1.9365525565000004 3.6986048625000003 317.35368740000007 1.0000000180025095e-35 -0.30345884860015054 -1.0477446742743397 100183.54960000001 99313.835750000013
decision_type=8 10 10 8 8 8 10 8 2 10 10 2 10 10 10 2 10 10 8 8 10 8 2 2 10 8 2 10 8 2
left_child=1 -1 3 9 7 -6 -4 -5 16 12 18 -7 13 -2 15 -8 17 21 -3 22 23 -9 -16 24 25 26 27 -20 29 -29
right_child=2 10 6 4 5 11 14 8 -10 -11 -12 -13 -14 -15 19 -17 -18 -19 20 -21 -22 -23 -24 -25 -26 -27 -28 28 -30 -31
leaf_value=0.044774944918268743 0.075071406716374772 -0.064644488523434782 0.021934831719855927 -0.00065161991689605754 -0.01572346861002932 0.042973618056543629 0.0758002062799666 -0.06094696117869644 -0.009915625965967706 0.033450450098828223 -0.023545619953442454 0.077135990191679674 0.082545364024058335 0.038344564214096911 0.074508830985150626 0.051996198798711125 -0.081112041466751508 -0.066109723842491933 -0.060245301794475153 0.07537658957996618 -0.061686444638812933 -0.062638984723515298 0.073865249920674586 -0.06109570563163811 -0.060689165175340468 -0.060515217917457231 -0.060357168278393263 -0.060258833803496892 -0.060275961097517011 -0.060263123176597669
leaf_weight=7.3950707465410224 9.6657390892505699 2.7840252667665482 6.8201019167900077 3.9916900545358658 8.0048177540302294 11.370507299900057 8.4936054646968859 3.9704860597848946 3.4225802719593039 7.6292438954114905 4.6867515146732321 7.5799707025289527 10.80531522631645 7.7702842205762854 8.3768239319324547 8.1755178272724134 3.8884994089603415 3.3860010802745819 2.8227695524692633 11.402869224548338 3.9872679412364986 3.3515282720327377 10.791426748037336 3.1096829622983924 3.4719388633966437 3.1582809388637534 3.5532337874174145 3.1077713221311534 2.8283080905675897 5.5107523500919342
leaf_count=20 23 17 20 17 34 31 20 27 19 21 26 18 24 21 20 21 18 20 20 27 26 21 26 21 24 22 25 22 20 39
internal_value=0.0200653 -0.0403172 0.0402436 0.0246408 -0.00163906 0.0351492 0.0647291 -0.0466914 -0.0568904 0.0605147 -0.0564436 0.0566382 0.067826 0.0587043 0.0709074 0.0641253 -0.0679051 -0.0631091 -0.0609343 0.0746053 -0.0606069 -0.0617215 0.0741465 -0.0604507 -0.0603687 -0.0603157 -0.0602803 -0.0602612 -0.0602651 -0.0602616
internal_weight=185.313 46.4159 138.897 84.8367 48.9661 26.9553 54.0603 22.0108 18.0191 35.8706 39.0208 18.9505 28.2413 17.436 47.2402 16.6691 14.5965 10.708 34.334 30.5711 31.55 7.32201 19.1683 27.5627 24.4531 20.9811 17.8228 14.2696 11.4468 8.61852
internal_count=710 282 428 294 205 83 134 122 105 89 262 49 68 44 114 41 86 68 236 73 219 48 46 193 172 148 126 101 81 61
is_linear=0
shrinkage=0.05


Tree=15
num_leaves=31
num_cat=0
split_feature=38 19 21 21 39 19 39 1 40 6 19 15 32 14 6 40 24 11 39 19 39 11 19 5 42 31 6 39 26 39
split_gain=103.201 17.8274 31.6761 21.3667 12.5943 8.76013 8.01591 3.28295 2.86176 2.70718 8.39585 2.60341 1.96889 0.790998 0.161933 0.161199 0.133672 0.12847 0.0112364 0.0048989 0.00249686 0.00126132 0.000258809 0.000105732 6.86538e-05 8.73843e-06 1.08209e-06 1.2434e-07 2.87121e-08 1.10345e-09
threshold=-0.46107077462814366 891.16777500000012 367.14801400000005 1071.2334205000004 -1.3067435657044533 783.95006185000011 -0.36759308154865766 0.0065909465000000009 0.8104027936695829 57.993719145000007 1109.5656815000002 0.074189214500000017 -8.2996000000001833e-05 0.0016900470000000003 33.970280145000011 0.042337793406924555 99313.835750000013 2.9000000000000006e-06 -1.1508707839515437 692.06514095000011 -0.25496277661255223 0.0012191490000000003 291.47457985000011 3.3364808390000005 1.0000000180025095e-35 0.00077449150000000004 57.623551960000007 -1.06240470508702 0.0058331585000000004 -0.71353592708655356
decision_type=8 10 10 10 8 10 10 10 10 2 10 10 8 10 2 8 10 10 8 10 8 8 10 2 10 10 2 10 10 8
left_child=4 2 12 5 -1 7 -3 8 15 13 -11 18 16 14 -8 -4 -2 -16 -6 21 22 -17 23 24 25 26 27 -20 29 -29
right_child=1 6 3 -5 11 -7 9 -9 -10 10 -12 -13 -14 -15 17 19 -18 -19 20 -21 -22 -23 -24 -25 -26 -27 -28 28 -30 -31
leaf_value=0.026257483697745939 0.069147516398769787 0.009173203668422017 -0.075396446677175627 0.052095378866181409 -0.063399211430848118 0.014717428708342514 0.070058833113095631 -0.0020230715732615367 -0.015220534919532264 0.0040168814340893312 0.072918242329517893 -0.018455904132890236 0.046028458022495451 0.059821858814498044 0.081273834047619217 -0.060652318444396308 0.077713772460108771 0.073755013865893546 -0.059649367759011189 -0.06352992535031636 -0.061041187628485719 -0.06199591911428104 -0.060234382852450863 -0.0600475612094723 -0.059924153351237075 -0.059756462049861625 -0.059693132958668474 -0.059663530028640603 -0.05965682354726172 -0.059662199982705361
leaf_weight=5.3120733201503754 8.1651813089847582 7.2937521040439597 2.8418851792812401 11.929367795586584 2.6282738596200943 8.7757547944784147 10.979414224624632 3.6822243481874457 3.7128861248493186 6.789748132228854 12.674686670303343 4.1700087189674369 9.6207764744758624 11.424953922629355 11.181397259235384 4.0444055050611514 10.297223091125487 11.549563258886336 2.9831642508506837 3.4428156018257141 4.8826445937156668 3.0746254175901413 3.2285161763429633 2.7847701013088217 3.4541396200656882 3.141409531235694 2.7201696634292594 3.6648117452859879 2.7133954167366028 2.7144228219986015
leaf_count=15 20 22 16 30 17 33 27 17 19 21 31 23 25 29 26 28 24 28 22 21 33 20 23 20 25 23 20 27 20 20
internal_value=0.0205281 0.0413984 0.0233581 -0.00439107 -0.0459784 -0.0271757 0.0588601 -0.0448519 -0.0540655 0.06447 0.0488835 -0.0557959 0.0643683 0.0711917 0.0750451 -0.0648257 0.0739253 0.0774535 -0.0602554 -0.0619815 -0.0599995 -0.0612326 -0.0598139 -0.0597578 -0.05972 -0.0596807 -0.0596646 -0.0596582 -0.0596611 -0.059663
internal_weight=185.878 141.481 69.5871 41.504 44.3978 29.5746 71.8935 20.7988 17.1166 64.5998 19.4644 39.0857 28.0832 45.1353 33.7104 13.4037 18.4624 22.731 34.9157 10.5618 32.2874 7.11903 27.4048 24.1763 21.3915 17.9374 14.796 12.0758 9.09263 6.37923
internal_count=725 437 253 184 288 154 184 121 104 162 52 273 69 110 81 85 44 54 250 69 233 48 200 177 157 132 109 89 67 47
is_linear=0
shrinkage=0.05


Tree=16
num_leaves=29
num_cat=0
split_feature=38 20 21 19 40 20 7 33 38 15 40 5 38 20 38 38 19 3 20 31 27 27 3 5 31 20 20 21
split_gain=95.3871 19.9944 28.7382 22.9718 11.4608 9.01224 5.97134 5.41648 10.4428 2.77804 1.62905 1.58041 2.85194 1.26845 1.26384 0.316237 0.102633 0.0446652 0.0018415 0.000746684 0.000254341 0.0006843 9.88628e-05 3.10561e-05 2.39875e-05 9.82341e-06 6.40579e-06 1.1384e-07
threshold=-0.46107077462814366 925.55614570000012 462.25196260000007 973.34844510000005 0.89279576596443289 65.866853915000021 8.5000000000000018 -50.085194999999651 0.70574081522993193 0.074189214500000017 -1.0131221958681127 1.6984600735000004 0.79429162290676969 383.59549155000008 -0.25515743599499441 0.91728563051693668 781.45721145000005 0.094198752000000011 490.24161535000002 -0.0029895999999999998 0.0028292474999998896 0.0014464179999999448 0.16725716050000003 3.1595052790000007 0.00077449150000000004 142.50677670000002 176.11443550000004 424.18093505000007
decision_type=8 10 8 8 10 10 2 10 10 10 8 2 8 10 8 10 10 2 8 10 10 10 2 2 8 10 10 10
left_child=5 2 6 4 14 -1 10 8 -3 18 13 12 -9 -2 -4 -13 17 19 20 -16 21 -7 23 24 26 -26 -22 -28
right_child=1 7 3 -5 -6 9 -8 11 -10 -11 -12 15 -14 -15 16 -17 -18 -19 -20 -21 22 -23 -24 -25 25 -27 27 -29
leaf_value=0.0099938099077732361 0.058200076993747532 -0.021584496545724596 -0.028213795884703283 0.058591716130258459 0.011445030100222938 -0.059138562141577457 0.018244275700390045 0.071076728308505158 0.065523387225543225 -0.014887515199168611 0.041395586645665471 0.079780646706746228 0.029148181417439668 0.081894180410853834 -0.061096406105271242 0.069831172840443684 -0.072466239464471185 -0.067580392137897377 -0.060355247426527037 -0.060076945346825533 -0.059001001730445084 -0.060112942724450114 -0.059476802841475419 -0.059309225067812416 -0.059115494497461424 -0.059238260141509097 -0.05910224887277013 -0.059088094332523738
leaf_weight=6.3152780085802069 12.20291316509247 5.3990833461284629 2.7992747873067856 8.8340332955121976 8.7953823804855329 4.4403811544179943 10.133970826864241 11.559241503477095 9.4855001866817457 3.9180923104286185 6.8791155666112926 16.456579044461254 6.2477089166641262 10.516272157430647 2.9502812474966058 15.516721144318579 3.4629069566726676 3.1304933428764343 4.6820261627435675 4.5912721455097243 2.584901750087738 3.0324569642543793 2.6773761212825766 2.6450600773096076 2.608008593320851 4.3429300934076309 3.1269566565752029 2.6029820293188095
leaf_count=20 32 20 18 23 33 34 30 29 24 22 19 39 18 24 20 39 18 18 33 33 20 22 20 20 20 33 24 20
internal_value=0.0199276 0.0400612 0.0223671 -0.0109739 -0.0348587 -0.045173 0.0513709 0.0603907 0.0339268 -0.0546761 0.062713 0.0683036 0.0563658 0.0691676 -0.0589081 0.0749521 -0.0649868 -0.0625598 -0.0594373 -0.0604758 -0.0592841 -0.059534 -0.0591934 -0.0591511 -0.0591236 -0.0591922 -0.0590663 -0.0590958
internal_weight=181.937 138.961 74.2959 34.5636 25.7296 42.9764 39.7323 64.6648 14.8846 36.6612 29.5983 49.7803 17.807 22.7192 16.9342 31.9733 14.135 10.672 32.7431 7.54155 28.0611 7.47284 20.5882 17.9108 15.2658 6.95094 8.31484 5.72994
internal_count=725 437 268 163 140 288 105 169 44 268 75 125 47 56 107 78 89 71 246 53 213 56 157 137 117 53 64 44
is_linear=0
shrinkage=0.05


Tree=17
num_leaves=30
num_cat=0
split_feature=38 19 21 39 39 39 5 21 15 19 15 15 32 23 6 0 40 39 0 39 35 39 19 5 42 12 5 28 27
split_gain=88.1414 15.4192 27.6199 18.1883 11.5277 7.96068 7.50805 6.8708 5.3591 2.61784 4.03124 2.558 1.92547 0.332827 0.193653 0.126304 0.118552 0.0465676 0.0124882 0.0111909 0.00313268 0.0017471 0.000184054 7.47681e-05 4.88279e-05 5.92794e-06 5.91993e-07 1.72104e-07 2.32721e-08
threshold=-0.46107077462814366 891.16777500000012 367.14801400000005 0.52655048606765165 -1.3067435657044533 -0.36759308154865766 0.86717613050000009 1071.2334205000004 3.4050000000000008e-05 997.94403855000007 0.0015085540000000003 0.074189214500000017 -8.2996000000001833e-05 68.508009580000007 62.860770020000011 -0.00057721199999999991 -1.0724265174223071 0.495705375776404 -0.00015440599999999997 -1.1508707839515437 -0.4084539141316938 -0.25496277661255223 291.47457985000011 3.3364808390000005 1.0000000180025095e-35 0.0015384145000000003 0.82098731500000011 0.12703966100000003 0.0028292474999998896
decision_type=8 10 10 10 8 10 2 10 10 10 8 10 8 10 2 2 10 10 2 8 2 10 10 2 8 10 2 10 10
left_child=4 2 12 6 -1 -3 -4 8 -5 10 -7 19 16 15 18 -11 -2 -17 -8 -6 -19 22 23 24 25 26 -21 28 -28
right_child=1 5 3 7 11 9 14 -9 -10 13 -12 -13 -14 -15 -16 17 -18 20 -20 21 -22 -23 -24 -25 -26 -27 27 -29 -30
leaf_value=0.024440505500635087 0.066719724345778372 0.0057413648082496726 0.0035603974001187501 -0.036019734459341299 -0.062379313653968642 0.068014600017045623 -0.059763255600626744 0.055545484547720507 0.028563180830510061 0.063897556911146722 0.019938664248435385 -0.017181752901288292 0.042549326815537858 0.058301926209797711 -0.074798734294862126 0.074252988328115929 0.07493240752257764 0.069353637386971187 -0.064061376966590297 -0.058601417887027253 0.07062700075991242 -0.059780587902167441 -0.059081361474525806 -0.058916592782864222 -0.058809017544912447 -0.058652713852831911 -0.058574814526535603 -0.058563267368421705 -0.058580335848931159
leaf_weight=5.3129780292510986 9.4170134067535418 7.2377823740243903 5.6873223185539272 5.6684709340333956 2.4656417816877365 9.0139631628990191 4.2019977569580087 10.05458928644657 7.4127191603183746 7.6209525167942003 8.4459771960973722 4.0935113131999961 9.4109158515930194 7.8953813314437857 4.4746250063180923 8.4611400961875969 8.238393306732176 12.596303433179855 2.826952621340749 2.504486791789545 7.8339725136756906 4.5093018561601665 2.9771879762411109 2.5670389756560317 3.1833778321743003 3.5207301154732695 3.2489671036601049 2.6216504648327827 4.6256448477506638
leaf_count=15 24 22 28 29 17 22 31 25 28 20 25 23 25 21 24 21 20 33 19 20 20 33 23 20 25 28 26 21 37
internal_value=0.0193377 0.0387615 0.0217444 -0.00447916 -0.0443493 0.0553569 -0.0434341 0.024466 0.000577472 0.0611614 0.0447586 -0.0544127 0.0608155 0.0676105 -0.066668 0.0696234 0.0705519 0.0711337 -0.0614919 -0.0591422 0.0698419 -0.058874 -0.0587121 -0.0586628 -0.0586297 -0.0585952 -0.0585796 -0.0585744 -0.0585781
internal_weight=178.129 136.498 67.393 40.3267 41.6305 69.1055 17.1909 23.1358 13.0812 61.8677 17.4599 36.3175 27.0663 44.4077 11.5036 36.5124 17.6554 28.8914 7.02895 32.224 20.4303 29.7584 25.2491 22.2719 19.7049 16.5215 13.0007 10.4963 7.87461
internal_count=725 437 253 184 288 184 102 82 57 162 47 273 69 115 74 94 44 74 50 250 53 233 200 177 157 132 104 84 63
is_linear=0
shrinkage=0.05


Tree=18
num_leaves=29
num_cat=0
split_feature=38 20 21 19 39 40 13 7 2 14 6 12 13 43 40 20 20 24 7 35 38 39 46 40 11 20 14 25
split_gain=81.5675 17.4305 24.8482 31.2364 10.9252 10.4799 4.5734 4.48529 3.55267 5.95173 2.42061 1.7726 0.685807 0.632987 0.688449 0.581482 0.347887 0.262266 0.0681357 0.00592602 0.00255453 0.00167258 0.000908207 0.000254347 7.23016e-05 2.22014e-05 9.42326e-06 1.6655e-06
threshold=-0.46107077462814366 925.55614570000012 301.64199025000005 979.00451255000019 -1.3067435657044533 0.89279576596443289 0.015225862000000001 7.5000000000000009 99054.556385000018 0.00085049200000000011 52.598818555000008 0.058537385000000004 2.9000000000000006e-06 33.500000000000007 -0.05161306803188815 390.34683265000007 1067.9868320000003 98606.13787000002 3.5000000000000004 0.7787607851627113 -0.6761539492006633 0.31145659193054814 235.61918081712182 -0.19514926318146478 0.0011637720000000002 101.74142155000001 1.0650000000000001e-05 0.00044612200000000002
decision_type=8 10 8 10 10 8 10 2 2 10 2 10 8 2 8 10 10 10 2 2 10 10 2 10 10 10 8 10
left_child=4 2 7 5 -1 6 13 15 16 10 12 19 -10 14 -4 -2 -3 -18 -16 20 23 -20 -22 24 25 -6 -27 -28
right_child=1 8 3 -5 11 -7 -8 -9 9 -11 -12 -13 -14 -15 18 -17 17 -19 21 -21 22 -23 -24 -25 -26 26 27 -29
leaf_value=0.023224508908492134 0.061083591774895252 0.078638928975800132 -0.090257549832355358 0.062683584391384037 -0.057970711774405728 0.010874498824103906 -0.0005599980246128515 0.028014631186045871 0.05829910305868579 0.013461544870446623 0.035889781262127572 -0.028290486202860923 0.07833023102287745 -0.043031616524927679 -0.068242768364938103 0.078156611534913253 0.059172023844098379 0.071310907169783944 -0.059111000972166497 -0.060960290235758052 -0.058821292438095307 -0.060680891912864299 -0.060091920062555974 -0.058611354180589818 -0.058387872000806529 -0.058198177432389843 -0.058132876626236098 -0.058086013456109989
leaf_weight=5.3116275966167441 10.739271655678754 8.7142225503921527 2.8908381462097168 12.263568073511122 2.3706950247287848 9.4796993732452375 3.4313477277755728 9.9980539977550489 7.5648542791605058 9.8770769387483579 7.6679809242486945 5.7236106768250457 9.8194765299558622 2.94110532850027 3.6485609710216611 9.3111826181411725 7.3331733793020275 11.315936982631682 3.8955110758543015 2.6744853705167762 2.9045047834515598 3.005744569003582 2.7264583557844162 3.727682337164878 2.8088833242654792 4.2334079742431614 3.2485048919916162 4.5534845516085625
leaf_count=15 29 21 14 33 20 35 15 29 21 31 23 38 24 17 23 22 20 29 30 19 23 21 20 30 23 35 27 38
internal_value=0.0187917 0.0375591 0.0207329 -0.00431311 -0.0435893 -0.0323616 -0.0530482 0.055371 0.0569006 0.046332 0.0592915 -0.0537372 0.0696136 -0.0640424 -0.06864 0.0690121 0.0703915 0.0665377 -0.0627164 -0.0587169 -0.0584911 -0.0597947 -0.0594365 -0.0582369 -0.0581558 -0.0581106 -0.0581381 -0.0581055
internal_weight=174.181 133.898 71.6049 41.5564 40.2833 29.2928 19.8131 30.0485 62.2927 34.9294 25.0523 34.9717 17.3843 16.3818 13.4407 20.0505 27.3633 18.6491 10.5498 29.2481 26.5736 6.90126 5.63096 20.9427 17.215 14.4061 12.0354 7.80199
internal_count=725 437 268 188 288 155 120 80 169 99 68 273 45 105 88 51 70 49 74 235 216 51 43 173 143 120 100 65
is_linear=0
shrinkage=0.05


Tree=19
num_leaves=30
num_cat=0
split_feature=38 20 40 40 39 4 7 1 33 39 19 15 5 14 40 38 38 17 1 39 39 20 5 35 38 1 33 28 27
split_gain=75.475 16.0035 23.0923 19.1992 10.359 6.30312 5.35345 8.82998 5.18702 11.8102 4.16015 2.62865 1.67567 2.70004 1.32922 1.23193 0.217466 0.0709392 0.0103083 0.00901189 0.00123039 0.000429222 0.000161824 8.53049e-05 3.59582e-05 1.63852e-05 1.72349e-06 5.06514e-08 2.12569e-08
threshold=-0.46107077462814366 925.55614570000012 -0.30087524942921068 0.89279576596443289 -1.3067435657044533 29.212833750000005 7.5000000000000009 0.00085974850000000008 -50.085194999999651 1.1957834256938897 951.64289195000015 0.074189214500000017 1.6984600735000004 0.0096052625000000013 -1.1290169584066019 -0.25515743599499441 0.91728563051693668 0.11455200550000001 0.0020409710000000004 -1.1508707839515437 -0.25496277661255223 765.18521800000008 3.5920179565000008 0.14069988358803817 -0.69151442309324218 0.012257502500000001 83.227525000002075 0.12703966100000003 0.0028292474999998896
decision_type=8 10 8 10 10 2 2 10 10 10 8 10 2 8 10 8 10 8 8 8 10 10 2 2 8 8 10 10 10
left_child=4 2 6 10 -1 -5 14 -8 9 -3 15 19 13 -10 -2 -4 -14 18 21 -6 22 -17 23 24 25 26 27 28 -21
right_child=1 8 3 5 11 -7 7 -9 12 -11 -12 -13 16 -15 -16 17 -18 -19 -20 20 -22 -23 -24 -25 -26 -27 -28 -29 -30
leaf_value=0.022074965080157053 0.070593928525257407 -0.03254109025332045 -0.024629984272769814 0.066260895060091238 -0.06117860015475967 -7.2083730945604656e-05 -0.021067966888028561 0.060085104952919105 0.029571955275117336 0.062624927182364232 0.007007094320193522 -0.014768032698989892 0.074371959535753457 0.069286325782430699 0.046832370793100458 -0.058494063952292091 0.065821783307180567 -0.068382656574372078 -0.06265327701665592 -0.057628542121198903 -0.058707809360538571 -0.059331229464550321 -0.058162640323859066 -0.058011454710967615 -0.057876363710361783 -0.057762684586152774 -0.057672591515887439 -0.057623481107166467 -0.057634110523651243
leaf_weight=5.3088825941085807 14.211393371224402 5.0750099271535865 2.6014685556292534 7.0367952138185483 2.2936242073774338 7.2928395718336105 6.4034348279237729 7.0336934030056 8.0627937614917773 9.1163350790739042 3.185186341404914 3.9530365318059912 15.458310931921007 9.1212793290615064 10.046105504035951 2.9668297320604315 14.331221684813498 3.605115458369256 2.6599753946065912 2.871278367936613 4.1621687114238766 3.1638446226716042 2.4064051136374465 2.3785793334245673 2.3432279005646839 3.4890051633119574 3.1136624068021765 2.4106916338205338 4.2517812997102737
leaf_count=15 36 20 18 20 17 28 22 19 24 24 10 23 39 23 29 24 39 20 18 25 33 24 20 20 20 30 27 21 37
internal_value=0.0182571 0.0363863 0.0200975 -0.0107793 -0.0428388 0.0325018 0.046729 0.0214118 0.055083 0.0285923 -0.0448893 -0.053073 0.0630862 0.0506523 0.0607532 -0.0559113 0.0702586 -0.0624762 -0.0600539 -0.0581678 -0.0579161 -0.0589261 -0.0577744 -0.0577296 -0.0576933 -0.0576668 -0.0576403 -0.0576297 -0.0576319
internal_weight=170.354 131.372 70.2067 32.5121 38.9823 14.3296 37.6946 13.4371 61.165 14.1913 18.1824 33.6735 46.9736 17.1841 24.2575 14.9972 29.7895 12.3958 8.79065 29.7204 27.4268 6.13067 23.2646 20.8582 18.4796 16.1364 12.6474 9.53375 7.12306
internal_count=725 437 268 162 288 48 106 41 169 44 114 273 125 47 65 104 78 86 66 250 233 48 200 180 160 140 110 83 62
is_linear=0
shrinkage=0.05


Tree=20
num_leaves=31
num_cat=0
split_feature=19 20 20 21 20 19 20 21 19 28 30 20 19 2 38 40 39 21 15 28 5 31 39 12 5 32 44 20 33 21
split_gain=61.8309 28.7498 28.7708 26.3701 20.5643 7.07626 6.96555 5.96031 5.06958 3.73944 3.65965 3.2953 0.432175 0.58399 0.322069 0.856371 0.07356 0.0580929 0.014188 0.00997445 0.00331115 0.00132672 0.000640792 0.000400132 0.000231092 5.98702e-05 1.64526e-05 1.42291e-05 2.23326e-06 1.09852e-07
threshold=807.86884910000015 22.451465910000003 1003.2981230000001 22.451465910000003 395.32886170000006 997.94403855000007 894.05489405000014 1071.2334205000004 383.59549155000008 23.992087194000003 15.83855426 1050.3163940000002 1109.5656815000002 99080.310720000023 -0.44502014538282458 -0.18761489405606327 0.52655048606765165 436.71672735000004 0.066309188500000019 0.65971286900000015 1.8135003750000003 -0.0011728685 -0.25496277661255223 3.0050000000000002e-05 3.0422092005000003 0.0025805225000000019 0.00031249103290797357 114.78670050000001 -37.136800000000214 403.16360405000006
decision_type=10 10 10 10 10 10 10 10 10 10 2 10 10 2 10 8 10 10 10 10 2 8 10 10 2 10 8 10 10 10
left_child=1 8 3 -3 -2 6 -6 9 -1 10 -5 -8 13 -7 18 -16 19 -14 21 23 -19 -12 24 -17 25 26 27 -23 -29 -30
right_child=4 2 -4 7 5 12 11 -9 -10 -11 14 -13 17 -15 15 16 -18 20 -20 -21 -22 22 -24 -25 -26 -27 -28 28 29 -31
leaf_value=0.0139746606086929 -0.069563677060502774 0.070079082908716284 0.069289226511843424 -0.018609645504916398 -0.0028314235669146949 0.067372998794095793 0.06872042589116599 0.011718515113335881 0.069426521441718306 -0.00082587672802317985 -0.058680032708934904 0.031364097695307368 0.071822062396802805 0.047046647743623951 -0.093405999024902625 -0.058788856319048267 -0.066375394264467744 0.067532051708614677 -0.061487723252304782 -0.061851242574541027 0.066239476529314237 -0.057072034338847756 -0.058198432269287961 -0.05801592274243618 -0.057670720669247492 -0.057499146792780079 -0.057306592466327001 -0.057260168242754164 -0.0572067576171464 -0.05719151510301497
leaf_weight=7.6827551722526577 3.7017773836851111 5.0212428271770468 6.669779807329177 5.6061238870024672 9.3307217061519605 7.2085829973220807 10.70453327894211 3.7426999360322943 8.8924511373043043 3.1736686974763861 2.4338657259941101 13.162410289049147 7.6503749489784267 6.93155337870121 2.5468661412596703 3.2642283812165349 6.3841998875141135 8.0122085213661212 2.5517603829503051 3.0250861421227455 12.982985258102415 2.1700741499662435 2.5377044379711178 3.4378722533583641 4.4664793238043776 2.2638849914073935 3.8922913372516641 2.2134123966097885 2.422355160117144 2.3085780888795853
leaf_count=23 14 13 18 36 33 20 27 11 24 22 20 38 20 20 12 26 37 22 17 20 37 20 21 29 39 20 35 20 22 21
internal_value=0.0137204 -0.0154987 -0.0294955 -0.0398776 0.0455144 0.0511208 0.0337984 -0.049325 0.0437241 -0.0535019 -0.0567465 0.0481187 0.0645614 0.0574089 -0.0614025 -0.0664641 -0.0622051 0.068092 -0.0579382 -0.0594681 0.0667328 -0.0575716 -0.0574505 -0.0583924 -0.0573544 -0.0572618 -0.0572205 -0.0571838 -0.0572187 -0.0571993
internal_weight=166.393 86.7074 70.1322 63.4624 79.6851 75.9834 33.1977 58.4412 16.5752 54.6985 51.5248 23.8669 42.7857 14.1401 45.9187 18.6583 16.1114 28.6456 27.2604 9.72719 20.9952 24.7086 22.2748 6.7021 19.7371 15.2706 13.0067 9.11442 6.94435 4.73093
internal_count=737 506 459 441 231 217 98 428 47 417 395 65 119 40 359 124 112 79 235 75 59 218 198 55 177 138 118 83 63 43
is_linear=0
shrinkage=0.05


Tree=21
num_leaves=31
num_cat=0
split_feature=19 20 20 21 20 19 20 21 19 30 29 23 19 2 38 40 40 21 19 43 5 22 40 32 22 27 20 27 24 34
split_gain=57.0739 26.656 26.6418 24.61 18.9116 7.0294 6.41112 5.68239 4.88886 3.3052 3.07931 2.99325 0.428697 0.579779 0.256581 0.721316 0.0514985 0.048605 0.0147863 0.00367501 0.00270955 0.00263439 0.00113487 0.000493425 0.000542295 0.000253083 0.000240272 3.49401e-05 1.16633e-05 1.25027e-05
threshold=807.86884910000015 22.451465910000003 1003.2981230000001 22.451465910000003 395.32886170000006 997.94403855000007 894.05489405000014 1071.2334205000004 383.59549155000008 15.688883755000001 0.087779197928571445 75.95226657500001 1109.5656815000002 99080.310720000023 -0.44502014538282458 -0.18761489405606327 0.93410956854412042 436.71672735000004 721.76928240000007 33.500000000000007 1.8135003750000003 66.486707510000016 0.16046962376468482 -0.0003446075000000034 48.694421745000007 0.0028292474999998896 198.27149445000001 0.19294350799999985 99097.078195000024 -0.057071651827978846
decision_type=10 10 10 10 10 10 10 10 10 2 2 10 10 2 10 8 10 10 10 2 2 10 10 10 10 10 10 10 8 8
left_child=1 8 3 -3 -2 6 -6 9 -1 -5 -8 14 13 -7 21 -16 18 -14 19 23 -19 22 25 -17 -25 26 -11 28 -27 -30
right_child=4 2 -4 7 5 12 10 -9 -10 11 -12 -13 17 -15 15 16 -18 20 -20 -21 -22 -23 -24 24 -26 27 -28 -29 29 -31
leaf_value=0.013286616297783528 -0.066420198171695866 0.068724711709601996 0.066609559699674928 -0.014592495979427845 -0.0026897053174137677 0.066247432934569903 0.060639052640882166 0.011147476532996276 0.068162546958729128 -0.057667615747536628 0.023555015852545269 -0.015115094967930934 0.070382082354469203 0.04571236363487894 -0.089959135020312553 -0.057514032367444269 -0.066868142817259099 0.066388523850199249 -0.062882668916618908 -0.060364898294888392 0.06519931247060351 -0.058587847099632412 -0.058088575139467039 -0.058914881479394748 -0.057858536415564259 -0.056951759975172683 -0.056995054385379322 -0.057046738391501955 -0.056770809310332876 -0.056888567400030968
leaf_weight=7.6767305582761791 3.6835622936487189 4.8680711984634391 6.5931463986635199 5.1507966369390479 9.3312181085348112 6.9705414175987226 14.448351487517359 3.7378290444612494 8.6116033196449262 2.3757685944438043 9.1383830159902555 3.9583658501505843 7.4223362207412746 6.7810440361499786 2.5130721479654312 2.2656576111912727 3.0595840811729422 7.7493700385093716 2.7069472149014464 2.4594771414995193 12.541789531707762 3.6199583560228339 2.7289046123623839 2.5284398719668442 2.3388129249215126 2.2491078004240963 3.0108882859349251 2.8114502802491179 4.9361297339200974 4.1483777910470963
leaf_count=23 14 13 18 33 33 20 38 11 24 21 27 24 20 20 12 20 17 22 18 18 37 30 23 20 20 21 28 26 47 39
internal_value=0.0133577 -0.0151569 -0.0289073 -0.0391527 0.044167 0.0496435 0.0323924 -0.0484311 0.0422994 -0.0526438 0.0462713 -0.0567518 0.0633387 0.0561214 -0.0605188 -0.0651264 -0.0610632 0.0669199 -0.0596192 -0.0586982 0.0656535 -0.0573369 -0.0571335 -0.0581236 -0.0584073 -0.057 -0.0572917 -0.056889 -0.0568498 -0.0568246
internal_weight=162.416 84.3491 68.0608 61.4676 78.0666 74.383 32.918 56.5996 16.2883 52.8617 23.5867 47.7109 41.4651 13.7516 43.7526 17.872 15.3589 27.7135 12.2993 9.59239 20.2912 25.8806 22.2606 7.13291 4.86725 19.5317 5.38666 14.1451 11.3336 9.08451
internal_count=737 506 459 441 231 217 98 428 47 417 65 384 119 40 360 125 113 79 96 78 59 235 205 60 40 182 49 133 107 86
is_linear=0
shrinkage=0.05


Tree=22
num_leaves=31
num_cat=0
split_feature=19 20 20 21 20 19 20 21 19 28 30 20 19 13 38 40 39 21 28 15 5 31 13 39 5 24 20 16 33 38
split_gain=52.7309 24.7287 24.6931 22.9837 17.4137 6.97077 5.91484 5.42381 4.72148 3.69343 3.89575 3.04027 0.427267 0.585089 0.228819 0.578569 0.0510573 0.0407846 0.00854137 0.00654972 0.00222461 0.000888008 0.000499189 0.000401108 0.000175663 4.35577e-05 1.21361e-05 4.83215e-06 2.90826e-06 2.00537e-07
threshold=807.86884910000015 22.451465910000003 1003.2981230000001 22.451465910000003 395.32886170000006 997.94403855000007 894.05489405000014 1071.2334205000004 383.59549155000008 23.992087194000003 15.688883755000001 1050.3163940000002 1109.5656815000002 0.00018831950000000003 -0.47017390483216492 -0.24876712133331222 0.52655048606765165 436.71672735000004 0.70527797400000014 0.051391090500000007 1.8135003750000003 -0.0011728685 7.3750000000000017e-05 -0.22101219343475945 3.0422092005000003 98926.100155000007 104.60996090000002 0.091096737000000011 -87.218410000001299 -0.83780521314460088
decision_type=10 10 10 10 10 10 10 10 10 10 2 10 10 10 10 8 10 10 10 10 2 8 8 10 2 10 10 10 10 10
left_child=1 8 3 -3 -2 6 -6 9 -1 10 -5 -8 13 -7 19 -16 18 -14 22 21 -19 -12 -17 24 25 -23 -27 28 -28 -30
right_child=4 2 -4 7 5 12 11 -9 -10 -11 14 -13 17 -15 15 16 -18 20 -20 -21 -22 23 -24 -25 -26 26 27 -29 29 -31
leaf_value=0.012633007366699922 -0.063548846380827514 0.067485140591424894 0.064103291751306954 -0.013974743185577572 -0.0025550943438220246 0.06524317471410114 0.064618921917159594 0.010604213909629602 0.067001045605190851 0.0012138248988778054 -0.057694629276324474 0.028281483490315614 0.069062099498821347 0.044319376382484878 -0.086566569443320016 -0.058115466139354199 -0.06440900527922902 0.065337046425288467 -0.060928018235468062 -0.059505485649900963 0.06424054587259885 -0.056678095476117955 -0.057254867999673331 -0.057276603501450168 -0.056854869228247874 -0.056326782520988272 -0.056494876874212951 -0.056530623232458069 -0.056432161863568447 -0.056412291717089169
leaf_weight=7.6703792214393642 3.6581290662288657 4.713532179594039 6.5104855149984351 5.110612526535987 9.3316668421030027 6.7564263641834241 10.428014338016512 3.7329814732074729 8.3299870789051038 3.0836036428809157 2.2266751378774643 12.848975390195845 7.1918354630470303 6.6093233376741409 2.5352763831615448 2.9311506003141456 6.0862576663494101 7.4870280325412777 2.7233083173632622 2.3832160830497733 12.103628188371657 2.2821208760142389 3.9634814783930779 2.2147691547870663 3.9993462339043608 1.9927805066108693 2.0340669080615097 2.0428570285439491 3.433590054512027 2.0149437636136907
leaf_count=23 14 13 18 33 33 20 27 11 24 22 20 38 20 20 12 25 38 22 19 18 37 22 36 20 38 20 20 20 34 20
internal_value=0.0130139 -0.0148296 -0.0283462 -0.0384612 0.0428981 0.0482501 0.0310774 -0.0475755 0.0409377 -0.0518292 -0.0552386 0.0445605 0.062198 0.0548964 -0.0601584 -0.0644031 -0.0608251 0.0658418 -0.0585572 -0.0570144 0.0646596 -0.0567474 -0.0576207 -0.056642 -0.0565631 -0.0564785 -0.056439 -0.0564625 -0.0564439 -0.0564248
internal_weight=158.43 82.0154 66.0151 59.5046 76.415 72.7569 32.6087 54.791 16.0004 51.0581 47.9745 23.277 40.1482 13.3657 42.8638 18.2395 15.7042 26.7825 9.61794 24.6244 19.5907 22.2411 6.89463 20.0145 17.7997 13.8004 11.5182 9.52546 7.4826 5.44853
internal_count=737 506 459 441 231 217 98 428 47 417 395 65 119 40 362 130 118 79 80 232 59 214 61 194 174 136 114 94 74 54
is_linear=0
shrinkage=0.05


Tree=23
num_leaves=30
num_cat=0
split_feature=19 20 20 21 24 39 21 7 19 28 30 1 0 26 38 21 19 39 28 15 31 39 11 5 24 20 22 20 38
split_gain=48.7293 22.947 22.8991 21.4713 10.5928 6.53249 5.17863 4.83726 4.56541 3.58554 3.85571 1.69145 0.769491 1.42792 0.192769 0.355776 0.181735 0.0433568 0.00643598 0.00551051 0.000758049 0.000338029 0.000226937 0.000148867 3.68095e-05 1.02367e-05 4.36597e-06 2.05763e-06 2.0143e-07
threshold=807.86884910000015 22.451465910000003 1003.2981230000001 22.451465910000003 99903.276310000016 0.62093168174233504 1071.2334205000004 8.5000000000000018 383.59549155000008 23.992087194000003 15.688883755000001 0.39891209900000008 -0.00016556049999999996 0.019953394000000003 -0.47017390483216492 529.87978190000013 1064.9519560000001 0.52655048606765165 0.65971286900000015 0.051391090500000007 -0.0011728685 -0.22101219343475945 0.00088965700000000019 3.0422092005000003 98926.100155000007 104.60996090000002 55.769298975000005 335.07310135000006 -0.93123478320230035
decision_type=10 10 8 10 10 10 10 2 10 10 2 8 2 10 10 10 10 10 10 10 8 10 8 2 10 10 10 10 10
left_child=1 8 3 -3 7 -6 9 11 -1 10 -5 12 16 -14 19 -16 -2 18 22 20 -12 23 -17 24 -22 -26 27 28 -27
right_child=4 2 -4 6 5 -7 -8 -9 -10 -11 14 -13 13 -15 15 17 -18 -19 -20 -21 21 -23 -24 -25 25 26 -28 -29 -30
leaf_value=0.012011961342402459 0.074729130991130474 0.066347688721929809 0.061747084476879814 -0.013379185437622142 -0.022958102615008493 0.036365382496578467 0.010087322039481504 0.018851828181718131 0.06593116820178449 0.00115217703287644 -0.05727010993618014 0.038337377443585161 0.066163955151283177 0.038022982576081311 -0.078824984647149543 -0.05677252784070444 0.064851750208423556 -0.063545809291761041 -0.059924296939018629 -0.058958599582725257 -0.056310326506937208 -0.056871704688935515 -0.057425099058422725 -0.056476904833502276 -0.055980321444456228 -0.056080033520980524 -0.056173912302816889 -0.056130682274304747 -0.056059442806072751
leaf_weight=7.6637788265943518 10.836716175079344 4.5585523545742026 6.4232069104909888 5.0722031891345969 8.5974873304367083 10.08261516690254 3.7281776517629615 8.9584130644798261 8.0490250587463361 3.0860927104949942 2.1333812326192856 8.2295167297124845 13.017326489090925 6.8957463502883902 3.1307253986597159 3.6661930307745916 8.166150361299513 5.8660665675997725 2.8222219124436378 2.2874792143702498 2.1846390664577546 2.1213723421096793 2.0927450433373451 3.8291103020310393 1.9070259705185879 3.0931807532906546 1.9558898434042928 2.1395526304841042 1.9281114637851682
leaf_count=23 28 13 18 33 32 30 11 30 24 22 20 26 38 22 17 35 25 38 21 18 22 20 19 38 20 32 20 22 20
internal_value=0.0126805 -0.0145113 -0.027799 -0.0377841 0.0416739 0.00906184 -0.0467331 0.0525323 0.0396326 -0.0510286 -0.0545119 0.0589321 0.0632872 0.0564189 -0.0595811 -0.0635443 0.0704845 -0.0602329 -0.0579682 -0.0566266 -0.0563761 -0.0562765 -0.0570097 -0.0562024 -0.0561228 -0.0560857 -0.0561077 -0.0560896 -0.0560721
internal_weight=154.523 79.7387 64.0259 57.6027 74.784 18.6801 53.0442 56.1039 15.7128 49.316 46.2299 47.1455 38.9159 19.9131 41.1577 17.578 19.0029 14.4472 8.58116 23.5797 21.2923 19.1589 5.75894 17.0375 13.2084 11.0238 9.11673 7.16084 5.02129
internal_count=737 506 459 441 231 62 428 169 47 417 395 139 113 60 362 130 53 113 75 232 214 194 54 174 136 114 94 74 52
is_linear=0
shrinkage=0.05


Tree=24
num_leaves=31
num_cat=0
split_feature=19 20 20 21 24 39 21 7 19 28 30 19 34 38 40 5 20 19 40 15 28 38 31 27 39 5 32 24 20 22
split_gain=44.9075 21.3017 21.2488 20.0685 10.0106 5.94579 4.94863 4.65228 4.41894 3.48364 3.82024 1.66801 0.826371 0.163584 0.399448 0.084241 0.0367478 0.0181147 0.0160093 0.00464211 0.00355006 0.00325857 0.000647554 0.00041857 0.000285202 0.000126274 5.23273e-05 3.11389e-05 8.644e-06 3.68972e-06
threshold=807.86884910000015 22.451465910000003 1003.2981230000001 22.451465910000003 99903.276310000016 0.62093168174233504 1071.2334205000004 8.5000000000000018 383.59549155000008 23.992087194000003 15.688883755000001 891.16777500000012 -0.042373765147155712 -0.47017390483216492 -0.24876712133331222 1.6984600735000004 871.31939865000015 1025.3865330000001 0.90847715033568532 0.051391090500000007 0.67642678600000006 1.3554908569800963 -0.0011728685 0.0021888604999997781 -0.22101219343475945 3.0422092005000003 -0.00039981299999999881 98926.100155000007 104.60996090000002 55.769298975000005
decision_type=10 10 10 10 10 10 10 2 10 10 2 10 8 8 8 2 10 10 10 10 10 8 8 10 10 2 10 10 10 10
left_child=1 8 3 -3 7 -6 9 11 -1 10 -5 -2 15 19 -15 -13 18 -17 20 22 23 -19 -12 -16 25 27 -25 -24 -29 -30
right_child=4 2 -4 6 5 -7 -8 -9 -10 -11 13 12 -14 14 16 17 -18 21 -20 -21 -22 -23 24 26 -26 -27 -28 28 29 -31
leaf_value=0.011421733436175325 0.036813869365271215 0.06530145242264615 0.059521732065547797 -0.012805301505995176 -0.021762136683771166 0.03494971374461605 0.0095954819317514116 0.01803377816878949 0.064943536915172295 0.0010937086515252058 -0.056871675688844596 0.070006188297126265 0.048481263295655774 -0.081476382867931726 -0.057253990230590572 0.066256126409170224 -0.064449012305676942 0.062348470986685459 -0.061785411538003446 -0.058447680060473399 -0.058949047230460197 0.063919879836703428 -0.055964995497539409 -0.056227373514160107 -0.056491956082976358 -0.056122054190453852 -0.056575836350843227 -0.055654789468926637 -0.055757470848819428 -0.055836687846474831
leaf_weight=7.656996935606001 8.0154248774051648 4.4039282798767081 6.3325102031230918 5.0355024039745322 8.6159808635711688 9.9693998992443067 3.7234345674514762 8.8981192260980588 7.7699345648288727 3.088456153869628 2.0431918278336525 8.9720524847507495 8.78714671730995 2.4409370347857475 2.1608142554759997 6.9081034362316158 3.0885889157652846 6.9253162443637857 2.5557697415351859 2.194455347955226 2.3670781329274178 6.3004190623760197 2.0905909016728463 2.1585939899086952 2.0311326757073465 3.6648088470101348 2.1508074477314949 1.824360892176627 6.8511556759476644 1.8714517652988432
leaf_count=23 24 13 18 33 32 30 11 30 24 22 20 25 27 12 20 20 19 23 17 18 19 20 22 22 20 38 21 20 74 20
internal_value=0.012339 -0.014204 -0.0272713 -0.0371308 0.0403694 0.00865872 -0.0459172 0.0511228 0.0383785 -0.050258 -0.0538196 0.0575362 0.0619196 -0.059049 -0.0627654 0.0659766 -0.0596116 0.064181 -0.0583002 -0.0562627 -0.0572922 0.0630971 -0.0560274 -0.0566861 -0.0559333 -0.0558636 -0.0564013 -0.0557887 -0.0557538 -0.0557745
internal_weight=150.896 77.5045 62.0776 55.7451 73.392 18.5854 51.3411 54.8066 15.4269 47.6177 44.5292 45.9085 37.893 39.4937 16.9226 29.1059 14.4817 20.1338 11.3931 22.5711 8.83729 13.2257 20.3767 6.47022 18.3335 16.3024 4.3094 12.6376 10.547 8.72261
internal_count=737 506 459 441 231 62 428 169 47 417 395 139 115 362 130 88 118 63 99 232 82 43 214 63 194 174 43 136 114 94
is_linear=0
shrinkage=0.05


Tree=25
num_leaves=31
num_cat=0
split_feature=19 20 39 19 33 33 39 20 12 32 1 0 26 19 38 31 6 20 38 38 19 2 15 30 28 20 19 18 20 31
split_gain=39.1132 38.8688 9.20826 9.207 18.4624 10.4105 5.28845 5.27412 4.16286 6.24722 4.02883 6.69671 2.99283 1.86201 1.5555 1.00908 0.693165 0.315237 0.226927 0.0672657 0.0651261 0.00818145 0.00616339 0.000708171 0.000552025 0.00036262 0.000122344 6.97309e-05 6.97398e-06 3.81137e-06
threshold=581.77800365000007 22.451465910000003 1.3813973780894362 973.34844510000005 -9.3455150000008853 1.0000000180025095e-35 0.99320301671611277 481.48611050000005 0.058537385000000004 0.0036014055000000021 0.0028903875000000005 -0.00015037949999999997 0.0069536115000000008 541.80823460000011 0.50102036888551815 0.0011478710000000002 47.033452450000006 693.80051780000008 1.3974499387239614 -0.39486301199829271 973.34844510000005 99104.025340000007 0.021342429000000003 17.080202580714289 3.6462760080000005 516.10303440000018 2.7594376480000005 0.083867256000000015 111.70388030000002 0.00077449150000000004
decision_type=8 10 10 10 8 8 10 10 10 8 10 2 10 10 8 8 2 10 8 10 10 2 10 2 8 10 10 10 10 8
left_child=1 12 3 4 6 14 15 -5 13 -10 11 -7 -1 17 -6 -2 -9 19 20 22 -4 -18 23 -3 25 26 -25 -28 -29 -30
right_child=2 8 18 7 5 10 -8 16 9 -11 -12 -13 -14 -15 -16 -17 21 -19 -20 -21 -22 -23 -24 24 -26 -27 27 28 29 -31
leaf_value=0.069464560222544117 -0.04941418254861793 -0.056636418236274681 0.06930225968699126 0.0052692117461047407 0.066013178505090461 -0.052510571424838927 0.0027728015166513472 0.046730200914774742 0.050026976778288518 -0.057922032297745153 0.038799348339645365 0.026122417598150417 0.025198300866710533 -0.01672232259479229 0.032391470678906964 -0.086458410763398483 0.063043030200147648 -0.074300019286485317 0.054889298860362326 -0.064083860126477418 0.062584061115043485 0.065423786420791996 -0.058681864949971234 -0.055912984910838431 -0.056533784927055346 -0.056239577996422797 -0.055753873051732454 -0.05534172763700488 -0.055423995300321854 -0.055492594412651308
leaf_weight=7.4487182646989805 3.442364573478697 2.4539815932512417 8.3065895736217481 6.0711681097745922 12.406162552535532 5.9005331844091371 3.9000538289546967 9.138899117708208 2.5205054283142081 2.8622312396764755 4.7368773072957984 5.0037952661514309 7.8344597816467285 2.8947386816143981 4.7599707990884808 3.945157527923584 6.7669345438480359 2.9428009763360015 6.067108869552615 2.9847485497593906 6.3765523433685294 7.7317250669002533 2.1002264767885199 1.9470560103654921 1.9190494269132603 2.1667093411087981 2.027833677828311 1.7433716058731068 5.0322953835129605 3.3880244120955583
leaf_count=21 22 24 22 20 37 30 14 31 15 26 16 20 25 21 16 22 22 21 20 24 21 23 18 21 19 22 22 20 57 38
internal_value=0.0144094 -0.0203014 0.0335966 0.025323 0.0108274 0.0298047 -0.0443301 0.0468381 -0.0480193 -0.00737413 0.000297842 -0.0164273 0.0467728 -0.0549427 0.0566903 -0.0691969 0.0575148 -0.0587968 0.0630236 -0.057026 0.0663847 0.0643126 -0.0561011 -0.055839 -0.0557317 -0.0556372 -0.0555449 -0.0554862 -0.0554328 -0.0554516
internal_weight=146.821 52.2668 94.5539 73.8036 44.0949 32.8073 11.2876 29.7087 36.9836 5.38274 15.6412 10.9043 15.2832 31.6008 17.1661 7.38752 23.6376 28.7061 20.7503 25.7633 14.6831 14.4987 22.7785 20.6783 18.2243 16.3053 14.1386 12.1915 10.1637 8.42032
internal_count=730 394 336 273 177 119 58 96 348 41 66 50 46 307 53 44 76 286 63 265 43 45 241 223 199 180 158 137 115 95
is_linear=0
shrinkage=0.05


Tree=26
num_leaves=31
num_cat=0
split_feature=19 20 39 19 33 33 24 20 12 39 12 26 3 19 38 25 20 38 38 19 19 15 30 28 20 19 18 20 31 12
split_gain=36.1711 36.184 8.8326 8.67957 17.6796 8.78 5.94057 5.35914 4.05504 5.75444 3.87885 2.8403 2.12128 1.86507 1.4756 0.515701 0.278509 0.216652 0.0589645 0.0534902 0.00737356 0.00525355 0.000599294 0.000467414 0.00030644 0.000104454 5.9126e-05 5.90215e-06 3.22785e-06 8.02642e-08
threshold=581.77800365000007 22.451465910000003 1.3813973780894362 988.81081715000016 -9.3455150000008853 1.0000000180025095e-35 98648.377050000025 481.48611050000005 0.058537385000000004 -0.46114194043498596 1.2400000000000002e-05 0.012994082500000002 0.087651958500000016 541.80823460000011 0.50102036888551815 0.00019179299999991632 693.80051780000008 1.3974499387239614 -0.39486301199829271 973.34844510000005 1109.5656815000002 0.021342429000000003 17.080202580714289 4.4787721050000009 516.10303440000018 2.7594376480000005 0.083867256000000015 111.70388030000002 0.00077449150000000004 0.0012191490000000003
decision_type=8 10 10 10 8 8 10 10 10 10 10 10 2 10 8 8 10 8 10 10 10 10 2 10 10 10 10 8 8 8
left_child=1 11 3 4 6 14 -2 -5 13 -10 -7 -1 -8 16 -6 -9 18 19 21 -4 -17 22 -3 24 25 -24 -27 -28 29 -29
right_child=2 8 17 7 5 10 12 15 9 -11 -12 -13 -14 -15 -16 20 -18 -19 -20 -21 -22 -23 23 -25 -26 26 27 28 -30 -31
leaf_value=0.063245435347795573 0.012121349026234502 -0.056272067795505198 0.068019285468203114 0.0050090701060568543 0.064002027335268177 0.027374860531806079 -0.039239986922840614 0.04540861274726745 -0.057477653040177205 0.046384377749745895 -0.021394652354548904 0.019112761038485471 -0.090366723535645427 -0.016017755569211003 0.031057654454118063 0.064172525711150563 -0.073190271202444493 0.053917707816963506 -0.063395055430108913 0.061822213493045043 0.061973057314636995 -0.058203013966149103 -0.05559335750603922 -0.056175736792085013 -0.055898477528832091 -0.055442165972167792 -0.055054163477363388 -0.055136298204303005 -0.055196115443086738 -0.055122762397466996
leaf_weight=8.8719998300075513 3.5252782031893721 2.3490305915475025 8.0466943979263288 6.0672481656074551 12.16244503110647 8.2782206907868403 3.9345103874802572 5.7776073366403606 2.7501617074012756 2.5891382023692122 8.0336421579122526 6.188884198665618 4.1886806190013885 2.871570259332656 4.7172839790582684 6.398362696170806 2.8406456112861624 5.8725691139698055 2.8692468181252506 6.1384080052375785 9.4212609231471998 2.0138166621327391 1.8624756783247018 1.8367964103817929 2.0732958093285552 1.9395053014159191 1.666789121925828 3.1256868317723194 3.2396610006690105 1.6859291940927503
leaf_count=26 15 24 22 20 37 30 22 20 26 15 38 20 23 21 16 20 21 20 24 21 32 18 21 19 22 22 20 37 38 20
internal_value=0.0140256 -0.0198874 0.0326284 0.0245047 0.0109164 0.0295155 -0.0420808 0.0465293 -0.0472976 -0.00711278 0.00335573 0.0451102 -0.0656032 -0.0543614 0.0547952 0.0581934 -0.0583648 0.061994 -0.0566572 0.0653376 0.0628626 -0.0557701 -0.0555224 -0.0554213 -0.0553325 -0.0552457 -0.0551901 -0.0551398 -0.0551575 -0.0551316
internal_weight=143.337 50.7746 92.5622 72.5045 44.8401 33.1916 11.6485 27.6645 35.7137 5.3393 16.3119 15.0609 8.12319 30.3744 16.8797 21.5972 27.5029 20.0577 24.6622 14.1851 15.8196 21.793 19.7792 17.4301 15.5933 13.52 11.6576 9.71807 8.05128 4.81162
internal_count=730 394 336 273 181 121 60 92 348 41 68 46 45 307 53 72 286 63 265 43 52 241 223 199 180 158 137 115 95 57
is_linear=0
shrinkage=0.05


Tree=27
num_leaves=31
num_cat=0
split_feature=19 20 39 19 33 33 38 40 40 39 27 30 40 34 13 31 40 20 38 38 1 19 19 15 22 39 39 4 5 12
split_gain=33.4297 33.6963 8.4984 8.24048 15.4046 8.97574 5.51202 5.0895 4.81156 5.54834 3.98999 6.16053 2.45375 1.97449 0.941846 0.678814 0.446882 0.227029 0.208371 0.0772457 0.0967812 0.0440685 0.0428508 0.00325836 0.000730339 0.000337477 0.000285978 8.98068e-05 7.41414e-05 1.47944e-05
threshold=581.77800365000007 22.451465910000003 1.3813973780894362 973.34844510000005 -9.3455150000008853 1.0000000180025095e-35 0.75222263578796478 -1.2982731691959561 0.83136690403879709 0.63239972535135058 0.58223252250000013 28.492721557142861 0.96932110812762096 -0.057072477582677812 0.00030213000000000001 0.00015023049999999993 -1.134451909197566 745.10141695000004 1.3974499387239614 -0.40528141982689209 0.0013824490000000002 973.34844510000005 1109.5656815000002 0.022635220500000001 62.537542415000011 -0.24307783499602412 -1.1220883705701177 20.648211965000005 3.4015071215000003 0.0013691580000000003
decision_type=8 10 10 10 8 8 8 10 8 10 10 2 8 8 8 10 8 10 8 10 8 10 10 10 10 10 10 2 2 10
left_child=1 13 3 4 6 12 15 -5 9 -7 16 -12 -6 -1 -9 -2 -3 19 21 24 -21 -4 -16 -13 25 26 -18 -28 29 -29
right_child=2 10 18 7 5 8 -8 14 -10 -11 11 23 -14 -15 22 -17 17 -19 -20 20 -22 -23 -24 -25 -26 -27 27 28 -30 -31
leaf_value=0.022164661525048229 -0.053960549955221107 -0.03203784042445821 0.06684274438100872 0.0060504100384747087 0.039345584287936414 -0.069595795093818622 0.0094865632715092074 0.042289189943982966 0.03319562952703603 0.009580770269154602 0.027140815185999281 -0.055504279189158671 0.080094175275308377 0.059103443252138635 0.06692162600728789 -0.085131806322148021 -0.055712657593003569 -0.075349054715120739 0.052982475773372964 -0.056028241744561037 -0.070240985304504594 0.061114882382235461 0.06138644226112782 -0.058179698251436533 -0.056278915249782159 -0.05579044043238917 -0.055338340755849348 -0.054868934716112684 -0.055267442584238914 -0.055037054857438997
leaf_weight=6.2551845610141754 4.5246329307556135 1.7417419105768202 7.7855346500873548 6.5396313518285778 11.040347039699553 3.7808133512735385 3.6005418449640274 7.6610278636217144 6.4409814476966814 5.3345654606819153 4.1112551018595678 2.0310857892036438 5.5524151325225857 8.5797675848007184 6.854916185140608 2.8445978239178658 1.7828285172581715 1.7992919757962216 5.682264611124995 2.6408070176839855 2.1919751390814781 5.9048943519592285 7.136805385351181 2.5882543921470642 1.8100032657384861 2.2078576162457493 1.9870129302144057 6.2256044596433622 1.7102524936199186 1.656824082136154
leaf_count=22 29 18 22 22 39 26 11 28 20 20 25 23 14 24 21 18 20 14 20 28 15 21 25 22 19 24 23 77 20 20
internal_value=0.0136464 -0.0194836 0.0316646 0.0236867 0.00994314 0.0274004 -0.0412188 0.0447068 0.000115256 -0.0232595 -0.0465905 -0.0173797 0.0529812 0.0435281 0.0563819 -0.065993 -0.0564929 -0.0582668 0.0610315 -0.0568831 -0.0624746 0.0643722 0.0640983 -0.0570033 -0.0553283 -0.0552178 -0.0551232 -0.0550324 -0.054969 -0.0549043
internal_weight=140.004 49.3197 90.684 71.3113 43.1189 32.1491 10.9698 28.1924 15.5564 9.11538 34.4848 8.7306 16.5928 14.835 21.6527 7.36923 25.7542 24.0125 19.3727 22.2132 4.83278 13.6904 13.9917 4.61934 17.3804 15.5704 13.3625 11.5797 9.59268 7.88243
internal_count=730 394 336 273 177 119 58 96 66 46 348 70 53 46 74 47 278 260 63 246 43 43 46 45 203 184 160 140 117 97
is_linear=0
shrinkage=0.05


Tree=28
num_leaves=31
num_cat=0
split_feature=19 20 39 19 33 33 24 40 40 25 12 32 20 40 19 3 1 20 38 38 19 19 15 30 28 20 39 5 1 34
split_gain=30.9838 31.1671 8.06001 7.66949 15.0434 7.38341 5.92156 5.5632 5.20641 4.10783 3.92128 5.84515 3.57362 2.35135 1.98249 1.90539 0.606247 0.229279 0.201773 0.0439988 0.0364092 0.0330706 0.00495727 0.000450743 0.000417158 0.000224482 7.39544e-05 3.33721e-05 3.16947e-06 9.07379e-07
threshold=581.77800365000007 22.451465910000003 1.3813973780894362 988.81081715000016 -5.5272499999991842 1.0000000180025095e-35 98638.614945000023 0.83136690403879709 -1.2982731691959561 0.0046695365000000424 0.058537385000000004 0.0023755720000000068 968.25929485000017 0.96932110812762096 541.80823460000011 0.087651958500000016 6.0950000000000011e-05 693.80051780000008 1.3974499387239614 -0.39878927775009732 973.34844510000005 1109.5656815000002 0.022635220500000001 17.080202580714289 4.4787721050000009 516.10303440000018 -1.1220883705701177 3.4015071215000003 0.017719500500000002 -0.23653617533954904
decision_type=10 10 10 10 10 10 10 8 10 8 10 8 8 8 10 2 8 10 8 8 10 10 10 2 10 10 8 2 8 10
left_child=1 9 3 4 6 13 -2 12 -5 -1 14 -12 -7 -6 17 -8 -10 19 20 22 -4 -18 23 -3 25 26 -25 28 29 -28
right_child=2 10 18 8 5 7 15 -9 16 -11 11 -13 -14 -15 -16 -17 21 -19 -20 -21 -22 -23 -24 24 -26 -27 27 -29 -30 -31
leaf_value=0.060978669865261473 0.016902485222298435 -0.055644325875674118 0.065761166589222583 0.0057551676447125969 0.037863761082236276 -0.053927759278266402 -0.037040921206505664 0.038447511149030507 0.043707292427387009 0.0078324866374673147 0.048963735990919327 -0.057119951327305678 0.0091457241181373532 0.078192527255016353 -0.013077959595135524 -0.085930544285711785 0.065659860345469306 -0.071508964639808034 0.05207933456453117 -0.062064509185704213 0.060457201215235935 0.060751611071331993 -0.057719385292633998 -0.055034728881835165 -0.055615769323400101 -0.055293451035062807 -0.054632679816963431 -0.054874399942011612 -0.054683250786245446 -0.054597069291017868
leaf_weight=9.3555430918931926 3.3025322556495649 2.1612933278083863 7.5245218575000745 6.5315720438957241 10.902374848723413 4.4995982944965336 3.7985412105917931 6.4388471096754065 5.8120710253715542 5.9471211284399041 2.5063209384679785 2.6944412589073181 4.4833019971847543 5.4067700505256679 2.7675176262855521 4.1925798207521439 6.1920729428529722 2.6690198928117743 5.4964950084686306 2.6543255373835661 5.6764584183692932 7.6987935751676559 1.7964985370635975 1.5390867888927457 1.7002302408218373 1.9019670709967602 3.181367628276357 1.613861747086047 2.0351738929748544 4.0867902040481487
leaf_count=28 14 24 22 22 39 31 22 20 22 20 14 27 15 14 21 24 20 21 20 24 21 28 17 19 19 22 41 20 26 53
internal_value=0.0132932 -0.0187424 0.0309982 0.0231339 0.0101414 0.0277799 -0.039416 0.0029768 0.0444417 0.0403243 -0.0458795 -0.00599672 -0.0224482 0.0512335 -0.0532591 -0.0626911 0.0572663 -0.0576476 0.0601289 -0.0560156 0.0634804 0.0629395 -0.0552135 -0.0549664 -0.0548752 -0.0547875 -0.0547103 -0.0546645 -0.0546281 -0.0546127
internal_weight=136.567 48.6106 87.9565 69.2591 43.0245 31.7309 11.2937 15.4217 26.2345 15.3027 33.3079 5.20076 8.9829 16.3091 28.1071 7.99112 19.7029 25.3396 18.6975 22.6706 13.201 13.8909 20.0163 18.2198 16.0585 14.3582 12.4563 10.9172 9.30333 7.26816
internal_count=730 396 334 271 179 119 60 66 92 48 348 41 46 53 307 46 70 286 63 265 43 48 241 224 200 181 159 140 120 94
is_linear=0
shrinkage=0.05


Tree=29
num_leaves=31
num_cat=0
split_feature=19 20 39 19 40 40 40 5 15 15 27 30 6 25 1 40 19 38 20 38 1 19 19 15 22 39 39 28 27 5
split_gain=28.687 29.0392 7.74785 7.21291 9.31124 14.3552 5.04292 4.82079 4.52779 4.08367 3.93803 5.75347 3.92337 3.86382 0.600919 0.475906 0.364315 0.19661 0.184584 0.05985 0.0731099 0.0301596 0.0286417 0.00265824 0.000525302 0.000237854 0.000204534 7.20825e-05 1.97652e-05 5.18683e-06
threshold=581.77800365000007 22.451465910000003 1.3813973780894362 988.81081715000016 -0.56691335270739629 0.83136690403879709 -1.2982731691959561 2.6063498720000005 0.012332753000000002 3.6350000000000009e-05 0.58223252250000013 28.492721557142861 48.694421745000007 0.0046695365000000424 6.0950000000000011e-05 -1.134451909197566 813.63578935000021 1.4295661635773069 745.10141695000004 -0.40528141982689209 0.0013824490000000002 973.34844510000005 1109.5656815000002 0.078199212000000004 62.537542415000011 -0.24307783499602412 -1.1220883705701177 0.48635267050000003 0.00081698900000000006 3.2060817625000007
decision_type=10 10 10 10 10 10 10 2 8 10 10 2 2 8 8 8 10 10 10 10 8 10 10 10 10 10 10 10 10 2
left_child=1 13 3 4 -2 9 -5 8 -7 16 15 -12 -11 -1 -8 -3 -6 21 19 24 -21 -4 -16 -13 25 26 -17 28 -28 -30
right_child=2 10 17 6 5 7 14 -9 -10 12 11 23 -14 -15 22 18 -18 -19 -20 20 -22 -23 -24 -25 -26 -27 27 -29 29 -31
leaf_value=0.059278976869602699 0.0552957668738304 -0.029724909239102884 0.064764659118590889 0.0054740549100435465 -0.059333912103766387 -0.018439071443952019 0.042748058862647556 0.063396546594320966 0.039752365236795824 0.027453459147100817 0.026318003493620151 -0.055212499530525531 -0.044732928342059108 0.0074630496909152471 0.06477499315172669 -0.055116829673408523 -0.083428427868305427 0.051204471990123436 -0.073283353981811003 -0.055437488138045513 -0.068240479419171551 0.059844851971764951 0.060119308531471162 -0.057706813267695667 -0.055619324946256959 -0.055181337624384576 -0.054607268097616769 -0.054759405300786615 -0.054384613785314562 -0.054489883242572326
leaf_weight=9.1479150354862178 8.8812272548675519 1.6523136869072912 7.2648656964302081 6.5238453149795559 3.4261805936694127 7.0388525202870378 5.6495259553194073 5.9118963181972495 6.3660443872213373 3.0954742059111595 4.1289192214608175 2.2469999715685844 4.8027771636843681 5.9298916906118402 5.9684950113296491 1.6303603351116187 2.8940156847238541 5.3154958486556998 1.7179575264453877 2.4292443916201636 2.0611217841506004 5.4534601867198944 7.3983833342790604 2.035988487303257 1.6568440943956382 2.0191810429096213 1.5354632586240748 2.3506255820393571 5.1850759759545326 1.5111726075410841
